<?xml version="1.0"?>
<opencv_storage>
<my_svm type_id="opencv-ml-svm">
  <svm_type>C_SVC</svm_type>
  <kernel><type>RBF</type>
    <gamma>1.5000000000000001e-04</gamma></kernel>
  <C>6.2500000000000000e+01</C>
  <term_criteria><epsilon>1.1920928955078125e-07</epsilon>
    <iterations>1000</iterations></term_criteria>
  <var_all>800</var_all>
  <var_count>800</var_count>
  <class_count>2</class_count>
  <class_labels type_id="opencv-matrix">
    <rows>1</rows>
    <cols>2</cols>
    <dt>i</dt>
    <data>
      0 1</data></class_labels>
  <sv_total>196</sv_total>
  <support_vectors>
    <_>
      9.99999940e-01 0. 6. 0. 9.99999940e-01 0. 0. 9.99999940e-01 0.
      9.99999940e-01 1.99999988e+00 9.99999940e-01 9.99999940e-01
      3.99999976e+00 3.99999976e+00 0. 4.99999952e+00 1.99999988e+00
      9.99999940e-01 1.99999988e+00 0. 3.99999976e+00 9.99999940e-01 0.
      0. 0. 0. 0. 0. 1.99999988e+00 1.99999988e+00 0. 1.99999988e+00 0.
      0. 0. 9.99999940e-01 9.99999940e-01 9.99999940e-01 9.99999940e-01
      0. 0. 0. 0. 9.99999940e-01 0. 3. 1.99999988e+00 0. 0.
      9.99999940e-01 0. 0. 1.99999988e+00 9.99999940e-01 0.
      9.99999940e-01 0. 0. 0. 9.99999940e-01 1.99999988e+00
      9.99999940e-01 0. 0. 1.99999988e+00 9.99999940e-01 9.99999940e-01
      0. 9.99999940e-01 3.99999976e+00 0. 1.99999988e+00 0. 0. 0. 0. 0.
      3.99999976e+00 0. 9.99999940e-01 0. 9.99999940e-01 9.99999940e-01
      0. 0. 1.99999988e+00 0. 9.99999940e-01 9.99999940e-01
      3.99999976e+00 0. 0. 9.99999940e-01 0. 0. 0. 9.99999940e-01 0.
      9.99999940e-01 1.99999988e+00 9.99999940e-01 9.99999940e-01
      1.99999988e+00 0. 0. 0. 3.99999976e+00 9.99999940e-01
      9.99999940e-01 0. 9.99999940e-01 6. 1.99999988e+00 9.99999940e-01
      0. 9.99999940e-01 9.99999940e-01 9.99999940e-01 1.99999988e+00
      9.99999940e-01 0. 0. 1.99999988e+00 0. 9.99999940e-01
      9.99999940e-01 9.99999940e-01 3. 4.99999952e+00 0. 1.99999988e+00
      0. 0. 0. 1.99999988e+00 3.99999976e+00 0. 0. 3.99999976e+00
      9.99999940e-01 0. 0. 9.99999940e-01 0. 3. 0. 1.99999988e+00 0. 0.
      9.99999940e-01 0. 9.99999940e-01 0. 6.99999952e+00 0.
      9.99999940e-01 1.99999988e+00 0. 0. 0. 0. 9.99999940e-01 0.
      9.99999940e-01 3. 9.99999940e-01 0. 9.99999940e-01 0. 3.
      1.99999988e+00 1.99999988e+00 0. 0. 1.99999988e+00 4.99999952e+00
      1.99999988e+00 0. 0. 0. 0. 9.99999940e-01 0. 0. 9.99999940e-01 0.
      9.99999940e-01 1.99999988e+00 0. 9.99999940e-01 0. 9.99999940e-01
      9.99999940e-01 9.99999940e-01 1.99999988e+00 0. 0. 0. 0.
      4.99999952e+00 9.99999940e-01 1.99999988e+00 0. 0. 9.99999940e-01
      7.99999952e+00 12. 9.99999940e-01 0. 0. 9.99999940e-01
      9.99999940e-01 9.99999940e-01 0. 3. 0. 0. 9.99999940e-01
      1.99999988e+00 9.99999940e-01 0. 3. 9.99999940e-01 9.99999940e-01
      0. 0. 9.99999940e-01 0. 0. 3. 9.99999940e-01 0. 1.99999988e+00 0.
      9.99999940e-01 0. 9.99999940e-01 9.99999940e-01 9.99999940e-01 0.
      0. 0. 1.99999988e+00 9.99999940e-01 0. 0. 9.99999940e-01
      9.99999940e-01 9.99999940e-01 7.99999952e+00 3. 1.99999988e+00 3.
      0. 0. 1.99999988e+00 9.99999940e-01 1.99999988e+00 9.99999940e-01
      9.99999940e-01 1.99999988e+00 9.99999940e-01 0. 9.99999940e-01 3.
      1.99999988e+00 9.99999940e-01 9.99999940e-01 0. 0. 9.99999940e-01
      0. 0. 0. 4.99999952e+00 0. 0. 0. 0. 3. 0. 0. 9.99999940e-01 0. 0.
      1.99999988e+00 1.99999988e+00 0. 9.99999940e-01 0. 9.99999940e-01
      0. 9.99999940e-01 9.99999940e-01 0. 0. 0. 9.99999940e-01
      3.99999976e+00 9.99999940e-01 9.99999940e-01 9.99999940e-01
      3.99999976e+00 0. 0. 9.99999940e-01 0. 0. 3. 0. 0. 1.99999988e+00
      9.99999940e-01 9.99999940e-01 9.99999940e-01 9.99999940e-01 0. 0.
      0. 0. 1.99999988e+00 9.99999940e-01 3.99999976e+00 0.
      9.99999940e-01 1.99999988e+00 9.99999940e-01 0. 0. 9.99999940e-01
      1.99999988e+00 9.99999940e-01 9.99999940e-01 0. 0. 0. 9. 0.
      1.99999988e+00 3. 1.99999988e+00 9.99999940e-01 9.99999940e-01
      9.99999940e-01 3. 9.99999940e-01 0. 9.99999940e-01 3.
      9.99999940e-01 4.99999952e+00 1.99999988e+00 0. 0. 1.99999988e+00
      0. 0. 9.99999940e-01 9.99999940e-01 0. 0. 1.99999988e+00 0.
      1.99999988e+00 9.99999940e-01 1.99999988e+00 0. 9.99999940e-01 0.
      0. 0. 9.99999940e-01 0. 0. 0. 0. 9.99999940e-01 1.99999988e+00
      6.99999952e+00 0. 0. 0. 9.99999940e-01 0. 1.99999988e+00 0. 0. 0.
      1.99999988e+00 9.99999940e-01 0. 9.99999940e-01 0. 0.
      9.99999940e-01 9.99999940e-01 9.99999940e-01 9.99999940e-01 0.
      1.99999988e+00 0. 1.99999988e+00 0. 1.99999988e+00 0. 0.
      1.99999988e+00 1.99999988e+00 3. 0. 9.99999940e-01 4.99999952e+00
      0. 0. 9.99999940e-01 0. 0. 6.99999952e+00 0. 6. 0. 1.99999988e+00
      0. 0. 0. 9.99999940e-01 3.99999976e+00 0. 0. 0. 9.99999940e-01 0.
      0. 9.99999940e-01 9.99999940e-01 0. 1.99999988e+00 9.99999940e-01
      9.99999940e-01 0. 9.99999940e-01 0. 9.99999940e-01 9.99999940e-01
      0. 1.99999988e+00 0. 9.99999940e-01 9.99999940e-01 9.99999940e-01
      9.99999940e-01 9.99999940e-01 1.99999988e+00 4.99999952e+00
      9.99999940e-01 0. 0. 0. 9.99999940e-01 0. 0. 0. 1.99999988e+00 0.
      9.99999940e-01 9.99999940e-01 0. 0. 0. 0. 9.99999940e-01
      9.99999940e-01 0. 4.99999952e+00 0. 9.99999940e-01 1.99999988e+00
      0. 0. 9.99999940e-01 0. 0. 3. 0. 9.99999940e-01 0. 1.99999988e+00
      9.99999940e-01 0. 9.99999940e-01 9.99999940e-01 9.99999940e-01 0.
      3. 9.99999940e-01 0. 9.99999940e-01 0. 0. 9.99999940e-01 0. 0.
      9.99999940e-01 0. 0. 0. 0. 0. 0. 0. 0. 9.99999940e-01
      1.99999988e+00 9.99999940e-01 9.99999940e-01 9.99999940e-01
      9.99999940e-01 3. 0. 0. 9.99999940e-01 9.99999940e-01 0. 0. 0. 0.
      0. 0. 1.99999988e+00 9.99999940e-01 1.99999988e+00 0. 0. 3. 0.
      9.99999940e-01 9.99999940e-01 0. 0. 0. 9.99999940e-01
      1.99999988e+00 1.99999988e+00 0. 9.99999940e-01 3. 3.99999976e+00
      0. 1.99999988e+00 9.99999940e-01 9.99999940e-01 9.99999940e-01 0.
      0. 3.99999976e+00 1.99999988e+00 0. 0. 9.99999940e-01
      1.99999988e+00 0. 9.99999940e-01 0. 9.99999940e-01 9.99999940e-01
      1.99999988e+00 0. 0. 1.99999988e+00 1.99999988e+00 9.99999940e-01
      0. 3.99999976e+00 0. 0. 1.99999988e+00 0. 0. 0. 1.99999988e+00 0.
      0. 0. 1.99999988e+00 9.99999940e-01 0. 0. 0. 6.99999952e+00 0. 0.
      9.99999940e-01 1.99999988e+00 0. 0. 9.99999940e-01 1.99999988e+00
      1.99999988e+00 9.99999940e-01 0. 0. 0. 0. 9.99999940e-01
      9.99999940e-01 0. 0. 0. 3. 9.99999940e-01 0. 0. 1.99999988e+00
      1.99999988e+00 1.99999988e+00 0. 0. 0. 3. 9.99999940e-01
      1.99999988e+00 0. 9.99999940e-01 3. 1.99999988e+00 9.99999940e-01
      1.99999988e+00 9.99999940e-01 0. 0. 0. 0. 0. 0. 0. 0. 0.
      1.99999988e+00 0. 9.99999940e-01 0. 9.99999940e-01 9.99999940e-01
      0. 9.99999940e-01 9.99999940e-01 1.99999988e+00 1.99999988e+00 0.
      0. 0. 1.99999988e+00 0. 0. 0. 0. 0. 0. 9.99999940e-01
      9.99999940e-01 9.99999940e-01 0. 0. 1.99999988e+00 0. 0. 0. 3. 0.
      0. 9.99999940e-01 0. 0. 0. 9.99999940e-01 0. 9.99999940e-01
      9.99999940e-01 1.99999988e+00 1.99999988e+00 9.99999940e-01
      9.99999940e-01 9.99999940e-01 9. 9.99999940e-01 4.99999952e+00
      1.99999988e+00 0. 9.99999940e-01 9.99999940e-01 0. 1.99999988e+00
      9.99999940e-01 0. 4.99999952e+00 0. 9.99999940e-01 9.99999940e-01
      0. 1.99999988e+00 9.99999940e-01 3. 9.99999940e-01 1.99999988e+00
      9.99999940e-01 0. 0. 0. 1.99999988e+00 0. 3. 0. 0. 0.
      9.99999940e-01 9.99999940e-01 9.99999940e-01 0. 3. 1.99999988e+00
      0. 1.99999988e+00 0. 6. 0. 0. 3. 9.99999940e-01 1.99999988e+00
      1.99999988e+00 1.99999988e+00 0. 9.99999940e-01 0. 0.
      1.99999988e+00 0. 9.99999940e-01 3.99999976e+00 0. 9.99999940e-01
      9.99999940e-01 0. 3.99999976e+00 9.99999940e-01 3. 9.99999940e-01
      0. 9.99999940e-01 9.99999940e-01 9.99999940e-01 0. 0.
      3.99999976e+00 0. 0. 0. 9.99999940e-01 0. 9.99999940e-01 0.
      9.99999940e-01 9.99999940e-01 0. 3. 0. 1.99999988e+00
      9.99999940e-01 0. 0. 0. 0. 4.99999952e+00 9.99999940e-01
      9.99999940e-01 0. 0. 0. 0. 9.99999940e-01 0. 9.99999940e-01 3.
      9.99999940e-01 0. 9.99999940e-01 0. 0. 6.99999952e+00
      1.99999988e+00 0. 0. 9.99999940e-01 0. 0. 1.99999988e+00 0. 0. 0.</_>
    <_>
      1. 0. 0. 1. 2. 1. 2. 1. 3.00000024e+00 0. 1. 3.00000024e+00 0. 2.
      2. 3.00000024e+00 2. 3.00000024e+00 0. 1. 1. 1. 1. 4. 2. 4. 0. 1.
      9. 0. 0. 6.00000048e+00 1. 1. 4. 1. 0. 2. 1. 0. 0. 0.
      3.00000024e+00 4. 3.00000024e+00 2. 2. 1. 0. 3.00000024e+00 2. 4.
      10. 4. 1. 1. 1. 5. 3.00000024e+00 6.00000048e+00 0. 2. 2. 0. 2. 0.
      0. 1. 0. 3.00000024e+00 1. 2. 2. 2. 1. 0. 1. 4. 0. 0. 1. 0. 1. 0.
      0. 1. 0. 2. 0. 8. 1. 2. 4. 7. 1. 1. 1. 0. 0. 3.00000024e+00 4. 1.
      3.00000024e+00 0. 1. 3.00000024e+00 5. 4. 0. 4. 2. 10. 1. 2.
      3.00000024e+00 0. 3.00000024e+00 4. 2. 0. 3.00000024e+00 1. 0. 1.
      3.00000024e+00 2. 1. 2. 2. 0. 2. 2. 3.00000024e+00 7. 1. 0. 0. 1.
      2. 1. 1. 3.00000024e+00 3.00000024e+00 2. 0. 1. 1. 0. 1. 1. 1. 0.
      1. 1. 0. 1. 2. 5. 1. 2. 3.00000024e+00 2. 1. 1. 1. 1. 1. 0.
      6.00000048e+00 7. 0. 2. 1. 0. 2. 0. 3.00000024e+00 7.
      3.00000024e+00 2. 0. 3.00000024e+00 0. 0. 2. 4. 2. 2. 1.
      3.00000024e+00 0. 0. 1. 0. 1. 1. 0. 0. 0. 0. 4. 3.00000024e+00 0.
      1. 3.00000024e+00 0. 1. 0. 1. 0. 2. 3.00000024e+00 0.
      3.00000024e+00 2. 1. 1. 3.00000024e+00 1. 3.00000024e+00 1. 0. 2.
      2. 0. 1. 2. 2. 1. 11. 2. 4. 0. 7. 1. 0. 4. 1. 1. 2. 3.00000024e+00
      0. 0. 0. 0. 1. 1. 0. 1. 0. 0. 1. 0. 0. 4. 2. 3.00000024e+00 2. 1.
      0. 7. 1. 1. 2. 3.00000024e+00 1. 2. 4. 1. 2. 1. 3.00000024e+00 2.
      0. 3.00000024e+00 0. 2. 1. 2. 4. 0. 6.00000048e+00 2.
      3.00000024e+00 0. 1. 0. 1. 8. 2. 2. 6.00000048e+00 0. 1. 1. 2. 0.
      4. 2. 1. 2. 0. 2. 2. 4. 1. 4. 0. 3.00000024e+00 2. 1. 5. 4. 1. 0.
      0. 0. 2. 1. 4. 1. 3.00000024e+00 1. 0. 3.00000024e+00 0. 1. 0. 0.
      0. 1. 6.00000048e+00 0. 2. 3.00000024e+00 0. 1. 1. 2. 1. 0. 0. 2.
      1. 1. 1. 0. 2. 0. 0. 2. 2. 0. 2. 2. 1. 4. 1. 0. 1. 0. 0. 1.
      3.00000024e+00 1. 3.00000024e+00 2. 3.00000024e+00 3.00000024e+00
      4. 0. 1. 0. 3.00000024e+00 1. 2. 0. 0. 0. 0. 1. 1. 2. 2. 2.
      3.00000024e+00 0. 2. 6.00000048e+00 0. 3.00000024e+00 0. 1. 1. 1.
      2. 1. 0. 4. 4. 2. 0. 0. 0. 0. 1. 1. 3.00000024e+00 2. 0. 1. 0. 0.
      1. 0. 1. 1. 1. 2. 3.00000024e+00 1. 5. 0. 1. 5. 4. 5. 0. 0. 1.
      3.00000024e+00 0. 1. 1. 3.00000024e+00 1. 0. 1. 0. 3.00000024e+00
      0. 0. 0. 2. 0. 7. 1. 1. 3.00000024e+00 0. 3.00000024e+00 2. 1.
      3.00000024e+00 0. 0. 3.00000024e+00 3.00000024e+00 0. 0. 4. 4. 16.
      0. 1. 6.00000048e+00 4. 1. 2. 1. 1. 1. 1. 5. 1. 1. 1.
      3.00000024e+00 1. 0. 0. 0. 0. 1. 3.00000024e+00 0. 0. 0.
      3.00000024e+00 2. 3.00000024e+00 0. 1. 1. 1. 1. 0. 1. 4. 2. 2. 0.
      2. 2. 2. 1. 0. 5. 2. 0. 3.00000024e+00 2. 2. 2. 5. 9. 2. 4. 1. 1.
      5. 4. 4. 2. 1. 2. 0. 0. 0. 1. 3.00000024e+00 5. 2. 11. 2. 1. 1. 1.
      0. 0. 0. 0. 2. 2. 2. 0. 0. 0. 1. 1. 1. 1. 1. 1. 1. 1. 0.
      3.00000024e+00 0. 1. 0. 0. 1. 0. 0. 0. 2. 1. 2. 1. 3.00000024e+00
      1. 1. 0. 1. 3.00000024e+00 1. 1. 3.00000024e+00 2. 2. 2.
      3.00000024e+00 1. 2. 1. 2. 2. 2. 0. 1. 0. 3.00000024e+00 0. 2. 1.
      1. 1. 0. 0. 7. 2. 0. 2. 1. 3.00000024e+00 3.00000024e+00 4.
      3.00000024e+00 0. 3.00000024e+00 0. 3.00000024e+00 2. 1. 1. 2. 0.
      2. 2. 2. 2. 3.00000024e+00 1. 1. 1. 0. 2. 4. 1. 0. 3.00000024e+00
      6.00000048e+00 1. 1. 1. 2. 1. 2. 3.00000024e+00 0. 0. 1. 1. 1. 0.
      1. 1. 3.00000024e+00 0. 0. 0. 1. 0. 0. 5. 0. 0. 4. 4. 5. 1.
      3.00000024e+00 2. 1. 4. 0. 1. 0. 5. 2. 2. 2. 1. 0. 1. 2.
      3.00000024e+00 6.00000048e+00 1. 1. 2. 2. 1. 0. 0. 0. 1. 1. 0.
      6.00000048e+00 2. 1. 0. 2. 1. 3.00000024e+00 1. 0. 11. 0. 2. 0. 4.
      2. 3.00000024e+00 3.00000024e+00 1. 0. 1. 2. 4. 2. 0. 8. 5. 2. 1.
      1. 1. 2. 3.00000024e+00 4. 5. 0. 1. 4. 1. 5. 2. 0. 0. 2.
      3.00000024e+00 3.00000024e+00 2. 5. 6.00000048e+00 1. 0. 1. 0. 0.
      0. 1. 1. 2. 2. 4. 0. 2. 5. 0. 0. 2. 2. 3.00000024e+00 0. 0. 2. 1.
      2. 1. 4. 4. 1. 0. 0. 6.00000048e+00 2. 2. 2. 3.00000024e+00 0. 0.
      0. 0. 2. 0. 0. 2. 4. 3.00000024e+00 0. 4. 5. 0. 0. 0. 0. 0. 1.
      3.00000024e+00 2. 0. 0. 1. 4. 8. 0.</_>
    <_>
      0. 0. 0. 0. 0. 0. 0. 0. 0. 0. 0. 0. 1. 0. 0. 1. 0. 0. 0. 0. 0. 0.
      0. 0. 0. 0. 0. 0. 1. 0. 0. 0. 0. 1. 0. 0. 0. 0. 0. 0. 0. 0. 0. 2.
      1. 0. 2. 0. 0. 0. 0. 0. 0. 0. 0. 0. 0. 1. 0. 0. 1. 0. 0. 0. 1. 0.
      0. 0. 0. 0. 0. 0. 0. 0. 0. 0. 0. 0. 0. 0. 1. 1. 0. 0. 0. 0. 0. 0.
      0. 0. 0. 0. 0. 0. 0. 0. 1. 0. 0. 0. 0. 0. 1. 0. 5. 1. 1. 1. 1. 0.
      0. 1. 0. 0. 2. 0. 0. 0. 0. 0. 0. 0. 0. 0. 0. 0. 0. 0. 0. 0. 0. 0.
      0. 8. 0. 0. 0. 0. 0. 0. 0. 0. 0. 0. 0. 0. 0. 0. 0. 0. 0. 0. 0. 1.
      0. 0. 0. 1. 1. 0. 0. 0. 0. 0. 0. 1. 0. 1. 1. 0. 0. 0. 0. 0. 0. 0.
      0. 0. 0. 0. 0. 1. 0. 0. 0. 1. 0. 0. 0. 2. 0. 0. 1. 1. 0. 0. 0. 0.
      0. 0. 1. 0. 0. 0. 1. 1. 0. 0. 0. 1. 0. 0. 0. 0. 1. 0. 0. 0. 0. 0.
      0. 0. 1. 0. 1. 0. 0. 0. 0. 0. 0. 0. 0. 0. 0. 0. 0. 0. 0. 1. 0. 0.
      0. 0. 1. 0. 1. 0. 0. 0. 0. 0. 0. 0. 0. 1. 0. 0. 0. 0. 0. 1. 0. 2.
      0. 0. 0. 0. 0. 0. 0. 0. 2. 0. 1. 0. 0. 0. 0. 1. 0. 1. 0. 1. 0. 0.
      0. 1. 0. 0. 0. 0. 0. 0. 0. 1. 0. 0. 0. 0. 0. 0. 1. 0. 0. 0. 0. 0.
      0. 0. 0. 1. 0. 0. 0. 0. 0. 0. 0. 0. 1. 0. 0. 0. 1. 0. 0. 0. 0. 0.
      0. 0. 1. 0. 0. 0. 0. 0. 1. 0. 1. 1. 0. 0. 0. 1. 0. 0. 1. 0. 0. 1.
      0. 0. 1. 0. 0. 1. 0. 1. 0. 1. 0. 0. 0. 0. 0. 0. 0. 0. 1. 0. 0. 2.
      0. 0. 1. 0. 0. 0. 2. 0. 0. 0. 0. 0. 0. 1. 1. 0. 0. 0. 0. 2. 0. 0.
      0. 0. 0. 0. 0. 0. 0. 1. 0. 0. 1. 1. 0. 0. 0. 0. 0. 0. 0. 3. 0. 0.
      0. 0. 0. 0. 0. 0. 0. 1. 0. 0. 0. 0. 0. 0. 0. 2. 0. 0. 0. 0. 0. 0.
      0. 0. 0. 3. 0. 6. 0. 0. 0. 0. 0. 0. 0. 4. 0. 0. 0. 0. 0. 0. 0. 0.
      0. 0. 0. 0. 0. 0. 0. 0. 0. 0. 0. 0. 0. 0. 0. 0. 1. 0. 0. 2. 0. 0.
      0. 0. 0. 0. 0. 0. 0. 0. 0. 0. 0. 2. 0. 0. 0. 1. 0. 0. 0. 0. 1. 0.
      1. 0. 1. 0. 0. 0. 2. 0. 0. 1. 0. 0. 0. 0. 0. 1. 0. 0. 0. 0. 0. 0.
      0. 1. 0. 0. 0. 0. 0. 1. 0. 0. 0. 0. 0. 0. 0. 0. 0. 0. 0. 0. 0. 0.
      0. 0. 0. 0. 1. 0. 0. 1. 0. 1. 0. 0. 0. 0. 0. 1. 0. 0. 0. 0. 0. 0.
      0. 0. 0. 0. 0. 0. 1. 0. 0. 1. 1. 2. 0. 0. 1. 0. 0. 0. 0. 0. 0. 0.
      0. 0. 0. 1. 0. 0. 0. 0. 0. 0. 2. 0. 0. 0. 4. 0. 0. 0. 0. 0. 0. 0.
      0. 0. 0. 0. 0. 1. 2. 0. 0. 0. 0. 0. 2. 0. 0. 0. 2. 0. 0. 0. 0. 0.
      0. 0. 0. 0. 0. 0. 0. 0. 0. 0. 0. 0. 0. 0. 0. 0. 1. 0. 0. 0. 0. 1.
      0. 0. 0. 0. 0. 0. 0. 0. 0. 0. 2. 0. 2. 1. 0. 0. 0. 0. 0. 0. 1. 0.
      1. 0. 0. 0. 0. 0. 0. 0. 0. 1. 1. 0. 1. 0. 0. 0. 0. 2. 0. 1. 0. 0.
      0. 0. 0. 0. 0. 1. 0. 1. 0. 0. 0. 0. 0. 0. 0. 0. 0. 0. 0. 0. 0. 0.
      0. 0. 2. 1. 0. 0. 1. 1. 0. 0. 0. 0. 0. 0. 0. 0. 0. 0. 0. 2. 0. 0.
      1. 0. 2. 3. 0. 0. 0. 0. 0. 0. 0. 0. 0. 0. 1. 0. 0. 0. 0. 1. 0. 0.
      0. 0. 0. 0. 0. 0. 0. 0. 1. 0. 0. 0. 0. 0. 1. 0. 1. 0. 0. 0. 0. 0.
      0. 0. 0. 0. 0. 0. 1. 0.</_>
    <_>
      0. 0. 0. 0. 0. 0. 3. 0. 1. 1. 0. 1. 2. 0. 1. 1. 0. 0. 1. 1. 0. 1.
      0. 0. 0. 0. 0. 1. 0. 1. 0. 0. 2. 0. 3. 0. 1. 1. 3. 1. 0. 0. 1. 5.
      0. 0. 0. 1. 0. 1. 2. 1. 0. 2. 0. 0. 0. 0. 1. 4. 1. 1. 0. 2. 2. 0.
      0. 0. 0. 5. 0. 0. 0. 0. 0. 0. 0. 0. 0. 2. 1. 0. 1. 0. 1. 0. 0. 3.
      1. 1. 2. 0. 2. 0. 0. 2. 1. 2. 0. 0. 0. 1. 0. 0. 2. 0. 0. 1. 0. 0.
      0. 0. 0. 1. 7. 0. 0. 3. 1. 0. 4. 0. 0. 0. 9. 1. 1. 0. 1. 0. 0. 0.
      1. 4. 0. 0. 0. 0. 0. 0. 1. 0. 0. 0. 2. 4. 0. 0. 0. 1. 0. 0. 0. 0.
      0. 0. 0. 0. 0. 0. 0. 1. 0. 0. 0. 3. 0. 0. 0. 0. 0. 1. 1. 0. 0. 0.
      1. 1. 1. 1. 0. 1. 0. 0. 3. 0. 1. 0. 1. 1. 0. 0. 0. 1. 0. 0. 0. 0.
      0. 0. 0. 3. 0. 0. 4. 0. 2. 0. 2. 0. 1. 0. 0. 0. 1. 0. 2. 1. 0. 0.
      1. 3. 0. 0. 0. 0. 1. 0. 0. 2. 2. 2. 0. 3. 0. 0. 1. 0. 0. 2. 1. 0.
      0. 1. 0. 1. 2. 0. 0. 0. 0. 1. 3. 0. 1. 1. 2. 1. 0. 2. 3. 0. 0. 4.
      0. 0. 5. 1. 0. 1. 0. 1. 0. 0. 0. 0. 2. 1. 1. 1. 3. 1. 0. 0. 1. 1.
      0. 0. 2. 0. 3. 1. 1. 4. 0. 0. 0. 1. 0. 0. 1. 1. 0. 0. 4. 0. 0. 0.
      0. 1. 0. 1. 1. 0. 0. 0. 1. 0. 1. 3. 0. 2. 1. 0. 1. 2. 2. 1. 1. 0.
      0. 2. 1. 0. 2. 1. 0. 0. 0. 0. 0. 0. 0. 2. 1. 0. 0. 0. 1. 4. 0. 2.
      1. 2. 0. 1. 0. 1. 0. 1. 0. 0. 0. 1. 1. 0. 0. 0. 3. 2. 0. 0. 4. 0.
      1. 1. 0. 0. 0. 0. 1. 1. 0. 1. 0. 2. 0. 4. 1. 0. 3. 1. 0. 0. 1. 0.
      2. 0. 1. 1. 0. 0. 0. 0. 0. 0. 0. 0. 0. 0. 0. 3. 1. 2. 2. 1. 0. 1.
      0. 1. 0. 0. 0. 0. 2. 4. 0. 0. 0. 1. 1. 2. 0. 0. 1. 0. 0. 0. 0. 1.
      0. 2. 0. 1. 0. 2. 0. 0. 0. 0. 0. 1. 1. 0. 2. 0. 1. 0. 0. 1. 0. 0.
      5. 0. 1. 0. 0. 0. 0. 2. 0. 0. 0. 3. 2. 1. 1. 2. 4. 0. 0. 0. 1. 0.
      1. 1. 1. 0. 0. 0. 3. 0. 1. 0. 0. 3. 0. 1. 0. 1. 0. 0. 1. 0. 0. 0.
      0. 0. 2. 1. 1. 0. 0. 6. 0. 1. 0. 0. 0. 0. 1. 1. 0. 0. 0. 1. 0. 0.
      0. 0. 0. 0. 0. 1. 0. 0. 0. 0. 0. 0. 0. 0. 1. 1. 0. 1. 0. 0. 1. 0.
      1. 0. 0. 0. 0. 0. 0. 0. 0. 2. 0. 2. 0. 0. 3. 4. 0. 0. 0. 0. 0. 0.
      2. 0. 0. 0. 2. 0. 1. 2. 0. 0. 0. 1. 1. 0. 1. 0. 0. 1. 1. 0. 0. 0.
      0. 0. 3. 1. 0. 1. 1. 1. 0. 0. 0. 4. 1. 4. 2. 0. 1. 0. 0. 2. 0. 0.
      0. 0. 0. 2. 1. 1. 0. 0. 1. 0. 0. 1. 3. 0. 0. 0. 2. 0. 1. 0. 1. 1.
      0. 0. 1. 1. 3. 1. 0. 0. 0. 0. 0. 0. 0. 0. 0. 0. 0. 1. 0. 1. 2. 2.
      0. 0. 0. 0. 0. 0. 1. 1. 0. 3. 0. 1. 2. 2. 0. 1. 0. 1. 0. 0. 1. 0.
      1. 0. 0. 2. 0. 0. 0. 0. 2. 0. 0. 0. 0. 2. 0. 1. 0. 3. 0. 0. 0. 1.
      0. 0. 1. 0. 0. 0. 0. 1. 1. 1. 3. 5. 0. 0. 0. 1. 2. 2. 1. 1. 0. 1.
      0. 0. 1. 2. 2. 0. 1. 1. 0. 2. 1. 0. 1. 0. 0. 1. 0. 0. 2. 3. 3. 0.
      1. 0. 0. 7. 2. 1. 1. 1. 1. 1. 0. 0. 0. 3. 2. 0. 1. 0. 0. 0. 1. 6.
      3. 0. 0. 0. 2. 0. 1. 0. 0. 0. 0. 1. 0. 0. 1. 0. 1. 0. 1. 0. 0. 2.
      3. 3. 0. 2. 1. 0. 3. 0.</_>
    <_>
      1. 0. 0. 0. 0. 0. 0. 0. 0. 1. 0. 0. 0. 1. 0. 0. 0. 1. 0. 0. 0. 1.
      0. 0. 1. 0. 0. 0. 0. 0. 0. 0. 1. 0. 1. 0. 1. 0. 0. 1. 1. 0. 0. 2.
      0. 0. 0. 0. 1. 0. 0. 0. 2. 2. 0. 1. 0. 0. 0. 0. 1. 0. 0. 0. 0. 0.
      0. 0. 0. 0. 0. 1. 0. 0. 1. 0. 0. 1. 0. 0. 0. 1. 0. 1. 1. 0. 0. 0.
      2. 2. 2. 0. 0. 0. 0. 1. 0. 0. 0. 0. 0. 0. 1. 0. 0. 0. 0. 0. 2. 1.
      0. 0. 0. 0. 0. 0. 1. 0. 0. 0. 0. 0. 0. 0. 2. 0. 0. 0. 0. 0. 0. 0.
      0. 0. 1. 0. 0. 0. 0. 0. 0. 1. 0. 0. 0. 0. 1. 1. 0. 0. 0. 0. 1. 0.
      0. 0. 0. 0. 0. 0. 0. 0. 1. 0. 0. 0. 1. 1. 1. 0. 0. 0. 0. 0. 0. 0.
      0. 0. 2. 0. 0. 1. 0. 0. 1. 2. 0. 0. 0. 0. 0. 1. 0. 0. 0. 1. 0. 1.
      0. 0. 0. 0. 0. 0. 1. 0. 0. 0. 0. 0. 0. 1. 0. 0. 1. 0. 0. 0. 2. 0.
      0. 0. 0. 1. 0. 0. 0. 0. 0. 0. 0. 0. 0. 0. 0. 0. 0. 0. 0. 0. 0. 0.
      0. 0. 0. 0. 2. 0. 0. 0. 0. 0. 0. 1. 0. 0. 0. 0. 0. 0. 0. 0. 0. 0.
      0. 1. 0. 0. 0. 0. 0. 0. 0. 0. 0. 0. 0. 1. 0. 0. 0. 1. 0. 2. 0. 0.
      1. 2. 0. 0. 0. 0. 0. 0. 0. 0. 0. 1. 0. 0. 0. 0. 1. 0. 0. 1. 1. 0.
      1. 1. 0. 0. 0. 0. 2. 0. 1. 1. 0. 0. 0. 0. 3. 0. 0. 0. 1. 0. 0. 0.
      0. 0. 0. 2. 0. 0. 0. 0. 0. 0. 0. 0. 0. 0. 0. 0. 0. 0. 0. 0. 0. 1.
      0. 0. 0. 1. 1. 1. 0. 0. 0. 0. 0. 1. 0. 0. 1. 1. 0. 1. 0. 0. 0. 0.
      1. 0. 0. 0. 0. 0. 0. 0. 0. 0. 0. 0. 0. 0. 0. 0. 0. 0. 0. 0. 1. 0.
      1. 0. 0. 1. 0. 0. 0. 1. 0. 0. 0. 0. 0. 0. 1. 0. 1. 0. 0. 1. 1. 0.
      0. 1. 0. 0. 1. 0. 0. 1. 1. 0. 0. 1. 0. 0. 0. 2. 0. 0. 0. 0. 0. 1.
      0. 0. 0. 0. 0. 0. 0. 1. 0. 0. 0. 0. 1. 2. 2. 1. 0. 0. 0. 1. 0. 0.
      0. 0. 0. 0. 0. 0. 0. 0. 0. 1. 0. 0. 0. 0. 0. 0. 0. 0. 1. 0. 0. 0.
      0. 0. 0. 1. 0. 0. 0. 0. 0. 0. 1. 0. 0. 0. 0. 0. 0. 0. 0. 0. 0. 0.
      0. 0. 1. 0. 0. 1. 0. 0. 0. 1. 1. 0. 0. 2. 0. 1. 0. 0. 0. 0. 0. 0.
      0. 0. 0. 0. 0. 0. 0. 1. 0. 0. 1. 0. 0. 2. 0. 1. 0. 0. 0. 0. 0. 0.
      0. 0. 1. 2. 0. 0. 0. 1. 0. 2. 0. 0. 1. 0. 0. 0. 0. 0. 0. 0. 2. 0.
      0. 0. 0. 0. 1. 1. 0. 0. 0. 0. 0. 0. 0. 0. 1. 1. 0. 0. 0. 2. 0. 1.
      0. 0. 0. 1. 0. 0. 1. 0. 0. 1. 0. 1. 0. 0. 6. 0. 0. 0. 2. 0. 0. 1.
      0. 0. 0. 2. 0. 0. 0. 1. 0. 0. 0. 0. 0. 0. 0. 0. 0. 0. 1. 0. 0. 0.
      0. 0. 0. 0. 0. 0. 0. 0. 1. 0. 0. 0. 3. 2. 0. 0. 0. 0. 0. 0. 0. 1.
      1. 0. 0. 0. 0. 0. 0. 1. 0. 1. 1. 0. 0. 0. 0. 2. 0. 0. 0. 0. 0. 0.
      0. 0. 0. 0. 0. 0. 0. 0. 0. 0. 4. 0. 0. 0. 1. 0. 0. 1. 0. 0. 0. 0.
      0. 0. 0. 0. 0. 0. 0. 0. 2. 0. 1. 0. 0. 0. 0. 0. 0. 0. 0. 1. 0. 0.
      0. 0. 0. 0. 0. 0. 0. 0. 0. 0. 1. 0. 1. 0. 0. 0. 2. 0. 0. 1. 3. 0.
      0. 0. 0. 0. 0. 0. 0. 0. 1. 0. 0. 0. 0. 0. 0. 0. 0. 1. 1. 0. 0. 0.
      0. 1. 1. 0. 0. 1. 0. 0. 1. 0. 0. 0. 0. 0. 2. 0. 0. 0. 0. 0. 0. 0.
      0. 0. 0. 0. 0. 0. 0. 0.</_>
    <_>
      0. 1. 0. 0. 0. 1. 3. 0. 0. 0. 1. 0. 0. 0. 0. 0. 0. 0. 1. 0. 1. 0.
      0. 0. 0. 0. 0. 0. 0. 0. 0. 0. 0. 1. 0. 0. 0. 1. 0. 0. 0. 1. 1. 1.
      0. 0. 0. 0. 0. 0. 0. 0. 0. 0. 0. 2. 1. 0. 0. 0. 1. 1. 0. 0. 2. 1.
      0. 0. 0. 0. 2. 1. 1. 0. 1. 0. 0. 0. 0. 0. 0. 0. 0. 1. 1. 1. 0. 0.
      1. 0. 0. 0. 0. 2. 0. 0. 0. 0. 0. 0. 1. 0. 1. 0. 0. 0. 0. 2. 1. 0.
      0. 1. 0. 0. 0. 0. 0. 0. 0. 0. 0. 0. 0. 0. 0. 0. 1. 1. 0. 1. 0. 1.
      1. 0. 0. 0. 0. 2. 0. 0. 1. 1. 0. 0. 0. 0. 0. 0. 0. 1. 0. 0. 1. 1.
      0. 1. 3. 1. 0. 2. 0. 1. 1. 0. 0. 0. 1. 0. 1. 0. 0. 0. 0. 0. 0. 0.
      1. 1. 0. 0. 0. 2. 0. 2. 0. 1. 1. 0. 1. 0. 0. 1. 0. 0. 1. 2. 3. 0.
      0. 0. 0. 5. 0. 0. 1. 1. 0. 0. 0. 2. 3. 1. 0. 0. 0. 0. 0. 0. 1. 0.
      0. 1. 1. 0. 0. 0. 0. 1. 0. 0. 0. 1. 0. 0. 1. 0. 0. 0. 0. 0. 0. 0.
      0. 2. 0. 2. 1. 0. 0. 2. 0. 0. 0. 0. 0. 0. 0. 0. 2. 0. 0. 0. 0. 0.
      0. 1. 0. 0. 0. 1. 1. 1. 0. 0. 0. 0. 0. 2. 0. 1. 0. 1. 1. 0. 1. 0.
      2. 0. 1. 2. 0. 2. 0. 0. 0. 2. 0. 0. 0. 0. 0. 2. 2. 0. 0. 0. 0. 0.
      0. 0. 3. 0. 0. 0. 0. 0. 0. 1. 0. 0. 0. 0. 0. 0. 1. 0. 1. 0. 2. 0.
      1. 1. 0. 0. 0. 0. 1. 0. 0. 0. 0. 0. 0. 1. 1. 0. 1. 0. 1. 0. 0. 0.
      0. 1. 0. 0. 0. 0. 1. 0. 0. 0. 0. 0. 0. 0. 0. 1. 0. 0. 0. 2. 0. 1.
      1. 0. 0. 0. 0. 0. 1. 0. 0. 0. 0. 0. 0. 0. 0. 0. 0. 0. 0. 1. 1. 0.
      0. 0. 0. 0. 0. 0. 1. 0. 1. 1. 2. 2. 1. 0. 1. 0. 0. 1. 0. 0. 4. 0.
      0. 0. 0. 1. 4. 0. 0. 2. 0. 0. 1. 0. 0. 0. 1. 0. 0. 0. 1. 0. 0. 1.
      0. 0. 0. 0. 0. 0. 1. 1. 3. 0. 0. 0. 0. 1. 0. 0. 1. 1. 0. 1. 0. 0.
      0. 0. 0. 0. 0. 0. 0. 0. 0. 1. 1. 0. 0. 1. 1. 0. 0. 0. 0. 1. 3. 0.
      1. 0. 0. 0. 1. 2. 0. 1. 0. 1. 0. 0. 0. 1. 0. 0. 0. 1. 0. 1. 1. 0.
      0. 0. 0. 0. 2. 0. 1. 0. 0. 1. 2. 3. 0. 0. 0. 1. 0. 0. 0. 1. 0. 0.
      0. 0. 2. 0. 0. 0. 0. 0. 1. 0. 1. 1. 0. 0. 0. 0. 0. 0. 0. 0. 1. 0.
      1. 0. 0. 1. 0. 0. 0. 0. 2. 0. 1. 0. 0. 0. 1. 0. 2. 2. 0. 0. 0. 1.
      0. 0. 1. 0. 1. 0. 0. 0. 0. 1. 1. 1. 0. 0. 1. 0. 0. 0. 0. 0. 0. 0.
      0. 0. 2. 0. 1. 0. 2. 0. 0. 0. 0. 0. 1. 0. 1. 0. 0. 1. 1. 0. 0. 0.
      0. 1. 0. 0. 0. 0. 1. 1. 0. 2. 0. 0. 2. 0. 0. 0. 0. 0. 1. 1. 0. 0.
      0. 0. 0. 1. 1. 1. 2. 0. 1. 0. 0. 1. 1. 2. 0. 1. 0. 0. 0. 0. 0. 1.
      0. 0. 2. 2. 0. 1. 0. 0. 1. 1. 3. 1. 1. 0. 0. 0. 0. 0. 0. 0. 0. 0.
      0. 3. 0. 1. 0. 1. 0. 0. 0. 2. 1. 0. 3. 0. 0. 1. 0. 0. 0. 0. 0. 1.
      0. 0. 3. 0. 1. 0. 0. 0. 0. 1. 0. 0. 1. 1. 0. 0. 0. 0. 1. 0. 0. 0.
      1. 0. 0. 0. 0. 0. 2. 0. 0. 1. 0. 0. 1. 0. 0. 1. 0. 1. 0. 2. 0. 0.
      1. 0. 0. 2. 0. 0. 0. 0. 1. 0. 0. 0. 1. 1. 0. 1. 0. 0. 1. 1. 0. 0.
      0. 2. 1. 0. 0. 0. 0. 0. 3. 0. 0. 0. 0. 1. 1. 1. 0. 2. 0. 0. 0. 0.
      0. 0. 1. 2. 0. 0. 0. 0.</_>
    <_>
      9.99999940e-01 1.99999988e+00 0. 0. 9.99999940e-01 0.
      9.99999940e-01 9.99999940e-01 2.99999976e+00 0. 0. 0. 0.
      1.99999988e+00 1.99999988e+00 0. 9.99999940e-01 0. 0.
      2.99999976e+00 0. 9.99999940e-01 9.99999940e-01 0. 1.99999988e+00
      9.99999940e-01 9.99999940e-01 0. 9.99999905e+00 9.99999940e-01
      2.99999976e+00 1.99999988e+00 0. 0. 9.99999940e-01 9.99999940e-01
      2.99999976e+00 2.99999976e+00 2.99999976e+00 1.99999988e+00 0. 0.
      1.99999988e+00 0. 0. 9.99999940e-01 9.99999940e-01 6.99999952e+00
      3.99999976e+00 1.99999988e+00 0. 9.99999940e-01 1.99999988e+00
      9.99999940e-01 0. 9.99999940e-01 1.99999988e+00 1.99999988e+00
      9.99999940e-01 1.99999988e+00 9.99999940e-01 0. 0. 0.
      2.99999976e+00 0. 0. 9.99999940e-01 0. 1.99999988e+00
      3.99999976e+00 0. 1.99999988e+00 0. 0. 9.99999940e-01 0. 0. 0.
      9.99999940e-01 2.99999976e+00 0. 9.99999940e-01 0. 1.99999988e+00
      1.99999988e+00 0. 5.99999952e+00 9.99999940e-01 0. 9.99999940e-01
      1.99999988e+00 9.99999940e-01 9.99999940e-01 2.99999976e+00
      3.99999976e+00 9.99999940e-01 0. 1.99999988e+00 1.99999988e+00 0.
      0. 0. 0. 7.99999952e+00 0. 9.99999940e-01 0. 9.99999940e-01
      1.99999988e+00 9.99999940e-01 4.99999952e+00 1.99999988e+00
      1.99999988e+00 0. 0. 9.99999940e-01 2.99999976e+00 0.
      9.99999940e-01 0. 0. 1.99999988e+00 9.99999940e-01 1.99999988e+00
      9.99999940e-01 9.99999940e-01 0. 9.99999940e-01 1.99999988e+00
      2.99999976e+00 0. 9.99999940e-01 2.99999976e+00 9.99999940e-01 0.
      1.99999988e+00 1.99999988e+00 0. 9.99999940e-01 9.99999940e-01 0.
      2.99999976e+00 3.99999976e+00 0. 9.99999940e-01 1.99999988e+00
      9.99999940e-01 0. 0. 0. 9.99999940e-01 0. 0. 9.99999940e-01 0. 0.
      7.99999952e+00 1.99999988e+00 0. 0. 0. 1.99999988e+00
      1.99999988e+00 2.99999976e+00 0. 0. 2.99999976e+00 2.99999976e+00
      9.99999940e-01 0. 9.99999940e-01 0. 1.99999988e+00 9.99999905e+00
      0. 1.99999988e+00 1.99999988e+00 0. 0. 1.99999988e+00
      1.99999988e+00 2.99999976e+00 0. 1.99999988e+00 9.99999940e-01
      9.99999940e-01 0. 9.99999940e-01 5.99999952e+00 0. 0.
      9.99999940e-01 0. 2.99999976e+00 1.99999988e+00 1.99999988e+00
      1.99999988e+00 0. 4.99999952e+00 1.99999988e+00 9.99999940e-01 0.
      0. 0. 0. 9.99999940e-01 0. 2.99999976e+00 0. 0. 0. 9.99999940e-01
      9.99999940e-01 0. 2.99999976e+00 3.99999976e+00 2.99999976e+00 0.
      0. 0. 0. 9.99999940e-01 0. 0. 1.99999988e+00 4.99999952e+00 0. 0.
      4.99999952e+00 9.99999940e-01 9.99999940e-01 0. 9.99999940e-01 0.
      0. 0. 0. 0. 9.99999940e-01 9.99999940e-01 1.99999988e+00
      1.99999988e+00 9.99999940e-01 0. 9.99999940e-01 9.99999940e-01 0.
      2.99999976e+00 3.99999976e+00 0. 9. 7.99999952e+00 0.
      9.99999940e-01 0. 1.99999988e+00 0. 1.99999988e+00 0.
      9.99999940e-01 0. 9.99999940e-01 4.99999952e+00 0. 0.
      2.99999976e+00 0. 0. 9.99999940e-01 0. 0. 9.99999940e-01
      1.99999988e+00 9.99999940e-01 9.99999940e-01 9.99999940e-01
      1.99999988e+00 9.99999940e-01 0. 9.99999940e-01 1.99999988e+00 0.
      1.99999988e+00 0. 1.99999988e+00 0. 1.99999988e+00 1.99999988e+00
      2.99999976e+00 1.99999988e+00 9.99999940e-01 9.99999940e-01 0.
      2.99999976e+00 0. 0. 0. 1.99999988e+00 0. 0. 9.99999940e-01 0.
      9.99999940e-01 2.99999976e+00 9.99999940e-01 1.99999988e+00
      9.99999940e-01 0. 0. 0. 0. 0. 0. 9.99999940e-01 2.99999976e+00 0.
      9.99999940e-01 0. 9.99999940e-01 2.99999976e+00 0. 0.
      9.99999940e-01 1.99999988e+00 0. 0. 4.99999952e+00 9.99999940e-01
      9.99999940e-01 2.99999976e+00 4.99999952e+00 0. 9.99999940e-01
      9.99999940e-01 9.99999940e-01 0. 0. 0. 1.99999988e+00 0. 0.
      9.99999940e-01 0. 9.99999940e-01 1.99999988e+00 2.99999976e+00
      1.99999988e+00 0. 1.99999988e+00 1.99999988e+00 9.99999940e-01
      9.99999940e-01 1.99999988e+00 0. 1.99999988e+00 0. 1.99999988e+00
      1.99999988e+00 9.99999940e-01 0. 2.99999976e+00 0. 2.99999976e+00
      0. 2.99999976e+00 0. 2.99999976e+00 9.99999940e-01 9.99999940e-01
      0. 0. 0. 2.99999976e+00 9.99999940e-01 9.99999940e-01 0.
      2.99999976e+00 0. 0. 2.99999976e+00 0. 0. 2.99999976e+00 0.
      9.99999940e-01 1.99999988e+00 2.99999976e+00 0. 0. 9.99999940e-01
      9.99999940e-01 1.99999988e+00 9.99999940e-01 9.99999940e-01 0.
      1.99999988e+00 9.99999940e-01 9.99999940e-01 0. 9.99999940e-01
      1.99999988e+00 0. 9.99999940e-01 0. 9.99999940e-01 0. 0.
      1.99999988e+00 0. 9.99999940e-01 1.99999988e+00 0. 9.99999940e-01
      2.99999976e+00 2.99999976e+00 0. 1.99999988e+00 0. 0. 0.
      9.99999940e-01 0. 1.99999988e+00 1.99999988e+00 9.99999940e-01
      1.99999988e+00 0. 0. 0. 3.99999976e+00 2.99999976e+00
      2.99999976e+00 9.99999940e-01 1.99999988e+00 9.99999940e-01 0. 0.
      9.99999940e-01 9.99999940e-01 2.99999976e+00 0. 1.99999988e+00
      1.99999988e+00 0. 9.99999940e-01 9.99999940e-01 9.99999940e-01
      1.99999988e+00 1.99999988e+00 0. 1.99999988e+00 9.99999940e-01
      9.99999940e-01 9.99999940e-01 9.99999940e-01 0. 0. 0.
      9.99999940e-01 0. 0. 1.99999988e+00 0. 3.99999976e+00
      1.99999988e+00 0. 0. 0. 1.99999988e+00 0. 9.99999940e-01 0.
      1.99999988e+00 0. 9.99999940e-01 9.99999940e-01 1.99999988e+00
      1.99999988e+00 1.99999988e+00 9.99999940e-01 0. 9.99999940e-01
      9.99999940e-01 9.99999940e-01 0. 0. 1.99999988e+00 9.99999940e-01
      0. 0. 9.99999940e-01 9.99999940e-01 0. 1.99999988e+00 0.
      1.99999988e+00 2.99999976e+00 0. 9.99999940e-01 9.99999940e-01 0.
      9.99999940e-01 0. 2.99999976e+00 0. 0. 9.99999940e-01
      2.99999976e+00 1.99999988e+00 0. 0. 0. 2.99999976e+00 0.
      2.99999976e+00 9.99999940e-01 0. 1.99999988e+00 0. 9.99999940e-01
      9.99999940e-01 9.99999940e-01 1.99999988e+00 0. 9.99999940e-01
      9.99999940e-01 9.99999940e-01 0. 1.99999988e+00 0. 9.99999940e-01
      0. 1.99999988e+00 0. 9.99999940e-01 9.99999940e-01 9.99999940e-01
      1.99999988e+00 0. 0. 0. 2.99999976e+00 2.99999976e+00
      9.99999940e-01 0. 0. 0. 1.99999988e+00 4.99999952e+00
      2.99999976e+00 9.99999940e-01 9.99999940e-01 1.99999988e+00 0.
      9.99999940e-01 9.99999940e-01 0. 9.99999940e-01 1.99999988e+00
      9.99999940e-01 9.99999940e-01 9.99999940e-01 0. 0. 2.99999976e+00
      4.99999952e+00 0. 1.99999988e+00 0. 9.99999940e-01 0. 0. 0.
      9.99999940e-01 0. 2.99999976e+00 9.99999940e-01 2.99999976e+00
      9.99999940e-01 0. 9.99999940e-01 9.99999940e-01 9.99999940e-01
      3.99999976e+00 9.99999940e-01 0. 9.99999940e-01 9.99999940e-01 0.
      0. 0. 9.99999940e-01 0. 9.99999940e-01 1.99999988e+00
      9.99999940e-01 1.99999988e+00 0. 1.99999988e+00 0. 1.99999988e+00
      3.99999976e+00 9.99999940e-01 1.99999988e+00 2.99999976e+00
      1.99999988e+00 1.99999988e+00 0. 9.99999940e-01 0. 1.99999988e+00
      1.99999988e+00 9.99999940e-01 0. 0. 9.99999940e-01 1.99999988e+00
      9.99999940e-01 0. 9.99999940e-01 1.99999988e+00 0. 3.99999976e+00
      9.99999940e-01 0. 9.99999940e-01 9.99999940e-01 2.99999976e+00
      4.99999952e+00 9.99999940e-01 9.99999940e-01 9.99999940e-01 0.
      1.99999988e+00 2.99999976e+00 9.99999940e-01 5.99999952e+00
      9.99999940e-01 0. 9.99999940e-01 1.99999988e+00 1.99999988e+00 0.
      0. 0. 0. 9.99999940e-01 1.99999988e+00 1.99999988e+00
      1.99999988e+00 9.99999940e-01 9.99999940e-01 0. 0. 0.
      9.99999940e-01 0. 0. 1.99999988e+00 1.99999988e+00 1.99999988e+00
      9.99999940e-01 0. 0. 0. 9.99999940e-01 9.99999940e-01 0.
      1.99999988e+00 0. 1.99999988e+00 4.99999952e+00 1.99999988e+00 0.
      1.99999988e+00 9.99999940e-01 9.99999940e-01 4.99999952e+00 0. 0.
      0. 6.99999952e+00 0. 1.99999988e+00 9.99999940e-01 9.99999940e-01
      0. 1.99999988e+00 1.99999988e+00 0. 0. 0. 1.99999988e+00
      9.99999940e-01 9.99999940e-01 1.99999988e+00 9.99999940e-01
      9.99999940e-01 1.99999988e+00 9.99999940e-01 1.99999988e+00
      9.99999940e-01 0. 9.99999940e-01 0. 9.99999940e-01 1.99999988e+00
      0. 9.99999940e-01 0. 0. 5.99999952e+00 0. 0. 9.99999940e-01
      9.99999940e-01 0. 1.99999988e+00 9.99999940e-01 9.99999940e-01
      9.99999940e-01 1.99999988e+00 9.99999940e-01 0. 0. 9.99999940e-01
      9.99999940e-01 0. 9.99999940e-01 0. 0. 9.99999940e-01 0.
      3.99999976e+00 1.99999988e+00 3.99999976e+00 9.99999940e-01
      9.99999940e-01 9.99999940e-01 1.99999988e+00 0. 9.99999940e-01
      9.99999940e-01 0. 0. 0. 1.99999988e+00 0. 1.99999988e+00
      2.99999976e+00 0. 9.99999940e-01 0. 0. 2.99999976e+00
      9.99999940e-01 0. 9.99999940e-01 9.99999940e-01 0. 1.99999988e+00
      9.99999940e-01 9.99999940e-01 1.99999988e+00 0. 0. 9.99999940e-01
      0. 4.99999952e+00 9.99999940e-01 2.99999976e+00 9.99999940e-01 9.
      0. 0. 0. 2.99999976e+00 9.99999940e-01 1.99999988e+00
      2.99999976e+00 9.99999940e-01 0. 2.99999976e+00 9.99999940e-01 0.
      1.99999988e+00 0. 0. 9.99999940e-01 3.99999976e+00 9.99999940e-01
      2.99999976e+00 9.99999940e-01 9.99999940e-01 9.99999940e-01
      9.99999940e-01 0. 3.99999976e+00 9.99999940e-01</_>
    <_>
      0. 1. 0. 2. 2. 1. 0. 0. 1. 2. 0. 0. 3. 1. 2. 1. 1. 3. 1. 0. 0. 1.
      0. 0. 2. 0. 1. 0. 0. 1. 1. 0. 0. 2. 0. 0. 0. 0. 4. 1. 1. 0. 0. 0.
      2. 0. 0. 1. 0. 1. 1. 0. 0. 0. 0. 1. 0. 0. 1. 0. 2. 1. 0. 0. 0. 2.
      0. 0. 2. 1. 0. 0. 1. 0. 0. 2. 0. 1. 0. 0. 1. 0. 1. 0. 1. 1. 2. 0.
      0. 0. 0. 0. 1. 2. 1. 0. 0. 2. 0. 2. 1. 1. 1. 0. 0. 3. 2. 0. 0. 0.
      1. 0. 2. 0. 1. 1. 0. 1. 0. 0. 1. 1. 1. 0. 0. 0. 0. 1. 4. 0. 0. 1.
      1. 1. 0. 0. 2. 3. 1. 4. 0. 0. 0. 2. 0. 0. 0. 2. 0. 1. 0. 2. 1. 1.
      0. 0. 2. 0. 1. 1. 0. 0. 0. 2. 1. 0. 0. 0. 0. 1. 2. 0. 1. 2. 1. 3.
      0. 0. 0. 1. 0. 2. 2. 0. 1. 0. 2. 1. 0. 0. 2. 3. 0. 2. 0. 1. 2. 0.
      0. 0. 0. 2. 0. 3. 0. 2. 0. 1. 0. 1. 0. 0. 1. 0. 0. 0. 1. 0. 2. 1.
      0. 1. 1. 3. 0. 1. 2. 0. 1. 0. 0. 2. 1. 0. 1. 0. 0. 1. 0. 0. 0. 0.
      0. 1. 3. 0. 0. 1. 0. 0. 0. 0. 0. 1. 0. 0. 0. 1. 1. 1. 2. 2. 1. 0.
      0. 0. 0. 0. 2. 2. 1. 0. 0. 0. 1. 3. 2. 2. 1. 0. 1. 0. 2. 0. 0. 0.
      0. 1. 2. 0. 1. 0. 2. 0. 2. 0. 0. 0. 1. 0. 0. 0. 0. 1. 0. 1. 0. 2.
      0. 1. 1. 0. 1. 0. 1. 0. 2. 1. 1. 1. 0. 0. 0. 4. 0. 0. 0. 0. 1. 0.
      2. 1. 2. 0. 2. 0. 0. 2. 0. 0. 1. 2. 1. 0. 1. 2. 0. 0. 1. 0. 2. 1.
      2. 0. 1. 1. 1. 0. 1. 0. 0. 4. 0. 0. 0. 0. 1. 0. 3. 0. 2. 1. 0. 2.
      0. 0. 2. 2. 2. 0. 2. 0. 3. 0. 1. 0. 2. 1. 0. 5. 0. 0. 1. 1. 1. 0.
      0. 1. 0. 0. 1. 0. 1. 2. 1. 3. 1. 2. 2. 2. 0. 1. 1. 2. 2. 0. 2. 2.
      1. 0. 1. 2. 1. 2. 0. 1. 0. 2. 1. 0. 1. 0. 1. 0. 0. 2. 0. 0. 0. 0.
      1. 1. 0. 1. 2. 1. 0. 0. 0. 1. 0. 0. 2. 0. 1. 0. 1. 2. 2. 1. 0. 0.
      0. 0. 0. 0. 2. 0. 0. 0. 0. 0. 3. 0. 0. 0. 3. 1. 0. 0. 1. 0. 1. 2.
      0. 0. 0. 2. 1. 0. 0. 2. 1. 0. 1. 0. 1. 1. 1. 2. 1. 1. 0. 1. 3. 3.
      0. 1. 1. 2. 0. 1. 0. 0. 2. 1. 0. 0. 2. 0. 0. 0. 0. 1. 0. 2. 5. 1.
      1. 0. 0. 1. 0. 0. 0. 0. 0. 0. 3. 0. 0. 0. 0. 0. 4. 0. 2. 2. 2. 0.
      0. 0. 2. 0. 4. 0. 0. 0. 2. 0. 1. 0. 1. 0. 0. 1. 1. 0. 0. 2. 1. 2.
      0. 2. 0. 1. 0. 0. 1. 1. 0. 0. 1. 1. 0. 2. 0. 0. 0. 0. 0. 0. 1. 0.
      2. 0. 0. 1. 0. 0. 0. 1. 0. 1. 0. 0. 0. 0. 1. 1. 1. 0. 0. 2. 0. 0.
      3. 1. 1. 0. 0. 0. 0. 0. 2. 1. 2. 2. 0. 0. 0. 1. 0. 0. 0. 0. 1. 0.
      1. 0. 0. 0. 2. 1. 1. 1. 0. 1. 4. 1. 3. 0. 2. 0. 0. 0. 0. 1. 0. 0.
      0. 0. 3. 0. 2. 0. 0. 0. 2. 1. 1. 2. 0. 0. 0. 0. 0. 0. 0. 0. 1. 0.
      1. 1. 1. 1. 1. 0. 1. 1. 0. 0. 0. 2. 0. 1. 1. 0. 2. 0. 3. 2. 5. 1.
      1. 0. 1. 1. 0. 2. 2. 0. 0. 1. 0. 0. 4. 1. 0. 0. 0. 1. 2. 0. 1. 0.
      2. 2. 0. 2. 0. 1. 1. 0. 1. 1. 0. 0. 1. 3. 0. 2. 1. 1. 2. 0. 1. 2.
      0. 0. 1. 1. 1. 0. 0. 1. 0. 1. 0. 0. 0. 2. 0. 0. 0. 2. 0. 1. 1. 1.
      1. 3. 0. 0. 1. 8. 0. 0. 2. 2. 0. 0. 1. 0. 1. 1. 4. 2. 0. 1. 0. 1.
      1. 2. 0. 0. 0. 2. 2. 0.</_>
    <_>
      0. 0. 0. 0. 0. 0. 4. 1. 0. 0. 1. 0. 0. 1. 0. 2. 1. 0. 0. 1. 0. 0.
      0. 0. 0. 0. 0. 0. 1. 1. 0. 0. 1. 0. 1. 0. 0. 0. 1. 0. 1. 0. 0. 2.
      1. 0. 1. 1. 0. 0. 2. 1. 1. 1. 0. 0. 0. 1. 0. 0. 0. 0. 2. 0. 2. 0.
      0. 0. 0. 2. 1. 0. 0. 0. 0. 0. 0. 0. 0. 1. 0. 0. 0. 1. 0. 0. 0. 0.
      0. 0. 2. 0. 0. 0. 0. 0. 0. 0. 0. 0. 1. 0. 0. 0. 0. 0. 0. 0. 0. 0.
      0. 3. 0. 0. 0. 0. 2. 0. 0. 0. 0. 0. 2. 0. 1. 2. 0. 0. 0. 0. 2. 0.
      0. 1. 0. 1. 0. 3. 0. 0. 0. 0. 0. 0. 0. 2. 0. 0. 0. 0. 0. 0. 0. 0.
      0. 0. 3. 0. 0. 1. 0. 1. 1. 0. 1. 0. 0. 0. 2. 1. 0. 0. 0. 0. 0. 0.
      0. 1. 0. 1. 0. 0. 0. 0. 0. 1. 0. 0. 0. 1. 0. 0. 0. 0. 1. 0. 0. 0.
      0. 0. 0. 0. 0. 0. 0. 0. 1. 0. 0. 0. 3. 0. 0. 0. 0. 0. 0. 0. 0. 0.
      0. 0. 0. 0. 0. 0. 0. 0. 1. 2. 0. 0. 0. 0. 0. 0. 0. 0. 0. 2. 1. 2.
      0. 0. 0. 0. 1. 0. 0. 0. 0. 2. 0. 0. 0. 0. 0. 1. 0. 0. 0. 0. 3. 1.
      0. 0. 0. 0. 0. 0. 0. 1. 0. 0. 0. 0. 0. 1. 0. 1. 0. 0. 0. 0. 0. 0.
      2. 1. 1. 0. 0. 0. 0. 0. 0. 0. 0. 0. 0. 1. 0. 1. 1. 1. 0. 0. 0. 0.
      0. 0. 0. 1. 0. 0. 2. 0. 0. 0. 0. 0. 1. 1. 1. 0. 0. 0. 0. 1. 0. 0.
      0. 1. 0. 0. 1. 2. 0. 0. 2. 0. 0. 0. 0. 0. 1. 0. 0. 0. 0. 0. 0. 0.
      1. 0. 0. 0. 0. 0. 0. 0. 0. 1. 0. 0. 1. 1. 0. 0. 1. 0. 1. 0. 0. 0.
      1. 0. 0. 1. 0. 0. 0. 0. 0. 0. 0. 1. 0. 1. 0. 0. 1. 0. 0. 0. 0. 0.
      0. 0. 0. 0. 0. 0. 0. 0. 0. 0. 0. 0. 0. 0. 0. 1. 0. 0. 2. 0. 0. 0.
      0. 0. 0. 0. 0. 0. 2. 0. 0. 0. 0. 0. 0. 2. 0. 0. 0. 0. 0. 0. 0. 0.
      0. 0. 0. 0. 0. 0. 1. 0. 3. 0. 0. 1. 1. 2. 2. 0. 0. 0. 0. 1. 0. 0.
      0. 0. 4. 0. 0. 0. 0. 1. 0. 0. 0. 0. 1. 0. 3. 1. 0. 0. 0. 0. 0. 0.
      0. 1. 0. 1. 0. 0. 0. 0. 1. 1. 1. 0. 0. 0. 0. 1. 0. 0. 0. 0. 1. 0.
      0. 0. 3. 0. 0. 0. 0. 0. 1. 0. 2. 0. 0. 0. 0. 2. 1. 0. 0. 0. 0. 0.
      0. 1. 0. 0. 0. 1. 0. 0. 0. 1. 0. 0. 0. 1. 0. 0. 0. 0. 0. 0. 0. 4.
      2. 0. 2. 0. 1. 1. 0. 0. 0. 0. 0. 1. 1. 0. 0. 1. 1. 0. 0. 2. 0. 2.
      1. 0. 0. 0. 0. 0. 2. 0. 0. 2. 0. 1. 0. 0. 0. 0. 0. 0. 0. 0. 0. 0.
      0. 1. 0. 0. 0. 1. 3. 0. 1. 0. 1. 0. 0. 0. 0. 0. 0. 1. 1. 0. 0. 1.
      0. 0. 0. 1. 0. 3. 1. 0. 0. 0. 0. 0. 0. 0. 0. 0. 1. 0. 0. 0. 0. 1.
      0. 0. 0. 1. 1. 0. 0. 0. 2. 0. 0. 0. 0. 0. 0. 0. 2. 0. 4. 0. 1. 0.
      0. 2. 1. 0. 0. 0. 0. 1. 0. 2. 0. 0. 3. 0. 0. 0. 0. 0. 0. 0. 0. 0.
      0. 0. 0. 0. 0. 1. 0. 1. 2. 0. 1. 0. 0. 0. 1. 0. 0. 3. 0. 0. 0. 0.
      3. 0. 2. 0. 0. 0. 0. 0. 0. 0. 0. 2. 0. 1. 1. 0. 0. 0. 1. 0. 0. 0.
      1. 0. 1. 2. 2. 0. 0. 0. 0. 0. 3. 0. 0. 0. 0. 0. 0. 0. 1. 2. 0. 1.
      0. 0. 1. 0. 1. 0. 0. 1. 0. 1. 1. 0. 0. 0. 0. 1. 0. 1. 0. 0. 0. 1.
      0. 0. 1. 0. 0. 0. 0. 1. 0. 0. 0. 0. 0. 1. 0. 0. 1. 0. 3. 0. 2. 0.
      0. 0. 0. 0. 0. 0. 2. 0.</_>
    <_>
      0. 0. 0. 2. 0. 0. 0. 0. 1. 0. 2. 0. 0. 1. 0. 2. 1. 0. 0. 0. 0. 1.
      2. 0. 1. 0. 3.00000024e+00 0. 0. 0. 0. 1. 2. 1. 1. 0. 0. 1. 0. 0.
      1. 0. 0. 0. 0. 0. 0. 0. 0. 0. 1. 0. 0. 0. 2. 0. 1. 0. 0. 1. 0. 0.
      0. 1. 1. 0. 0. 0. 0. 0. 0. 2. 2. 0. 0. 0. 0. 0. 0. 0. 0. 0. 1. 0.
      1. 1. 0. 2. 0. 0. 3.00000024e+00 1. 2. 0. 0. 1. 1. 0. 1. 1. 0. 2.
      1. 0. 4. 0. 0. 3.00000024e+00 0. 1. 0. 2. 0. 0. 3.00000024e+00 0.
      0. 3.00000024e+00 0. 0. 0. 0. 3.00000024e+00 0. 0. 0. 1. 1. 0. 0.
      0. 1. 0. 0. 0. 0. 0. 0. 1. 0. 0. 0. 0. 0. 0. 1. 0. 0. 0. 0. 0. 10.
      1. 0. 0. 0. 0. 3.00000024e+00 0. 0. 0. 1. 1. 1. 0. 0. 0. 1. 2. 0.
      0. 0. 0. 0. 0. 0. 1. 1. 0. 0. 1. 0. 0. 0. 2. 0. 0. 0. 0.
      3.00000024e+00 1. 0. 0. 1. 1. 0. 1. 0. 2. 0. 0. 1. 0. 0. 0. 0. 0.
      0. 0. 0. 0. 0. 0. 0. 1. 0. 0. 0. 0. 2. 0. 2. 1. 1. 0. 1. 1. 0. 1.
      0. 0. 0. 0. 1. 0. 0. 1. 0. 0. 0. 1. 2. 0. 1. 0. 0. 1. 1. 0. 1. 0.
      1. 1. 0. 0. 0. 0. 0. 0. 0. 0. 0. 0. 0. 0. 0. 0. 0. 0. 0. 0. 1. 0.
      0. 1. 0. 0. 0. 0. 0. 1. 0. 0. 0. 0. 0. 0. 1. 0. 0. 0. 0. 4. 0. 0.
      1. 2. 0. 0. 2. 0. 0. 0. 0. 0. 3.00000024e+00 0. 2. 0. 0. 0. 0. 0.
      2. 1. 1. 0. 0. 0. 4. 0. 0. 1. 0. 0. 0. 1. 0. 1. 1. 0. 1. 1. 2. 0.
      0. 0. 0. 0. 1. 1. 0. 0. 0. 0. 0. 1. 0. 0. 0. 1. 3.00000024e+00 0.
      0. 0. 0. 0. 1. 2. 0. 1. 1. 0. 0. 0. 1. 1. 0. 0. 0. 0. 0. 0. 0. 0.
      0. 0. 0. 0. 0. 1. 0. 0. 0. 2. 0. 0. 0. 0. 0. 1. 0. 1. 0. 0. 1. 1.
      0. 0. 1. 0. 0. 0. 0. 1. 1. 0. 0. 1. 0. 0. 1. 0. 1. 0. 0. 0. 0. 0.
      0. 0. 0. 0. 0. 0. 0. 0. 0. 0. 0. 0. 0. 0. 0. 0. 2. 2. 4. 0. 0. 0.
      0. 0. 0. 0. 0. 0. 0. 1. 0. 1. 0. 0. 0. 2. 0. 0. 1. 0. 0. 1. 2. 0.
      0. 1. 0. 0. 2. 0. 0. 1. 1. 0. 2. 1. 0. 0. 0. 6.00000048e+00 0. 2.
      0. 0. 0. 0. 0. 0. 1. 0. 1. 0. 1. 0. 1. 2. 0. 2. 0. 0. 0. 2. 4. 0.
      0. 0. 0. 2. 0. 0. 0. 0. 0. 0. 0. 0. 3.00000024e+00 0. 1. 0. 0. 0.
      0. 0. 1. 0. 0. 0. 0. 0. 0. 0. 1. 0. 0. 0. 0. 2. 0. 0. 2. 0. 1. 0.
      0. 1. 0. 0. 0. 1. 1. 0. 0. 0. 1. 0. 1. 0. 0. 1. 3.00000024e+00 1.
      0. 0. 0. 0. 0. 1. 1. 0. 1. 2. 2. 1. 0. 0. 0. 0. 0. 1. 0. 1. 0. 1.
      1. 1. 0. 0. 1. 0. 0. 0. 0. 1. 0. 0. 0. 1. 0. 1. 0. 0. 1. 19. 0. 1.
      1. 0. 0. 0. 0. 0. 0. 0. 1. 0. 1. 0. 0. 1. 0. 0. 1. 0. 0. 0. 1. 0.
      0. 0. 0. 0. 1. 0. 0. 0. 0. 0. 1. 0. 0. 0. 1. 1. 0. 0. 2. 1. 0. 0.
      0. 0. 3.00000024e+00 0. 1. 0. 1. 0. 1. 0. 1. 0. 0. 0. 0. 0. 0. 0.
      0. 0. 1. 3.00000024e+00 2. 1. 0. 1. 0. 0. 0. 0. 0. 0. 0. 0. 0. 0.
      0. 0. 0. 0. 0. 0. 0. 0. 0. 0. 4. 0. 1. 0. 0. 1. 0. 0. 0. 0. 1. 0.
      0. 0. 0. 1. 0. 0. 1. 0. 1. 1. 0. 1. 0. 0. 0. 0. 0. 0. 0. 0. 1. 0.
      0. 0. 1. 0. 1. 0. 1. 1. 0. 0. 0. 1. 0. 1. 2. 1. 1. 3.00000024e+00
      0. 0. 2. 1. 0. 2. 6.00000048e+00 2. 0. 0. 1. 0. 0. 1. 0. 0. 0. 0.
      1. 0. 1. 0. 0. 0. 0. 0. 0. 0. 2. 0. 1. 0. 0. 0. 0. 1. 0. 1. 0. 0.
      0. 0. 0. 1. 1. 0. 0. 0. 0. 0. 0. 0. 1.</_>
    <_>
      1. 1. 0. 0. 0. 0. 1. 2. 0. 1. 0. 0. 0. 0. 1. 1. 0. 1. 0. 0. 0. 0.
      0. 0. 0. 0. 1. 0. 0. 0. 0. 0. 0. 1. 0. 0. 0. 0. 0. 1. 0. 0. 0. 0.
      0. 0. 2. 0. 0. 0. 0. 1. 0. 0. 0. 0. 0. 1. 0. 0. 1. 0. 1. 0. 0. 2.
      0. 0. 0. 0. 1. 1. 0. 0. 0. 0. 2. 0. 3. 0. 0. 1. 2. 0. 0. 0. 0. 0.
      0. 0. 0. 0. 0. 0. 1. 0. 0. 1. 0. 1. 0. 1. 0. 0. 0. 0. 2. 1. 0. 0.
      3. 0. 1. 0. 0. 0. 0. 0. 0. 1. 0. 0. 1. 0. 0. 0. 1. 0. 1. 0. 1. 0.
      2. 1. 0. 0. 0. 0. 0. 0. 1. 0. 0. 0. 0. 0. 0. 1. 0. 0. 1. 0. 0. 0.
      0. 0. 1. 0. 0. 0. 0. 0. 0. 1. 0. 0. 0. 0. 0. 0. 0. 0. 0. 0. 0. 0.
      1. 0. 0. 1. 2. 0. 0. 1. 0. 1. 0. 0. 1. 0. 0. 0. 0. 0. 0. 0. 2. 2.
      1. 0. 0. 1. 0. 0. 0. 0. 0. 0. 1. 1. 0. 0. 1. 2. 0. 0. 1. 1. 3. 0.
      0. 0. 0. 1. 0. 1. 0. 0. 0. 0. 1. 1. 0. 0. 0. 0. 0. 1. 0. 1. 1. 0.
      0. 1. 0. 1. 0. 1. 1. 0. 0. 0. 0. 0. 0. 1. 0. 0. 0. 0. 0. 0. 0. 0.
      0. 0. 1. 0. 0. 0. 0. 0. 0. 1. 0. 0. 1. 0. 0. 1. 0. 0. 0. 0. 0. 0.
      1. 0. 0. 0. 0. 0. 0. 0. 0. 0. 1. 1. 0. 0. 0. 1. 1. 1. 0. 2. 0. 1.
      1. 0. 1. 1. 0. 2. 1. 0. 0. 0. 2. 0. 0. 0. 0. 0. 0. 0. 1. 1. 0. 0.
      0. 0. 0. 1. 2. 0. 0. 0. 0. 0. 0. 0. 0. 3. 0. 1. 0. 1. 0. 0. 0. 0.
      0. 0. 0. 2. 0. 0. 0. 0. 0. 1. 0. 0. 0. 0. 1. 0. 0. 0. 0. 1. 0. 0.
      0. 0. 0. 0. 1. 0. 0. 0. 1. 0. 0. 1. 0. 0. 0. 0. 1. 1. 0. 1. 0. 2.
      0. 2. 0. 0. 0. 0. 0. 1. 0. 0. 0. 1. 0. 0. 0. 1. 0. 0. 0. 2. 0. 0.
      0. 1. 0. 0. 0. 0. 0. 0. 1. 0. 2. 0. 0. 0. 1. 3. 0. 1. 0. 1. 2. 2.
      0. 1. 0. 2. 0. 1. 0. 1. 1. 0. 2. 0. 0. 4. 3. 1. 0. 0. 0. 0. 0. 1.
      0. 2. 0. 0. 0. 0. 0. 1. 0. 0. 0. 0. 0. 1. 1. 0. 0. 0. 0. 0. 1. 0.
      1. 1. 0. 2. 1. 1. 0. 1. 1. 1. 0. 1. 0. 0. 0. 2. 0. 0. 0. 0. 0. 1.
      2. 0. 0. 1. 0. 0. 1. 0. 1. 2. 0. 1. 1. 0. 0. 0. 0. 0. 0. 2. 0. 0.
      0. 0. 0. 0. 0. 0. 0. 1. 0. 0. 0. 0. 0. 0. 1. 2. 1. 0. 0. 0. 1. 0.
      0. 1. 1. 0. 0. 0. 0. 1. 1. 2. 0. 2. 0. 0. 0. 0. 0. 2. 0. 0. 0. 0.
      0. 0. 0. 0. 1. 0. 1. 0. 1. 0. 0. 1. 0. 1. 1. 0. 1. 0. 0. 0. 0. 0.
      1. 0. 1. 0. 0. 0. 0. 1. 0. 0. 0. 0. 0. 0. 6. 0. 0. 0. 0. 0. 0. 0.
      0. 0. 1. 2. 0. 0. 0. 0. 1. 0. 0. 0. 0. 1. 1. 1. 0. 1. 1. 1. 1. 1.
      0. 0. 0. 0. 0. 0. 0. 0. 1. 1. 0. 0. 0. 1. 2. 1. 0. 0. 1. 0. 0. 1.
      1. 0. 1. 0. 2. 0. 0. 1. 1. 1. 1. 0. 0. 1. 0. 0. 0. 0. 0. 0. 1. 0.
      0. 0. 0. 1. 0. 1. 1. 1. 0. 0. 2. 0. 1. 0. 0. 0. 2. 0. 2. 0. 0. 0.
      0. 1. 0. 0. 0. 2. 1. 0. 0. 0. 0. 0. 0. 0. 1. 0. 0. 0. 1. 0. 0. 0.
      0. 0. 0. 0. 0. 0. 1. 0. 0. 0. 1. 0. 1. 0. 0. 3. 0. 0. 0. 2. 1. 1.
      0. 0. 0. 0. 0. 0. 0. 0. 0. 0. 0. 0. 1. 1. 0. 1. 0. 0. 2. 0. 1. 0.
      0. 0. 0. 0. 0. 0. 0. 0. 1. 0. 1. 0. 0. 0. 1. 1. 0. 1. 0. 0. 0. 0.
      0. 0. 3. 0. 0. 0. 0. 0.</_>
    <_>
      0. 1. 0. 1. 0. 2. 0. 1. 0. 0. 0. 0. 0. 0. 1. 0. 0. 0. 0. 0. 0. 0.
      0. 0. 1. 0. 0. 0. 0. 0. 0. 0. 0. 1. 0. 1. 0. 0. 1. 0. 0. 0. 0. 1.
      0. 0. 0. 0. 0. 0. 0. 2. 0. 0. 0. 1. 0. 0. 0. 0. 0. 1. 1. 0. 0. 0.
      0. 1. 0. 0. 0. 0. 0. 0. 0. 0. 0. 0. 0. 0. 0. 0. 0. 0. 0. 0. 0. 0.
      0. 0. 0. 0. 0. 0. 0. 0. 0. 1. 0. 0. 0. 0. 0. 0. 0. 0. 0. 0. 0. 1.
      1. 0. 0. 0. 0. 0. 0. 0. 0. 1. 0. 0. 0. 0. 0. 0. 0. 0. 0. 1. 0. 0.
      0. 0. 2. 1. 0. 0. 0. 0. 0. 0. 0. 0. 0. 0. 0. 0. 0. 0. 0. 0. 0. 0.
      0. 0. 0. 0. 0. 0. 0. 0. 0. 0. 0. 0. 0. 1. 1. 0. 0. 0. 0. 0. 0. 1.
      0. 0. 0. 0. 0. 0. 0. 0. 0. 1. 0. 0. 0. 0. 1. 0. 0. 0. 2. 0. 0. 0.
      0. 0. 0. 0. 0. 0. 0. 2. 0. 0. 0. 0. 0. 0. 1. 1. 0. 0. 1. 1. 0. 0.
      0. 0. 1. 0. 0. 0. 0. 1. 0. 0. 0. 0. 0. 2. 0. 0. 0. 0. 0. 0. 0. 1.
      0. 0. 0. 0. 0. 0. 1. 1. 0. 0. 0. 0. 0. 0. 0. 0. 0. 0. 0. 0. 0. 0.
      0. 0. 0. 1. 0. 0. 0. 0. 0. 0. 0. 0. 0. 1. 0. 0. 0. 0. 0. 1. 1. 0.
      0. 0. 0. 0. 0. 0. 0. 0. 0. 0. 0. 1. 0. 1. 0. 1. 1. 0. 1. 0. 0. 0.
      0. 0. 0. 0. 0. 0. 0. 0. 0. 0. 0. 0. 0. 0. 0. 0. 1. 0. 0. 0. 0. 0.
      0. 0. 0. 0. 2. 0. 0. 0. 0. 0. 0. 0. 0. 0. 0. 0. 0. 0. 0. 0. 0. 0.
      0. 0. 0. 0. 0. 0. 0. 0. 0. 1. 0. 1. 0. 1. 0. 0. 0. 0. 0. 0. 0. 0.
      0. 0. 0. 0. 0. 0. 0. 0. 0. 0. 0. 1. 0. 0. 0. 0. 0. 0. 0. 0. 0. 0.
      0. 0. 1. 0. 1. 0. 0. 1. 0. 0. 0. 0. 0. 0. 1. 0. 0. 0. 0. 0. 0. 0.
      0. 0. 0. 0. 0. 0. 0. 0. 0. 0. 0. 1. 0. 0. 0. 2. 0. 0. 0. 0. 0. 0.
      0. 0. 0. 4. 0. 1. 0. 0. 0. 0. 1. 0. 0. 2. 0. 0. 0. 0. 0. 0. 0. 0.
      2. 0. 0. 0. 0. 0. 1. 0. 0. 2. 0. 0. 0. 0. 1. 0. 0. 1. 0. 0. 0. 0.
      0. 2. 0. 0. 0. 0. 0. 0. 0. 0. 0. 1. 0. 0. 0. 0. 0. 0. 0. 0. 0. 0.
      1. 0. 0. 1. 0. 1. 0. 0. 0. 0. 0. 0. 2. 0. 0. 0. 0. 0. 0. 0. 0. 0.
      0. 0. 0. 0. 1. 0. 0. 0. 0. 0. 0. 0. 0. 2. 0. 0. 0. 0. 0. 0. 1. 2.
      0. 0. 0. 0. 0. 0. 0. 0. 0. 0. 0. 0. 0. 0. 0. 0. 0. 0. 0. 0. 0. 0.
      0. 0. 1. 0. 0. 0. 0. 0. 0. 0. 0. 0. 0. 0. 1. 0. 0. 0. 0. 0. 1. 1.
      0. 0. 0. 1. 0. 0. 0. 0. 0. 1. 0. 0. 0. 0. 1. 1. 1. 0. 0. 2. 0. 1.
      0. 0. 0. 0. 1. 0. 0. 0. 0. 0. 0. 0. 1. 0. 0. 3. 0. 0. 1. 1. 1. 0.
      0. 0. 0. 0. 0. 0. 0. 0. 0. 0. 1. 0. 0. 0. 0. 1. 0. 1. 0. 0. 0. 0.
      0. 1. 0. 0. 0. 0. 0. 0. 0. 0. 0. 0. 0. 1. 1. 0. 0. 1. 1. 1. 0. 0.
      1. 0. 1. 0. 0. 0. 0. 0. 0. 0. 0. 0. 0. 0. 0. 0. 0. 0. 0. 0. 0. 0.
      0. 0. 0. 0. 0. 0. 0. 0. 0. 0. 2. 0. 1. 0. 0. 0. 0. 0. 0. 0. 0. 0.
      0. 0. 0. 0. 1. 0. 0. 0. 0. 0. 1. 0. 0. 0. 0. 0. 0. 0. 1. 2. 0. 0.
      0. 0. 0. 0. 0. 0. 0. 1. 0. 0. 0. 0. 0. 0. 0. 0. 0. 0. 0. 1. 0. 0.
      0. 1. 0. 0. 0. 2. 0. 0. 1. 0. 0. 0. 1. 1. 0. 0. 1. 0. 0. 0. 0. 1.
      0. 0. 0. 0. 0. 0. 0. 0.</_>
    <_>
      0. 1. 0. 0. 0. 0. 0. 0. 0. 0. 0. 0. 1. 0. 0. 0. 0. 0. 0. 0. 0. 0.
      0. 0. 0. 0. 1. 0. 0. 0. 0. 0. 1. 0. 0. 0. 0. 0. 0. 0. 0. 0. 0. 0.
      0. 0. 0. 0. 0. 0. 0. 0. 0. 1. 0. 0. 0. 0. 0. 0. 0. 0. 0. 0. 0. 0.
      0. 0. 0. 0. 0. 0. 0. 0. 1. 0. 0. 0. 0. 1. 0. 0. 0. 1. 1. 0. 0. 0.
      1. 0. 0. 0. 0. 0. 0. 0. 0. 0. 0. 0. 0. 0. 0. 0. 1. 1. 0. 0. 0. 0.
      0. 0. 0. 0. 0. 0. 0. 0. 0. 0. 0. 0. 0. 0. 0. 0. 0. 0. 0. 0. 0. 0.
      0. 3.00000024e+00 1. 1. 0. 0. 1. 0. 0. 0. 0. 0. 0. 0. 0. 1. 0. 0.
      0. 0. 0. 0. 0. 0. 1. 0. 2. 0. 0. 0. 1. 0. 0. 0. 1. 1. 0. 0. 0. 0.
      0. 0. 0. 0. 0. 1. 0. 0. 0. 0. 0. 0. 0. 0. 2. 0. 0. 0. 0. 0. 1. 0.
      0. 0. 0. 0. 0. 0. 0. 1. 0. 0. 0. 0. 0. 0. 0. 0. 0. 0. 0. 0. 0. 1.
      0. 0. 0. 0. 0. 0. 0. 0. 0. 0. 0. 0. 0. 0. 0. 0. 0. 0. 0. 0. 1. 0.
      0. 2. 0. 2. 0. 0. 0. 0. 0. 0. 0. 0. 0. 0. 0. 0. 0. 0. 0. 0. 1. 0.
      0. 0. 1. 0. 0. 0. 0. 0. 0. 0. 1. 0. 0. 0. 0. 0. 0. 0. 0. 0. 0. 0.
      0. 0. 0. 1. 0. 0. 0. 1. 0. 0. 0. 0. 0. 0. 0. 0. 0. 0. 0. 0. 0. 0.
      0. 0. 0. 0. 0. 0. 0. 0. 0. 0. 0. 0. 0. 0. 1. 0. 0. 0. 0. 0. 0. 0.
      0. 1. 0. 0. 0. 0. 0. 0. 0. 0. 0. 0. 0. 0. 0. 0. 0. 0. 0. 0. 0. 0.
      0. 0. 0. 0. 0. 0. 0. 0. 0. 0. 0. 0. 1. 0. 0. 0. 0. 0. 1. 1. 0. 0.
      0. 0. 0. 0. 1. 1. 0. 0. 0. 0. 0. 0. 0. 0. 0. 0. 0. 0. 1. 0. 0. 0.
      0. 0. 0. 0. 0. 0. 0. 0. 0. 0. 1. 0. 0. 0. 0. 0. 0. 0. 0. 0. 0. 0.
      1. 0. 0. 0. 0. 0. 0. 0. 0. 1. 0. 0. 0. 0. 0. 0. 0. 0. 0. 1. 0. 0.
      0. 0. 0. 0. 0. 0. 0. 1. 0. 1. 0. 0. 0. 0. 0. 0. 0. 0. 0. 0. 0. 0.
      0. 0. 0. 0. 0. 0. 0. 0. 0. 0. 0. 0. 0. 0. 0. 0. 0. 0. 1. 0. 2. 0.
      0. 0. 0. 1. 0. 0. 0. 0. 0. 0. 0. 0. 0. 0. 0. 0. 0. 0. 0. 0. 0. 0.
      0. 0. 0. 0. 0. 0. 0. 0. 0. 0. 0. 0. 0. 1. 0. 0. 0. 1. 0. 0. 0. 0.
      0. 0. 0. 0. 0. 0. 0. 0. 0. 0. 1. 0. 0. 0. 0. 0. 0. 0. 0. 0. 0. 1.
      0. 0. 0. 0. 0. 0. 0. 0. 0. 0. 0. 0. 0. 0. 0. 0. 0. 0. 0. 0. 0. 0.
      0. 0. 0. 0. 0. 0. 0. 0. 0. 0. 0. 0. 2. 0. 0. 1. 0. 0. 1. 0. 0. 0.
      0. 0. 0. 0. 0. 1. 0. 0. 0. 0. 0. 0. 1. 0. 0. 2. 1. 0. 1. 1. 0. 0.
      0. 0. 0. 0. 0. 0. 0. 0. 0. 0. 0. 0. 0. 0. 0. 0. 0. 0. 0. 0. 1. 0.
      0. 0. 0. 0. 0. 0. 0. 0. 0. 0. 0. 0. 2. 1. 0. 0. 0. 0. 0. 0. 0. 0.
      0. 1. 0. 0. 0. 0. 0. 0. 0. 0. 1. 1. 0. 0. 2. 0. 1. 0. 0. 0. 0. 0.
      0. 1. 1. 0. 0. 0. 1. 1. 0. 0. 0. 0. 0. 0. 0. 0. 0. 0. 0. 0. 0. 0.
      0. 0. 0. 0. 1. 0. 0. 0. 0. 0. 1. 0. 0. 0. 0. 0. 0. 0. 0. 0. 0. 1.
      0. 0. 0. 0. 0. 0. 0. 0. 0. 0. 0. 0. 0. 0. 0. 0. 0. 0. 0. 0. 0. 0.
      0. 2. 0. 0. 0. 0. 0. 0. 0. 0. 0. 0. 0. 0. 0. 0. 1. 0. 0. 0. 0. 0.
      0. 0. 0. 0. 1. 0. 0. 0. 0. 0. 0. 0. 0. 0. 0. 0. 0. 0. 0. 0. 0. 0.
      0. 0. 0. 0. 0. 0. 0. 0. 0. 0. 0. 0.</_>
    <_>
      0. 0. 0. 0. 0. 0. 1. 0. 0. 0. 0. 2. 0. 0. 0. 1. 0. 0. 0. 4. 2. 0.
      0. 1. 0. 0. 0. 0. 15. 0. 0. 0. 1. 0. 2.99999976e+00 0. 0. 1. 0. 0.
      0. 0. 0. 0. 0. 0. 0. 1. 0. 1. 1. 0. 0. 2. 1. 0. 0. 1. 0. 0. 0. 0.
      0. 0. 0. 0. 0. 0. 0. 2. 1. 0. 0. 0. 0. 0. 0. 0. 0. 0. 5. 1. 0. 0.
      0. 0. 0. 11. 0. 1. 1. 1. 0. 2. 0. 0. 0. 0. 0. 0. 0. 0. 0. 1. 1. 1.
      0. 0. 1. 0. 0. 0. 1. 1. 0. 0. 2. 0. 0. 0. 1. 0. 0. 0. 2. 0. 0. 0.
      1. 0. 5.99999952e+00 0. 0. 1.19999990e+01 1. 2. 0. 2. 0. 0. 0. 0.
      0. 0. 0. 0. 0. 0. 0. 0. 0. 0. 0. 2. 0. 0. 0. 2. 0. 0. 2. 1. 2. 0.
      0. 0. 0. 0. 1. 0. 0. 1. 0. 0. 1. 0. 0. 1. 1. 0. 0. 0. 0. 0. 0. 0.
      0. 0. 0. 7. 0. 1. 0. 0. 2. 0. 0. 1. 0. 0. 1. 0. 0. 0. 0. 0. 0. 0.
      0. 0. 0. 1. 0. 0. 0. 0. 0. 0. 0. 0. 0. 0. 0. 0. 0. 0. 0. 0. 0. 1.
      0. 0. 0. 0. 0. 0. 0. 1. 0. 0. 0. 0. 0. 0. 0. 0. 1. 0. 0. 0. 0.
      2.99999976e+00 2.99999976e+00 0. 0. 2. 0. 1. 0. 0. 0. 0. 2. 0. 0.
      0. 1. 0. 0. 0. 0. 0. 0. 0. 0. 0. 0. 0. 0. 0. 1. 0. 0. 0. 1. 0. 0.
      0. 1. 1. 0. 2. 0. 0. 1. 0. 0. 0. 0. 0. 0. 0. 1. 0. 0. 0. 1. 1. 0.
      1. 0. 1. 1. 0. 0. 0. 0. 0. 0. 0. 1. 1. 0. 0. 2. 0. 1. 0. 1. 0. 1.
      2. 0. 0. 1. 0. 1. 0. 0. 0. 0. 0. 0. 1. 2.99999976e+00 0. 0. 0. 0.
      0. 0. 1. 0. 0. 0. 0. 1. 0. 0. 1. 1. 0. 1. 0. 1. 2. 0. 1. 0. 0. 1.
      0. 0. 0. 0. 0. 0. 1. 0. 0. 0. 0. 0. 1. 1. 0. 0. 5. 0. 0.
      2.99999976e+00 0. 1. 0. 2. 0. 0. 0. 0. 0. 0. 0. 0. 0. 0. 0. 1. 1.
      0. 0. 0. 2. 0. 0. 1. 1. 0. 0. 0. 0. 0. 1. 1. 0. 5.99999952e+00 1.
      0. 0. 1. 0. 1. 0. 0. 0. 0. 0. 1. 0. 0. 0. 0. 0. 1. 2. 0. 7. 0. 0.
      0. 1. 0. 0. 1. 1. 0. 0. 0. 0. 0. 0. 0. 1. 1. 0. 0. 2. 0. 0. 0. 1.
      0. 0. 0. 0. 0. 0. 1. 0. 0. 0. 0. 0. 0. 0. 0. 0. 1. 1. 0. 0. 0. 0.
      4. 0. 0. 0. 0. 1. 0. 0. 0. 1. 0. 0. 2. 0. 0. 0. 2. 0. 0. 0. 0. 2.
      1. 0. 0. 0. 0. 0. 0. 0. 0. 0. 0. 0. 0. 1. 0. 2. 0. 0. 0. 0. 2. 0.
      0. 0. 0. 0. 0. 0. 2.99999976e+00 0. 1. 0. 0. 0. 1. 1. 1. 0. 0. 0.
      2. 1. 1. 0. 0. 0. 0. 2. 2. 0. 0. 2.99999976e+00 2.99999976e+00 0.
      0. 0. 0. 1. 2.99999976e+00 0. 0. 0. 0. 0. 5. 0. 0. 0. 0. 0. 0. 0.
      0. 0. 0. 0. 0. 0. 0. 0. 0. 0. 1. 0. 1. 0. 0. 1. 0. 0. 0. 1. 0. 1.
      0. 0. 0. 0. 0. 1. 0. 1. 0. 0. 0. 0. 0. 1. 1. 0. 0. 0. 0. 0. 1. 0.
      4. 1. 2. 1. 0. 0. 1. 1. 0. 0. 0. 1. 1. 0. 0. 0. 0. 0. 0. 0. 0. 0.
      0. 0. 0. 0. 2. 0. 2.99999976e+00 2. 0. 1. 0. 0. 0. 0. 0. 0. 0. 0.
      1. 0. 7. 0. 0. 0. 0. 1. 1. 1. 0. 0. 4. 0. 1. 0. 0. 0. 1. 0. 0. 1.
      0. 0. 2. 0. 0. 0. 0. 0. 0. 0. 0. 1. 0. 1. 0. 0. 0. 0. 0. 1.
      2.99999976e+00 0. 1. 0. 0. 0. 0. 0. 1. 0. 2. 0. 0. 0. 2. 0. 1. 0.
      1. 0. 0. 0. 0. 0. 2.99999976e+00 0. 0. 0. 0. 1. 0. 0. 2.
      2.99999976e+00 0. 0. 0. 0. 1. 4. 0. 0. 2. 1. 0. 0. 0. 1. 1. 0. 4.
      0. 0. 0. 0. 0. 1. 1. 0. 0. 1. 2. 0. 0. 0. 1. 1. 0. 0. 0. 0. 1. 1.
      2. 2.99999976e+00 0. 4. 0. 0. 0. 0. 0. 0. 0. 1. 0. 0. 0.</_>
    <_>
      1. 0. 2. 2. 2. 0. 2. 7.00000048e+00 2. 3.00000024e+00 0.
      1.10000010e+01 0. 19. 2. 3.00000024e+00 1. 1. 1. 1. 1. 4.
      3.00000024e+00 1. 2. 6.00000048e+00 2. 0. 3.00000024e+00 0. 5.
      7.00000048e+00 1. 1. 1. 1. 1. 3.00000024e+00 0. 3.00000024e+00
      7.00000048e+00 15. 1. 2. 2. 0. 2. 2. 3.00000024e+00 1. 5. 1. 2. 1.
      0. 2. 1. 0. 2. 3.00000024e+00 1. 0. 0. 2. 5. 2. 2. 0. 1. 2.
      6.00000048e+00 0. 1. 1. 0. 2. 0. 0. 1. 3.00000024e+00 2. 5. 1. 1.
      2. 2. 4. 2. 4. 5. 7.00000048e+00 3.00000024e+00 2. 0.
      3.00000024e+00 1. 4. 1. 0. 1. 0. 2. 1. 0. 10. 1. 0. 1.
      3.00000024e+00 3.00000024e+00 0. 2. 0. 2. 13. 0. 1. 4.
      3.00000024e+00 2. 1. 1. 6.00000048e+00 1. 2. 2. 3.00000024e+00 2.
      0. 0. 2. 1. 1. 5. 1. 4. 0. 0. 1. 0. 0. 2. 0. 2. 1. 0. 0. 0. 1. 1.
      2. 1.20000010e+01 0. 3.00000024e+00 8. 1. 0. 2. 0. 2. 2. 1. 1. 1.
      1. 2. 0. 1. 1. 0. 1. 4. 3.00000024e+00 2. 0. 0. 2. 0.
      3.00000024e+00 0. 1. 0. 1. 2. 1. 0. 3.00000024e+00 1. 1. 5. 4. 1.
      0. 0. 3.00000024e+00 0. 1. 3.00000024e+00 3.00000024e+00 0.
      3.00000024e+00 0. 4. 1. 0. 1. 1.20000010e+01 2. 0. 2. 0. 0. 1. 1.
      4. 0. 1. 1. 1. 1. 1. 4. 0. 0. 0. 0. 3.00000024e+00 2. 2. 0. 2. 1.
      0. 2. 1. 4. 1. 0. 7.00000048e+00 1. 3.00000024e+00 1. 1. 0. 2. 1.
      2. 5. 1. 3.00000024e+00 2. 0. 0. 1. 0. 0. 1. 2. 3.00000024e+00 1.
      16. 5. 1. 0. 2. 1. 1. 1. 0. 10. 3.00000024e+00 0. 4.
      6.00000048e+00 2. 0. 0. 1. 1. 3.00000024e+00 3.00000024e+00 2. 1.
      2. 1. 3.00000024e+00 1. 1. 2. 1. 8. 0. 5. 2. 0. 1. 15. 0. 2. 0. 9.
      0. 3.00000024e+00 2. 1. 2. 3.00000024e+00 0. 0. 1. 1. 1. 0. 1. 1.
      1. 4. 2. 1. 1. 0. 1. 2. 0. 2. 5. 1. 1. 2. 1. 3.00000024e+00 1. 5.
      1. 3.00000024e+00 2. 1. 5. 6.00000048e+00 1. 1. 1. 0. 4. 1. 1. 1.
      2. 1. 1. 0. 2. 1. 3.00000024e+00 1. 1. 2. 2. 3.00000024e+00 1. 1.
      1. 2. 1. 2. 2. 3.00000024e+00 3.00000024e+00 2. 4. 6.00000048e+00
      1. 2.20000019e+01 0. 4. 1. 0. 0. 5. 1. 2. 0. 1. 1. 1. 1.
      6.00000048e+00 0. 4. 2. 0. 1. 1. 3.00000024e+00 1. 2. 2. 4. 1. 2.
      0. 0. 1. 1. 1. 4. 0. 1. 1. 0. 3.00000024e+00 0. 1. 0. 0.
      6.00000048e+00 0. 1. 0. 0. 4. 1. 0. 1. 4. 1. 2. 0. 3.00000024e+00
      0. 0. 6.00000048e+00 0. 0. 13. 1. 3.00000024e+00 2. 2. 1. 1. 2. 0.
      1. 2. 6.00000048e+00 1. 3.00000024e+00 1. 3.00000024e+00 1. 0. 1.
      2. 5. 2. 1. 2. 6.00000048e+00 1. 1. 1. 9. 1. 1. 1. 2. 2. 2. 2. 1.
      3.00000024e+00 0. 1. 6.00000048e+00 3.00000024e+00 2. 0. 13. 4. 1.
      1. 0. 1. 0. 1. 1. 1. 0. 1. 3.00000024e+00 0. 2. 0. 0. 1. 19. 2. 0.
      6.00000048e+00 0. 3.00000024e+00 0. 1. 3.00000024e+00 0. 2.
      3.00000024e+00 2. 0. 0. 0. 3.00000024e+00 2. 1. 0. 0. 0. 1. 2. 0.
      1. 1. 2. 2. 0. 2. 1. 0. 2. 0. 0. 2. 0. 0. 1. 0. 0. 1.
      6.00000048e+00 0. 0. 1. 5. 5. 0. 0. 2. 0. 2. 0. 4. 1. 1. 2. 5.
      6.00000048e+00 2. 0. 6.00000048e+00 13. 0. 0. 0. 1. 0.
      3.00000024e+00 3.00000024e+00 1. 0. 1. 1. 1. 0. 1. 1.
      6.00000048e+00 0. 4. 2. 2. 3.00000024e+00 2. 2. 0. 2. 0. 2.
      3.00000024e+00 0. 0. 3.00000024e+00 0. 2. 2. 3.00000024e+00 2. 0.
      1. 3.00000024e+00 2. 0. 10. 1. 1. 0. 4. 0. 5. 1. 1. 4. 2.
      3.00000024e+00 0. 2. 0. 1. 1. 0. 2. 0. 1. 1. 0. 2. 5. 0. 0. 0. 1.
      2. 5. 1. 0. 4. 1. 1. 1. 15. 2. 0. 1. 0. 2. 5. 1. 0. 0. 0. 5. 1. 2.
      1. 1. 2. 0. 2. 1. 1. 1. 1. 2. 1. 3.00000024e+00 4. 0. 0.
      3.00000024e+00 1. 0. 0. 0. 2. 4. 2. 0. 0. 0. 2. 2. 3.00000024e+00
      0. 1. 1. 2. 1. 0. 1. 2. 2. 0. 1. 0. 1. 3.00000024e+00 0. 1. 1. 0.
      1. 2. 1. 1. 0. 1. 0. 1. 0. 0. 0. 0. 2. 1. 2. 1.40000010e+01 1. 0.
      0. 1. 2.70000019e+01 1. 1. 2. 0. 3.00000024e+00 0. 2. 2. 1. 0. 1.
      0. 2. 2. 4. 4. 4. 3.00000024e+00 2. 2. 1. 4. 0. 2. 3.00000024e+00
      2. 1. 3.00000024e+00 1.20000010e+01 0. 0. 1. 9. 4. 1. 0. 2. 1.
      3.00000024e+00 2. 1. 2. 1. 0. 0. 5. 1. 2. 1. 0. 1. 1. 0. 0.
      3.00000024e+00 0. 2. 0. 2. 1. 0. 4. 1. 1. 1. 0. 1. 0. 0. 1. 2. 0.
      3.00000024e+00 1. 0. 1. 2. 0. 19.</_>
    <_>
      0. 0. 1. 0. 1. 0. 3.00000024e+00 2. 1. 0. 2. 8. 4. 0. 2. 1. 0.
      3.00000024e+00 1. 1. 3.00000024e+00 2. 0. 1. 0. 0. 0. 4. 9. 1. 0.
      3.00000024e+00 0. 1. 6.00000048e+00 0. 1. 1. 2. 1. 0. 0. 2. 11. 4.
      1. 0. 1. 0. 2. 2. 0. 5. 0. 2. 0. 0. 0. 2. 6.00000048e+00 1.
      3.00000024e+00 0. 1. 0. 0. 10. 0. 1. 2. 2. 2. 0. 6.00000048e+00 0.
      1. 2. 1. 0. 0. 2. 0. 0. 4. 1. 0. 2. 3.00000024e+00 2.
      3.00000024e+00 1. 2. 0. 1. 1. 0. 2. 0. 0. 0. 1. 1. 1. 0. 2. 1. 0.
      2. 2. 3.00000024e+00 0. 7. 1. 1. 9. 1. 3.00000024e+00
      3.00000024e+00 1. 0. 5. 0. 0. 0. 3.00000024e+00 2. 3.00000024e+00
      0. 0. 0. 5. 2. 2. 7. 0. 1. 3.00000024e+00 7. 1. 0. 2. 1. 4. 2. 0.
      1. 1. 0. 0. 3.00000024e+00 2. 0. 2. 1. 5. 4. 5. 1. 2. 2. 2. 2. 1.
      0. 0. 2. 2. 3.00000024e+00 1. 2. 2. 1. 0. 0. 2. 2. 2. 5.
      6.00000048e+00 1. 0. 0. 0. 0. 1. 2. 0. 0. 2. 11. 1. 0. 0.
      3.00000024e+00 2. 0. 0. 1. 1. 0. 1. 1. 1. 0. 0. 2. 2. 1. 0. 0. 1.
      1. 1. 0. 4. 2. 4. 0. 0. 2. 1. 3.00000024e+00 0. 0. 0. 2. 0. 1. 0.
      6.00000048e+00 5. 1. 1. 0. 2. 1. 1. 0. 0. 3.00000024e+00 5. 0. 0.
      0. 1. 2. 0. 1. 2. 1. 1. 2. 5. 0. 5. 0. 3.00000024e+00 0. 1. 2. 18.
      0. 2. 4. 1. 0. 1. 2. 0. 7. 0. 2. 0. 1. 1. 2. 1. 0. 3.00000024e+00
      4. 2. 2. 1. 0. 1. 3.00000024e+00 0. 4. 2. 1. 6.00000048e+00 2. 1.
      2. 3.00000024e+00 0. 0. 3.00000024e+00 0. 0. 7. 1. 0. 2. 0. 1. 5.
      1. 0. 0. 4. 1. 0. 0. 0. 0. 5. 2. 2. 1. 0. 1. 1. 0. 3.00000024e+00
      1. 2. 3.00000024e+00 0. 0. 0. 4. 1. 1. 1. 3.00000024e+00 1. 2. 0.
      2. 0. 3.00000024e+00 0. 1. 2. 0. 0. 2. 1. 4. 0. 0. 1. 0. 1. 1. 1.
      1. 0. 1. 1. 2. 0. 2. 0. 0. 0. 1. 0. 8. 0. 0. 5. 0. 3.00000024e+00
      1. 5. 0. 0. 0. 0. 0. 0. 0. 3.00000024e+00 2. 3.00000024e+00
      3.00000024e+00 4. 0. 1. 0. 0. 1. 1. 0. 1. 1. 1. 1. 2. 0. 0. 1. 0.
      1. 0. 1. 1. 2. 1. 2. 0. 1. 1. 0. 0. 0. 0. 1. 1. 1. 1. 1.
      6.00000048e+00 4. 1. 0. 0. 1. 5. 2. 0. 0. 6.00000048e+00 0. 0. 0.
      1. 0. 0. 2. 0. 3.00000024e+00 2. 1.20000010e+01 2. 1. 1. 0. 1. 2.
      1. 3.00000024e+00 1. 1. 4. 0. 1. 1. 1. 1. 2. 0. 6.00000048e+00
      3.00000024e+00 0. 3.00000024e+00 1. 4. 0. 0. 2. 2. 0. 0. 1.
      3.00000024e+00 6.00000048e+00 0. 0. 0. 2. 0. 1. 3.00000024e+00
      3.00000024e+00 1. 1. 2. 0. 0. 2. 3.00000024e+00 1. 3.00000024e+00
      0. 0. 0. 33. 1. 1. 0. 0. 0. 0. 0. 4. 4. 1. 3.00000024e+00 1.
      3.00000024e+00 3.00000024e+00 1. 3.00000024e+00 0. 1. 0. 0. 1. 2.
      6.00000048e+00 0. 0. 2. 0. 0. 1. 1. 1. 2. 1. 0. 0. 0. 0. 1. 1. 0.
      0. 0. 1. 4. 0. 0. 0. 2. 0. 4. 0. 0. 3.00000024e+00 0. 0. 1. 0. 1.
      0. 2. 0. 0. 5. 1. 4. 1. 3.00000024e+00 3.00000024e+00 0.
      3.00000024e+00 1. 1. 3.00000024e+00 0. 0. 1. 0. 2. 1. 0. 1. 0. 2.
      0. 0. 0. 0. 2. 3.00000024e+00 0. 0. 0. 2. 0. 0. 5. 0. 0. 4. 1. 4.
      2. 0. 2. 1. 0. 4. 3.00000024e+00 1. 0. 2. 0. 3.00000024e+00 2. 1.
      0. 0. 0. 0. 1. 2. 3.00000024e+00 2. 1. 0. 0. 0. 2. 4. 2.
      3.00000024e+00 0. 2. 0. 0. 0. 2. 0. 2. 0. 0. 2. 3.00000024e+00 1.
      0. 1. 0. 0. 3.00000024e+00 0. 0. 0. 1. 0. 2. 1. 4. 1. 1. 2. 2. 5.
      1. 4. 1. 0. 0. 0. 2. 0. 2. 1. 3.00000024e+00 2. 0. 0. 2. 4. 4. 0.
      0. 0. 3.00000024e+00 2. 0. 0. 1. 3.00000024e+00 0. 1. 1. 1. 0. 0.
      1. 5. 0. 0. 1. 5. 0. 3.00000024e+00 0. 1. 2. 0. 0. 3.00000024e+00
      2. 0. 0. 4. 4. 0. 1. 9. 0. 1. 1. 0. 3.00000024e+00 1. 2. 1. 0. 4.
      3.00000024e+00 0. 8. 3.00000024e+00 0. 0. 1. 1. 1. 0. 2. 4. 2. 0.
      0. 1. 0. 0. 0. 1. 3.00000024e+00 1. 1. 0. 0. 0. 6.00000048e+00 0.
      0. 0. 2. 3.00000024e+00 1. 1. 1. 0. 1. 1. 0. 0. 1. 0. 4. 5. 4. 2.
      1. 0. 2. 1. 19. 1. 0. 0. 1. 1. 0. 1. 3.00000024e+00 1. 1. 1. 0. 2.
      1. 2. 8. 1. 0. 1. 0. 0. 4. 0.</_>
    <_>
      0. 0. 0. 0. 0. 0. 1. 1. 0. 1. 0. 0. 0. 0. 2. 1. 0. 0. 0. 0. 0. 0.
      0. 0. 0. 0. 0. 0. 1. 0. 2. 2. 1. 0. 0. 1. 0. 0. 0. 0. 0. 0. 1. 0.
      1. 1. 0. 0. 1. 0. 0. 0. 0. 0. 0. 0. 0. 0. 1. 0. 0. 0. 0. 1. 1. 0.
      0. 0. 1. 0. 2. 0. 1. 1. 0. 0. 0. 0. 2. 0. 0. 0. 0. 0. 0. 1. 0. 0.
      0. 0. 0. 0. 0. 0. 0. 0. 0. 0. 0. 0. 1. 0. 0. 0. 0. 0. 0. 1. 0. 0.
      0. 0. 0. 0. 0. 0. 0. 1. 0. 1. 0. 1. 0. 0. 1. 0. 0. 0. 0. 0. 0. 0.
      0. 0. 1. 0. 0. 0. 0. 0. 1. 0. 0. 0. 0. 1. 0. 0. 0. 0. 0. 0. 0. 1.
      0. 0. 0. 1. 1. 1. 0. 0. 0. 0. 0. 0. 2. 2. 1. 1. 0. 0. 0. 0. 0. 0.
      0. 2. 0. 0. 0. 0. 0. 0. 0. 0. 1. 0. 0. 0. 0. 0. 0. 0. 0. 0. 0. 0.
      1. 1. 1. 0. 1. 0. 0. 0. 0. 0. 1. 0. 0. 1. 0. 0. 0. 0. 2. 0. 1. 1.
      0. 0. 0. 2. 1. 1. 0. 0. 0. 1. 0. 1. 1. 0. 0. 1. 0. 0. 0. 0. 0. 1.
      0. 0. 0. 1. 2. 0. 0. 0. 0. 0. 0. 0. 0. 0. 0. 0. 0. 0. 0. 1. 0. 0.
      0. 0. 2. 0. 0. 0. 0. 0. 0. 0. 0. 0. 0. 0. 1. 1. 1. 0. 1. 0. 0. 0.
      1. 0. 1. 0. 0. 0. 1. 0. 0. 0. 0. 1. 0. 0. 0. 0. 0. 0. 0. 0. 0. 1.
      2. 0. 0. 0. 0. 0. 1. 0. 0. 1. 0. 1. 0. 0. 1. 0. 0. 0. 1. 0. 1. 0.
      0. 0. 0. 0. 0. 1. 0. 0. 0. 1. 0. 0. 0. 0. 0. 1. 1. 0. 0. 0. 0. 0.
      1. 1. 0. 0. 0. 1. 0. 0. 0. 2. 0. 0. 1. 1. 0. 1. 0. 0. 0. 0. 0. 2.
      0. 0. 0. 0. 0. 0. 0. 0. 1. 1. 0. 1. 1. 1. 0. 0. 0. 0. 0. 1. 0. 0.
      2. 0. 1. 1. 0. 0. 0. 1. 1. 0. 0. 0. 0. 0. 0. 0. 0. 0. 0. 2. 0. 0.
      1. 0. 0. 0. 0. 0. 1. 1. 0. 0. 0. 0. 0. 0. 1. 2. 0. 0. 0. 0. 0. 0.
      0. 0. 1. 2. 0. 0. 0. 0. 0. 0. 2. 0. 0. 1. 0. 0. 0. 0. 0. 0. 0. 0.
      0. 0. 0. 0. 0. 0. 0. 0. 0. 0. 0. 1. 0. 0. 0. 0. 0. 0. 0. 0. 0. 0.
      0. 0. 0. 0. 0. 0. 0. 0. 2. 0. 0. 0. 0. 0. 0. 1. 1. 0. 0. 0. 0. 0.
      0. 0. 0. 0. 0. 0. 0. 1. 0. 0. 1. 0. 0. 1. 2. 0. 0. 0. 2. 0. 0. 0.
      0. 0. 0. 0. 0. 0. 1. 1. 0. 0. 0. 0. 0. 0. 0. 0. 0. 1. 0. 1. 0. 0.
      0. 0. 0. 0. 1. 0. 0. 0. 0. 0. 0. 1. 0. 1. 1. 0. 1. 0. 0. 0. 0. 0.
      0. 0. 2. 0. 0. 1. 0. 2. 0. 0. 0. 0. 1. 0. 2. 0. 0. 0. 0. 0. 0. 1.
      1. 0. 0. 3. 1. 0. 0. 0. 0. 0. 0. 0. 1. 0. 0. 0. 0. 0. 3. 0. 0. 0.
      1. 0. 2. 0. 1. 0. 0. 0. 0. 0. 0. 0. 0. 0. 0. 0. 0. 0. 0. 0. 0. 0.
      0. 0. 0. 0. 0. 0. 2. 0. 0. 0. 0. 0. 0. 0. 1. 0. 0. 0. 1. 0. 1. 0.
      1. 1. 0. 0. 0. 0. 0. 0. 1. 0. 1. 0. 0. 2. 1. 0. 0. 0. 0. 0. 0. 0.
      1. 0. 0. 2. 0. 0. 0. 0. 0. 0. 0. 0. 2. 0. 0. 0. 0. 0. 0. 2. 0. 0.
      0. 0. 0. 0. 1. 0. 0. 0. 0. 0. 0. 0. 0. 0. 0. 1. 0. 0. 1. 1. 0. 0.
      0. 0. 0. 0. 0. 0. 0. 0. 0. 0. 0. 1. 0. 0. 0. 0. 0. 0. 0. 2. 0. 0.
      1. 0. 0. 0. 0. 0. 1. 2. 0. 0. 0. 1. 1. 0. 1. 0. 0. 0. 0. 1. 0. 0.
      0. 0. 0. 0. 1. 1. 0. 0. 0. 0. 0. 0. 0. 0. 1. 1. 0. 0. 0. 0. 0. 0.
      0. 0. 0. 0. 0. 0. 0. 0.</_>
    <_>
      0. 0. 1. 0. 0. 0. 4. 1. 0. 1. 0. 1. 0. 0. 0. 1. 0. 1. 0. 0. 0. 0.
      0. 0. 1. 3. 1. 2. 4. 1. 1. 1. 0. 0. 2. 0. 1. 0. 0. 0. 1.
      1.50000010e+01 0. 0. 2. 1. 1. 1. 1. 1. 0. 0. 0. 0. 2. 0. 0. 1. 2.
      0. 3. 1. 0. 2. 2. 1. 0. 1. 0. 1. 2. 0. 0. 1. 1. 0. 0. 4. 2. 1. 1.
      2. 1. 1. 1. 1. 0. 3. 2. 1. 0. 0. 1. 2. 0. 0. 1. 0. 0. 2. 1. 0. 2.
      0. 2. 0. 0. 1. 3. 1. 0. 2. 0. 0. 0. 1. 2. 2. 0. 1. 0. 1.
      1.30000010e+01 0. 0. 0. 0. 2. 1. 1. 2. 1. 2. 1. 0. 1. 0. 0. 2. 0.
      0. 0. 1. 0. 1. 1. 0. 0. 0. 1. 0. 1.30000010e+01 2. 1. 0. 0. 0. 1.
      0. 0. 4. 1. 1. 1. 0. 0. 2. 1. 0. 0. 0. 0. 0. 0. 0. 0. 0. 0. 2. 1.
      2. 2. 0. 0. 1. 2. 0. 0. 0. 3. 2. 0. 1. 0. 0. 0. 0. 2. 4. 1. 0. 1.
      0. 2. 1. 3. 1. 0. 1. 1. 0. 1. 0. 0. 2. 0. 1. 3. 1. 3. 0. 2. 1. 2.
      1. 2. 2. 0. 1. 0. 1. 1. 0. 1. 0. 1. 3. 1. 0. 0. 0. 0. 6. 1. 0. 1.
      1. 3. 2. 1. 0. 2. 1. 1. 0. 0. 1. 1. 0. 0. 0. 0. 0. 0. 0. 1. 0. 0.
      0. 0. 1. 2. 1. 6. 1. 0. 1. 0. 2. 0. 0. 1. 0. 0. 0. 2. 1. 0. 0. 3.
      1. 0. 8. 0. 0. 1. 21. 2. 2. 1. 0. 0. 2. 0. 0. 1. 1. 0. 0. 1. 2. 1.
      2. 1. 0. 0. 0. 3. 2. 3. 4. 0. 0. 0. 0. 0. 1. 0. 1. 0. 0. 6. 1. 1.
      0. 0. 0. 0. 2. 0. 0. 0. 0. 7. 1. 0. 0. 0. 0. 0. 0. 0. 0. 0. 1. 0.
      1. 1. 2. 0. 1. 0. 1. 1. 0. 0. 2. 0. 0. 0. 0. 1. 0. 0. 0. 2. 1. 0.
      5.00000048e+00 0. 0. 0. 0. 0. 3. 0. 2. 2. 0. 0. 0. 0. 0. 0. 3. 0.
      0. 5.00000048e+00 0. 1. 0. 0. 1. 0. 0. 2. 1. 1. 1. 1. 0. 0. 1. 0.
      0. 1. 1. 3. 0. 0. 0. 1. 0. 0. 5.00000048e+00 2. 3. 0. 1. 1. 0. 0.
      1. 3. 0. 2. 2. 1. 0. 0. 0. 0. 0. 3. 0. 0. 1. 0. 4. 0. 2. 1. 0. 0.
      0. 0. 1. 0. 3. 0. 1. 2. 5.00000048e+00 0. 0. 1. 0. 0. 0. 1. 0. 1.
      0. 0. 1. 0. 0. 1. 2. 2. 0. 1. 2. 0. 0. 0. 0. 0. 2. 1. 0. 0. 2.
      5.00000048e+00 0. 2. 21. 1. 2. 0. 0. 3. 0. 0. 0. 0. 2. 1. 2. 1. 0.
      0. 0. 2. 1. 1. 1. 0. 0. 1. 1. 1. 1. 3. 1. 0. 0. 0. 1. 3. 3. 1. 1.
      0. 0. 0. 0. 0. 0. 8. 0. 1. 2. 0. 1. 0. 2. 0. 0. 1. 0. 2. 3. 0. 0.
      1. 2. 0. 1. 3. 7. 0. 0. 1. 0. 0. 2. 2. 0. 0. 0. 0. 5.00000048e+00
      1. 0. 5.00000048e+00 0. 1. 3. 0. 2. 3. 1. 0. 1. 0. 0. 1. 0. 0. 0.
      2. 0. 2. 3. 1. 2. 0. 1. 2. 1. 1. 1.90000019e+01 3. 4. 0. 0. 0. 0.
      0. 1. 0. 0. 1. 0. 0. 0. 0. 2. 0. 1. 2. 2. 0. 0. 1. 9. 0. 1. 0. 1.
      1. 2. 1. 1. 2. 0. 0. 0. 1. 3. 1. 0. 0. 0. 0. 1. 0. 1. 0.
      5.00000048e+00 1. 0. 3. 0. 0. 2. 1. 5.00000048e+00 3. 0. 0. 1. 4.
      1. 1. 0. 3. 0. 1. 3. 1. 1. 0. 11. 1. 0. 1. 4. 0. 3. 1. 0. 2. 0. 3.
      0. 2. 1. 2. 3. 0. 0. 0. 0. 0. 0. 0. 1. 0. 1. 0. 1. 3. 0. 0. 0. 1.
      3. 2. 0. 2. 1. 0. 2. 2. 1. 0. 2. 0. 0. 1. 1. 0. 1. 1. 0. 0. 1. 0.
      1. 1. 0. 1. 2. 6. 0. 1. 1. 0. 0. 2. 1.00000010e+01 3. 0. 3. 0. 1.
      2. 17. 0. 0. 2. 8. 3. 1. 0. 0. 1. 1. 2. 3. 0. 0. 0. 2. 3. 0. 1. 0.
      0. 1. 1. 0. 0. 0. 2. 0. 1. 1. 0. 0. 0. 1. 0. 1. 0. 0. 14. 0. 0. 0.
      1. 0. 1. 4. 0. 3. 0. 28.</_>
    <_>
      1. 0. 0. 0. 1. 0. 0. 0. 0. 0. 1. 0. 0. 0. 1. 0. 0. 2. 1. 0. 1. 0.
      0. 0. 1. 0. 0. 0. 0. 1. 0. 0. 0. 1. 1. 0. 0. 2. 0. 0. 0. 0. 0. 1.
      1. 0. 0. 0. 1. 0. 0. 0. 0. 0. 0. 0. 2. 0. 0. 1. 0. 0. 1. 0. 0. 0.
      0. 0. 1. 0. 1. 0. 0. 0. 1. 0. 0. 0. 0. 0. 1. 1. 1. 0. 0. 0. 1. 0.
      0. 2. 0. 0. 0. 1. 0. 0. 1. 1. 0. 0. 1. 0. 3. 0. 0. 0. 1. 1. 0. 1.
      0. 0. 0. 0. 0. 0. 1. 0. 0. 0. 0. 0. 1. 0. 0. 0. 3. 1. 0. 0. 0. 0.
      1. 2. 0. 0. 0. 0. 1. 0. 0. 2. 0. 1. 0. 1. 0. 0. 0. 0. 1. 0. 0. 0.
      0. 0. 1. 0. 0. 1. 0. 0. 1. 0. 0. 0. 2. 0. 3. 0. 0. 1. 0. 0. 0. 0.
      0. 0. 0. 0. 0. 0. 0. 0. 0. 1. 0. 0. 1. 0. 0. 0. 0. 0. 1. 1. 2. 0.
      0. 0. 0. 0. 1. 0. 0. 1. 0. 0. 0. 1. 0. 0. 1. 0. 2. 0. 1. 0. 0. 0.
      0. 1. 0. 0. 0. 0. 0. 0. 0. 1. 1. 0. 1. 1. 0. 0. 0. 0. 0. 1. 1. 0.
      0. 0. 0. 2. 1. 0. 0. 0. 0. 0. 1. 0. 1. 1. 1. 0. 0. 0. 0. 0. 0. 0.
      0. 1. 0. 0. 0. 0. 1. 2. 0. 0. 3. 0. 0. 0. 1. 0. 0. 0. 0. 0. 0. 2.
      0. 1. 1. 0. 0. 0. 1. 0. 1. 1. 0. 2. 0. 0. 0. 1. 1. 0. 0. 1. 0. 0.
      0. 0. 0. 2. 0. 1. 1. 0. 0. 0. 0. 0. 3. 1. 0. 0. 0. 0. 1. 0. 1. 0.
      0. 0. 0. 0. 1. 0. 0. 0. 0. 0. 0. 0. 0. 2. 1. 1. 1. 0. 0. 0. 0. 0.
      0. 2. 1. 0. 0. 0. 0. 0. 1. 0. 0. 1. 0. 0. 0. 0. 0. 0. 0. 0. 0. 0.
      0. 0. 0. 0. 0. 0. 1. 0. 1. 1. 1. 0. 0. 1. 0. 0. 0. 0. 0. 0. 0. 0.
      0. 0. 1. 1. 1. 0. 0. 0. 0. 0. 1. 0. 0. 0. 0. 0. 0. 0. 0. 1. 0. 0.
      0. 1. 0. 2. 1. 0. 0. 0. 0. 0. 0. 0. 0. 0. 0. 3. 0. 0. 0. 0. 0. 1.
      0. 1. 0. 0. 0. 1. 0. 0. 0. 0. 0. 0. 0. 0. 0. 0. 0. 1. 0. 1. 0. 0.
      0. 1. 1. 0. 0. 0. 0. 0. 0. 1. 1. 0. 0. 1. 1. 0. 0. 0. 0. 0. 1. 0.
      1. 0. 0. 0. 0. 0. 0. 0. 0. 1. 0. 0. 0. 0. 0. 0. 2. 0. 1. 0. 2. 1.
      0. 0. 0. 1. 0. 0. 0. 0. 0. 0. 0. 0. 0. 0. 0. 0. 0. 1. 0. 0. 0. 0.
      0. 1. 0. 0. 0. 0. 0. 0. 2. 1. 0. 0. 0. 0. 0. 0. 0. 0. 0. 0. 0. 1.
      0. 0. 0. 0. 0. 0. 0. 0. 1. 0. 0. 1. 0. 0. 2. 0. 4. 0. 1. 0. 1. 1.
      0. 0. 1. 0. 2. 0. 0. 0. 0. 1. 0. 1. 1. 0. 1. 0. 0. 0. 0. 1. 0. 0.
      0. 0. 0. 2. 0. 0. 0. 0. 0. 1. 0. 0. 0. 0. 2. 1. 0. 0. 0. 0. 0. 0.
      0. 1. 0. 0. 1. 0. 1. 0. 0. 0. 0. 0. 0. 1. 0. 1. 0. 1. 1. 0. 0. 0.
      0. 0. 0. 0. 0. 0. 0. 0. 1. 0. 1. 0. 1. 2. 0. 3. 0. 0. 0. 0. 0. 0.
      0. 0. 0. 1. 0. 0. 0. 0. 0. 0. 1. 0. 0. 1. 1. 0. 1. 0. 1. 1. 0. 0.
      0. 1. 0. 1. 0. 0. 0. 0. 0. 1. 2. 0. 0. 0. 1. 0. 2. 0. 0. 0. 0. 0.
      1. 2. 2. 0. 2. 0. 0. 0. 0. 0. 0. 0. 1. 0. 2. 0. 0. 0. 2. 1. 0. 0.
      1. 0. 0. 0. 3. 1. 2. 0. 0. 0. 0. 1. 0. 0. 1. 0. 0. 0. 1. 0. 0. 0.
      0. 0. 0. 0. 0. 0. 0. 1. 1. 0. 0. 0. 0. 2. 0. 2. 0. 0. 0. 3. 0. 0.
      0. 0. 1. 0. 0. 2. 0. 1. 1. 0. 0. 0. 0. 0. 2. 0. 1. 0. 0. 0. 0. 0.
      0. 0. 2. 1. 0. 1. 0. 0.</_>
    <_>
      0. 0. 0. 0. 0. 0. 0. 0. 0. 0. 0. 0. 0. 0. 0. 0. 0. 0. 0. 0.
      9.99999940e-01 0. 0. 0. 0. 0. 0. 9.99999940e-01 9.99999940e-01 0.
      9.99999940e-01 0. 0. 0. 0. 0. 0. 0. 0. 0. 0. 0. 0. 0. 0.
      9.99999940e-01 0. 0. 9.99999940e-01 0. 9.99999940e-01 0. 0. 0. 0.
      0. 0. 0. 0. 0. 0. 0. 0. 0. 0. 0. 0. 0. 0. 0. 0. 0. 0. 0. 0. 0. 0.
      0. 0. 0. 9.99999940e-01 0. 0. 9.99999940e-01 9.99999940e-01 0. 0.
      0. 0. 0. 1.99999988e+00 0. 0. 0. 9.99999940e-01 0. 0. 0. 0. 0. 0.
      0. 0. 0. 1.99999988e+00 0. 0. 0. 0. 0. 0. 0. 0. 0. 0. 0. 0. 0. 0.
      0. 9.99999940e-01 0. 0. 0. 0. 0. 0. 0. 0. 0. 0. 0. 0.
      2.99999976e+00 0. 0. 0. 9.99999940e-01 0. 0. 0. 0. 0. 0. 0. 0. 0.
      0. 0. 0. 9.99999940e-01 0. 0. 0. 0. 0. 0. 0. 0. 0. 0. 0. 0. 0. 0.
      0. 0. 0. 0. 0. 9.99999940e-01 0. 0. 0. 0. 0. 0. 0. 1.99999988e+00
      0. 0. 0. 0. 0. 0. 0. 0. 0. 0. 9.99999940e-01 0. 0. 0. 0. 0. 0. 0.
      9.99999940e-01 0. 0. 0. 0. 0. 0. 0. 0. 9.99999940e-01 0. 0. 0. 0.
      0. 0. 0. 0. 0. 0. 0. 0. 0. 0. 0. 0. 0. 0. 0. 0. 0. 9.99999940e-01
      0. 0. 9.99999940e-01 0. 0. 0. 0. 0. 0. 0. 0. 0. 0. 0. 0. 0. 0. 0.
      0. 0. 0. 0. 0. 0. 9.99999940e-01 0. 0. 0. 0. 0. 0. 0. 0. 0. 0. 0.
      0. 9.99999940e-01 0. 0. 9.99999940e-01 0. 9.99999940e-01 0. 0. 0.
      0. 0. 0. 0. 0. 9.99999940e-01 0. 0. 0. 0. 0. 0. 0. 0.
      9.99999940e-01 0. 0. 0. 0. 0. 0. 0. 0. 0. 0. 9.99999940e-01
      1.99999988e+00 0. 0. 0. 0. 0. 0. 0. 0. 0. 0. 0. 0. 0. 0. 0. 0. 0.
      0. 0. 0. 0. 0. 0. 0. 0. 0. 9.99999940e-01 9.99999940e-01 0. 0. 0.
      0. 0. 0. 0. 0. 9.99999940e-01 0. 0. 0. 0. 0. 0. 0. 0. 0. 0. 0. 0.
      0. 0. 0. 9.99999940e-01 0. 0. 0. 0. 0. 9.99999940e-01
      9.99999940e-01 0. 0. 0. 0. 0. 0. 0. 0. 0. 0. 0. 0. 0. 0. 0. 0. 0.
      0. 0. 0. 9.99999940e-01 0. 0. 0. 0. 0. 1.99999988e+00 0. 0.
      9.99999940e-01 0. 0. 0. 0. 9.99999940e-01 0. 0. 0. 0. 0. 0. 0. 0.
      0. 0. 0. 0. 0. 0. 0. 0. 0. 0. 0. 0. 0. 0. 0. 0. 0. 0. 0. 0. 0. 0.
      0. 0. 0. 0. 0. 0. 0. 0. 0. 0. 0. 0. 0. 0. 0. 0. 2.99999976e+00 0.
      1.99999988e+00 0. 0. 0. 0. 0. 0. 0. 9.99999940e-01 0. 0. 0. 0. 0.
      9.99999940e-01 0. 0. 0. 0. 0. 9.99999940e-01 0. 0. 0. 0. 0. 0. 0.
      9.99999940e-01 0. 0. 0. 0. 0. 0. 9.99999940e-01 0. 0. 0. 0.
      9.99999940e-01 0. 0. 9.99999940e-01 0. 9.99999940e-01 0. 0. 0. 0.
      0. 0. 0. 0. 0. 0. 9.99999940e-01 0. 0. 0. 0. 0. 0. 0. 0. 0. 0.
      9.99999940e-01 0. 0. 0. 0. 0. 0. 0. 0. 0. 0. 0. 0. 0. 0. 0. 0.
      1.99999988e+00 0. 0. 0. 0. 0. 0. 0. 0. 0. 9.99999940e-01 0. 0.
      9.99999940e-01 0. 0. 0. 0. 0. 9.99999940e-01 0. 0. 0. 0. 0.
      9.99999940e-01 0. 0. 0. 0. 0. 0. 0. 1.99999988e+00 0. 0. 0. 0. 0.
      0. 0. 0. 0. 0. 0. 0. 0. 0. 0. 0. 0. 0. 0. 0. 0. 0. 0. 0. 0. 0. 0.
      0. 0. 0. 9.99999940e-01 0. 0. 0. 0. 0. 0. 0. 1.99999988e+00 0. 0.
      0. 9.99999940e-01 0. 1.99999988e+00 1.99999988e+00 0. 0. 0. 0. 0.
      0. 0. 0. 0. 0. 0. 0. 0. 0. 0. 0. 0. 0. 0. 1.99999988e+00 0. 0. 0.
      9.99999940e-01 0. 0. 0. 0. 0. 0. 0. 9.99999940e-01 0. 0. 0. 0.
      9.99999940e-01 9.99999940e-01 0. 0. 0. 0. 0. 0. 0. 0. 0. 0. 0. 0.
      0. 0. 9.99999940e-01 0. 0. 0. 0. 0. 0. 0. 0. 0. 0. 0. 0. 0. 0. 0.
      0. 0. 9.99999940e-01 0. 0. 0. 9.99999940e-01 0. 9.99999940e-01 0.
      0. 0. 0. 9.99999940e-01 9.99999940e-01 0. 0. 0. 0. 0. 0. 0. 0. 0.
      0. 0. 0. 0. 0. 0. 0. 0. 0. 0. 0. 9.99999940e-01 0. 9.99999940e-01
      0. 0. 0. 0. 0. 0. 9.99999940e-01 0. 1.99999988e+00 0.
      9.99999940e-01 9.99999940e-01 0. 9.99999940e-01 0. 0. 0.
      9.99999940e-01 0. 0. 0. 0. 0. 0. 0. 9.99999940e-01 0. 0. 0. 0.
      9.99999940e-01 0. 0. 0. 0. 0. 0. 9.99999940e-01 9.99999940e-01 0.
      0. 0. 0. 0. 9.99999940e-01 0. 0. 0. 0. 0. 0. 0. 9.99999940e-01 0.
      0. 0. 0. 0. 0. 0. 0. 0. 0. 0. 0. 0. 0. 0. 1.99999988e+00 0. 0. 0.
      0. 0. 0. 0. 0. 0. 0. 0. 0. 0. 0. 0. 0.</_>
    <_>
      0. 1. 0. 0. 1. 0. 0. 0. 1. 0. 0. 0. 0. 0. 0. 0. 0. 0. 0. 1. 0. 0.
      0. 0. 1. 0. 0. 1. 0. 1. 1. 0. 1. 0. 0. 1. 0. 0. 0. 0. 0. 0. 0. 1.
      0. 0. 0. 0. 0. 0. 0. 0. 1. 0. 0. 2. 1. 1. 1. 0. 0. 0. 0. 0. 0. 0.
      0. 1. 0. 1. 0. 1. 1. 0. 0. 0. 0. 0. 0. 0. 0. 0. 1. 0. 0. 1. 0. 0.
      0. 0. 0. 0. 0. 1. 0. 0. 0. 0. 0. 1. 1. 0. 0. 0. 1. 0. 0. 2. 1. 0.
      0. 0. 0. 0. 0. 0. 0. 0. 1. 0. 0. 0. 0. 0. 0. 1. 0. 0. 0. 0. 0. 0.
      0. 0. 0. 1. 0. 0. 0. 0. 0. 1. 1. 0. 0. 0. 0. 1. 0. 0. 0. 0. 0. 0.
      0. 1. 0. 0. 0. 0. 0. 1. 0. 0. 0. 0. 0. 0. 0. 0. 0. 0. 0. 0. 1. 0.
      0. 0. 0. 0. 0. 0. 0. 0. 0. 0. 0. 0. 0. 0. 1. 0. 0. 0. 0. 1. 0. 0.
      0. 0. 0. 0. 0. 0. 0. 1. 1. 0. 1. 0. 0. 0. 0. 0. 0. 1. 1. 0. 0. 0.
      0. 0. 0. 0. 0. 0. 0. 0. 0. 0. 0. 0. 0. 1. 0. 0. 0. 0. 0. 0. 1. 1.
      0. 0. 0. 0. 1. 0. 0. 0. 0. 1. 0. 1. 0. 0. 2. 0. 0. 0. 0. 0. 0. 0.
      0. 1. 0. 0. 0. 0. 1. 0. 0. 0. 0. 0. 0. 0. 0. 0. 0. 0. 0. 0. 0. 0.
      0. 0. 0. 1. 0. 1. 0. 0. 0. 0. 0. 0. 0. 0. 0. 4. 0. 0. 1. 1. 0. 0.
      0. 0. 0. 0. 0. 0. 1. 0. 0. 0. 0. 0. 0. 0. 0. 0. 0. 0. 0. 2. 0. 0.
      0. 0. 0. 0. 1. 0. 0. 0. 1. 0. 0. 0. 0. 0. 0. 0. 0. 0. 0. 0. 0. 2.
      0. 0. 1. 0. 0. 1. 0. 0. 0. 0. 0. 0. 0. 0. 0. 0. 0. 0. 0. 0. 0. 0.
      0. 0. 0. 0. 0. 0. 0. 0. 0. 0. 1. 0. 0. 0. 0. 1. 0. 0. 0. 1. 0. 0.
      0. 0. 0. 0. 0. 0. 0. 0. 0. 0. 0. 0. 0. 0. 0. 0. 0. 0. 0. 1. 0. 0.
      0. 0. 0. 0. 0. 0. 0. 0. 0. 0. 1. 0. 1. 2. 0. 0. 0. 1. 0. 0. 0. 0.
      0. 0. 0. 2. 1. 1. 1. 1. 2. 1. 0. 0. 0. 3. 0. 0. 0. 0. 0. 0. 0. 1.
      0. 0. 0. 1. 0. 0. 1. 0. 0. 0. 1. 0. 1. 1. 0. 0. 0. 0. 1. 1. 0. 0.
      0. 0. 0. 0. 1. 1. 0. 0. 0. 1. 0. 1. 0. 0. 0. 0. 0. 0. 0. 0. 0. 0.
      1. 0. 0. 0. 0. 0. 0. 0. 0. 0. 1. 0. 0. 0. 0. 0. 0. 0. 0. 0. 0. 0.
      0. 1. 1. 0. 0. 0. 0. 1. 0. 0. 0. 0. 0. 0. 1. 0. 0. 0. 0. 1. 0. 1.
      0. 0. 0. 0. 0. 0. 1. 0. 0. 0. 0. 0. 0. 0. 0. 1. 0. 0. 0. 0. 0. 0.
      0. 0. 0. 0. 0. 0. 0. 0. 0. 0. 2. 1. 1. 0. 0. 0. 1. 0. 0. 0. 0. 0.
      0. 0. 1. 1. 0. 0. 0. 0. 0. 0. 0. 0. 0. 0. 0. 1. 0. 0. 1. 0. 0. 1.
      0. 0. 0. 0. 1. 0. 0. 0. 0. 0. 0. 2. 1. 0. 0. 1. 1. 0. 1. 0. 1. 1.
      0. 0. 1. 1. 1. 0. 0. 0. 0. 1. 0. 0. 0. 0. 0. 0. 0. 1. 0. 0. 0. 1.
      0. 0. 1. 1. 0. 0. 0. 0. 0. 1. 0. 1. 0. 0. 0. 0. 0. 1. 0. 0. 0. 0.
      1. 0. 1. 1. 0. 0. 0. 0. 0. 0. 1. 0. 0. 0. 0. 0. 0. 0. 0. 1. 0. 0.
      0. 0. 1. 1. 0. 1. 0. 0. 0. 0. 0. 0. 0. 0. 0. 0. 0. 0. 0. 0. 0. 0.
      1. 0. 0. 0. 1. 0. 0. 0. 0. 0. 0. 0. 0. 0. 0. 0. 0. 0. 0. 1. 0. 1.
      0. 0. 1. 0. 0. 0. 0. 3. 0. 1. 1. 1. 1. 2. 0. 0. 0. 0. 0. 0. 0. 1.
      0. 0. 3. 0. 1. 0. 0. 1. 0. 0. 0. 0. 0. 0. 0. 0. 0. 1. 0. 0. 0. 0.
      0. 0. 0. 0. 0. 1. 1. 0.</_>
    <_>
      0. 0. 0. 0. 0. 0. 9.99999940e-01 0. 0. 9.99999940e-01 0.
      9.99999940e-01 9.99999940e-01 9.99999940e-01 1.99999988e+00 0. 3.
      0. 0. 0. 0. 0. 0. 9.99999940e-01 0. 0. 0. 0. 9.99999905e+00
      1.99999988e+00 0. 0. 9.99999940e-01 0. 0. 0. 0. 1.99999988e+00
      9.99999940e-01 9.99999940e-01 0. 0. 4.99999952e+00 9.99999940e-01
      0. 0. 9.99999940e-01 1.99999988e+00 0. 9.99999940e-01 3. 0.
      9.99999940e-01 0. 0. 9.99999940e-01 0. 9.99999940e-01 0. 0. 0. 0.
      1.99999988e+00 9.99999940e-01 0. 0. 4.99999952e+00 0. 0.
      1.99999988e+00 1.99999988e+00 0. 0. 0. 9.99999940e-01 0.
      9.99999940e-01 0. 9.99999940e-01 0. 4.99999952e+00 9.99999940e-01
      9.99999940e-01 1.99999988e+00 0. 9.99999940e-01 9.99999940e-01 3.
      0. 0. 4.99999952e+00 3.99999976e+00 0. 3. 0. 9.99999940e-01 0. 0.
      0. 0. 0. 1.99999988e+00 9.99999940e-01 0. 1.99999988e+00 0. 0.
      9.99999940e-01 0. 9.99999940e-01 0. 3. 3. 3. 7. 0. 0.
      9.99999940e-01 3. 0. 9.99999940e-01 0. 0. 0. 6. 0. 0. 0.
      9.99999940e-01 0. 6. 0. 0. 1.99999988e+00 0. 9.99999940e-01
      9.99999940e-01 9.99999940e-01 0. 0. 0. 0. 0. 9.99999940e-01 0. 3.
      0. 0. 0. 0. 0. 0. 0. 9.99999940e-01 3. 0. 0. 0. 0. 0. 0.
      9.99999940e-01 0. 0. 3.99999976e+00 0. 0. 0. 9.99999940e-01
      9.99999940e-01 1.99999988e+00 9.99999940e-01 0. 0. 3. 0.
      1.99999988e+00 9.99999940e-01 1.99999988e+00 0. 0. 9.99999940e-01
      0. 0. 9.99999940e-01 0. 0. 9.99999940e-01 9.99999940e-01
      1.99999988e+00 0. 0. 9.99999940e-01 0. 0. 9.99999940e-01 0. 0. 0.
      0. 0. 0. 0. 0. 9.99999940e-01 9.99999940e-01 7. 9.99999940e-01
      9.99999940e-01 0. 9.99999940e-01 0. 9.99999940e-01 0. 0.
      9.99999940e-01 1.99999988e+00 9.99999940e-01 0. 0. 0. 0. 0. 0.
      9.99999940e-01 0. 3. 0. 0. 1.99999988e+00 0. 9.99999940e-01
      9.99999940e-01 1.99999988e+00 9.99999940e-01 0. 1.99999988e+00 0.
      0. 9.99999940e-01 0. 9.99999940e-01 0. 0. 9.99999940e-01 0.
      9.99999940e-01 0. 0. 0. 0. 9.99999940e-01 3. 0. 0. 9.99999940e-01
      9.99999940e-01 1.99999988e+00 9.99999940e-01 0. 15. 0.
      1.99999988e+00 9.99999940e-01 9.99999940e-01 0. 1.99999988e+00 0.
      0. 3.99999976e+00 9.99999940e-01 0. 0. 0. 0. 0. 9.99999940e-01
      9.99999940e-01 9.99999940e-01 9.99999940e-01 0. 3. 0.
      9.99999940e-01 0. 9.99999940e-01 9.99999940e-01 9.99999940e-01 0.
      9.99999940e-01 1.99999988e+00 9.99999940e-01 0. 9.99999940e-01 0.
      9.99999940e-01 0. 0. 0. 1.99999988e+00 6. 0. 9.99999940e-01 0. 0.
      0. 9.99999940e-01 9.99999940e-01 0. 9.99999940e-01 0. 3.
      9.99999940e-01 9.99999940e-01 9.99999940e-01 0. 1.99999988e+00 0.
      9.99999940e-01 9.99999940e-01 3. 9.99999940e-01 0. 0. 0. 0.
      9.99999940e-01 3. 0. 9.99999940e-01 1.99999988e+00 9.99999940e-01
      0. 1.99999988e+00 1.99999988e+00 9.99999940e-01 9.99999940e-01 0.
      0. 0. 1.99999988e+00 0. 0. 9.99999940e-01 9.99999940e-01
      9.99999940e-01 0. 0. 9.99999940e-01 0. 0. 6. 0. 0. 0. 0.
      9.99999940e-01 0. 0. 0. 0. 9.99999940e-01 9.99999940e-01 0. 0.
      9.99999940e-01 0. 1.99999988e+00 0. 0. 9.99999940e-01 0. 3.
      9.99999940e-01 0. 9.99999940e-01 0. 0. 0. 0. 0. 0. 9.99999940e-01
      9.99999940e-01 1.99999988e+00 9.99999940e-01 0. 9.99999940e-01
      1.99999988e+00 0. 1.99999988e+00 0. 0. 9.99999940e-01 0.
      9.99999940e-01 9.99999940e-01 0. 1.99999988e+00 9.99999940e-01
      9.99999940e-01 0. 0. 9.99999940e-01 9.99999940e-01 0. 0. 0. 3. 0.
      9.99999940e-01 3.99999976e+00 1.99999988e+00 0. 1.99999988e+00
      9.99999940e-01 0. 9.99999940e-01 0. 0. 9.99999940e-01 0. 0. 0.
      1.99999988e+00 1.99999988e+00 9.99999940e-01 1.99999988e+00 0. 0.
      9.99999940e-01 3.99999976e+00 0. 0. 4.99999952e+00 9.99999940e-01
      0. 0. 9.99999940e-01 0. 0. 0. 0. 0. 9.99999940e-01 6. 0.
      9.99999940e-01 9.99999940e-01 0. 0. 0. 0. 9.99999940e-01 6.
      1.99999988e+00 1.99999988e+00 0. 0. 0. 0. 0. 0. 0. 3.
      9.99999940e-01 3. 0. 0. 0. 0. 0. 9.99999940e-01 9.99999940e-01
      3.99999976e+00 9.99999940e-01 0. 1.99999988e+00 1.99999988e+00 0.
      0. 1.99999988e+00 0. 0. 0. 9.99999940e-01 9.99999940e-01
      9.99999940e-01 0. 0. 1.99999988e+00 9.99999940e-01 0. 0.
      1.99999988e+00 0. 0. 0. 6. 7.99999952e+00 1.99999988e+00 0. 0. 0.
      0. 0. 0. 0. 0. 0. 0. 0. 0. 7. 9.99999940e-01 9.99999940e-01 0. 0.
      0. 1.99999988e+00 0. 3. 0. 0. 0. 1.99999988e+00 0. 0. 0.
      1.99999988e+00 1.99999988e+00 9.99999940e-01 0. 9.99999940e-01 0.
      9.99999940e-01 0. 0. 0. 0. 0. 0. 9.99999940e-01 1.99999988e+00 0.
      0. 0. 0. 0. 9.99999940e-01 3.99999976e+00 0. 0. 0. 9.99999940e-01
      3.99999976e+00 0. 9.99999940e-01 0. 0. 0. 9.99999940e-01 0. 0. 0.
      0. 0. 0. 1.99999988e+00 9.99999940e-01 4.99999952e+00 0.
      3.99999976e+00 9.99999940e-01 0. 1.99999988e+00 0. 1.99999988e+00
      9.99999940e-01 1.99999988e+00 0. 0. 0. 0. 1.99999988e+00
      9.99999940e-01 9.99999940e-01 0. 0. 1.99999988e+00 0. 0.
      9.99999940e-01 0. 0. 9.99999940e-01 0. 9.99999940e-01
      4.99999952e+00 1.99999988e+00 9.99999940e-01 9.99999940e-01 0. 0.
      9.99999940e-01 1.99999988e+00 0. 3.99999976e+00 9.99999940e-01 0.
      0. 9.99999940e-01 0. 0. 0. 1.99999988e+00 0. 0. 9.99999940e-01 0.
      9.99999940e-01 0. 9.99999940e-01 9.99999940e-01 0. 0. 0.
      3.99999976e+00 1.99999988e+00 1.99999988e+00 1.99999988e+00 0.
      3.99999976e+00 0. 9.99999940e-01 9.99999940e-01 1.99999988e+00
      9.99999940e-01 0. 3. 0. 0. 0. 0. 0. 1.99999988e+00 0.
      1.99999988e+00 3.99999976e+00 0. 0. 0. 0. 9.99999940e-01 0.
      9.99999940e-01 9.99999940e-01 0. 9.99999940e-01 9.99999940e-01
      1.99999988e+00 0. 0. 9.99999940e-01 0. 3. 1.99999988e+00 0. 0. 0.
      0. 9.99999940e-01 0. 3. 0. 9.99999940e-01 0. 0. 0. 9.99999940e-01
      0. 0. 9.99999940e-01 9.99999940e-01 1.99999988e+00 0.
      9.99999940e-01 1.99999988e+00 0. 0. 3. 0. 9.99999940e-01 0. 0. 3.
      0. 0. 0. 6. 0. 0. 1.99999988e+00 0. 1.99999988e+00 0. 0.
      9.99999940e-01 9.99999940e-01 0. 9.99999940e-01 0. 3.99999976e+00
      0. 9.99999940e-01 1.99999988e+00 0. 9.99999940e-01 9.99999940e-01
      9.99999940e-01 0. 0. 9.99999940e-01 9.99999940e-01 0. 0.
      1.99999988e+00 0. 4.99999952e+00 0. 0. 0. 0. 9.99999940e-01 0.
      9.99999940e-01 0. 3. 3.99999976e+00 0. 0. 9.99999940e-01 0. 0. 0.
      0. 3. 9.99999940e-01 0. 0. 9.99999940e-01 0. 0. 0. 0. 0. 0.
      1.99999988e+00 9.99999940e-01 9.99999940e-01 9.99999940e-01 0.
      1.99999988e+00 0. 0. 9.99999940e-01 0. 0. 0. 1.99999988e+00
      1.99999988e+00 0. 9.99999940e-01 9.99999940e-01 0. 0. 0.
      9.99999940e-01 0. 0. 0. 0. 1.99999988e+00 0. 0. 1.99999988e+00 0.
      0. 0. 0. 1.99999988e+00 1.99999988e+00 1.99999988e+00 0. 0. 0. 0.
      0. 1.99999988e+00 0.</_>
    <_>
      0. 0. 0. 0. 0. 0. 9.99999940e-01 0. 0. 0. 9.99999940e-01 0. 0.
      3.99999976e+00 0. 0. 0. 9.99999940e-01 9.99999940e-01 0. 0.
      1.99999988e+00 9.99999940e-01 0. 0. 0. 0. 3.99999976e+00
      6.99999952e+00 1.99999988e+00 0. 0. 1.99999988e+00 0.
      1.99999988e+00 0. 9.99999940e-01 0. 0. 9.99999940e-01 0. 0.
      9.99999940e-01 0. 9.99999940e-01 0. 0. 0. 0. 0. 9.99999940e-01
      9.99999940e-01 1.99999988e+00 1.99999988e+00 0. 0. 0.
      1.99999988e+00 0. 3.99999976e+00 0. 0. 9.99999940e-01 0.
      9.99999940e-01 0. 0. 0. 0. 1.99999988e+00 9.99999940e-01
      1.99999988e+00 0. 0. 9.99999940e-01 0. 9.99999940e-01 0. 0. 0. 5.
      0. 9.99999940e-01 1.99999988e+00 0. 9.99999940e-01 0.
      9.99999940e-01 9.99999940e-01 0. 9.99999940e-01 0. 1.99999988e+00
      0. 0. 0. 0. 0. 0. 0. 9.99999940e-01 3. 0. 0. 9.99999940e-01
      9.99999940e-01 0. 0. 0. 9.99999940e-01 0. 9.99999940e-01 0. 3. 0.
      0. 1.99999988e+00 0. 0. 0. 1.99999988e+00 0. 0. 0. 1.99999988e+00
      0. 0. 0. 0. 9.99999940e-01 9.99999940e-01 0. 1.99999988e+00
      3.99999976e+00 0. 1.99999988e+00 1.99999988e+00 0. 9.99999940e-01
      9.99999940e-01 0. 0. 1.99999988e+00 0. 0. 0. 0. 0. 0. 0.
      9.99999940e-01 0. 1.99999988e+00 1.99999988e+00 1.99999988e+00 0.
      0. 0. 0. 9.99999940e-01 0. 0. 9.99999940e-01 0. 9.99999940e-01 0.
      3. 0. 9.99999940e-01 1.99999988e+00 0. 0. 9.99999940e-01
      1.99999988e+00 9.99999940e-01 0. 9.99999940e-01 9.99999940e-01 0.
      1.99999988e+00 0. 0. 9.99999940e-01 0. 9.99999940e-01 0. 0. 0.
      9.99999940e-01 1.99999988e+00 0. 9.99999940e-01 0. 0. 0. 0.
      9.99999940e-01 0. 9.99999940e-01 0. 0. 0. 0. 0. 0. 0. 0.
      9.99999940e-01 9.99999940e-01 0. 0. 0. 0. 0. 0. 9.99999940e-01 0.
      9.99999940e-01 0. 0. 0. 0. 9.99999940e-01 0. 0. 0. 3. 0. 0. 3. 0.
      0. 0. 9.99999940e-01 0. 9.99999940e-01 9.99999940e-01 0. 0.
      9.99999940e-01 9.99999940e-01 0. 0. 0. 0. 9.99999940e-01 0. 0.
      9.99999940e-01 1.99999988e+00 0. 0. 0. 9.99999940e-01 0. 0. 0.
      9.99999940e-01 9.99999940e-01 0. 0. 9.99999940e-01 9.99999940e-01
      0. 0. 0. 9.99999940e-01 0. 9.99999940e-01 9.99999940e-01 0.
      9.99999940e-01 0. 0. 9.99999940e-01 9.99999940e-01 0.
      9.99999940e-01 0. 1.99999988e+00 0. 3. 0. 9.99999940e-01 0. 0.
      9.99999940e-01 9.99999940e-01 0. 1.99999988e+00 0. 0. 0. 0.
      9.99999940e-01 9.99999940e-01 0. 0. 0. 0. 9.99999940e-01
      9.99999940e-01 9.99999940e-01 0. 1.99999988e+00 0. 0. 0. 3. 0.
      9.99999940e-01 3. 0. 0. 9.99999940e-01 9.99999940e-01
      9.99999940e-01 1.99999988e+00 0. 9.99999940e-01 9.99999940e-01
      9.99999940e-01 9.99999940e-01 0. 9.99999940e-01 0. 9.99999940e-01
      9.99999940e-01 0. 0. 0. 3. 9.99999940e-01 9.99999940e-01 3.
      1.99999988e+00 0. 9.99999940e-01 0. 9.99999940e-01 0. 0. 0. 0. 3.
      0. 0. 0. 0. 0. 0. 0. 0. 0. 0. 0. 1.99999988e+00 9.99999940e-01 0.
      1.99999988e+00 0. 0. 9.99999940e-01 3. 0. 0. 0. 0. 0.
      9.99999940e-01 9.99999940e-01 9.99999940e-01 9.99999940e-01 0. 0.
      0. 0. 9.99999940e-01 9.99999940e-01 0. 0. 0. 9.99999940e-01 0.
      9.99999940e-01 9.99999940e-01 0. 1.99999988e+00 3. 9.99999940e-01
      0. 0. 0. 3. 9.99999940e-01 0. 0. 0. 1.99999988e+00 0. 0. 0. 0.
      1.99999988e+00 0. 0. 0. 0. 9.99999940e-01 0. 0. 0. 1.99999988e+00
      9.99999940e-01 1.99999988e+00 0. 9.99999940e-01 0. 9.99999940e-01
      0. 0. 1.99999988e+00 0. 0. 9.99999940e-01 0. 9.99999940e-01 0. 0.
      0. 1.99999988e+00 0. 0. 9.99999940e-01 3. 0. 9.99999940e-01 0.
      9.99999940e-01 0. 0. 0. 0. 0. 0. 9.99999940e-01 0. 3.
      9.99999940e-01 0. 9.99999940e-01 9.99999940e-01 1.99999988e+00 3.
      9.99999940e-01 1.99999988e+00 9.99999940e-01 9.99999940e-01 0. 0.
      1.99999988e+00 0. 9.99999940e-01 0. 9.99999940e-01 3.99999976e+00
      0. 3. 0. 1.99999988e+00 0. 0. 9.99999940e-01 9.99999940e-01
      1.99999988e+00 9.99999940e-01 0. 3.99999976e+00 3.99999976e+00 0.
      0. 0. 0. 0. 0. 9.99999940e-01 3. 0. 0. 0. 0. 0. 0. 0.
      9.99999940e-01 0. 0. 0. 0. 1.99999988e+00 9.99999940e-01 0. 0. 0.
      0. 0. 0. 0. 0. 0. 9.99999940e-01 0. 0. 3.99999976e+00
      9.99999940e-01 9.99999940e-01 9.99999940e-01 9.99999940e-01 0. 0.
      0. 9.99999940e-01 9.99999940e-01 0. 9.99999940e-01 1.99999988e+00
      9.99999940e-01 0. 0. 0. 0. 0. 0. 6.99999952e+00 9.99999940e-01
      9.99999940e-01 0. 9.99999940e-01 1.99999988e+00 0. 0. 0. 0.
      1.99999988e+00 0. 9.99999940e-01 0. 9.99999940e-01 0. 0.
      1.99999988e+00 0. 0. 1.99999988e+00 0. 9.99999940e-01 0.
      9.99999940e-01 9.99999940e-01 9.99999940e-01 0. 9.99999940e-01 0.
      0. 9.99999940e-01 3. 0. 0. 9.99999940e-01 0. 0. 0. 1.99999988e+00
      0. 9.99999940e-01 0. 0. 9.99999940e-01 0. 9.99999940e-01 0. 3.
      9.99999940e-01 0. 0. 0. 0. 0. 0. 0. 0. 0. 0. 9.99999940e-01 0. 0.
      0. 0. 0. 0. 9.99999940e-01 0. 0. 9.99999940e-01 0. 0. 0. 0. 0. 0.
      9.99999940e-01 0. 9.99999940e-01 0. 0. 0. 0. 0. 9.99999940e-01
      9.99999940e-01 9.99999940e-01 9.99999940e-01 6. 9.99999940e-01 0.
      0. 0. 0. 3.99999976e+00 9.99999940e-01 1.99999988e+00
      9.99999940e-01 3. 9.99999940e-01 0. 0. 1.99999988e+00
      1.99999988e+00 9.99999940e-01 1.99999988e+00 0. 0. 9.99999940e-01
      0. 0. 1.99999988e+00 0. 0. 9.99999940e-01 0. 0. 0. 0. 0. 0. 0. 0.
      1.99999988e+00 0. 9.99999940e-01 0. 1.99999988e+00 9.99999940e-01
      0. 0. 9.99999940e-01 9.99999940e-01 0. 0. 0. 9.99999940e-01 0.
      1.99999988e+00 9.99999940e-01 0. 9.99999940e-01 0. 0.
      9.99999940e-01 9.99999940e-01 0. 9.99999940e-01 9.99999940e-01
      9.99999940e-01 0. 0. 0. 9.99999940e-01 0. 0. 1.99999988e+00 0. 0.
      0. 0. 1.99999988e+00 9.99999940e-01 0. 0. 1.99999988e+00 0.
      1.99999988e+00 0. 9.99999940e-01 9.99999940e-01 0. 9.99999940e-01
      0. 0. 0. 0. 9.99999940e-01 0. 0. 1.99999988e+00 0. 0. 0. 0. 0.
      9.99999940e-01 0. 0. 9.99999940e-01 0. 0. 9.99999940e-01 0.
      1.99999988e+00 0. 0. 0. 0. 0. 9.99999940e-01 0. 9.99999940e-01
      1.99999988e+00 0. 0. 9.99999940e-01 0. 0. 0. 9.99999940e-01 0.
      1.99999988e+00 0. 0. 0. 0. 0. 0. 0. 9.99999940e-01 0. 0. 0.
      1.99999988e+00 1.99999988e+00 0. 0. 9.99999940e-01 9.99999940e-01
      0. 0. 0. 9.99999940e-01 0. 0. 1.99999988e+00 0. 0. 0. 0. 0. 0. 0.
      0. 0. 9.99999940e-01 0. 0. 9.99999940e-01 0. 9.99999940e-01 0.
      9.99999940e-01 9.99999940e-01 0. 0. 0. 9.99999940e-01 0. 0.
      1.99999988e+00 9.99999940e-01 0. 0. 0.</_>
    <_>
      1.99999988e+00 12. 0. 9.99999940e-01 3. 7. 3. 7. 12. 5. 3. 0. 0.
      0. 1.99999988e+00 3.99999976e+00 9.99999940e-01 9.99999940e-01 0.
      3. 6. 3.99999976e+00 3. 0. 3. 7.99999952e+00 7. 0. 0. 0. 9.
      1.99999988e+00 7.99999952e+00 0. 1.99999988e+00 3.99999976e+00 3.
      3.99999976e+00 0. 1.99999988e+00 0. 6. 3. 9.99999940e-01 3. 6.
      9.99999940e-01 1.99999988e+00 5. 3.99999976e+00 1.99999988e+00 0.
      0. 3.99999976e+00 5. 3.99999976e+00 3.99999976e+00 1.99999988e+00
      1.99999988e+00 1.99999988e+00 3. 1.99999988e+00 3. 1.99999988e+00
      5. 1.99999988e+00 0. 6. 6. 5. 6. 6. 1.99999988e+00 1.99999988e+00
      3. 5. 5. 3.99999976e+00 6. 3.99999976e+00 0. 0. 5. 9.99999940e-01
      7. 3. 0. 0. 9.99999940e-01 9.99999940e-01 0. 9. 5. 3. 3. 6.
      3.99999976e+00 3. 0. 3. 5. 3. 6. 3. 9.99999940e-01 5. 3. 5. 0. 6.
      3. 3. 1.99999988e+00 1.99999988e+00 0. 9.99999940e-01
      7.99999952e+00 9.99999940e-01 0. 9.99999940e-01 1.99999988e+00
      9.99999940e-01 3. 1.99999988e+00 9.99999940e-01 3.99999976e+00
      1.99999988e+00 3.99999976e+00 1.99999988e+00 0. 9.99999940e-01
      3.99999976e+00 3.99999976e+00 9.99999940e-01 5. 1.99999988e+00 0.
      0. 7.99999952e+00 0. 5. 9.99999940e-01 9.99999940e-01 3.
      9.99999940e-01 9.99999940e-01 1.99999988e+00 3.99999976e+00
      1.99999988e+00 0. 7.99999952e+00 12. 1.99999988e+00 5. 0.
      1.99999988e+00 10. 9.99999940e-01 3. 1.99999988e+00 9.99999940e-01
      1.99999988e+00 3.99999976e+00 3.99999976e+00 3. 9.99999940e-01 5.
      9.99999940e-01 5. 0. 0. 1.99999988e+00 9.99999940e-01 5.
      9.99999940e-01 3. 0. 5. 0. 5. 7.99999952e+00 5. 6. 3. 6.
      3.99999976e+00 1.99999988e+00 1.99999988e+00 5. 0. 3.
      1.99999988e+00 1.99999988e+00 1.99999988e+00 9.99999940e-01
      3.99999976e+00 3.99999976e+00 3. 6. 9.99999940e-01 9.99999940e-01
      6. 3.99999976e+00 3.99999976e+00 9.99999940e-01 3.99999976e+00 0.
      0. 5. 3.99999976e+00 7. 9.99999940e-01 3.99999976e+00 3.
      9.99999940e-01 3.99999976e+00 3. 3. 5. 3.99999976e+00 9. 7. 0. 5.
      9.99999940e-01 1.29999990e+01 0. 5. 1.99999988e+00 0. 3. 6.
      3.99999976e+00 7.99999952e+00 5. 3.99999976e+00 5. 5. 0. 0. 0.
      7.99999952e+00 3.99999976e+00 7. 9.99999940e-01 1.29999990e+01
      1.99999988e+00 7.99999952e+00 7.99999952e+00 1.99999988e+00 0. 5.
      9.99999940e-01 3. 9.99999940e-01 5. 9.99999940e-01 3.99999976e+00
      5. 0. 0. 9.99999940e-01 0. 9.99999940e-01 3.99999976e+00
      1.99999988e+00 1.99999988e+00 0. 9.99999940e-01 0. 3.99999976e+00
      3. 3. 1.99999988e+00 0. 0. 1.99999988e+00 1.99999988e+00 0. 0.
      9.99999940e-01 0. 3.99999976e+00 1.99999988e+00 3. 3. 6.
      1.99999988e+00 6. 6. 3.99999976e+00 9.99999940e-01 7.
      9.99999940e-01 3. 3.99999976e+00 5. 1.99999988e+00 9.99999940e-01
      3.99999976e+00 3.99999976e+00 1.99999988e+00 9.99999940e-01 0.
      9.99999940e-01 9. 1.99999988e+00 1.99999988e+00 3. 3.99999976e+00
      3. 3. 3. 5. 6. 1.99999988e+00 0. 1.99999988e+00 6. 9.99999940e-01
      9.99999940e-01 9.99999940e-01 3. 5. 9.99999940e-01 9.99999940e-01
      9.99999940e-01 5. 9. 0. 1.99999988e+00 1.99999988e+00
      9.99999940e-01 3. 3. 0. 3. 0. 9.99999940e-01 0. 3. 1.99999988e+00
      9.99999940e-01 1.99999988e+00 9.99999940e-01 1.99999988e+00 6.
      9.99999940e-01 5. 9.99999940e-01 9.99999940e-01 0. 1.99999988e+00
      3. 9.99999940e-01 0. 3.99999976e+00 3. 3.99999976e+00 3.
      1.99999988e+00 6. 3.99999976e+00 5. 1.99999988e+00 1.99999988e+00
      5. 3. 10. 0. 9.99999940e-01 6. 0. 3. 0. 5. 0. 3.99999976e+00
      9.99999940e-01 0. 10. 9.99999940e-01 9.99999940e-01 5.
      3.99999976e+00 6. 14. 9.99999940e-01 9.99999940e-01 5.
      1.99999988e+00 7.99999952e+00 3.99999976e+00 3. 3.99999976e+00
      3.99999976e+00 6. 7. 1.99999988e+00 9.99999940e-01 1.99999988e+00
      0. 0. 1.09999990e+01 6. 9. 5. 5. 5. 1.99999988e+00 9.99999940e-01
      9.99999940e-01 0. 5. 9.99999940e-01 3. 3. 3. 0. 1.99999988e+00 0.
      9.99999940e-01 9.99999940e-01 3.99999976e+00 3. 9.99999940e-01 6.
      0. 3. 6. 0. 0. 5. 9.99999940e-01 9.99999940e-01 1.99999988e+00 5.
      5. 3.99999976e+00 1.99999988e+00 0. 3.99999976e+00 9.99999940e-01
      1.99999988e+00 5. 0. 7. 3.99999976e+00 3.99999976e+00
      3.99999976e+00 7. 7. 3. 9.99999940e-01 1.99999988e+00 0. 0. 0.
      3.99999976e+00 3.99999976e+00 3. 7.99999952e+00 9.99999940e-01 6.
      0. 9.99999940e-01 9.99999940e-01 1.99999988e+00 1.99999988e+00 0.
      1.99999988e+00 5. 7. 9.99999940e-01 0. 9.99999940e-01 5. 3.
      9.99999940e-01 9.99999940e-01 7.99999952e+00 1.99999988e+00 5. 3.
      3.99999976e+00 7.99999952e+00 0. 9.99999940e-01 9.99999940e-01 5.
      7. 3.99999976e+00 5. 3.99999976e+00 9.99999940e-01 3.99999976e+00
      3. 9. 0. 9.99999940e-01 7. 5. 1.99999988e+00 7. 1.99999988e+00 5.
      5. 5. 3.99999976e+00 9.99999940e-01 0. 6. 9.99999940e-01 0.
      9.99999940e-01 6. 7. 7.99999952e+00 9.99999940e-01 1.99999988e+00
      9.99999940e-01 5. 3.99999976e+00 5. 5. 6. 0. 5. 9.99999940e-01 0.
      3. 3.99999976e+00 9.99999940e-01 0. 9.99999940e-01 1.99999988e+00
      5. 7. 0. 5. 0. 1.99999988e+00 3.99999976e+00 1.99999988e+00 3. 3.
      9.99999940e-01 9.99999940e-01 5. 3. 0. 0. 9.99999940e-01 7. 0.
      3.99999976e+00 1.99999988e+00 7. 1.99999988e+00 3.99999976e+00
      3.99999976e+00 9. 3. 0. 7.99999952e+00 0. 3.99999976e+00
      3.99999976e+00 3.99999976e+00 9.99999940e-01 9.99999940e-01 12.
      1.99999988e+00 3. 3.99999976e+00 6. 9.99999940e-01 1.99999988e+00
      3.99999976e+00 0. 3.99999976e+00 3. 3.99999976e+00 6. 7.
      1.99999988e+00 9.99999940e-01 3. 9.99999940e-01 0. 0. 6.
      7.99999952e+00 9.99999940e-01 3. 9.99999940e-01 9.99999940e-01
      9.99999940e-01 3.99999976e+00 5. 9.99999940e-01 1.99999988e+00 7.
      3.99999976e+00 0. 3. 0. 9.99999940e-01 0. 1.99999988e+00
      9.99999940e-01 9. 1.99999988e+00 0. 1.99999988e+00 9.99999940e-01
      7. 5. 3. 0. 1.99999988e+00 1.99999988e+00 9.99999940e-01
      7.99999952e+00 6. 1.99999988e+00 3.99999976e+00 0. 3.99999976e+00
      0. 5. 9. 0. 3. 6. 3.99999976e+00 7.99999952e+00 3.99999976e+00 3.
      0. 5. 5. 6. 3. 6. 0. 6. 3. 0. 0. 5. 3.99999976e+00 0. 5. 7.
      1.99999988e+00 9.99999940e-01 1.99999988e+00 3. 5. 9.
      1.99999988e+00 5. 3. 3. 0. 9.99999940e-01 3. 3. 1.09999990e+01
      7.99999952e+00 9. 0. 9.99999940e-01 3.99999976e+00 5.
      1.99999988e+00 6. 3.99999976e+00 0. 6. 3. 3. 7.99999952e+00
      1.99999988e+00 3. 0. 1.99999988e+00 3.99999976e+00 0. 3. 5. 0.
      9.99999940e-01 3. 0. 3. 1.99999988e+00 7.99999952e+00 0. 3. 5. 0.
      9. 1.99999988e+00 3. 5. 3.99999976e+00 6. 1.99999988e+00 6. 0.
      9.99999940e-01 5. 0. 0. 3. 9.99999940e-01 0. 3. 0. 9.99999940e-01
      3.99999976e+00 0. 0. 1.99999988e+00 9.99999940e-01 0. 0.
      1.09999990e+01 3. 3.99999976e+00 9.99999940e-01 7.99999952e+00
      3.99999976e+00 7.99999952e+00 0. 0. 3. 0. 3.99999976e+00 3. 5. 6.
      1.99999988e+00 9.99999940e-01 1.99999988e+00 9.99999940e-01 3. 6.
      3. 3.99999976e+00 7.99999952e+00 5. 1.99999988e+00 3.99999976e+00
      0. 7.99999952e+00 9.99999940e-01 5. 3.99999976e+00 6.
      1.99999988e+00 7. 1.99999988e+00 9.99999940e-01 7.99999952e+00 3.
      7. 1.99999988e+00 1.99999988e+00 7. 3. 1.99999988e+00 3. 3. 0.
      3.99999976e+00 3.99999976e+00 3. 0. 0. 5. 3. 3.99999976e+00 3. 3.
      5. 3. 0. 3.99999976e+00 1.99999988e+00 1.99999988e+00 0. 3. 0. 0.
      9.99999940e-01 0. 9.</_>
    <_>
      1. 0. 0. 1. 0. 0. 2. 2. 0. 0. 1. 3.00000024e+00 0. 2. 1. 1. 1. 1.
      1. 3.00000024e+00 1. 1. 1. 0. 1. 0. 0. 2. 6.00000048e+00 2. 0. 2.
      0. 0. 0. 1. 0. 0. 0. 0. 0. 0. 2. 0. 5. 0. 0. 0. 0. 0. 2. 0.
      7.00000048e+00 2. 0. 0. 1. 1. 6.00000048e+00 4. 0. 1. 2. 0. 1. 0.
      0. 1. 0. 7.00000048e+00 2. 1. 0. 3.00000024e+00 0. 0. 0. 1. 0. 1.
      7.00000048e+00 0. 1. 1. 0. 0. 0. 4. 1. 5. 3.00000024e+00 0. 1. 2.
      0. 0. 0. 0. 0. 1. 2. 1. 1. 0. 1. 1. 1. 2. 0. 0. 0. 6.00000048e+00
      3.00000024e+00 1. 9. 1. 1. 1. 0. 0. 3.00000024e+00 0. 0. 1. 0. 0.
      1. 2. 0. 2. 3.00000024e+00 0. 0. 7.00000048e+00 0. 0. 2. 0. 0. 0.
      1. 1. 4. 0. 0. 2. 0. 1. 3.00000024e+00 1. 0. 0. 1. 0. 2. 0.
      3.00000024e+00 2. 0. 1. 1. 3.00000024e+00 0. 1. 0. 0. 1. 0. 1.
      3.00000024e+00 0. 0. 0. 0. 1. 0. 1. 3.00000024e+00 3.00000024e+00
      2. 0. 2. 0. 0. 0. 1. 0. 2. 2. 4. 0. 1. 2. 1. 1. 0. 0. 1. 0. 0. 0.
      1. 0. 0. 3.00000024e+00 0. 2. 2. 1. 2. 0. 2. 0. 0. 2. 0. 1. 2. 0.
      2. 0. 3.00000024e+00 0. 0. 0. 1. 2. 2. 0. 5. 1. 2. 0. 0. 2. 0. 0.
      0. 1. 1. 0. 0. 1. 0. 0. 0. 0. 0. 0. 0. 0. 0. 1. 0. 0. 0. 1. 1. 1.
      1. 1. 1. 0. 0. 1. 1. 1. 0. 1. 2. 0. 3.00000024e+00 1. 0. 1. 1. 1.
      0. 2. 1. 1. 1.20000010e+01 1. 1. 1. 3.00000024e+00 1. 0. 1.
      3.00000024e+00 0. 1. 0. 0. 0. 2. 0. 0. 0. 1. 2. 1. 1. 1.
      3.00000024e+00 1. 0. 0. 4. 0. 1. 3.00000024e+00 1. 0. 0. 0. 0. 1.
      0. 3.00000024e+00 2. 0. 0. 0. 2. 3.00000024e+00 0. 0. 1. 2. 0. 4.
      0. 1. 2. 0. 0. 1. 0. 1. 1. 0. 0. 0. 6.00000048e+00 0. 2. 0. 2. 0.
      0. 1. 1. 1. 0. 0. 0. 0. 0. 0. 0. 0. 0. 0. 0. 0. 0. 0. 0. 2. 2. 0.
      6.00000048e+00 3.00000024e+00 0. 0. 0. 0. 0. 0. 1. 0. 1. 1. 1. 2.
      0. 9. 10. 0. 1. 1. 1. 1. 1. 0. 0. 2. 1. 0. 0. 0. 0. 0. 0. 0. 2. 2.
      2. 0. 1. 3.00000024e+00 1. 0. 0. 2. 0. 0. 3.00000024e+00 1. 0.
      3.00000024e+00 1. 1. 0. 2. 1. 0. 0. 0. 3.00000024e+00 0. 0. 1. 1.
      1. 1. 1. 0. 1. 0. 0. 1. 1. 0. 1.30000010e+01 0. 2. 5. 0. 2. 0. 0.
      5. 1. 2. 3.00000024e+00 1. 0. 0. 0. 1. 2. 0. 0. 2. 1. 1. 0. 4. 1.
      1. 0. 2. 1. 0. 0. 1. 1. 0. 2. 0. 0. 2. 0. 1. 1. 1. 1. 2. 0. 0. 0.
      6.00000048e+00 1. 1. 0. 1. 0. 5. 0. 0. 1. 1. 1. 0. 1. 0. 0. 0. 0.
      2. 0. 1. 0. 0. 2. 0. 1. 0. 0. 0. 0. 1. 1. 0. 0. 0. 1.
      3.00000024e+00 1. 0. 2. 1.50000010e+01 0. 2. 0. 1. 0. 0. 0. 0. 1.
      3.00000024e+00 0. 0. 0. 0. 0. 2. 1. 0. 3.00000024e+00 2. 0. 0. 0.
      0. 2. 0. 0. 2. 3.00000024e+00 1. 3.00000024e+00 3.00000024e+00 1.
      2. 7.00000048e+00 0. 0. 1. 0. 0. 0. 0. 1. 3.00000024e+00 1. 0. 2.
      4. 4. 0. 0. 1. 1. 0. 0. 0. 0. 0. 2. 0. 0. 0. 0. 0. 0. 0. 5. 1. 0.
      2. 0. 1. 4. 2. 3.00000024e+00 0. 0. 0. 3.00000024e+00 2. 0. 1. 0.
      0. 1. 0. 2. 1. 7.00000048e+00 1. 2. 0. 1. 0. 1. 1. 0. 0.
      3.00000024e+00 0. 1. 0. 0. 1. 1. 2. 0. 0. 2. 1. 1. 1. 0. 2. 1. 1.
      0. 0. 0. 0. 0. 1. 3.00000024e+00 0. 3.00000024e+00 1. 1. 2. 0. 4.
      0. 2. 1. 0. 3.00000024e+00 0. 0. 0. 10. 2. 0. 0. 1. 1. 2. 0. 1.
      3.00000024e+00 0. 1. 3.00000024e+00 0. 0. 0. 0. 2. 4. 1. 1. 1. 0.
      1. 1. 0. 1. 8. 0. 0. 1. 2. 0. 1. 1. 1. 0. 1. 0. 2. 2. 0. 5.
      3.00000024e+00 0. 0. 0. 0. 2. 0. 1. 3.00000024e+00 0. 0. 1. 0.
      3.00000024e+00 0. 1. 2. 1. 2. 1. 0. 2. 2. 0. 0. 0. 0. 0. 0. 0.
      3.00000024e+00 5. 0. 0. 0. 0. 5. 1. 0. 1. 0. 1. 0. 2. 1. 1. 0. 0.
      0. 1. 0. 0. 0. 1. 0. 1. 2. 2. 0. 0. 0. 1. 0. 2. 0. 3.00000024e+00
      0. 2. 0. 1. 1. 0. 0. 0. 0. 0. 0. 3.00000024e+00 1. 0. 0. 0.
      3.00000024e+00 2. 0.</_>
    <_>
      0. 0. 0. 0. 0. 0. 0. 0. 9.99999940e-01 0. 0. 0. 0. 0. 0. 0.
      9.99999940e-01 0. 0. 0. 0. 1.99999988e+00 0. 0. 0. 0. 0. 0.
      9.99999940e-01 0. 9.99999940e-01 0. 0. 0. 9.99999940e-01 0. 0. 0.
      0. 0. 0. 0. 1.99999988e+00 1.99999988e+00 0. 0. 9.99999940e-01 0.
      0. 0. 0. 9.99999940e-01 1.99999988e+00 0. 0. 0. 0. 9.99999940e-01
      0. 9.99999940e-01 0. 0. 0. 0. 9.99999940e-01 9.99999940e-01 0. 0.
      0. 0. 0. 9.99999940e-01 0. 0. 0. 0. 0. 0. 0. 0. 9.99999940e-01
      9.99999940e-01 0. 0. 0. 0. 0. 0. 0. 0. 9.99999940e-01 0. 0. 0.
      1.99999988e+00 0. 9.99999940e-01 0. 0. 9.99999940e-01
      9.99999940e-01 0. 0. 0. 0. 0. 9.99999940e-01 9.99999940e-01 0.
      9.99999940e-01 0. 1.99999988e+00 0. 0. 9.99999940e-01 0. 0. 0. 0.
      0. 0. 0. 0. 0. 0. 0. 0. 9.99999940e-01 0. 0. 0. 0. 0. 0. 0. 0. 0.
      0. 0. 0. 0. 0. 0. 0. 0. 0. 9.99999940e-01 0. 9.99999940e-01 0. 0.
      0. 0. 0. 0. 9.99999940e-01 0. 0. 0. 0. 0. 0. 0. 0. 0. 0. 0. 0.
      9.99999940e-01 9.99999940e-01 0. 0. 0. 0. 0. 0. 0. 0. 0. 0. 0. 0.
      0. 0. 0. 0. 0. 9.99999940e-01 0. 1.99999988e+00 0. 0.
      9.99999940e-01 1.99999988e+00 0. 0. 0. 0. 0. 0. 9.99999940e-01
      9.99999940e-01 0. 0. 9.99999940e-01 9.99999940e-01 9.99999940e-01
      0. 0. 0. 0. 0. 0. 0. 9.99999940e-01 0. 0. 0. 0. 0. 0. 0. 0.
      9.99999940e-01 0. 0. 0. 0. 0. 0. 0. 0. 0. 0. 0. 0. 0. 0. 0. 0. 0.
      0. 0. 0. 0. 0. 0. 0. 0. 0. 0. 0. 9.99999940e-01 9.99999940e-01 0.
      0. 0. 0. 0. 9.99999940e-01 0. 9.99999940e-01 0. 0. 0. 0.
      9.99999940e-01 0. 9.99999940e-01 9.99999940e-01 0. 1.99999988e+00
      9.99999940e-01 0. 0. 0. 9.99999940e-01 0. 0. 9.99999940e-01
      9.99999940e-01 0. 0. 0. 0. 0. 0. 0. 9.99999940e-01 0. 0.
      1.99999988e+00 0. 0. 0. 1.99999988e+00 0. 0. 0. 0. 9.99999940e-01
      3.99999976e+00 0. 0. 1.99999988e+00 0. 0. 0. 0. 0. 0. 0.
      9.99999940e-01 0. 0. 0. 0. 0. 0. 0. 0. 9.99999940e-01 0. 0. 0.
      9.99999940e-01 9.99999940e-01 0. 0. 1.99999988e+00 9.99999940e-01
      0. 0. 0. 9.99999940e-01 0. 0. 0. 0. 0. 0. 0. 0. 0. 0. 0. 0. 0.
      9.99999940e-01 0. 9.99999940e-01 9.99999940e-01 0. 0. 0. 0. 0. 0.
      0. 0. 0. 0. 0. 0. 0. 0. 0. 0. 0. 0. 0. 0. 0. 0. 1.99999988e+00 0.
      9.99999940e-01 0. 0. 0. 0. 0. 0. 0. 9.99999940e-01 0. 0.
      9.99999940e-01 0. 0. 9.99999940e-01 0. 0. 9.99999940e-01 0. 0. 0.
      0. 0. 0. 0. 0. 0. 0. 9.99999940e-01 0. 0. 0. 0. 0. 0. 0. 0. 0. 0.
      9.99999940e-01 0. 0. 0. 0. 0. 9.99999940e-01 0. 0. 0.
      9.99999940e-01 0. 0. 9.99999940e-01 0. 0. 9.99999940e-01 0. 0.
      9.99999940e-01 0. 0. 0. 0. 0. 0. 9.99999940e-01 9.99999940e-01
      9.99999940e-01 0. 9.99999940e-01 9.99999940e-01 1.99999988e+00 0.
      0. 0. 0. 0. 4.99999952e+00 9.99999940e-01 0. 0. 0. 0. 0. 0. 0. 0.
