<?xml version="1.0"?>
<opencv_storage>
<my_svm type_id="opencv-ml-svm">
  <svm_type>C_SVC</svm_type>
  <kernel><type>RBF</type>
    <gamma>1.0000000000000001e-05</gamma></kernel>
  <C>6.2500000000000000e+01</C>
  <term_criteria><epsilon>1.1920928955078125e-07</epsilon>
    <iterations>1000</iterations></term_criteria>
  <var_all>800</var_all>
  <var_count>800</var_count>
  <class_count>2</class_count>
  <class_labels type_id="opencv-matrix">
    <rows>1</rows>
    <cols>2</cols>
    <dt>i</dt>
    <data>
      0 1</data></class_labels>
  <sv_total>124</sv_total>
  <support_vectors>
    <_>
      0. 0. 0. 0. 0. 0. 0. 2. 0. 1. 0. 0. 1. 0. 0. 0. 1. 0. 0. 1. 0. 0.
      0. 1. 0. 0. 0. 0. 1. 0. 0. 2. 5. 1. 1. 0. 0. 1. 0. 0. 0. 0. 2. 1.
      0. 0. 0. 1. 0. 2. 1. 0. 1. 0. 0. 0. 1. 0. 1. 0. 0. 2. 0. 0.
      3.00000024e+00 0. 0. 1. 0. 1. 1. 0. 1. 0. 0. 1. 1. 0. 0. 1. 0. 0.
      3.00000024e+00 2. 1. 0. 0. 1. 0. 2. 0. 0. 0. 2. 0. 0. 0. 0. 0. 1.
      0. 0. 0. 0. 0. 1. 0. 0. 0. 0. 0. 0. 0. 1. 1. 0. 1. 2. 1. 0. 0. 1.
      0. 0. 0. 1. 0. 0. 0. 0. 2. 0. 2. 0. 0. 0. 0. 0. 0. 0. 0. 0. 0. 0.
      0. 2. 0. 1. 0. 0. 1. 0. 0. 0. 0. 0. 0. 0. 0. 2. 1. 0. 0. 0. 0. 1.
      0. 0. 0. 0. 0. 1. 1. 0. 2. 1. 0. 0. 1. 0. 0. 0. 0. 0. 0. 1. 0. 0.
      1. 0. 0. 0. 0. 0. 2. 0. 0. 0. 0. 0. 0. 0. 0. 0. 0. 0. 0. 0. 0. 0.
      3.00000024e+00 1. 0. 0. 0. 0. 0. 0. 0. 0. 0. 1. 2. 0. 1. 0. 1. 0.
      0. 0. 1. 1. 1. 2. 0. 0. 0. 0. 0. 1. 0. 1. 0. 0. 0. 0. 0. 1. 0. 0.
      0. 0. 0. 0. 0. 0. 0. 0. 1. 0. 1. 0. 0. 0. 2. 0. 0. 1. 0. 0. 0. 0.
      1. 0. 0. 0. 0. 0. 0. 0. 0. 1. 0. 0. 0. 0. 0. 1. 0. 1. 0. 0. 0. 0.
      1. 0. 0. 0. 0. 0. 0. 1. 1. 2. 0. 0. 0. 0. 0. 0. 0. 2. 2. 1. 1. 0.
      0. 0. 1. 0. 0. 1. 0. 1. 0. 0. 2. 1. 1. 1. 0. 1. 0. 2. 0. 0. 0. 0.
      0. 0. 0. 0. 3.00000024e+00 0. 0. 0. 0. 0. 0. 0. 0. 1. 1. 0. 1. 0.
      0. 0. 0. 1. 0. 0. 1. 3.00000024e+00 0. 2. 0. 0. 1. 1. 1. 0. 0. 0.
      0. 0. 0. 0. 0. 0. 0. 0. 0. 0. 0. 2. 0. 1. 0. 1. 0. 0. 0. 2. 1. 2.
      1. 0. 1. 1. 1. 0. 0. 0. 0. 0. 0. 1. 0. 0. 0. 0. 1. 0. 0. 2. 0. 0.
      0. 0. 1. 0. 3.00000024e+00 1. 2. 3.00000024e+00 2. 0. 1. 0. 0. 0.
      0. 1. 0. 0. 0. 0. 0. 0. 0. 0. 0. 1. 0. 2. 0. 0. 0. 1. 0. 0. 0. 0.
      0. 1. 0. 1. 0. 1. 0. 0. 2. 1. 0. 1. 1. 1. 0. 0. 0. 0. 0. 0. 0. 2.
      0. 0. 1. 0. 0. 0. 0. 0. 0. 0. 0. 0. 0. 1. 1. 0. 0. 0. 0. 0. 0. 0.
      0. 0. 0. 0. 1. 0. 0. 0. 0. 0. 1. 1. 0. 0. 1. 0. 0. 0. 2. 0. 0. 1.
      0. 0. 0. 0. 0. 0. 1. 1. 0. 0. 0. 1. 0. 1. 0. 0. 1. 1. 0. 0. 0. 0.
      0. 2. 0. 0. 1. 0. 0. 1. 0. 0. 0. 1. 0. 1. 0. 0. 1. 2. 0. 0. 0. 0.
      0. 1. 2. 0. 0. 0. 0. 0. 0. 0. 0. 0. 0. 1. 1. 0. 1. 0. 0.
      3.00000024e+00 0. 0. 0. 0. 0. 0. 1. 0. 1. 0. 1. 0. 0. 0. 0. 0. 1.
      0. 0. 0. 0. 0. 0. 1. 2. 0. 0. 1. 0. 0. 0. 0. 0. 0. 0. 0. 0. 1. 0.
      0. 0. 0. 0. 0. 1. 0. 0. 0. 1. 0. 0. 0. 0. 0. 0. 0. 1. 0. 2. 0. 0.
      0. 0. 0. 0. 0. 0. 0. 0. 0. 0. 0. 0. 1. 0. 3.00000024e+00 0. 2. 2.
      0. 0. 1. 0. 0. 0. 0. 0. 1. 2. 0. 0. 1. 0. 0. 0. 0. 0. 0. 2. 0. 0.
      0. 0. 0. 0. 1. 1. 1. 0. 1. 3.00000024e+00 2. 1. 0. 0. 0. 0. 0. 0.
      1. 0. 2. 0. 0. 0. 0. 0. 0. 0. 0. 1. 2. 2. 1. 0. 0. 1. 1. 0. 2. 0.
      0. 0. 0. 2. 1. 0. 0. 1. 0. 0. 0. 0. 0. 1. 2. 0. 1. 0. 0. 1. 1. 1.
      0. 0. 0. 1. 0. 0. 0. 1. 0. 0. 1. 0. 0. 0. 0. 0. 0. 0. 0. 0. 1. 0.
      1. 0. 0. 0. 0. 0. 0. 0. 1. 0. 0. 0. 0. 0. 0. 1. 0. 0. 0.
      3.00000024e+00 0. 0. 1. 0. 0. 1. 0. 0. 0. 1. 0.</_>
    <_>
      2. 0. 1. 1. 0. 0. 0. 3. 2. 2. 1. 0. 0. 0. 3. 1. 2. 2. 2. 1. 1. 2.
      3. 1. 4. 2. 3. 0. 0. 1. 3. 1. 0. 0. 0. 3. 1. 2. 1. 0. 1. 0. 0. 2.
      3. 2. 3. 3. 1. 0. 0. 1. 1. 0. 2. 2. 1. 0. 0. 1. 1. 1. 1. 2. 1. 1.
      1. 3. 1. 1. 1. 0. 0. 1. 2. 1. 2. 2. 0. 0. 3. 0. 1. 3. 4. 0. 0. 1.
      1. 0. 2. 1. 2. 1. 2. 3. 1. 3. 0. 2. 3. 1. 5. 0. 0. 1. 4. 0. 0. 0.
      1. 2. 3. 1. 5. 1. 1. 2. 1. 4. 1. 0. 2. 0. 3. 0. 2. 1. 2. 0. 4. 1.
      0. 2. 2. 1. 0. 1. 3. 2. 1. 3. 0. 0. 0. 1. 1. 3. 5. 0. 2. 2. 0. 0.
      0. 1. 3. 3. 4. 2. 2. 1. 2. 1. 2. 1. 1. 1. 0. 1. 0. 2. 0. 2. 3. 0.
      0. 0. 1. 3. 1. 1. 2. 0. 2. 1. 1. 0. 0. 0. 0. 4. 2. 0. 1. 2. 0. 3.
      0. 0. 2. 3. 1. 0. 0. 5. 1. 0. 1. 2. 2. 0. 3. 0. 1. 3. 2. 1. 1. 0.
      2. 0. 1. 1. 0. 2. 2. 2. 2. 1. 2. 2. 3. 1. 2. 4. 2. 2. 0. 1. 0. 2.
      2. 1. 1. 1. 2. 3. 1. 1. 1. 2. 0. 2. 0. 0. 2. 0. 3. 1. 1. 4. 1. 3.
      2. 2. 0. 0. 3. 0. 0. 0. 2. 0. 1. 1. 0. 3. 3. 1. 2. 1. 1. 0. 0. 1.
      0. 1. 0. 1. 0. 0. 2. 0. 0. 5. 0. 1. 1. 3. 6. 1. 0. 1. 0. 5. 0. 1.
      1. 1. 2. 2. 4. 1. 4. 1. 2. 2. 0. 2. 1. 2. 0. 2. 1. 5. 2. 0. 1. 0.
      3. 3. 1. 3. 1. 0. 0. 0. 1. 0. 1. 0. 2. 0. 2. 3. 1. 0. 1. 0. 2. 3.
      2. 0. 0. 2. 4. 1. 3. 4. 3. 1. 2. 3. 2. 0. 0. 1. 3. 1. 2. 1. 2. 0.
      0. 0. 0. 0. 3. 1. 3. 1. 4. 2. 1. 0. 1. 1. 0. 2. 1. 1. 3. 1. 0. 1.
      3. 1. 2. 1. 3. 0. 2. 2. 2. 0. 1. 2. 1. 1. 0. 4. 1. 2. 2. 2. 4. 0.
      2. 2. 0. 3. 6. 5. 0. 0. 0. 1. 0. 2. 1. 0. 0. 0. 0. 0. 4. 0. 0. 0.
      0. 3. 3. 0. 1. 1. 1. 1. 1. 1. 2. 1. 2. 1. 2. 2. 1. 1. 2. 1. 1. 1.
      0. 0. 3. 3. 0. 0. 1. 1. 2. 0. 4. 0. 2. 2. 0. 1. 3. 2. 1. 1. 0. 0.
      0. 1. 0. 5. 0. 2. 4. 1. 1. 2. 5. 0. 1. 3. 0. 0. 2. 4. 2. 2. 1. 1.
      2. 0. 1. 2. 0. 2. 0. 4. 1. 3. 1. 2. 3. 0. 1. 0. 0. 1. 3. 3. 2. 1.
      0. 0. 2. 1. 1. 0. 3. 3. 1. 0. 0. 4. 0. 0. 1. 2. 1. 1. 2. 0. 2. 0.
      1. 1. 2. 2. 0. 1. 1. 0. 3. 2. 0. 2. 1. 4. 1. 1. 1. 0. 4. 0. 2. 0.
      0. 0. 1. 1. 2. 1. 3. 1. 0. 1. 1. 2. 2. 1. 2. 1. 1. 2. 0. 0. 2. 4.
      0. 1. 0. 4. 2. 0. 0. 2. 2. 0. 2. 0. 3. 1. 1. 4. 3. 1. 2. 0. 0. 1.
      1. 1. 3. 2. 0. 0. 0. 1. 0. 0. 2. 3. 1. 3. 1. 1. 0. 1. 0. 0. 0. 4.
      0. 0. 1. 1. 1. 0. 1. 1. 2. 2. 1. 0. 0. 1. 4. 0. 2. 1. 2. 1. 0. 0.
      0. 1. 2. 1. 0. 0. 2. 3. 0. 1. 1. 0. 1. 0. 2. 3. 0. 0. 1. 2. 2. 2.
      0. 1. 6. 0. 0. 1. 1. 2. 0. 5. 1. 2. 0. 3. 0. 6. 0. 0. 0. 1. 1. 2.
      4. 1. 0. 1. 1. 0. 1. 1. 0. 0. 0. 0. 1. 1. 1. 0. 1. 1. 0. 1. 1. 2.
      4. 2. 0. 2. 6. 1. 1. 2. 2. 0. 0. 0. 1. 1. 4. 0. 1. 2. 2. 1. 2. 0.
      1. 2. 0. 6. 0. 2. 2. 1. 0. 1. 2. 2. 0. 1. 0. 0. 1. 0. 2. 2. 0. 3.
      0. 0. 1. 2. 3. 1. 0. 1. 0. 2. 1. 1. 0. 2. 1. 1. 0. 0. 0. 0. 1. 0.
      0. 0. 0. 0. 0. 1. 0. 0.</_>
    <_>
      0. 1. 0. 0. 0. 0. 0. 0. 0. 0. 1. 0. 0. 0. 0. 0. 0. 0. 0. 0. 0. 0.
      0. 0. 0. 0. 0. 1. 0. 0. 0. 0. 0. 0. 1. 0. 0. 0. 0. 1. 0. 0. 0. 0.
      0. 0. 0. 0. 1. 0. 0. 1. 1. 0. 0. 0. 0. 0. 0. 0. 1. 0. 0. 0. 0. 0.
      0. 0. 0. 0. 0. 0. 0. 0. 0. 0. 0. 0. 0. 0. 0. 0. 0. 0. 0. 0. 0. 0.
      0. 0. 0. 0. 0. 0. 0. 0. 0. 0. 0. 0. 0. 0. 0. 1. 0. 1. 0. 0. 0. 0.
      0. 1. 0. 0. 0. 0. 0. 0. 0. 0. 0. 0. 0. 0. 0. 0. 0. 0. 0. 0. 0. 0.
      0. 0. 0. 0. 0. 0. 0. 0. 0. 0. 0. 0. 0. 0. 0. 0. 0. 0. 0. 0. 0. 0.
      0. 0. 0. 1. 0. 1. 0. 0. 0. 0. 0. 0. 0. 0. 1. 0. 0. 2. 0. 0. 1. 0.
      0. 0. 0. 0. 0. 0. 0. 0. 0. 0. 0. 0. 0. 0. 0. 0. 0. 0. 0. 0. 0. 0.
      0. 0. 0. 0. 0. 0. 3. 0. 0. 0. 1. 0. 0. 0. 0. 0. 1. 0. 0. 0. 0. 0.
      0. 2. 0. 0. 0. 0. 0. 0. 0. 0. 0. 0. 0. 0. 0. 0. 0. 0. 0. 0. 0. 0.
      0. 0. 0. 0. 0. 0. 0. 0. 0. 1. 0. 0. 0. 0. 0. 1. 0. 0. 1. 0. 0. 0.
      0. 0. 0. 0. 0. 0. 0. 1. 0. 0. 0. 0. 0. 0. 0. 2. 0. 0. 0. 0. 0. 0.
      0. 0. 0. 1. 0. 0. 0. 1. 0. 0. 0. 0. 0. 0. 0. 0. 0. 0. 0. 0. 0. 0.
      0. 0. 0. 0. 0. 0. 0. 0. 0. 0. 0. 0. 0. 0. 0. 1. 0. 0. 0. 0. 0. 0.
      0. 1. 0. 0. 0. 0. 0. 0. 0. 0. 0. 0. 0. 0. 1. 0. 0. 0. 0. 0. 0. 0.
      0. 0. 0. 0. 0. 0. 0. 0. 0. 0. 0. 0. 0. 0. 0. 1. 0. 0. 0. 0. 0. 0.
      1. 0. 0. 0. 0. 0. 0. 0. 0. 0. 0. 1. 0. 0. 0. 0. 1. 0. 0. 0. 0. 0.
      0. 0. 0. 0. 0. 0. 0. 0. 0. 0. 0. 0. 2. 0. 0. 0. 0. 0. 0. 1. 0. 0.
      0. 0. 0. 1. 0. 0. 1. 0. 1. 0. 0. 0. 1. 0. 0. 1. 0. 0. 0. 0. 0. 0.
      0. 0. 0. 1. 0. 0. 0. 0. 0. 0. 0. 0. 0. 0. 0. 0. 0. 0. 0. 0. 0. 0.
      0. 0. 0. 0. 0. 1. 0. 0. 0. 0. 0. 0. 0. 0. 0. 0. 0. 0. 0. 0. 0. 0.
      1. 0. 1. 0. 0. 0. 0. 0. 0. 0. 0. 0. 0. 0. 0. 0. 0. 0. 0. 0. 0. 0.
      0. 0. 0. 0. 0. 0. 0. 0. 0. 0. 1. 0. 0. 1. 0. 0. 0. 0. 0. 0. 0. 0.
      0. 0. 1. 1. 0. 1. 0. 0. 0. 0. 0. 0. 0. 0. 1. 1. 0. 0. 0. 0. 0. 0.
      1. 0. 0. 0. 1. 0. 1. 0. 0. 0. 0. 0. 0. 0. 0. 0. 1. 0. 0. 0. 0. 0.
      0. 0. 0. 0. 0. 0. 1. 0. 0. 0. 1. 0. 0. 0. 1. 0. 0. 1. 0. 0. 0. 0.
      0. 0. 0. 0. 0. 0. 1. 0. 0. 0. 0. 0. 0. 0. 1. 0. 0. 0. 0. 0. 0. 0.
      0. 0. 0. 0. 0. 0. 0. 0. 0. 0. 0. 0. 0. 0. 0. 0. 1. 0. 0. 0. 2. 0.
      0. 0. 0. 0. 0. 0. 0. 0. 0. 0. 0. 0. 0. 0. 0. 0. 0. 0. 2. 0. 0. 0.
      0. 0. 0. 1. 0. 0. 0. 0. 0. 0. 0. 0. 0. 0. 0. 0. 0. 0. 0. 0. 0. 0.
      0. 0. 0. 0. 0. 1. 0. 0. 0. 0. 0. 0. 1. 0. 0. 0. 0. 0. 0. 0. 0. 0.
      0. 0. 0. 0. 0. 1. 0. 2. 2. 0. 1. 0. 0. 0. 0. 0. 0. 0. 0. 0. 0. 0.
      0. 0. 0. 0. 0. 0. 1. 0. 1. 1. 0. 2. 0. 0. 0. 0. 0. 0. 0. 2. 0. 0.
      0. 0. 0. 1. 0. 0. 0. 1. 0. 0. 0. 0. 0. 0. 0. 0. 0. 0. 0. 1. 0. 0.
      0. 0. 0. 0. 0. 0. 0. 0. 0. 0. 0. 0. 0. 0. 1. 1. 0. 0. 0. 0. 0. 0.
      1. 0. 0. 0. 0. 0. 0. 0.</_>
    <_>
      3. 2. 0. 0. 0. 0. 0. 1. 0. 1. 1. 0. 1. 0. 2. 0. 2. 2. 1. 1. 1. 1.
      0. 0. 0. 2. 0. 0. 2. 0. 1. 0. 2. 1. 1. 0. 0. 3. 2. 0. 2. 0. 1. 2.
      0. 2. 2. 2. 0. 5. 3. 1. 0. 0. 1. 0. 3. 2. 0. 0. 2. 0. 1. 0. 0. 2.
      0. 2. 0. 2. 0. 1. 1. 0. 0. 0. 1. 1. 2. 2. 0. 0. 2. 1. 1. 0. 0. 0.
      4. 0. 1. 0. 0. 0. 2. 2. 1. 1. 0. 0. 0. 3. 1. 0. 0. 0. 0. 1. 2. 2.
      0. 0. 1. 1. 1. 1. 0. 2. 0. 0. 1. 1. 0. 1. 0. 1. 1. 0. 2. 0. 2. 0.
      0. 2. 0. 0. 0. 0. 1. 0. 1. 0. 0. 0. 0. 1. 4. 2. 1. 0. 1. 0. 1. 0.
      0. 1. 0. 1. 0. 1. 1. 3. 0. 0. 0. 0. 1. 0. 1. 1. 2. 0. 1. 0. 1. 0.
      1. 2. 0. 0. 2. 1. 0. 0. 0. 0. 0. 0. 1. 0. 0. 0. 0. 0. 1. 1. 0. 1.
      0. 0. 1. 0. 0. 0. 0. 0. 9. 1. 0. 0. 0. 2. 2. 0. 0. 1. 0. 0. 0. 1.
      0. 0. 2. 1. 1. 0. 1. 1. 2. 0. 0. 0. 2. 1. 1. 4. 1. 2. 0. 0. 0. 0.
      0. 3. 0. 0. 1. 0. 1. 1. 0. 2. 0. 1. 0. 0. 1. 0. 1. 1. 3. 0. 0. 0.
      0. 0. 0. 1. 0. 0. 0. 0. 0. 0. 1. 0. 1. 0. 1. 0. 1. 0. 2. 0. 0. 0.
      0. 0. 1. 0. 0. 0. 0. 1. 1. 0. 0. 0. 0. 2. 2. 5. 0. 1. 0. 2. 3. 1.
      0. 0. 0. 0. 0. 1. 1. 0. 0. 0. 3. 0. 0. 1. 2. 1. 1. 0. 2. 0. 0. 2.
      1. 0. 0. 4. 0. 1. 0. 0. 0. 1. 3. 0. 0. 0. 0. 1. 0. 0. 0. 0. 0. 1.
      0. 0. 0. 0. 0. 0. 2. 1. 0. 1. 3. 1. 0. 0. 0. 1. 1. 0. 0. 1. 0. 0.
      0. 0. 0. 2. 0. 0. 0. 0. 0. 0. 1. 0. 2. 0. 0. 0. 1. 0. 0. 0. 1. 0.
      0. 0. 0. 3. 3. 0. 1. 2. 3. 1. 0. 0. 0. 0. 0. 0. 1. 0. 3. 0. 3. 0.
      0. 0. 0. 0. 0. 2. 0. 1. 0. 0. 0. 1. 0. 0. 0. 2. 1. 3. 3. 0. 2. 0.
      0. 2. 0. 1. 0. 0. 1. 0. 1. 0. 1. 0. 0. 2. 4. 0. 0. 0. 0. 1. 0. 1.
      0. 1. 0. 1. 0. 0. 1. 0. 0. 1. 2. 0. 1. 1. 0. 0. 0. 0. 1. 0. 0. 3.
      2. 1. 1. 3. 1. 0. 3. 1. 2. 0. 7. 1. 0. 0. 0. 1. 1. 0. 2. 0. 0. 0.
      0. 0. 0. 1. 1. 0. 0. 3. 1. 1. 0. 0. 0. 0. 0. 1. 0. 0. 1. 1. 1. 1.
      0. 1. 0. 0. 0. 0. 2. 0. 0. 0. 0. 2. 0. 0. 3. 1. 0. 0. 1. 1. 1. 0.
      0. 0. 3. 0. 0. 0. 2. 0. 0. 0. 0. 0. 2. 0. 0. 1. 0. 0. 1. 1. 1. 2.
      0. 0. 0. 1. 0. 1. 2. 1. 1. 0. 0. 0. 0. 5. 0. 1. 0. 0. 1. 0. 0. 1.
      1. 1. 0. 1. 3. 2. 0. 2. 0. 0. 1. 0. 0. 0. 2. 0. 0. 1. 0. 0. 2. 2.
      1. 2. 2. 2. 0. 1. 0. 1. 2. 0. 0. 0. 0. 1. 3. 1. 0. 0. 0. 1. 0. 1.
      0. 0. 2. 0. 1. 1. 0. 0. 0. 1. 0. 0. 0. 1. 0. 0. 0. 0. 2. 0. 0. 1.
      2. 0. 0. 1. 1. 2. 0. 0. 0. 0. 0. 1. 1. 2. 0. 1. 0. 2. 0. 0. 0. 0.
      0. 0. 1. 3. 1. 0. 1. 0. 0. 0. 0. 0. 1. 0. 0. 2. 0. 0. 1. 0. 0. 0.
      2. 2. 1. 1. 1. 0. 0. 1. 1. 0. 0. 0. 1. 2. 0. 2. 0. 2. 2. 0. 0. 0.
      0. 0. 0. 2. 0. 2. 1. 1. 0. 1. 0. 0. 0. 0. 0. 0. 0. 0. 3. 0. 2. 0.
      1. 0. 1. 0. 0. 0. 1. 1. 0. 1. 3. 0. 1. 0. 1. 0. 0. 2. 0. 2. 0. 0.
      0. 2. 0. 0. 1. 0. 0. 0. 0. 1. 3. 1. 0. 2. 0. 0. 2. 0. 0. 1. 3. 0.
      0. 0. 0. 0. 3. 0. 1. 0.</_>
    <_>
      0. 1. 0. 0. 0. 0. 0. 1. 0. 0. 0. 2. 0. 0. 0. 0. 0. 1. 0. 1. 0. 0.
      0. 0. 0. 0. 0. 5.00000048e+00 2. 1. 0. 1. 0. 0. 0. 0. 1. 0. 1. 1.
      0. 0. 0. 1. 0. 0. 1. 1. 0. 0. 1. 0. 1. 0. 0. 0. 0. 0. 0.
      6.00000048e+00 0. 1. 1. 0. 0. 0. 0. 1. 0. 3.00000024e+00 0. 0. 1.
      0. 0. 1. 0. 0. 0. 0. 1. 0. 0. 1. 0. 0. 0. 1. 0. 0. 0. 0. 0. 2. 0.
      0. 3.00000024e+00 0. 0. 0. 0. 1. 0. 0. 1. 0. 0. 1. 0. 0. 0. 1. 0.
      1. 0. 0. 1. 0. 0. 0. 2. 0. 0. 0. 0. 0. 0. 0. 0. 0. 3.00000024e+00
      0. 1. 0. 1. 2. 0. 0. 2. 0. 0. 0. 2. 0. 0. 0. 0. 0. 0. 0. 0. 0. 0.
      0. 1. 0. 1. 0. 0. 1. 0. 0. 0. 0. 0. 1. 1. 0. 0. 0. 0. 0. 0. 1. 0.
      0. 0. 0. 0. 1. 0. 0. 0. 1. 0. 0. 0. 0. 1. 0. 0. 0. 0. 0. 0. 0. 0.
      0. 0. 0. 1. 0. 0. 0. 1. 0. 1. 0. 0. 0. 0. 0. 0. 0. 2. 0. 0. 0. 0.
      1. 0. 0. 1. 0. 0. 0. 1. 0. 0. 1. 0. 0. 0. 1. 0. 0. 0. 0. 0. 0. 0.
      0. 0. 0. 0. 1. 0. 0. 1. 0. 0. 0. 0. 0. 0. 0. 0. 0. 0. 0. 0. 0. 0.
      0. 0. 0. 0. 0. 0. 0. 0. 1. 0. 0. 1. 0. 0. 0. 0. 0. 0. 2. 0. 0. 0.
      0. 1. 1. 2. 0. 0. 0. 0. 0. 0. 1. 0. 0. 0. 0. 0. 0. 0. 0. 1. 0. 0.
      0. 1. 0. 0. 2. 0. 0. 0. 0. 0. 0. 0. 0. 2. 0. 0. 0. 0. 0. 2. 0. 0.
      2. 0. 0. 0. 0. 1. 2. 0. 0. 0. 0. 0. 1. 0. 0. 3.00000024e+00 0. 0.
      0. 2. 2. 0. 0. 1. 0. 0. 0. 0. 0. 0. 0. 1. 0. 0. 0. 0. 1. 0. 0. 0.
      1. 0. 0. 0. 0. 0. 1. 0. 2. 0. 0. 0. 0. 0. 0. 0. 2. 0. 1. 0. 0. 0.
      0. 0. 1. 2. 0. 0. 0. 0. 0. 1. 0. 0. 0. 1. 0. 1. 0. 0. 0. 0. 1. 0.
      1. 0. 0. 0. 0. 0. 0. 0. 1. 1. 2. 0. 0. 1. 0. 0. 0. 0. 0. 0. 0. 1.
      0. 0. 0. 0. 0. 0. 0. 1. 1. 0. 0. 0. 1. 1. 0. 0. 0. 0. 0. 1. 1. 0.
      0. 0. 0. 0. 0. 2. 0. 0. 1. 0. 0. 0. 0. 0. 1. 0. 1. 0. 0. 1. 1. 0.
      0. 0. 0. 0. 0. 1. 0. 1. 0. 0. 0. 0. 0. 0. 0. 0. 0. 0. 0. 0. 0. 1.
      0. 0. 0. 1. 0. 0. 0. 1. 0. 0. 0. 0. 6.00000048e+00 0. 0. 1. 0. 0.
      0. 1. 0. 0. 0. 0. 1. 0. 0. 0. 1. 0. 0. 0. 2. 0. 0. 0. 1. 0. 0. 0.
      1. 0. 0. 0. 1. 1. 1. 0. 0. 0. 0. 0. 0. 0. 0. 0. 0. 0. 0. 0. 0. 0.
      1. 0. 0. 0. 1. 1. 1. 0. 0. 0. 0. 0. 0. 0. 0. 1. 0. 0.
      3.00000024e+00 1. 0. 0. 0. 0. 0. 0. 0. 0. 1. 0. 0. 0. 0. 0. 0. 0.
      0. 1. 0. 0. 0. 0. 1. 1. 0. 0. 0. 0. 0. 0. 0. 1. 0. 1. 0. 0. 1. 2.
      0. 1. 2. 0. 0. 0. 0. 0. 0. 0. 0. 0. 0. 0. 0. 0. 1. 0. 0. 0. 0. 0.
      0. 0. 0. 0. 0. 0. 0. 0. 1. 0. 0. 0. 1. 0. 0. 1. 0. 0. 0. 0. 2. 0.
      0. 0. 0. 0. 0. 0. 0. 2. 0. 0. 0. 0. 0. 1. 1. 0. 0. 0. 0. 0. 0. 0.
      0. 0. 0. 2. 2. 2. 0. 0. 5.00000048e+00 0. 0. 2. 1. 0. 1. 0. 1. 0.
      0. 0. 0. 0. 0. 1. 1. 0. 0. 2. 1. 0. 0. 0. 1. 0. 0. 0. 0. 0. 0. 2.
      0. 0. 0. 2. 0. 0. 1. 0. 0. 3.00000024e+00 0. 0. 0. 0. 0. 0. 0. 0.
      0. 0. 0. 0. 0. 1. 0. 0. 0. 0. 1. 1. 0. 0. 0. 1. 0. 0. 0. 0. 0. 0.
      0. 0. 1. 0. 0. 1. 0. 0. 0. 0. 0. 0. 1. 0. 0. 1. 0. 0. 2. 1. 0. 1.
      1. 0. 0. 0. 1. 0. 0. 1. 0. 3.00000024e+00 0.</_>
    <_>
      9.99999940e-01 0. 0. 3. 3. 3.99999976e+00 1.99999988e+00
      3.99999976e+00 3. 1.99999988e+00 9.99999940e-01 0. 5.
      1.99999988e+00 1.99999988e+00 0. 5. 1.99999988e+00 0. 0. 0.
      1.99999988e+00 1.99999988e+00 0. 5. 0. 3. 9.99999940e-01 0.
      1.99999988e+00 6. 0. 3. 6. 0. 6. 3.99999976e+00 9.99999940e-01
      3.99999976e+00 0. 0. 9.99999940e-01 9.99999940e-01 9.99999940e-01
      3.99999976e+00 3. 9.99999940e-01 9.99999940e-01 3. 5.
      9.99999940e-01 1.99999988e+00 1.99999988e+00 1.99999988e+00 6.
      3.99999976e+00 9.99999940e-01 3. 1.99999988e+00 9.99999940e-01
      9.99999940e-01 5. 9.99999940e-01 6. 6. 3. 0. 1.99999988e+00 5. 0.
      3. 6.99999952e+00 9.99999940e-01 9.99999940e-01 0. 0. 3. 3. 3.
      9.99999940e-01 9.99999940e-01 0. 1.99999988e+00 0. 3.
      3.99999976e+00 9.99999940e-01 9.99999940e-01 1.99999988e+00 0. 3.
      3. 3.99999976e+00 9.99999940e-01 9.99999940e-01 3. 9.99999940e-01
      0. 0. 0. 1.99999988e+00 1.99999988e+00 9.99999940e-01
      9.99999940e-01 9.99999940e-01 3. 3. 3. 1.99999988e+00
      1.99999988e+00 5. 1.99999988e+00 3. 0. 3. 9.99999940e-01
      1.99999988e+00 3. 9.99999940e-01 3.99999976e+00 9.99999940e-01 3.
      9.99999940e-01 0. 5. 6. 9.99999940e-01 9.99999940e-01 0.
      1.99999988e+00 1.99999988e+00 3.99999976e+00 9.99999940e-01 3.
      1.99999988e+00 3. 0. 3.99999976e+00 3. 9.99999940e-01 0. 0.
      1.99999988e+00 9.99999940e-01 0. 0. 7.99999952e+00 9.99999940e-01
      3. 1.99999988e+00 9.99999940e-01 9.99999940e-01 9.99999940e-01
      1.99999988e+00 0. 9.99999940e-01 1.99999988e+00 9.99999940e-01
      1.99999988e+00 1.99999988e+00 0. 9.99999940e-01 1.99999988e+00
      1.99999988e+00 3. 1.99999988e+00 3. 3.99999976e+00 9.99999940e-01
      3.99999976e+00 9.99999940e-01 9.99999940e-01 9.99999940e-01 5. 0.
      1.99999988e+00 1.99999988e+00 3. 9.99999940e-01 3.99999976e+00 5.
      0. 3.99999976e+00 6.99999952e+00 0. 6. 3.99999976e+00
      1.99999988e+00 1.99999988e+00 3. 5. 9.99999940e-01 5.
      1.99999988e+00 1.99999988e+00 3.99999976e+00 3. 3. 9.99999940e-01
      0. 3. 3. 1.99999988e+00 1.99999988e+00 0. 0. 1.99999988e+00 0.
      9.99999940e-01 1.99999988e+00 9.99999940e-01 9.99999940e-01 6.
      1.99999988e+00 0. 1.99999988e+00 9.99999940e-01 1.99999988e+00 5.
      1.99999988e+00 9.99999940e-01 9.99999940e-01 0. 3.99999976e+00 3.
      3. 1.99999988e+00 1.99999988e+00 3.99999976e+00 1.99999988e+00 0.
      9.99999940e-01 6. 0. 9.99999940e-01 3.99999976e+00 3. 3. 0.
      9.99999940e-01 0. 3.99999976e+00 3.99999976e+00 1.99999988e+00
      9.99999940e-01 0. 0. 1.99999988e+00 3.99999976e+00 5. 0. 0. 3. 3.
      9.99999940e-01 0. 9.99999940e-01 3. 3. 9.99999940e-01
      9.99999940e-01 3. 0. 0. 1.99999988e+00 1.99999988e+00 0.
      9.99999940e-01 9.99999940e-01 0. 3. 1.99999988e+00 6. 3.
      9.99999940e-01 9.99999940e-01 5. 3.99999976e+00 3. 9.99999940e-01
      0. 0. 9.99999940e-01 6. 3. 1.99999988e+00 0. 1.99999988e+00 0.
      3.99999976e+00 0. 3. 1.99999988e+00 1.99999988e+00 9.99999940e-01
      6. 3.99999976e+00 3.99999976e+00 1.99999988e+00 1.99999988e+00 3.
      9.99999940e-01 9.99999940e-01 1.99999988e+00 0. 9.99999940e-01 5.
      3. 0. 0. 1.99999988e+00 9.99999940e-01 0. 3.99999976e+00
      9.99999940e-01 5. 0. 9.99999940e-01 3. 9.99999940e-01
      1.99999988e+00 3. 1.99999988e+00 3.99999976e+00 9.99999940e-01
      1.99999988e+00 1.99999988e+00 0. 3.99999976e+00 0. 9.99999940e-01
      0. 5. 1.99999988e+00 9.99999940e-01 1.99999988e+00 1.99999988e+00
      0. 0. 0. 1.99999988e+00 0. 3. 1.99999988e+00 3. 3. 3.99999976e+00
      0. 0. 0. 1.99999988e+00 1.99999988e+00 9.99999940e-01
      9.99999940e-01 9.99999940e-01 9.99999940e-01 0. 1.99999988e+00
      1.99999988e+00 5. 3. 3.99999976e+00 1.99999988e+00 9.99999940e-01
      1.99999988e+00 0. 0. 0. 6.99999952e+00 1.99999988e+00 0. 3.
      9.99999940e-01 1.99999988e+00 9.99999940e-01 0. 0. 0. 3. 0.
      1.99999988e+00 0. 5. 6. 3. 0. 3. 1.99999988e+00 9.99999940e-01 3.
      0. 3. 0. 1.99999988e+00 9.99999940e-01 0. 0. 1.99999988e+00
      9.99999940e-01 1.99999988e+00 1.99999988e+00 0. 3.99999976e+00
      1.99999988e+00 1.99999988e+00 9.99999940e-01 3. 9.99999940e-01
      1.99999988e+00 0. 0. 5. 0. 9.99999940e-01 3. 6. 1.99999988e+00
      9.99999940e-01 0. 9.99999940e-01 0. 9.99999940e-01 9.99999940e-01
      1.99999988e+00 1.99999988e+00 0. 3. 0. 9.99999940e-01
      3.99999976e+00 3. 9.99999940e-01 3.99999976e+00 9.99999940e-01 0.
      3. 3.99999976e+00 9.99999940e-01 1.99999988e+00 5. 0.
      1.99999988e+00 9.99999940e-01 1.99999988e+00 9.99999940e-01
      9.99999940e-01 3. 1.99999988e+00 9.99999940e-01 3.99999976e+00
      1.99999988e+00 0. 1.99999988e+00 1.99999988e+00 3. 1.99999988e+00
      3. 0. 3.99999976e+00 5. 0. 1.99999988e+00 0. 3.99999976e+00
      9.99999940e-01 9.99999940e-01 0. 1.99999988e+00 9.99999940e-01
      9.99999940e-01 3.99999976e+00 0. 5. 9.99999940e-01 0.
      9.99999940e-01 6. 3.99999976e+00 9.99999940e-01 9.99999940e-01 6.
      3.99999976e+00 1.99999988e+00 3.99999976e+00 0. 1.99999988e+00
      9.99999940e-01 6.99999952e+00 9.99999940e-01 1.99999988e+00
      9.99999940e-01 5. 3. 1.99999988e+00 1.99999988e+00 1.99999988e+00
      9.99999940e-01 9.99999940e-01 0. 1.99999988e+00 3. 1.99999988e+00
      9.99999940e-01 0. 5. 1.99999988e+00 3.99999976e+00 3.
      3.99999976e+00 1.99999988e+00 0. 9.99999940e-01 9.99999940e-01
      9.99999940e-01 1.99999988e+00 1.99999988e+00 9.99999940e-01 3. 3.
      9.99999940e-01 1.99999988e+00 3. 1.99999988e+00 5. 5.
      9.99999940e-01 0. 1.99999988e+00 9.99999940e-01 0. 0.
      9.99999940e-01 1.99999988e+00 0. 1.99999988e+00 1.99999988e+00 0.
      1.99999988e+00 3. 1.99999988e+00 0. 0. 9.99999940e-01
      9.99999940e-01 1.99999988e+00 3. 3. 0. 1.99999988e+00
      3.99999976e+00 0. 3.99999976e+00 1.99999988e+00 9.99999940e-01
      9.99999940e-01 1.99999988e+00 1.99999988e+00 1.99999988e+00
      3.99999976e+00 1.99999988e+00 0. 5. 0. 1.99999988e+00
      9.99999940e-01 0. 1.99999988e+00 9.99999940e-01 0. 3.99999976e+00
      9.99999940e-01 1.99999988e+00 0. 9.99999940e-01 3.99999976e+00 0.
      3. 3.99999976e+00 3. 1.99999988e+00 3. 1.99999988e+00
      9.99999940e-01 3.99999976e+00 0. 9.99999940e-01 9.99999940e-01
      9.99999940e-01 0. 0. 0. 1.99999988e+00 1.99999988e+00 3.
      1.99999988e+00 1.99999988e+00 0. 0. 1.99999988e+00 9.99999940e-01
      9.99999940e-01 1.99999988e+00 0. 3. 0. 3. 0. 0. 9.99999940e-01 6.
      5. 5. 1.99999988e+00 0. 1.99999988e+00 0. 9.99999940e-01
      1.99999988e+00 6. 9.99999940e-01 9.99999940e-01 1.99999988e+00
      3.99999976e+00 1.99999988e+00 3. 1.99999988e+00 5. 9.99999940e-01
      9.99999940e-01 1.99999988e+00 3. 1.99999988e+00 3. 9.99999940e-01
      0. 3.99999976e+00 3. 9.99999940e-01 9.99999940e-01 0. 0.
      9.99999940e-01 1.99999988e+00 5. 6. 9.99999940e-01 5.
      1.99999988e+00 9.99999940e-01 0. 3.99999976e+00 3. 9.99999940e-01
      3. 9.99999940e-01 1.99999988e+00 9.99999940e-01 1.99999988e+00 0.
      9.99999940e-01 9.99999940e-01 0. 3.99999976e+00 9.99999940e-01 5.
      9.99999940e-01 3. 5. 9.99999940e-01 1.99999988e+00 1.99999988e+00
      3. 0. 3. 9.99999940e-01 3.99999976e+00 3. 5. 3.99999976e+00
      3.99999976e+00 3. 10. 3.99999976e+00 9.99999940e-01 1.99999988e+00
      9.99999940e-01 0. 3.99999976e+00 3.99999976e+00 3. 1.99999988e+00
      1.99999988e+00 9.99999940e-01 3.99999976e+00 1.99999988e+00 0.
      9.99999940e-01 6. 9.99999940e-01 1.99999988e+00 1.99999988e+00
      9.99999940e-01 0. 3. 5. 3. 9.99999940e-01 1.99999988e+00
      7.99999952e+00 9.99999940e-01 3.99999976e+00 9.99999940e-01 0. 3.
      0. 1.99999988e+00 3. 1.99999988e+00 3. 9.99999940e-01 0.
      9.99999940e-01 1.99999988e+00 3. 0. 1.99999988e+00 0.
      1.99999988e+00 1.99999988e+00 5. 3. 6.99999952e+00 1.99999988e+00
      3. 9.99999940e-01 1.99999988e+00 9.99999940e-01 9.99999940e-01
      9.99999940e-01 9.99999940e-01 3.99999976e+00 9.99999940e-01
      3.99999976e+00 0. 0. 9.99999940e-01 0. 0. 9.99999940e-01 0.
      1.99999988e+00 3.99999976e+00 9.99999940e-01 1.99999988e+00 0.
      9.99999940e-01 0. 3. 3. 3.99999976e+00 3.99999976e+00
      1.99999988e+00 0. 1.99999988e+00 3.99999976e+00 1.99999988e+00 5.
      1.99999988e+00 3.99999976e+00 1.99999988e+00 0. 1.99999988e+00 0.
      1.99999988e+00 9.99999940e-01 9.99999940e-01 0. 9.99999940e-01
      7.99999952e+00 1.99999988e+00 1.99999988e+00 0. 1.99999988e+00
      9.99999940e-01 9.99999940e-01 0. 9.99999940e-01 3. 9.99999940e-01
      0. 3.99999976e+00 1.99999988e+00 9.99999940e-01 1.99999988e+00
      3.99999976e+00 9.99999940e-01 3.99999976e+00 5. 9.99999940e-01
      1.99999988e+00</_>
    <_>
      0. 1. 0. 1. 0. 0. 1. 1. 0. 0. 1. 0. 0. 2. 0. 1. 0. 0. 0. 0. 0. 0.
      0. 0. 0. 0. 0. 0. 1. 1. 0. 0. 1. 0. 0. 0. 2. 1. 0. 0. 0. 0. 1. 0.
      1. 0. 0. 0. 0. 0. 3. 1. 0. 1. 0. 0. 1. 0. 0. 0. 1. 0. 0. 0. 0. 0.
      0. 0. 0. 1. 0. 0. 1. 0. 1. 0. 0. 0. 1. 0. 0. 1. 0. 0. 1. 0. 0. 0.
      0. 0. 0. 0. 0. 0. 0. 0. 0. 0. 0. 0. 0. 0. 0. 1. 2. 0. 0. 0. 0. 0.
      0. 3. 0. 5. 1. 0. 0. 0. 1. 0. 0. 1. 0. 0. 0. 0. 0. 0. 2. 1. 0. 0.
      0. 3. 0. 0. 1. 1. 0. 0. 1. 1. 1. 0. 0. 0. 0. 0. 1. 1. 0. 0. 0. 0.
      1. 0. 0. 0. 0. 1. 0. 0. 0. 0. 1. 0. 0. 0. 0. 0. 0. 1. 0. 1. 1. 0.
      1. 1. 0. 0. 0. 0. 0. 0. 1. 0. 1. 0. 1. 0. 0. 1. 0. 0. 0. 0. 1. 1.
      0. 0. 0. 0. 0. 0. 0. 0. 0. 1. 0. 0. 0. 0. 0. 0. 0. 0. 0. 0. 2. 0.
      0. 0. 1. 0. 0. 0. 1. 0. 0. 1. 0. 0. 0. 0. 0. 0. 0. 0. 0. 1. 1. 0.
      0. 2. 0. 0. 2. 0. 1. 0. 0. 1. 2. 2. 0. 0. 1. 0. 0. 0. 1. 0. 2. 1.
      0. 0. 0. 0. 0. 0. 0. 0. 0. 0. 3. 0. 1. 0. 2. 1. 0. 0. 0. 0. 0. 0.
      0. 1. 0. 0. 1. 0. 0. 1. 1. 0. 0. 0. 1. 0. 1. 1. 0. 0. 0. 0. 0. 0.
      0. 0. 0. 0. 0. 0. 0. 0. 0. 0. 0. 0. 0. 1. 1. 1. 0. 1. 0. 0. 0. 0.
      0. 0. 0. 0. 1. 0. 0. 0. 0. 0. 1. 0. 0. 0. 0. 0. 0. 0. 0. 1. 1. 0.
      0. 1. 0. 1. 1. 1. 0. 0. 1. 0. 0. 1. 1. 0. 1. 1. 0. 0. 0. 0. 1. 0.
      0. 0. 1. 0. 0. 0. 0. 0. 0. 0. 0. 0. 0. 2. 0. 0. 0. 0. 0. 1. 1. 0.
      0. 1. 0. 0. 1. 0. 0. 0. 1. 0. 1. 0. 0. 0. 0. 0. 0. 1. 1. 0. 0. 0.
      1. 0. 0. 0. 0. 0. 1. 1. 1. 0. 0. 0. 1. 1. 2. 2. 0. 1. 0. 0. 0. 0.
      0. 0. 0. 3. 0. 2. 0. 0. 0. 0. 0. 1. 0. 1. 0. 0. 2. 0. 0. 0. 0. 0.
      0. 0. 0. 3. 0. 0. 0. 0. 0. 0. 2. 1. 2. 0. 0. 0. 1. 0. 0. 0. 1. 0.
      0. 0. 3. 0. 0. 0. 1. 0. 1. 0. 0. 1. 0. 1. 0. 0. 0. 1. 1. 0. 0. 0.
      0. 0. 0. 0. 0. 0. 1. 2. 0. 0. 1. 0. 0. 0. 0. 0. 0. 0. 0. 0. 0. 0.
      0. 1. 0. 0. 0. 0. 0. 0. 0. 0. 0. 0. 0. 0. 0. 0. 0. 1. 0. 0. 0. 1.
      0. 0. 0. 0. 0. 1. 0. 0. 0. 3. 0. 0. 0. 1. 0. 0. 0. 0. 0. 0. 0. 0.
      0. 0. 1. 0. 0. 0. 1. 0. 0. 0. 0. 0. 0. 0. 0. 0. 0. 1. 0. 0. 0. 0.
      0. 2. 0. 0. 0. 1. 0. 1. 0. 0. 1. 0. 0. 1. 0. 0. 0. 0. 0. 1. 0. 1.
      0. 1. 1. 0. 0. 0. 0. 0. 0. 0. 0. 0. 1. 0. 0. 0. 1. 0. 0. 0. 0. 0.
      1. 0. 0. 1. 0. 0. 0. 0. 0. 0. 0. 0. 0. 0. 0. 0. 0. 1. 0. 0. 0. 0.
      0. 0. 0. 0. 0. 0. 0. 1. 0. 0. 1. 0. 1. 0. 0. 0. 0. 1. 0. 1. 0. 0.
      0. 0. 0. 1. 0. 0. 0. 0. 0. 0. 0. 1. 0. 4. 0. 0. 0. 0. 0. 0. 0. 0.
      1. 0. 0. 2. 0. 0. 1. 0. 0. 0. 0. 3. 0. 0. 0. 1. 0. 0. 0. 0. 0. 2.
      0. 0. 0. 0. 0. 0. 2. 0. 0. 1. 0. 2. 0. 0. 0. 0. 0. 0. 0. 1. 0. 3.
      0. 0. 0. 0. 0. 0. 2. 0. 0. 2. 0. 0. 0. 0. 4. 0. 1. 0. 1. 0. 0. 0.
      2. 0. 0. 2. 0. 0. 0. 1. 0. 0. 3. 2. 0. 1. 0. 0. 1. 0. 0. 0. 1. 3.
      0. 4. 0. 0. 0. 0. 0. 0.</_>
    <_>
      0. 0. 0. 0. 0. 0. 0. 1. 0. 1. 2. 0. 0. 0. 0. 1. 0. 0. 0. 0. 0. 2.
      0. 0. 1. 0. 0. 0. 2. 0. 0. 3. 0. 1. 0. 0. 0. 0. 1. 0. 0. 0. 0. 0.
      0. 0. 0. 1. 0. 0. 0. 0. 2. 0. 0. 0. 0. 0. 0. 0. 0. 0. 0. 0. 1. 0.
      0. 0. 0. 0. 0. 0. 0. 0. 0. 0. 1. 1. 0. 0. 0. 0. 0. 0. 0. 0. 0. 0.
      0. 0. 1. 0. 0. 1. 1. 0. 0. 1. 0. 0. 0. 0. 0. 1. 3. 0. 1. 0. 0. 0.
      0. 0. 0. 0. 0. 1. 0. 0. 1. 0. 0. 0. 0. 0. 0. 0. 0. 1. 0. 0. 1. 0.
      0. 1. 0. 0. 0. 2. 0. 0. 0. 1. 0. 0. 0. 0. 0. 0. 0. 0. 0. 0. 0. 0.
      0. 0. 1. 0. 0. 0. 0. 0. 0. 0. 0. 0. 0. 0. 1. 0. 0. 1. 0. 1. 0. 0.
      0. 0. 1. 0. 0. 0. 0. 0. 0. 0. 0. 1. 1. 0. 0. 0. 0. 0. 1. 0. 0. 0.
      1. 0. 0. 0. 0. 0. 0. 0. 0. 0. 0. 0. 0. 0. 0. 0. 2. 1. 0. 0. 0. 0.
      0. 0. 1. 0. 0. 2. 0. 0. 1. 1. 0. 1. 0. 1. 0. 0. 1. 0. 0. 0. 1. 0.
      0. 0. 0. 0. 1. 1. 0. 0. 0. 0. 1. 1. 0. 0. 0. 0. 0. 1. 0. 0. 1. 0.
      0. 0. 0. 0. 0. 0. 0. 0. 0. 0. 0. 0. 0. 1. 0. 2. 1. 0. 1. 0. 0. 0.
      0. 0. 0. 1. 0. 0. 2. 0. 0. 0. 0. 0. 0. 0. 0. 0. 0. 1. 0. 0. 0. 1.
      0. 0. 1. 0. 0. 0. 0. 2. 0. 0. 0. 0. 0. 0. 0. 1. 0. 2. 0. 0. 0. 1.
      0. 0. 0. 0. 0. 0. 0. 0. 0. 1. 0. 0. 0. 0. 0. 0. 0. 1. 0. 0. 0. 0.
      0. 2. 0. 0. 2. 1. 0. 0. 1. 1. 0. 0. 0. 1. 0. 0. 0. 1. 0. 1. 0. 0.
      1. 0. 0. 0. 1. 0. 0. 0. 0. 0. 0. 1. 1. 0. 1. 0. 0. 1. 1. 0. 0. 0.
      1. 0. 0. 0. 0. 0. 0. 0. 0. 0. 0. 0. 0. 0. 0. 0. 0. 0. 1. 0. 0. 0.
      0. 0. 0. 0. 0. 0. 1. 0. 0. 0. 0. 0. 1. 0. 1. 1. 0. 0. 0. 0. 0. 0.
      0. 0. 0. 1. 0. 0. 0. 0. 0. 0. 0. 0. 0. 0. 0. 0. 0. 0. 1. 1. 1. 0.
      2. 0. 0. 0. 0. 0. 1. 0. 0. 1. 1. 1. 0. 0. 0. 1. 2. 0. 0. 0. 0. 0.
      0. 1. 0. 0. 0. 0. 0. 0. 0. 2. 0. 0. 0. 0. 0. 0. 1. 0. 0. 1. 0. 0.
      1. 0. 0. 0. 0. 0. 0. 0. 0. 0. 1. 0. 0. 1. 0. 1. 1. 0. 0. 1. 0. 0.
      0. 0. 0. 0. 0. 2. 0. 0. 1. 0. 0. 0. 0. 0. 0. 0. 0. 0. 1. 1. 0. 0.
      0. 0. 0. 0. 0. 0. 0. 1. 0. 0. 0. 1. 0. 1. 1. 0. 0. 0. 0. 0. 0. 0.
      0. 0. 0. 2. 0. 0. 0. 0. 1. 2. 1. 2. 0. 0. 0. 0. 0. 0. 0. 0. 0. 0.
      0. 3. 0. 2. 0. 0. 0. 0. 0. 0. 1. 1. 1. 0. 0. 0. 0. 0. 0. 0. 0. 0.
      0. 0. 0. 0. 0. 0. 1. 0. 0. 0. 0. 2. 1. 0. 0. 0. 0. 0. 0. 0. 2. 0.
      0. 0. 0. 0. 0. 0. 0. 0. 0. 0. 1. 1. 0. 1. 1. 0. 0. 0. 0. 0. 0. 1.
      0. 0. 0. 3. 0. 0. 0. 0. 0. 0. 0. 0. 0. 0. 0. 0. 1. 0. 0. 0. 0. 0.
      0. 0. 0. 0. 0. 0. 0. 0. 0. 0. 2. 0. 0. 0. 0. 0. 0. 0. 0. 0. 0. 0.
      1. 0. 0. 1. 0. 0. 1. 1. 0. 0. 2. 0. 1. 0. 0. 0. 0. 0. 0. 1. 0. 0.
      0. 0. 0. 0. 0. 0. 0. 0. 1. 0. 0. 2. 0. 0. 0. 0. 1. 0. 0. 0. 0. 0.
      0. 0. 0. 0. 0. 0. 0. 1. 0. 0. 0. 0. 1. 0. 3. 0. 0. 0. 0. 0. 0. 0.
      0. 0. 0. 0. 0. 0. 0. 0. 0. 0. 1. 1. 0. 0. 0. 0. 0. 0. 0. 0. 0. 0.
      0. 0. 0. 1. 0. 0. 0. 0.</_>
    <_>
      0. 0. 0. 0. 1. 0. 1. 0. 0. 0. 0. 0. 2. 0. 0. 1. 0. 0. 0. 3. 1. 0.
      0. 0. 0. 0. 0. 2. 10. 0. 0. 0. 1. 0. 1. 0. 0. 0. 0. 0. 0. 0. 0. 2.
      0. 0. 0. 0. 1. 2. 0. 0. 0. 0. 0. 0. 0. 0. 0. 1. 0. 1. 3. 0. 0. 0.
      0. 0. 0. 6. 0. 0. 0. 0. 0. 0. 0. 0. 0. 0. 1. 3. 0. 0. 1. 0. 0. 3.
      0. 0. 0. 0. 0. 1. 0. 0. 1. 1. 0. 0. 0. 0. 0. 0. 0. 1. 0. 1. 0. 0.
      0. 4. 1. 0. 0. 0. 0. 1. 1. 0. 0. 0. 0. 0. 1. 0. 0. 0. 0. 0. 2. 0.
      0. 17. 0. 0. 0. 1. 0. 0. 0. 0. 0. 0. 0. 2. 0. 0. 0. 0. 0. 0. 0. 2.
      0. 0. 1. 3. 1. 0. 0. 0. 0. 0. 1. 0. 0. 0. 0. 1. 0. 0. 0. 0. 1. 0.
      0. 0. 0. 1. 0. 0. 0. 0. 0. 0. 0. 1. 0. 8. 0. 0. 0. 0. 1. 0. 0. 0.
      0. 0. 1. 0. 0. 0. 0. 0. 1. 0. 0. 1. 2. 0. 0. 0. 0. 0. 0. 0. 0. 0.
      0. 0. 1. 0. 0. 0. 4. 2. 0. 0. 0. 0. 0. 1. 0. 0. 0. 0. 0. 0. 0. 1.
      1. 0. 0. 0. 0. 0. 0. 0. 0. 0. 2. 0. 0. 1. 0. 0. 0. 2. 0. 0. 0. 2.
      0. 0. 1. 0. 0. 1. 0. 0. 0. 0. 0. 0. 0. 1. 0. 1. 0. 0. 0. 0. 0. 0.
      0. 0. 1. 1. 0. 1. 0. 1. 0. 1. 0. 1. 0. 0. 0. 0. 0. 0. 0. 0. 0. 2.
      0. 0. 1. 0. 0. 0. 0. 0. 0. 0. 0. 3. 0. 0. 0. 0. 1. 0. 0. 1. 0. 0.
      0. 2. 0. 0. 2. 0. 0. 0. 2. 0. 0. 0. 0. 0. 1. 0. 0. 0. 0. 0. 0. 0.
      0. 0. 0. 0. 0. 0. 0. 0. 0. 0. 0. 1. 0. 0. 0. 1. 0. 0. 0. 0. 0. 0.
      0. 0. 0. 2. 0. 0. 1. 0. 0. 0. 0. 2. 0. 2. 0. 0. 1. 0. 0. 0. 0. 0.
      0. 0. 1. 1. 0. 0. 0. 0. 0. 0. 0. 0. 0. 0. 0. 1. 0. 0. 0. 0. 0. 0.
      0. 0. 0. 2. 2. 0. 3. 1. 0. 0. 0. 0. 3. 1. 0. 0. 0. 0. 0. 0. 1. 0.
      0. 0. 0. 1. 0. 6. 0. 0. 2. 0. 2. 1. 0. 0. 0. 0. 0. 0. 0. 0. 0. 0.
      3. 0. 0. 1. 0. 1. 0. 0. 0. 0. 0. 1. 0. 0. 2. 0. 0. 0. 0. 1. 0. 0.
      0. 0. 0. 0. 0. 0. 0. 0. 0. 1. 0. 0. 0. 0. 0. 0. 0. 0. 0. 1. 0. 0.
      1. 0. 0. 0. 0. 0. 0. 1. 0. 0. 0. 0. 1. 0. 0. 0. 0. 0. 0. 0. 0. 0.
      1. 4. 1. 0. 0. 2. 0. 0. 0. 0. 0. 0. 0. 0. 2. 1. 0. 0. 1. 0. 0. 0.
      0. 0. 0. 0. 0. 0. 0. 0. 0. 0. 0. 0. 0. 0. 0. 1. 0. 0. 0. 0. 1. 0.
      3. 1. 0. 0. 0. 0. 3. 0. 0. 1. 1. 0. 1. 1. 0. 0. 0. 0. 0. 0. 0. 0.
      0. 0. 0. 0. 0. 0. 0. 0. 0. 0. 0. 1. 0. 1. 1. 0. 0. 0. 0. 3. 0. 0.
      0. 0. 0. 0. 1. 2. 1. 0. 0. 0. 0. 0. 0. 0. 0. 0. 5. 1. 0. 0. 0. 1.
      0. 0. 0. 0. 0. 0. 0. 0. 0. 1. 0. 0. 0. 0. 0. 0. 0. 0. 0. 0. 0. 0.
      3. 1. 0. 1. 0. 0. 0. 0. 0. 3. 0. 0. 4. 0. 0. 0. 0. 0. 0. 0. 0. 0.
      0. 0. 1. 0. 0. 0. 0. 2. 1. 1. 1. 0. 0. 0. 0. 0. 1. 0. 0. 0. 0. 0.
      1. 0. 0. 0. 0. 2. 0. 2. 1. 0. 0. 0. 0. 1. 0. 0. 0. 0. 0. 2. 0. 0.
      0. 0. 2. 0. 0. 0. 0. 1. 0. 0. 0. 0. 0. 1. 0. 2. 0. 0. 2. 0. 0. 0.
      0. 0. 0. 0. 1. 0. 0. 1. 0. 1. 0. 0. 0. 0. 0. 1. 0. 0. 0. 0. 0. 0.
      0. 0. 0. 1. 0. 0. 0. 0. 0. 0. 0. 2. 0. 0. 0. 0. 1. 0. 1. 0. 2. 0.
      0. 0. 0. 0. 1. 0. 4. 0.</_>
    <_>
      0. 0. 0. 0. 1. 0. 1. 1. 1. 0. 0. 1. 2. 3. 0. 0. 0. 0. 0. 0. 1. 2.
      0. 0. 0. 0. 2. 1. 2. 1. 0. 0. 2. 0. 0. 1. 0. 0. 4. 0. 0. 0. 0. 2.
      1. 1. 1. 0. 0. 0. 0. 1. 0. 1. 0. 0. 0. 0. 0. 1. 0. 0. 0. 0. 2. 1.
      0. 0. 1. 0. 2. 0. 3. 1. 0. 0. 0. 0. 0. 0. 2. 0. 2. 1. 0. 0. 1. 1.
      0. 2. 0. 0. 0. 0. 0. 0. 1. 0. 0. 1. 1. 0. 1. 0. 0. 0. 0. 0. 1. 0.
      0. 3. 1. 2. 0. 0. 0. 0. 0. 1. 0. 0. 0. 0. 1. 1. 0. 1. 0. 0. 0. 0.
      0. 7.00000048e+00 0. 0. 0. 0. 0. 0. 0. 0. 1. 1. 0. 0. 1. 0. 0. 0.
      0. 0. 0. 0. 0. 2. 0. 1. 1. 0. 1. 0. 1. 0. 0. 1. 0. 2. 1. 0. 1. 0.
      0. 0. 1. 0. 0. 1. 1. 0. 0. 0. 1. 0. 0. 0. 1. 0. 0. 3. 0. 1. 0. 1.
      0. 0. 0. 0. 1. 0. 1. 1. 0. 0. 0. 0. 3. 0. 2. 0. 0. 0. 0. 0. 0. 1.
      1. 1. 0. 1. 0. 1. 0. 0. 2. 0. 0. 0. 2. 2. 0. 0. 0. 0. 1. 1. 0. 0.
      0. 1. 2. 0. 1. 0. 1. 0. 1. 0. 0. 0. 0. 1. 0. 0. 0. 1. 2. 0. 0. 0.
      0. 0. 1. 0. 0. 2. 0. 0. 0. 1. 0. 0. 0. 0. 1. 0. 0. 1. 1. 0. 0. 0.
      0. 0. 0. 1. 0. 0. 0. 1. 0. 0. 1. 0. 0. 1. 0. 1. 0. 0. 1. 0. 1. 1.
      1. 2. 1. 0. 0. 0. 1. 0. 0. 1. 0. 0. 0. 0. 0. 0. 0. 0. 1. 0. 0. 1.
      2. 1. 1. 0. 1. 0. 0. 1. 1. 0. 0. 0. 1. 0. 0. 0. 0. 0. 0. 0. 0. 0.
      0. 1. 1. 2. 0. 1. 1. 0. 0. 0. 0. 0. 0. 1. 1. 0. 1. 1. 0. 0. 1. 0.
      0. 1. 0. 0. 0. 0. 0. 0. 0. 0. 1. 0. 1. 0. 0. 0. 0. 7.00000048e+00
      1. 1. 2. 0. 0. 1. 0. 0. 0. 1. 1. 0. 0. 0. 0. 0. 0. 0. 0. 0. 1. 0.
      0. 3. 0. 0. 0. 0. 0. 2. 0. 0. 0. 0. 0. 0. 1. 2. 1. 0. 0. 1. 4. 1.
      3. 1. 0. 0. 0. 1. 1. 0. 0. 0. 0. 1. 1. 5. 0. 1. 0. 0. 0. 0. 0. 1.
      0. 0. 0. 0. 0. 2. 0. 1. 0. 0. 2. 1. 1. 1. 0. 0. 0. 1. 0. 3. 5. 0.
      0. 0. 1. 0. 0. 2. 0. 0. 0. 0. 0. 2. 0. 0. 1. 2. 0. 0. 1. 0. 0. 1.
      0. 0. 0. 0. 1. 0. 2. 0. 0. 0. 0. 1. 1. 0. 0. 2. 2. 1. 0. 0. 0. 1.
      4. 1. 2. 0. 0. 0. 0. 0. 0. 0. 0. 0. 0. 0. 0. 0. 0. 0. 0. 0. 0. 0.
      0. 0. 0. 1. 0. 0. 0. 0. 0. 0. 0. 0. 1. 0. 0. 0. 0. 0. 0. 0. 0. 0.
      0. 1. 0. 0. 0. 0. 0. 0. 1. 0. 0. 0. 1. 0. 2. 0. 1. 0. 3. 1. 0. 0.
      0. 2. 0. 0. 1. 0. 0. 0. 1. 0. 1. 0. 2. 0. 0. 0. 0. 0. 2. 2. 0. 2.
      2. 0. 2. 1. 0. 0. 1. 1. 0. 0. 0. 0. 0. 1. 1. 1. 0. 0. 2. 1. 1. 2.
      0. 0. 1. 0. 1. 1. 0. 3. 1. 0. 1. 0. 0. 0. 0. 0. 0. 0. 2. 0. 0. 0.
      0. 0. 0. 0. 1. 1. 0. 1. 0. 0. 1. 0. 0. 0. 0. 0. 0. 0. 0. 0. 0. 2.
      0. 1. 0. 0. 0. 2. 0. 1. 0. 0. 0. 0. 0. 1. 1. 1. 1. 0. 2. 0. 0. 0.
      0. 0. 0. 3. 0. 1. 0. 0. 0. 0. 0. 1. 0. 1. 1. 0. 3. 0. 1. 0. 0. 0.
      0. 0. 2. 0. 0. 1. 0. 0. 1. 0. 0. 0. 0. 1. 0. 2. 0. 0. 1. 1. 0. 0.
      0. 0. 1. 0. 0. 0. 1. 0. 0. 0. 0. 1. 1. 0. 0. 0. 0. 1. 1. 0. 1. 0.
      0. 0. 0. 1. 1. 0. 0. 1. 0. 0. 0. 0. 0. 0. 0. 1. 0. 0. 0. 0. 1. 0.
      0. 0. 0. 0. 1. 0. 0. 1. 1. 0. 0. 0. 0. 1. 2. 0.</_>
    <_>
      0. 0. 0. 0. 0. 0. 0. 0. 0. 0. 0. 0. 1. 0. 0. 0. 0. 0. 0. 0. 0. 0.
      0. 1. 0. 0. 0. 10. 1. 0. 0. 0. 0. 0. 1. 0. 0. 0. 0. 1. 2. 0. 0. 0.
      0. 0. 0. 1. 1. 1. 0. 0. 0. 0. 0. 0. 0. 0. 0. 0. 0. 0. 1. 2. 0. 0.
      0. 0. 0. 0. 2. 2.99999976e+00 1. 0. 0. 0. 0. 0. 0. 1. 5. 0. 0. 1.
      1. 0. 0. 1. 1. 0. 0. 0. 0. 0. 0. 0. 1. 0. 0. 0. 0. 0. 0. 0. 0. 0.
      0. 0. 0. 0. 0. 1. 0. 0. 4. 0. 1. 0. 0. 0. 0. 0. 0. 0. 0. 0. 0. 0.
      2. 0. 1. 2. 0. 5.99999952e+00 0. 0. 0. 0. 1. 0. 1. 0. 0. 0. 2. 0.
      0. 0. 1. 0. 0. 0. 1. 0. 0. 0. 0. 0. 0. 0. 0. 0. 0. 0. 2. 0. 2. 0.
      0. 0. 0. 0. 0. 0. 1. 0. 0. 1. 2. 2. 0. 0. 0. 0. 0. 0. 0. 0. 2. 2.
      0. 0. 1. 0. 0. 0. 0. 1. 0. 22. 0. 0. 0. 9. 1. 0. 0. 0. 1. 0. 0. 0.
      0. 0. 1. 0. 0. 2. 0. 0. 0. 0. 0. 0. 2. 0. 0. 0. 0. 0. 0. 1. 0. 0.
      0. 0. 0. 0. 0. 1. 0. 0. 0. 0. 0. 0. 0. 0. 1. 0. 0. 2.99999976e+00
      0. 0. 0. 1. 0. 0. 0. 4. 0. 0. 1. 1. 1. 0. 0. 0. 0. 0. 0. 0. 0. 2.
      2. 0. 0. 0. 0. 0. 0. 2. 0. 0. 0. 0. 0. 0. 1. 2. 0. 0. 0. 1. 0. 0.
      1. 0. 0. 0. 2.99999976e+00 0. 1. 0. 0. 0. 0. 0. 2. 0. 0. 0. 0. 1.
      0. 0. 0. 0. 0. 2. 0. 0. 0. 1. 0. 0. 0. 0. 0. 0. 0. 2. 0. 0. 0. 0.
      0. 0. 0. 0. 0. 0. 0. 0. 1. 1. 0. 1. 0. 0. 0. 0. 0. 0. 0. 0. 0. 0.
      0. 0. 1. 0. 0. 0. 0. 0. 0. 1. 0. 0. 0. 1. 0. 1. 0. 0. 0. 0. 0. 0.
      0. 4. 0. 1. 0. 0. 1. 1. 0. 0. 0. 0. 1. 2. 0. 0. 2. 4. 0. 0. 1. 17.
      0. 0. 1. 1. 0. 0. 0. 0. 0. 0. 0. 0. 1. 0. 0. 0. 0. 0. 0.
      2.99999976e+00 0. 0. 2. 2. 0. 0. 0. 0. 0. 1. 2. 0. 0. 0. 0. 0. 0.
      0. 9. 0. 0. 1. 1. 1. 0. 0. 0. 1. 0. 1. 0. 0. 0. 0. 0. 0. 0. 0. 0.
      0. 0. 0. 0. 2. 0. 0. 0. 0. 0. 0. 0. 0. 1. 0. 0. 0. 1. 1. 0. 0. 0.
      0. 1. 0. 1. 0. 0. 0. 1. 0. 0. 2. 0. 0. 0. 0. 0. 0. 0. 1. 0. 1. 0.
      2. 0. 0. 2. 0. 0. 0. 0. 4. 0. 2. 2. 1. 1. 0. 0. 2. 1. 0. 0. 1. 0.
      1. 1. 0. 2. 1. 1. 1. 1. 1. 1. 0. 0. 2. 5. 0. 2. 1. 0. 0. 0. 0. 0.
      0. 0. 0. 1. 0. 0. 0. 0. 0. 0. 1. 2. 0. 2. 0. 1. 1. 1. 0. 0. 2. 0.
      0. 1. 0. 0. 0. 0. 0. 4. 1. 1. 2. 1. 0. 0. 1. 0. 0. 0. 0.
      2.99999976e+00 1. 0. 0. 0. 1. 0. 0. 0. 0. 2. 0. 0. 0. 1. 0. 0. 0.
      1. 0. 0. 0. 0. 0. 0. 0. 1. 0. 1. 0. 0. 0. 2. 0. 0. 0. 0. 0. 0. 1.
      0. 0. 2. 0. 0. 1. 0. 0. 0. 0. 0. 0. 1. 0. 0. 0. 0. 0. 0. 0. 0. 0.
      2. 0. 0. 0. 0. 0. 1. 1. 0. 2.99999976e+00 2. 0. 5. 0. 0. 0. 0. 0.
      1. 1. 1. 1. 0. 1. 0. 0. 1. 0. 0. 0. 1. 0. 0. 0. 0. 0. 0. 1. 2. 1.
      0. 1. 0. 2. 1. 1. 0. 0. 0. 1. 0. 0. 1. 0. 1. 0. 0. 1. 0. 0. 0. 4.
      0. 0. 0. 1. 0. 0. 0. 0. 1. 1. 0. 0. 0. 0. 2. 1. 2. 1. 0.
      2.99999976e+00 0. 0. 2. 0. 0. 0. 0. 0. 0. 0. 0. 2.99999976e+00 1.
      1. 0. 0. 0. 0. 1. 2. 1. 1. 0. 0. 0. 0. 0. 0. 0. 0. 0. 1. 0. 0. 0.
      0. 0. 0. 0. 2. 0. 0. 0. 0. 0. 0. 0. 0. 1. 0. 2. 0. 2. 0. 0. 0. 0.
      0. 2. 1. 0. 0. 0. 0. 0. 0.</_>
    <_>
      0. 0. 0. 0. 0. 0. 0. 0. 0. 1. 0. 0. 0. 4. 0. 0. 0. 0. 0. 2. 0. 0.
      1. 0. 0. 0. 0. 0. 1. 1. 0. 0. 0. 0. 0. 0. 0. 0. 0. 0. 0. 0. 0. 0.
      0. 0. 0. 0. 0. 0. 0. 0. 0. 0. 1. 0. 0. 0. 0. 0. 0. 1. 1. 1. 0. 0.
      0. 0. 0. 0. 1. 0. 0. 0. 0. 0. 1. 1. 0. 2. 0. 1. 0. 0. 0. 0. 0. 1.
      0. 0. 0. 0. 0. 0. 1. 0. 0. 0. 0. 0. 0. 0. 0. 0. 2. 0. 1. 0. 0. 0.
      0. 0. 0. 0. 1. 0. 0. 0. 0. 0. 0. 0. 0. 0. 1. 0. 0. 1. 0. 0. 0. 0.
      0. 0. 1. 0. 0. 2. 0. 0. 0. 0. 0. 0. 1. 0. 0. 0. 0. 0. 0. 0. 0. 1.
      0. 1. 0. 0. 0. 0. 1. 0. 0. 0. 0. 0. 0. 0. 0. 0. 0. 0. 0. 0. 1. 0.
      0. 0. 1. 0. 0. 0. 0. 0. 0. 0. 0. 0. 2. 0. 0. 0. 0. 0. 0. 0. 0. 0.
      0. 0. 0. 0. 0. 0. 0. 0. 0. 0. 0. 0. 1. 0. 0. 0. 0. 0. 1. 0. 0. 1.
      0. 1. 0. 0. 0. 0. 2. 1. 0. 0. 0. 0. 1. 1. 0. 0. 0. 0. 0. 0. 0. 0.
      0. 0. 0. 0. 1. 0. 0. 0. 0. 1. 1. 0. 0. 0. 0. 0. 0. 1. 0. 0. 1. 0.
      0. 1. 1. 0. 0. 0. 0. 0. 0. 1. 0. 0. 0. 0. 0. 0. 1. 0. 0. 0. 0. 1.
      0. 0. 0. 0. 0. 0. 0. 0. 0. 0. 0. 0. 0. 0. 1. 1. 0. 1. 0. 0. 0. 0.
      0. 0. 0. 0. 0. 0. 0. 0. 0. 0. 0. 0. 0. 0. 0. 0. 0. 0. 0. 0. 0. 0.
      0. 2. 0. 0. 0. 0. 0. 0. 0. 0. 1. 0. 0. 0. 0. 0. 0. 0. 0. 0. 0. 0.
      0. 0. 0. 0. 0. 0. 0. 0. 0. 0. 0. 0. 1. 0. 0. 0. 0. 1. 0. 1. 0. 0.
      1. 0. 0. 0. 1. 0. 0. 0. 0. 0. 0. 1. 0. 0. 0. 0. 0. 0. 0. 0. 1. 0.
      0. 1. 0. 1. 0. 0. 0. 0. 0. 0. 0. 0. 0. 0. 0. 0. 0. 0. 0. 0. 0. 0.
      0. 0. 0. 0. 0. 0. 0. 0. 1. 0. 0. 0. 0. 0. 1. 1. 0. 0. 0. 0. 0. 0.
      0. 0. 0. 1. 0. 0. 0. 0. 0. 0. 0. 1. 0. 0. 1. 1. 1. 0. 0. 0. 0. 0.
      0. 0. 1. 4. 0. 0. 0. 0. 0. 0. 0. 0. 0. 0. 0. 0. 0. 0. 0. 0. 4. 0.
      0. 1. 1. 0. 0. 0. 0. 0. 1. 0. 0. 1. 1. 0. 0. 1. 0. 0. 0. 0. 0. 0.
      0. 0. 1. 0. 0. 0. 0. 0. 0. 0. 0. 0. 0. 0. 0. 0. 0. 1. 0. 0. 0. 0.
      0. 0. 0. 0. 0. 0. 0. 0. 0. 1. 0. 1. 0. 0. 1. 0. 0. 0. 0. 0. 0. 2.
      0. 1. 0. 0. 0. 1. 0. 0. 0. 1. 0. 0. 0. 1. 0. 0. 1. 1. 0. 0. 1. 0.
      0. 0. 0. 0. 0. 1. 0. 1. 0. 0. 0. 0. 1. 0. 0. 0. 0. 0. 0. 0. 0. 0.
      0. 0. 0. 0. 0. 2. 0. 0. 0. 0. 0. 1. 0. 0. 0. 0. 0. 0. 0. 0. 2. 3.
      0. 0. 0. 0. 0. 0. 0. 0. 0. 0. 0. 0. 1. 0. 0. 0. 1. 0. 1. 0. 0. 2.
      0. 0. 1. 0. 1. 0. 0. 0. 3. 0. 0. 0. 0. 0. 0. 0. 0. 2. 0. 0. 0. 0.
      0. 0. 0. 0. 0. 0. 0. 0. 0. 0. 0. 0. 2. 0. 0. 0. 1. 0. 0. 0. 0. 0.
      1. 0. 0. 0. 0. 0. 0. 0. 0. 0. 0. 0. 0. 1. 0. 0. 0. 0. 0. 0. 0. 0.
      0. 0. 0. 0. 1. 1. 0. 0. 2. 0. 1. 1. 0. 0. 1. 1. 0. 0. 0. 2. 0. 0.
      0. 0. 0. 0. 0. 0. 0. 0. 1. 0. 1. 0. 0. 0. 0. 0. 0. 0. 0. 0. 1. 0.
      0. 0. 2. 0. 2. 0. 0. 0. 0. 0. 0. 0. 1. 2. 0. 0. 0. 0. 0. 0. 0. 0.
      0. 0. 0. 0. 0. 0. 0. 0. 0. 0. 0. 0. 0. 0. 0. 1. 0. 0. 0. 0. 0. 2.
      1. 1. 0. 0. 0. 0. 0. 0.</_>
    <_>
      3. 1.99999988e+00 3. 9.99999940e-01 3.99999976e+00 9.99999940e-01
      0. 9.99999940e-01 9.99999940e-01 1.99999988e+00 9.99999940e-01 0.
      3.99999976e+00 0. 3. 9.99999940e-01 7.99999952e+00 9.99999940e-01
      0. 9.99999940e-01 9.99999940e-01 1.99999988e+00 3. 0.
      9.99999940e-01 3. 3. 0. 9.99999940e-01 9.99999940e-01
      9.99999940e-01 0. 3. 3.99999976e+00 9.99999940e-01 9.99999940e-01
      3. 1.99999988e+00 3. 1.99999988e+00 1.99999988e+00 0.
      1.99999988e+00 3. 1.99999988e+00 1.99999988e+00 9.99999940e-01
      3.99999976e+00 9.99999940e-01 1.99999988e+00 3. 0. 9.99999940e-01
      3.99999976e+00 0. 3.99999976e+00 9.99999940e-01 1.99999988e+00
      9.99999940e-01 1.99999988e+00 3.99999976e+00 3.99999976e+00
      1.99999988e+00 3. 1.99999988e+00 3.99999976e+00 0. 7.99999952e+00
      1.99999988e+00 1.99999988e+00 0. 3. 0. 0. 9.99999940e-01
      1.99999988e+00 0. 9.99999940e-01 3.99999976e+00 7. 0.
      1.99999988e+00 6. 9.99999940e-01 9.99999940e-01 3. 1.99999988e+00
      0. 9.99999940e-01 0. 3. 3. 1.99999988e+00 0. 4.99999952e+00
      1.99999988e+00 1.99999988e+00 0. 0. 1.99999988e+00 1.99999988e+00
      4.99999952e+00 9.99999940e-01 9.99999940e-01 3. 0. 0.
      3.99999976e+00 9.99999940e-01 1.99999988e+00 0. 9.99999940e-01
      1.99999988e+00 3. 0. 9.99999940e-01 0. 0. 9.99999940e-01 0.
      9.99999940e-01 3.99999976e+00 9.99999940e-01 9.99999940e-01
      1.99999988e+00 4.99999952e+00 3. 1.99999988e+00 0. 0.
      9.99999940e-01 1.99999988e+00 3. 0. 1.99999988e+00 3.
      1.99999988e+00 1.99999988e+00 3. 0. 3.99999976e+00 0. 0. 3.
      9.99999940e-01 1.99999988e+00 3. 4.99999952e+00 3.99999976e+00
      9.99999940e-01 1.99999988e+00 0. 9.99999940e-01 0. 0.
      9.99999940e-01 9.99999940e-01 9.99999940e-01 4.99999952e+00
      9.99999940e-01 0. 3. 0. 0. 4.99999952e+00 0. 1.99999988e+00
      3.99999976e+00 0. 0. 9.99999940e-01 9.99999940e-01 0.
      4.99999952e+00 0. 1.99999988e+00 7. 9.99999940e-01 3.
      1.99999988e+00 1.99999988e+00 1.99999988e+00 7. 9.99999940e-01
      9.99999940e-01 9.99999940e-01 0. 9.99999940e-01 1.99999988e+00 0.
      6. 1.99999988e+00 0. 9.99999940e-01 9.99999940e-01 3.99999976e+00
      6. 3. 9.99999940e-01 9.99999940e-01 1.99999988e+00 3.99999976e+00
      0. 0. 3. 3. 4.99999952e+00 0. 0. 1.99999988e+00 0. 9.99999940e-01
      6. 3.99999976e+00 9.99999940e-01 9.99999940e-01 3.99999976e+00
      1.99999988e+00 3. 9.99999940e-01 1.99999988e+00 0. 1.99999988e+00
      4.99999952e+00 0. 9.99999940e-01 0. 1.99999988e+00 4.99999952e+00
      9.99999940e-01 0. 1.99999988e+00 0. 1.99999988e+00 1.99999988e+00
      3.99999976e+00 3. 4.99999952e+00 0. 0. 0. 1.99999988e+00
      9.99999940e-01 9.99999940e-01 1.99999988e+00 1.99999988e+00
      9.99999940e-01 9.99999940e-01 3. 1.99999988e+00 3.99999976e+00
      9.99999940e-01 3. 0. 1.99999988e+00 9.99999940e-01 0.
      9.99999940e-01 1.99999988e+00 9.99999940e-01 9.99999940e-01
      9.99999940e-01 9.99999940e-01 3. 0. 3. 0. 1.99999988e+00
      3.99999976e+00 0. 1.99999988e+00 0. 0. 1.99999988e+00 0. 0.
      9.99999940e-01 4.99999952e+00 1.99999988e+00 9.99999940e-01 0. 0.
      0. 1.99999988e+00 1.99999988e+00 0. 0. 9.99999940e-01
      9.99999940e-01 3. 0. 0. 3. 1.99999988e+00 3. 1.99999988e+00
      9.99999940e-01 0. 9.99999940e-01 7.99999952e+00 6. 3. 0. 0. 0. 0.
      0. 7. 9.99999940e-01 3.99999976e+00 9.99999940e-01 0.
      1.99999988e+00 1.99999988e+00 7.99999952e+00 9.99999940e-01
      9.99999940e-01 3.99999976e+00 9.99999940e-01 0. 0. 1.99999988e+00
      7. 4.99999952e+00 9.99999940e-01 9.99999940e-01 9.99999940e-01
      9.99999940e-01 3. 1.99999988e+00 0. 0. 0. 7.99999952e+00 6. 3.
      1.99999988e+00 9.99999940e-01 0. 9.99999940e-01 1.99999988e+00
      4.99999952e+00 1.99999988e+00 0. 0. 7.99999952e+00 0.
      4.99999952e+00 3. 0. 0. 7. 0. 0. 0. 9.99999940e-01 1.99999988e+00
      1.99999988e+00 1.99999988e+00 3. 1.99999988e+00 9.99999940e-01 7.
      3. 9.99999940e-01 1.99999988e+00 3. 3.99999976e+00 3. 0. 0.
      1.99999988e+00 0. 3. 0. 1.99999988e+00 0. 0. 1.99999988e+00
      1.99999988e+00 0. 0. 7. 3. 0. 1.99999988e+00 4.99999952e+00
      9.99999940e-01 0. 9.99999940e-01 9.99999940e-01 0. 1.99999988e+00
      1.99999988e+00 6. 1.99999988e+00 9.99999940e-01 0. 9.99999940e-01
      9.99999940e-01 3.99999976e+00 0. 1.99999988e+00 1.99999988e+00 3.
      9.99999940e-01 9.99999940e-01 3. 0. 9.99999940e-01 9.99999940e-01
      1.99999988e+00 9.99999940e-01 9.99999940e-01 9.99999940e-01
      1.99999988e+00 3. 9.99999940e-01 0. 3.99999976e+00 0. 0.
      9.99999940e-01 0. 9.99999940e-01 0. 3. 4.99999952e+00
      4.99999952e+00 0. 0. 4.99999952e+00 1.99999988e+00 9.99999940e-01
      9.99999940e-01 3. 0. 3.99999976e+00 1.99999988e+00 1.99999988e+00
      0. 3. 3. 0. 3.99999976e+00 1.99999988e+00 0. 9.99999940e-01 0. 6.
      3. 1.99999988e+00 3.99999976e+00 0. 3.99999976e+00 0. 0. 0.
      9.99999940e-01 3.99999976e+00 9.99999940e-01 9.99999940e-01 0.
      9.99999940e-01 0. 0. 0. 1.99999988e+00 3. 0. 0. 9.99999940e-01 3.
      0. 4.99999952e+00 4.99999952e+00 3. 0. 9.99999940e-01
      9.99999940e-01 1.99999988e+00 3.99999976e+00 0. 1.99999988e+00
      3.99999976e+00 9.99999940e-01 0. 1.99999988e+00 9.99999940e-01
      1.99999988e+00 1.99999988e+00 3. 9.99999940e-01 0. 4.99999952e+00
      9.99999940e-01 0. 1.99999988e+00 0. 9.99999940e-01 7.
      1.99999988e+00 0. 1.99999988e+00 0. 1.99999988e+00 4.99999952e+00
      1.99999988e+00 0. 1.99999988e+00 0. 1.99999988e+00 0.
      9.99999940e-01 3.99999976e+00 0. 3.99999976e+00 9.99999940e-01
      3.99999976e+00 9.99999940e-01 9.99999940e-01 1.99999988e+00
      9.99999940e-01 3. 4.99999952e+00 3. 0. 3. 9.99999940e-01
      1.99999988e+00 9.99999940e-01 0. 1.99999988e+00 0. 7.99999952e+00
      0. 3. 9.99999940e-01 9.99999940e-01 9.99999940e-01 0.
      9.99999940e-01 3. 1.99999988e+00 0. 6. 0. 1.99999988e+00
      3.99999976e+00 0. 9.99999940e-01 9.99999940e-01 1.99999988e+00
      9.99999940e-01 0. 9.99999940e-01 9.99999940e-01 9.99999940e-01
      1.99999988e+00 1.99999988e+00 0. 0. 3.99999976e+00 0. 0.
      9.99999940e-01 3. 9.99999940e-01 3.99999976e+00 0. 4.99999952e+00
      3. 0. 0. 3.99999976e+00 1.99999988e+00 9.99999940e-01
      4.99999952e+00 3. 0. 1.99999988e+00 9.99999940e-01 0.
      9.99999940e-01 7. 6. 0. 7. 1.99999988e+00 0. 0. 0. 9.99999940e-01
      0. 1.99999988e+00 9.99999940e-01 9.99999940e-01 1.99999988e+00
      1.99999988e+00 3. 0. 3.99999976e+00 0. 3.99999976e+00
      9.99999940e-01 9.99999940e-01 1.99999988e+00 9.99999940e-01
      9.99999940e-01 3.99999976e+00 7. 9.99999940e-01 9.99999940e-01 3.
      1.99999988e+00 4.99999952e+00 9.99999940e-01 3.99999976e+00
      9.99999940e-01 1.99999988e+00 9.99999940e-01 1.99999988e+00 0. 3.
      3.99999976e+00 9.99999940e-01 0. 3. 3. 3. 3.99999976e+00 3. 3.
      9.99999940e-01 3. 1.99999988e+00 3.99999976e+00 1.99999988e+00 0.
      0. 9.99999940e-01 3.99999976e+00 0. 0. 3.99999976e+00 0.
      4.99999952e+00 7. 9.99999940e-01 9.99999940e-01 3. 9.99999940e-01
      3. 1.99999988e+00 3. 0. 0. 0. 0. 0. 9.99999940e-01 9.99999940e-01
      1.99999988e+00 9.99999940e-01 9.99999940e-01 0. 0. 1.99999988e+00
      3. 1.99999988e+00 1.99999988e+00 1.99999988e+00 9.99999940e-01
      9.99999940e-01 3.99999976e+00 3. 1.99999988e+00 4.99999952e+00
      1.99999988e+00 3. 3. 3.99999976e+00 9.99999940e-01 9.99999940e-01
      4.99999952e+00 3.99999976e+00 0. 0. 1.99999988e+00 1.99999988e+00
      0. 9.99999940e-01 9.99999940e-01 3.99999976e+00 1.99999988e+00 0.
      0. 6. 9.99999940e-01 0. 3.99999976e+00 1.99999988e+00
      1.99999988e+00 6. 3. 9.99999940e-01 9.99999940e-01 1.99999988e+00
      1.99999988e+00 9.99999940e-01 1.99999988e+00 0. 1.99999988e+00
      4.99999952e+00 0. 9.99999940e-01 9.99999940e-01 3. 9.99999940e-01
      1.99999988e+00 9.99999940e-01 1.99999988e+00 3. 0. 0.
      1.99999988e+00 0. 9.99999940e-01 0. 7. 0. 3. 3.99999976e+00
      9.99999940e-01 1.99999988e+00 9.99999940e-01 0. 0. 0.
      9.99999940e-01 1.99999988e+00 1.99999988e+00 0. 9.99999940e-01
      9.99999940e-01 0. 1.99999988e+00 9.99999940e-01 1.99999988e+00
      9.99999940e-01 6. 1.99999988e+00 1.99999988e+00 9.99999940e-01
      9.99999940e-01 0. 0. 3.99999976e+00 3.99999976e+00 9.99999940e-01
      1.99999988e+00 9.99999940e-01 4.99999952e+00 0. 0. 9.99999940e-01
      3.99999976e+00 0. 1.99999988e+00 1.99999988e+00 9.99999940e-01 7.
      1.99999988e+00 0. 9.99999940e-01 1.99999988e+00 0. 3. 0. 3. 3. 0.
      1.99999988e+00 1.99999988e+00 9.99999940e-01 0. 1.99999988e+00 0.
      1.99999988e+00 0. 3.99999976e+00 0. 0. 4.99999952e+00
      1.99999988e+00 9.99999940e-01 0. 0. 1.99999988e+00 0.</_>
    <_>
      0. 0. 0. 0. 0. 1. 0. 0. 1. 1. 0. 0. 1. 0. 0. 0. 0. 0. 0. 1. 1. 0.
      1. 1. 0. 0. 0. 0. 0. 0. 0. 1. 0. 0. 1. 0. 0. 2. 0. 1. 1. 0. 0. 1.
      0. 0. 2. 2. 0. 0. 1. 0. 0. 1. 0. 0. 0. 0. 0. 0. 0. 1. 2. 0. 0. 0.
      0. 1. 0. 3. 0. 0. 0. 1. 0. 0. 0. 0. 0. 1. 3. 0. 0. 1. 0. 0. 1. 1.
      1. 0. 2. 2. 0. 0. 0. 0. 0. 0. 0. 0. 1. 1. 0. 0. 0. 0. 0. 0. 0. 0.
      0. 0. 0. 3. 1. 2. 0. 0. 0. 0. 1. 0. 0. 0. 0. 2. 1. 0. 0. 0. 1. 0.
      0. 2. 0. 0. 0. 1. 0. 0. 1. 0. 0. 0. 0. 1. 0. 0. 0. 0. 0. 0. 1. 0.
      1. 1. 0. 0. 0. 0. 1. 1. 0. 0. 1. 0. 0. 0. 0. 0. 0. 0. 0. 0. 0. 0.
      1. 0. 2. 0. 0. 0. 1. 0. 0. 0. 0. 0. 1. 0. 0. 0. 1. 0. 0. 0. 0. 0.
      0. 0. 0. 0. 0. 0. 2. 0. 1. 0. 1. 0. 0. 0. 0. 0. 0. 0. 0. 0. 0. 0.
      1. 2. 1. 0. 0. 1. 0. 0. 0. 0. 2. 1. 0. 0. 0. 0. 1. 0. 1. 0. 1. 0.
      0. 0. 0. 0. 1. 0. 0. 0. 0. 2. 1. 0. 0. 0. 0. 0. 0. 0. 2. 0. 1. 2.
      1. 0. 0. 1. 0. 0. 0. 0. 0. 0. 1. 0. 0. 0. 0. 0. 0. 0. 2. 0. 0. 1.
      1. 0. 0. 1. 0. 1. 0. 0. 2. 0. 0. 0. 0. 0. 2. 1. 0. 1. 0. 0. 0. 0.
      0. 2. 0. 0. 1. 0. 0. 1. 0. 1. 1. 0. 0. 0. 0. 0. 2. 2. 1. 0. 0. 0.
      0. 0. 0. 0. 0. 0. 1. 0. 0. 0. 0. 0. 0. 0. 0. 0. 0. 0. 0. 0. 1. 0.
      0. 0. 0. 0. 0. 0. 0. 2. 0. 0. 1. 0. 1. 0. 1. 0. 0. 0. 0. 0. 0. 0.
      0. 0. 0. 0. 0. 0. 0. 0. 0. 0. 0. 1. 1. 0. 0. 0. 0. 0. 0. 0. 0. 0.
      0. 1. 0. 0. 1. 0. 0. 0. 0. 0. 0. 0. 0. 0. 1. 1. 0. 0. 0. 0. 0. 0.
      0. 0. 0. 0. 0. 0. 0. 0. 0. 0. 0. 0. 0. 0. 1. 0. 2. 1. 0. 0. 1. 0.
      0. 1. 0. 0. 0. 4. 0. 0. 0. 1. 0. 0. 0. 0. 0. 0. 1. 0. 0. 1. 1. 0.
      0. 0. 0. 1. 0. 1. 0. 0. 0. 0. 1. 2. 0. 0. 1. 0. 1. 0. 0. 0. 0. 1.
      0. 0. 1. 0. 0. 1. 0. 0. 0. 0. 0. 2. 0. 0. 0. 0. 0. 0. 0. 0. 0. 0.
      0. 2. 1. 0. 0. 1. 0. 0. 0. 0. 0. 0. 0. 1. 0. 2. 1. 0. 0. 0. 0. 0.
      0. 0. 0. 0. 0. 0. 0. 0. 0. 0. 0. 0. 0. 0. 0. 0. 0. 0. 0. 1. 0. 1.
      1. 0. 2. 0. 0. 2. 0. 0. 0. 2. 0. 0. 0. 0. 0. 0. 1. 0. 0. 0. 1. 0.
      0. 0. 1. 0. 0. 1. 1. 0. 0. 0. 0. 0. 1. 0. 2. 1. 0. 0. 0. 0. 0. 0.
      0. 0. 0. 0. 1. 0. 1. 2. 0. 0. 1. 0. 3. 1. 0. 0. 0. 0. 1. 1. 0. 0.
      0. 1. 0. 1. 1. 1. 0. 0. 0. 0. 0. 2. 0. 2. 1. 0. 2. 0. 1. 0. 1. 1.
      0. 0. 0. 0. 1. 0. 0. 0. 0. 0. 0. 0. 0. 0. 0. 0. 2. 2. 0. 0. 1. 1.
      1. 0. 2. 0. 0. 0. 0. 0. 0. 0. 0. 0. 0. 0. 0. 0. 0. 0. 0. 0. 0. 0.
      2. 0. 0. 0. 0. 0. 2. 1. 0. 0. 0. 0. 0. 0. 0. 0. 0. 0. 1. 0. 0. 1.
      0. 0. 0. 0. 0. 0. 0. 1. 0. 0. 1. 4. 0. 0. 0. 0. 0. 0. 0. 0. 0. 0.
      0. 0. 0. 0. 0. 0. 0. 0. 0. 0. 0. 0. 0. 0. 0. 0. 0. 0. 0. 0. 0. 1.
      0. 0. 1. 0. 0. 0. 1. 0. 0. 2. 0. 0. 0. 0. 3. 0. 0. 0. 0. 1. 0. 2.
      1. 0. 0. 0. 0. 1. 0. 0. 0. 0. 0. 0. 0. 0. 0. 0. 1. 0. 0. 1. 0. 0.
      0. 0. 0. 0. 0. 0. 1. 0.</_>
    <_>
      6. 4. 4. 3. 6. 0. 9. 1. 4.99999952e+00 2. 2. 0. 3. 1. 1. 8. 3. 1.
      2. 3. 2. 1. 3. 0. 6. 0. 4.99999952e+00 2. 0. 2. 3. 1. 6. 4. 0. 3.
      1. 1. 1. 4. 3. 0. 1. 0. 1. 2. 0. 2. 2. 0. 1. 1. 0. 4. 7. 3. 4. 0.
      0. 2. 0. 4. 3. 1. 2. 2. 0. 0. 4. 0. 4. 4.99999952e+00 0. 2. 7. 2.
      2. 4.99999952e+00 0. 3. 1. 0. 7. 4. 3. 1. 0. 2. 0. 1. 0. 4. 9. 13.
      4.99999952e+00 3. 2. 2. 0. 3. 4. 2. 2. 2. 2. 7. 2. 4.99999952e+00
      3. 4.99999952e+00 2. 0. 0. 0. 0. 1. 3. 4.99999952e+00 3. 1. 0. 3.
      3. 0. 0. 3. 4. 2. 2. 0. 1. 2. 2. 1. 2. 0. 2. 1. 14. 1. 6. 1. 2. 3.
      0. 4. 3. 1. 2. 2. 9. 1. 4.99999952e+00 1. 0. 3. 8. 1. 3. 3. 2. 6.
      3. 6. 2. 2. 4. 4. 6. 0. 1. 1. 1. 3. 2. 2. 1. 3. 3. 4.99999952e+00
      2. 9. 3. 1. 3. 4.99999952e+00 3. 1. 1. 2. 2. 0. 2. 2. 1. 1. 2. 1.
      4. 0. 1. 7. 0. 1. 3. 6. 1. 0. 3. 3. 4. 7. 3. 8. 2. 1. 0. 2. 3. 4.
      2. 2. 4. 2. 2. 9. 3. 4.99999952e+00 3. 0. 2. 2. 2. 4.99999952e+00
      2. 3. 4. 1. 2. 2. 1. 3. 3. 9.99999905e+00 3. 14. 0. 1. 4. 2. 3. 3.
      1. 2. 2. 9. 2. 2. 0. 1. 0. 3. 1. 2. 0. 2. 0. 0. 1. 0. 0.
      4.99999952e+00 2. 2. 2. 2. 1. 3. 0. 0. 0. 0. 3. 2. 3. 4.
      4.99999952e+00 1. 3. 4. 2. 3. 2. 1. 4.99999952e+00 6. 1. 1. 2. 0.
      0. 3. 4.99999952e+00 0. 1. 6. 1. 0. 3. 2. 6. 1. 9. 3. 8. 1. 1. 4.
      9.99999905e+00 4. 3. 1. 4. 1. 1. 2. 2. 4.99999952e+00 8. 1. 4. 4.
      3. 4. 0. 3. 2. 0. 1. 0. 2. 3. 0. 6. 1. 4. 3. 1. 6. 2. 0. 2. 2. 7.
      2. 1. 1. 6. 4.99999952e+00 1. 3. 6. 4.99999952e+00 4. 4. 1. 1.
      4.99999952e+00 6. 1. 1. 3. 0. 4. 1. 6. 0. 0. 2. 1. 2. 1. 3. 1. 1.
      1. 4. 3. 0. 1. 1. 1. 4.99999952e+00 0. 4.99999952e+00 3. 4. 0. 1.
      1. 2. 0. 1. 2. 3. 2. 8. 3. 7. 1. 3. 0. 2. 6. 0. 2. 8. 3. 0. 1. 0.
      3. 6. 7. 4. 4.99999952e+00 2. 0. 4. 4.99999952e+00 0. 1. 3. 3. 0.
      3. 2. 2. 3. 4.99999952e+00 0. 6. 3. 2. 0. 0. 6. 1. 3. 1. 4. 1. 2.
      0. 2. 2. 1. 2. 2. 4. 3. 4.99999952e+00 2. 6. 0. 4. 0. 1. 0. 1. 3.
      3. 4. 2. 3. 3. 4.99999952e+00 3. 0. 3. 6. 0. 2. 2. 1. 4. 0. 3. 4.
      7. 1. 1. 4. 9. 1. 4.99999952e+00 0. 4. 0. 0. 4. 4. 2.
      4.99999952e+00 4. 1. 3. 4. 0. 2. 3. 2. 1. 1. 0. 7. 4. 4. 0. 1. 0.
      4.99999952e+00 4. 0. 2. 7. 3. 4.99999952e+00 3. 0. 0. 3. 3. 1. 2.
      2. 3. 9.99999905e+00 0. 0. 0. 1. 2. 0. 1. 1. 3. 0. 3. 4. 4. 2. 1.
      11. 1. 2. 2. 1. 6. 3. 0. 4.99999952e+00 1. 0. 9. 2. 4. 6. 2. 2. 0.
      1. 4. 1. 4. 0. 7. 2. 2. 1. 4. 1. 2. 4. 2. 1. 0. 4. 1. 3. 0. 2. 8.
      2. 0. 0. 4.99999952e+00 2. 3. 2. 12. 3. 1. 4. 1. 1. 0. 4. 2. 4. 4.
      3. 3. 2. 0. 2. 7. 3. 3. 1. 2. 2. 1. 4.99999952e+00 4. 1. 1. 2. 1.
      0. 0. 8. 3. 6. 2. 2. 3. 0. 1. 0. 0. 4. 3. 8. 3. 2. 7. 1. 3. 2. 4.
      9.99999905e+00 1. 3. 3. 1. 4. 9.99999905e+00 4.99999952e+00 6. 2.
      3. 3. 2. 2. 0. 0. 2. 2. 6. 3. 4.99999952e+00 4. 1. 3. 3. 0. 2.
      4.99999952e+00 2. 0. 1. 1. 9. 0. 2. 1. 4. 3. 1. 3. 6. 1. 2. 4. 1.
      2. 2. 4.99999952e+00 0. 4. 3. 3. 3. 2. 4. 11. 3. 3. 4.99999952e+00
      1. 0. 2. 1. 0. 0. 0. 2. 3. 4.99999952e+00 0. 2. 3. 0. 3. 2. 4. 0.
      4.99999952e+00 4. 22. 3. 1. 7. 4. 3. 2. 0. 1. 1. 3. 2. 1.
      4.99999952e+00 0. 0. 2. 2. 2. 2. 4.99999952e+00 14. 4. 1. 2.
      4.99999952e+00 2. 4. 4. 8. 2. 6. 3. 6. 1. 0. 2. 3. 0. 3. 0.
      4.99999952e+00 4.99999952e+00 0. 0. 6. 0. 4. 7. 3. 3. 0. 0. 2.
      9.99999905e+00 4.99999952e+00 2. 4. 2. 2. 2. 1. 2. 3. 4. 1. 0. 1.
      2. 0.</_>
    <_>
      2. 3. 0. 2. 0. 1. 5. 0. 2. 0. 1. 1. 0. 0. 1. 2. 0. 3. 0. 1. 1. 0.
      0. 1. 4. 1. 1. 1. 5. 4. 4. 0. 1. 1. 1. 4. 1. 0. 0. 1. 3. 0. 2. 2.
      2. 0. 0. 0. 2. 1. 0. 0. 2. 0. 1. 2. 0. 0. 1. 3. 0. 0. 1. 0. 2. 0.
      0. 0. 0. 0. 0. 4. 1. 8. 3. 1. 2. 1. 0. 0. 2. 2. 1. 1. 2. 2. 0. 3.
      1. 5. 0. 0. 10. 8. 0. 0. 2. 0. 0. 1. 2. 0. 0. 0. 0. 5. 1. 3. 1. 0.
      1. 1. 0. 1. 2. 0. 5. 2. 1. 2. 0. 0. 1. 4. 0. 0. 0. 4. 0. 2. 1. 1.
      2. 1. 0. 0. 0. 2. 0. 0. 3. 4. 2. 4. 0. 1. 0. 2. 0. 0. 2. 3. 2. 1.
      0. 0. 1. 2. 4. 3. 3. 2. 1. 0. 2. 1. 0. 2. 3. 2. 0. 3. 0. 1. 1. 0.
      0. 2. 0. 7. 1. 5. 1. 1. 0. 4. 1. 2. 0. 3. 4. 1. 0. 2. 3. 0. 3. 4.
      0. 0. 2. 7. 3. 0. 6. 0. 0. 0. 0. 1. 6. 3. 0. 3. 8. 0. 1. 2. 1. 1.
      1. 4. 1. 1. 0. 4. 2. 4. 1. 0. 0. 1. 1. 2. 0. 0. 1. 1. 0. 2. 0. 1.
      0. 2. 0. 1. 2. 2. 3. 2. 0. 1. 0. 0. 0. 2. 3. 0. 0. 2. 0. 0. 1. 0.
      1. 2. 0. 0. 0. 0. 1. 4. 1. 0. 3. 0. 0. 0. 1. 3. 0. 1. 0. 2. 1. 1.
      3. 0. 3. 4. 0. 3. 0. 0. 1. 2. 0. 2. 3. 0. 1. 1. 3. 1. 5. 1. 1. 0.
      2. 0. 2. 6. 3. 4. 3. 0. 0. 3. 0. 5. 2. 1. 1. 0. 1. 1. 0. 2. 3. 3.
      0. 3. 0. 0. 1. 0. 0. 0. 3. 0. 0. 1. 0. 0. 4. 1. 2. 0. 2. 0. 0. 0.
      2. 1. 5. 2. 0. 0. 3. 1. 2. 1. 0. 0. 1. 0. 1. 2. 0. 0. 0. 1. 0. 1.
      3. 2. 1. 2. 0. 1. 1. 0. 3. 1. 0. 1. 1. 1. 0. 1. 2. 0. 1. 4. 3. 0.
      1. 1. 1. 1. 0. 0. 0. 0. 1. 1. 4. 1. 4. 0. 0. 0. 1. 4. 0. 1. 2. 0.
      0. 1. 0. 4. 3. 4. 5. 0. 1. 1. 2. 1. 0. 0. 1. 0. 0. 1. 2. 1. 0. 1.
      0. 1. 3. 3. 0. 2. 2. 1. 5. 0. 1. 1. 0. 5. 0. 1. 3. 1. 1. 1. 0. 1.
      7. 0. 0. 0. 0. 0. 0. 3. 1. 0. 0. 0. 0. 0. 0. 1. 0. 3. 0. 0. 1. 0.
      0. 3. 0. 2. 2. 1. 0. 2. 0. 4. 0. 3. 0. 2. 2. 0. 3. 3. 2. 4. 0. 0.
      1. 2. 0. 1. 4. 1. 1. 1. 0. 5. 3. 1. 0. 1. 0. 3. 2. 1. 3. 3. 0. 1.
      0. 0. 3. 2. 2. 1. 1. 2. 2. 1. 4. 0. 0. 0. 1. 1. 1. 1. 1. 1. 0. 1.
      1. 5. 0. 3. 2. 0. 1. 3. 4. 1. 1. 0. 0. 1. 2. 1. 6. 0. 0. 1. 2. 0.
      2. 1. 0. 1. 0. 1. 0. 2. 3. 2. 2. 0. 0. 0. 3. 1. 1. 0. 0. 4. 3. 2.
      0. 1. 1. 2. 0. 1. 3. 2. 1. 2. 0. 0. 2. 3. 0. 0. 0. 2. 2. 1. 0. 0.
      1. 0. 0. 0. 2. 1. 4. 1. 1. 0. 0. 0. 1. 1. 2. 3. 3. 4. 2. 0. 1. 2.
      2. 0. 2. 1. 2. 4. 4. 0. 0. 1. 0. 0. 2. 2. 0. 2. 1. 3. 2. 1. 1. 2.
      2. 2. 0. 2. 1. 1. 0. 0. 0. 0. 8. 3. 0. 2. 1. 3. 1. 1. 2. 1. 5. 1.
      2. 1. 2. 1. 0. 0. 1. 0. 3. 3. 0. 0. 0. 0. 0. 1. 0. 0. 1. 4. 0. 0.
      0. 3. 6. 0. 1. 2. 1. 1. 1. 0. 3. 0. 3. 0. 2. 1. 0. 0. 1. 2. 0. 0.
      3. 0. 1. 1. 2. 1. 2. 7. 1. 0. 0. 1. 2. 0. 1. 0. 2. 1. 2. 2. 0. 0.
      3. 1. 2. 14. 1. 2. 0. 2. 0. 0. 0. 2. 2. 2. 0. 0. 2. 0. 0. 1. 1. 0.
      0. 3. 1. 0. 0. 1. 0. 2. 11. 3. 0. 2. 4. 0. 3. 3. 0. 3. 0. 0. 0. 0.
      5. 0. 2. 5. 0. 1. 0. 1.</_>
    <_>
      2. 1. 3. 5. 1. 2. 1. 1. 0. 2. 0. 0. 1. 2. 0. 3. 0. 1. 4. 1. 1. 3.
      6. 2. 4. 2. 1. 5. 0. 1. 3. 1. 3. 2. 1. 2. 1. 1. 0. 0. 1. 0. 0. 2.
      0. 2. 0. 1. 0. 4. 0. 0. 4. 1. 3. 1. 5. 0. 0. 0. 1. 1. 0. 1. 0. 1.
      0. 1. 1. 0. 0. 1. 2. 0. 2. 2. 2. 1. 3. 0. 0. 3. 3. 2. 1. 1. 0. 1.
      1. 2. 2. 0. 1. 2. 2. 0. 1. 0. 0. 3. 1. 0. 0. 1. 1. 3. 1. 1. 1. 1.
      2. 0. 3. 2. 0. 2. 1. 0. 5. 1. 1. 2. 3. 2. 5. 2. 1. 3. 0. 3. 0. 1.
      3. 0. 4. 0. 1. 2. 0. 0. 1. 3. 0. 3. 0. 0. 2. 1. 3. 1. 0. 1. 1. 3.
      1. 1. 0. 1. 1. 3. 0. 0. 3. 3. 3. 0. 0. 0. 2. 0. 3. 0. 2. 1. 0. 0.
      1. 0. 2. 4. 2. 0. 1. 0. 0. 0. 0. 1. 1. 0. 0. 1. 2. 2. 1. 1. 2. 0.
      2. 0. 0. 2. 0. 0. 4. 1. 0. 3. 0. 0. 1. 1. 2. 3. 1. 1. 3. 3. 0. 3.
      0. 1. 1. 0. 3. 0. 0. 1. 1. 1. 1. 3. 1. 1. 0. 1. 2. 0. 0. 0. 0. 1.
      0. 4. 1. 1. 3. 4. 0. 0. 0. 0. 1. 1. 0. 0. 0. 3. 1. 2. 1. 1. 2. 2.
      1. 5. 0. 0. 0. 1. 2. 0. 2. 1. 1. 3. 1. 0. 0. 0. 0. 2. 2. 0. 1. 1.
      0. 4. 0. 0. 1. 0. 2. 0. 6. 0. 1. 1. 0. 2. 1. 2. 2. 2. 1. 2. 0. 2.
      2. 3. 3. 2. 1. 2. 0. 3. 1. 1. 1. 0. 2. 0. 2. 1. 1. 0. 1. 2. 2. 2.
      2. 2. 0. 2. 1. 0. 1. 0. 0. 3. 0. 3. 2. 0. 4. 1. 2. 1. 2. 1. 4. 1.
      2. 0. 1. 1. 0. 1. 2. 0. 1. 0. 1. 1. 0. 1. 2. 0. 0. 5. 2. 4. 0. 1.
      0. 4. 0. 1. 0. 2. 0. 0. 2. 1. 0. 1. 1. 0. 1. 0. 1. 1. 8. 1. 0. 2.
      2. 1. 1. 1. 1. 0. 1. 3. 3. 1. 0. 0. 2. 0. 0. 0. 1. 0. 0. 1. 3. 2.
      1. 2. 3. 3. 1. 0. 0. 1. 1. 1. 1. 1. 1. 1. 1. 1. 0. 1. 1. 3. 2. 4.
      0. 4. 0. 3. 0. 1. 2. 1. 2. 0. 0. 2. 0. 1. 2. 0. 1. 0. 1. 1. 4. 6.
      1. 0. 0. 0. 1. 3. 1. 2. 3. 1. 1. 3. 1. 1. 1. 1. 0. 6. 0. 1. 0. 1.
      2. 0. 1. 1. 1. 1. 2. 2. 1. 1. 5. 1. 0. 2. 0. 2. 0. 1. 0. 3. 1. 0.
      0. 0. 0. 0. 1. 1. 1. 0. 1. 1. 0. 1. 1. 0. 1. 0. 1. 2. 1. 3. 3. 2.
      2. 0. 0. 0. 2. 2. 6. 6. 2. 3. 1. 2. 1. 1. 1. 1. 0. 0. 1. 0. 2. 1.
      1. 0. 0. 0. 3. 1. 0. 0. 1. 1. 2. 1. 3. 5. 0. 0. 0. 1. 0. 1. 1. 2.
      1. 3. 2. 2. 0. 3. 0. 0. 2. 3. 0. 1. 1. 2. 1. 0. 3. 3. 0. 2. 0. 2.
      2. 0. 1. 2. 0. 2. 0. 2. 1. 2. 0. 1. 0. 0. 0. 2. 3. 1. 2. 0. 0. 2.
      0. 1. 1. 0. 1. 0. 4. 1. 5. 2. 0. 1. 0. 1. 1. 1. 0. 2. 2. 2. 2. 2.
      1. 0. 0. 3. 0. 5. 1. 0. 1. 0. 3. 1. 0. 0. 1. 1. 0. 0. 1. 1. 0. 0.
      0. 0. 1. 3. 0. 4. 0. 1. 3. 0. 0. 3. 0. 0. 2. 1. 2. 1. 1. 1. 2. 1.
      0. 2. 3. 0. 0. 3. 2. 0. 2. 0. 0. 1. 1. 1. 0. 2. 0. 0. 5. 1. 0. 0.
      1. 2. 0. 1. 3. 2. 3. 2. 0. 1. 0. 3. 2. 0. 1. 2. 0. 2. 0. 3. 3. 0.
      0. 0. 0. 5. 2. 0. 1. 0. 4. 0. 0. 1. 0. 2. 0. 2. 2. 3. 0. 1. 2. 0.
      2. 1. 3. 0. 1. 2. 1. 1. 0. 2. 0. 0. 1. 0. 2. 3. 1. 0. 2. 0. 1. 1.
      0. 0. 6. 2. 1. 1. 0. 0. 0. 0. 4. 0. 1. 1. 1. 0. 0. 1. 1. 5. 1. 1.
      0. 0. 2. 1. 1. 1. 0. 5.</_>
    <_>
      0. 0. 0. 0. 0. 1. 0. 0. 1. 1. 0. 0. 1. 0. 0. 0. 0. 0. 0. 1. 1. 0.
      1. 1. 0. 0. 0. 0. 0. 0. 0. 1. 0. 0. 1. 0. 0. 2. 0. 1. 1. 0. 0. 1.
      0. 0. 2. 2. 0. 0. 1. 0. 0. 1. 0. 0. 0. 0. 0. 0. 0. 1. 2. 0. 0. 0.
      0. 1. 0. 3. 0. 0. 0. 1. 0. 0. 0. 0. 0. 1. 3. 0. 0. 1. 0. 0. 1. 1.
      1. 0. 2. 2. 0. 0. 0. 0. 0. 0. 0. 0. 1. 1. 0. 0. 0. 0. 0. 0. 0. 0.
      0. 0. 0. 3. 1. 2. 0. 0. 0. 0. 1. 0. 0. 0. 0. 2. 1. 0. 0. 0. 1. 0.
      0. 2. 0. 0. 0. 1. 0. 0. 1. 0. 0. 0. 0. 1. 0. 0. 0. 0. 0. 0. 1. 0.
      1. 1. 0. 0. 0. 0. 1. 1. 0. 0. 1. 0. 0. 0. 0. 0. 0. 0. 0. 0. 0. 0.
      1. 0. 2. 0. 0. 0. 1. 0. 0. 0. 0. 0. 1. 0. 0. 0. 1. 0. 0. 0. 0. 0.
      0. 0. 0. 0. 0. 0. 2. 0. 1. 0. 1. 0. 0. 0. 0. 0. 0. 0. 0. 0. 0. 0.
      1. 2. 1. 0. 0. 1. 0. 0. 0. 0. 2. 1. 0. 0. 0. 0. 1. 0. 1. 0. 1. 0.
      0. 0. 0. 0. 1. 0. 0. 0. 0. 2. 1. 0. 0. 0. 0. 0. 0. 0. 2. 0. 1. 2.
      1. 0. 0. 1. 0. 0. 0. 0. 0. 0. 1. 0. 0. 0. 0. 0. 0. 0. 2. 0. 0. 1.
      1. 0. 0. 1. 0. 1. 0. 0. 2. 0. 0. 0. 0. 0. 2. 1. 0. 1. 0. 0. 0. 0.
      0. 2. 0. 0. 1. 0. 0. 1. 0. 1. 1. 0. 0. 0. 0. 0. 2. 2. 1. 0. 0. 0.
      0. 0. 0. 0. 0. 0. 1. 0. 0. 0. 0. 0. 0. 0. 0. 0. 0. 0. 0. 0. 1. 0.
      0. 0. 0. 0. 0. 0. 0. 2. 0. 0. 1. 0. 1. 0. 1. 0. 0. 0. 0. 0. 0. 0.
      0. 0. 0. 0. 0. 0. 0. 0. 0. 0. 0. 1. 1. 0. 0. 0. 0. 0. 0. 0. 0. 0.
      0. 1. 0. 0. 1. 0. 0. 0. 0. 0. 0. 0. 0. 0. 1. 1. 0. 0. 0. 0. 0. 0.
      0. 0. 0. 0. 0. 0. 0. 0. 0. 0. 0. 0. 0. 0. 1. 0. 2. 1. 0. 0. 1. 0.
      0. 1. 0. 0. 0. 4. 0. 0. 0. 1. 0. 0. 0. 0. 0. 0. 1. 0. 0. 1. 1. 0.
      0. 0. 0. 1. 0. 1. 0. 0. 0. 0. 1. 2. 0. 0. 1. 0. 1. 0. 0. 0. 0. 1.
      0. 0. 1. 0. 0. 1. 0. 0. 0. 0. 0. 2. 0. 0. 0. 0. 0. 0. 0. 0. 0. 0.
      0. 2. 1. 0. 0. 1. 0. 0. 0. 0. 0. 0. 0. 1. 0. 2. 1. 0. 0. 0. 0. 0.
      0. 0. 0. 0. 0. 0. 0. 0. 0. 0. 0. 0. 0. 0. 0. 0. 0. 0. 0. 1. 0. 1.
      1. 0. 2. 0. 0. 2. 0. 0. 0. 2. 0. 0. 0. 0. 0. 0. 1. 0. 0. 0. 1. 0.
      0. 0. 1. 0. 0. 1. 1. 0. 0. 0. 0. 0. 1. 0. 2. 1. 0. 0. 0. 0. 0. 0.
      0. 0. 0. 0. 1. 0. 1. 2. 0. 0. 1. 0. 3. 1. 0. 0. 0. 0. 1. 1. 0. 0.
      0. 1. 0. 1. 1. 1. 0. 0. 0. 0. 0. 2. 0. 2. 1. 0. 2. 0. 1. 0. 1. 1.
      0. 0. 0. 0. 1. 0. 0. 0. 0. 0. 0. 0. 0. 0. 0. 0. 2. 2. 0. 0. 1. 1.
      1. 0. 2. 0. 0. 0. 0. 0. 0. 0. 0. 0. 0. 0. 0. 0. 0. 0. 0. 0. 0. 0.
      2. 0. 0. 0. 0. 0. 2. 1. 0. 0. 0. 0. 0. 0. 0. 0. 0. 0. 1. 0. 0. 1.
      0. 0. 0. 0. 0. 0. 0. 1. 0. 0. 1. 4. 0. 0. 0. 0. 0. 0. 0. 0. 0. 0.
      0. 0. 0. 0. 0. 0. 0. 0. 0. 0. 0. 0. 0. 0. 0. 0. 0. 0. 0. 0. 0. 1.
      0. 0. 1. 0. 0. 0. 1. 0. 0. 2. 0. 0. 0. 0. 3. 0. 0. 0. 0. 1. 0. 2.
      1. 0. 0. 0. 0. 1. 0. 0. 0. 0. 0. 0. 0. 0. 0. 0. 1. 0. 0. 1. 0. 0.
      0. 0. 0. 0. 0. 0. 1. 0.</_>
    <_>
      0. 0. 0. 0. 0. 0. 9.99999940e-01 0. 0. 0. 9.99999940e-01 0. 0. 0.
      0. 0. 0. 0. 0. 0. 0. 0. 0. 0. 0. 9.99999940e-01 9.99999940e-01 0.
      1.59999990e+01 1.99999988e+00 0. 0. 0. 0. 0. 0. 0. 9.99999940e-01
      0. 0. 0. 0. 0. 9.99999940e-01 9.99999940e-01 0. 0. 0. 0. 0.
      9.99999940e-01 0. 0. 0. 0. 0. 0. 0. 0. 0. 0. 0. 0. 0. 0. 0. 0. 0.
      0. 9.99999940e-01 0. 0. 0. 0. 0. 9.99999940e-01 0. 1.99999988e+00
      0. 0. 5. 9.99999940e-01 0. 0. 0. 0. 0. 3. 1.99999988e+00
      9.99999940e-01 0. 0. 0. 9.99999940e-01 0. 0. 0. 0. 0.
      9.99999940e-01 0. 9.99999940e-01 0. 0. 9.99999940e-01
      1.99999988e+00 9.99999940e-01 0. 0. 0. 0. 0. 0. 9.99999940e-01 0.
      0. 9.99999940e-01 0. 0. 0. 1.99999988e+00 0. 0. 0. 0.
      9.99999940e-01 0. 0. 0. 0. 3.99999976e+00 0. 9.99999940e-01 6. 0.
      0. 0. 9.99999940e-01 0. 0. 0. 0. 0. 0. 0. 9.99999940e-01 0. 0. 0.
      0. 0. 0. 0. 0. 0. 0. 0. 3. 9.99999940e-01 0. 0. 0. 0. 0.
      9.99999940e-01 0. 0. 0. 0. 0. 0. 9.99999940e-01 0. 0.
      1.99999988e+00 0. 0. 9.99999940e-01 0. 0. 9.99999940e-01 0. 0. 0.
      0. 0. 0. 0. 0. 9.99999940e-01 0. 0. 0. 0. 0. 0. 0. 0. 0. 0.
      9.99999940e-01 0. 0. 0. 0. 0. 0. 0. 0. 0. 0. 0. 0. 0.
      9.99999940e-01 0. 0. 0. 0. 0. 0. 0. 0. 0. 0. 0. 3.99999976e+00 0.
      0. 0. 9.99999940e-01 0. 9.99999940e-01 0. 0. 0. 0. 0. 0. 0. 0. 0.
      0. 0. 0. 0. 0. 0. 0. 0. 0. 9.99999940e-01 0. 0. 0. 0. 0. 0. 0.
      9.99999940e-01 9.99999940e-01 0. 0. 9.99999940e-01 0. 0. 0.
      9.99999940e-01 0. 0. 9.99999940e-01 0. 0. 0. 0. 0. 0. 0. 0. 0. 0.
      0. 0. 0. 0. 0. 9.99999940e-01 0. 0. 3. 0. 0. 0. 0. 0. 0. 0. 0. 0.
      0. 0. 0. 0. 0. 0. 0. 0. 0. 0. 0. 9.99999940e-01 3. 0. 0. 0. 0. 0.
      0. 9.99999940e-01 0. 0. 0. 0. 0. 0. 0. 0. 0. 0. 0. 0.
      1.99999988e+00 0. 0. 0. 0. 0. 0. 0. 0. 0. 0. 0. 0. 1.99999988e+00
      0. 0. 0. 0. 0. 0. 0. 0. 1.99999988e+00 0. 0. 0. 9.99999940e-01 0.
      0. 0. 9.99999940e-01 0. 0. 0. 0. 0. 0. 0. 0. 0. 0. 0. 0. 0. 0. 0.
      0. 0. 0. 1.99999988e+00 0. 0. 0. 0. 9.99999940e-01 0.
      1.99999988e+00 0. 0. 1.99999988e+00 0. 0. 9.99999940e-01 0. 0. 0.
      0. 9.99999940e-01 0. 0. 0. 0. 0. 0. 0. 0. 1.99999988e+00
      9.99999940e-01 0. 0. 0. 0. 0. 0. 9.99999940e-01 0. 0. 0. 0. 0. 0.
      0. 0. 9.99999940e-01 0. 0. 0. 0. 9.99999940e-01 9.99999940e-01
      9.99999940e-01 0. 0. 0. 9.99999940e-01 0. 0. 0. 0. 0. 0. 0. 3. 0.
      6. 1.99999988e+00 9.99999940e-01 0. 0. 0. 9.99999940e-01 0. 3.
      9.99999940e-01 0. 0. 0. 0. 0. 9.99999940e-01 0. 0. 0. 0. 3. 0.
      9.99999940e-01 0. 0. 0. 0. 0. 0. 0. 0. 0. 0. 3. 0. 0. 0. 0. 0. 0.
      0. 0. 0. 0. 0. 0. 0. 0. 0. 0. 0. 0. 1.99999988e+00 0. 0. 0. 0. 0.
      9.99999940e-01 0. 0. 0. 0. 0. 0. 0. 0. 0. 6. 0. 0. 3. 0. 0. 0. 0.
      0. 0. 0. 0. 0. 0. 0. 0. 1.99999988e+00 0. 0. 0. 0. 0. 0. 0. 0. 0.
      0. 0. 0. 1.99999988e+00 0. 0. 0. 0. 0. 0. 0. 1.99999988e+00 0. 0.
      0. 0. 0. 0. 0. 0. 9.99999940e-01 0. 0. 0. 0. 0. 1.99999988e+00 0.
      0. 0. 0. 0. 0. 9.99999940e-01 9.99999940e-01 0. 0. 0. 0.
      3.99999976e+00 0. 0. 0. 0. 0. 0. 0. 0. 9.99999940e-01 0.
      9.99999940e-01 0. 0. 9.99999940e-01 0. 0. 0. 0. 1.99999988e+00 0.
      0. 0. 0. 0. 0. 0. 0. 0. 0. 0. 0. 0. 0. 0. 0. 0. 0. 9.99999940e-01
      0. 0. 0. 9.99999940e-01 9.99999940e-01 0. 0. 0. 1.99999988e+00 0.
      0. 0. 0. 0. 0. 3.99999976e+00 0. 0. 0. 9.99999940e-01 0. 0. 0.
      9.99999940e-01 9.99999940e-01 0. 0. 0. 0. 0. 0. 0. 0. 0. 0.
      9.99999940e-01 0. 0. 0. 0. 0. 9.99999940e-01 0. 0. 0. 0.
      9.99999940e-01 0. 0. 0. 0. 0. 0. 0. 0. 3. 0. 0. 0. 0. 0. 0. 0. 0.
      0. 9.99999940e-01 0. 0. 0. 0. 0. 0. 0. 0. 0. 0. 0. 0. 0. 0. 0. 0.
      1.99999988e+00 0. 0. 0. 0. 9.99999940e-01 0. 9.99999940e-01 0.
      1.99999988e+00 0. 0. 0. 0. 9.99999940e-01 0. 3.99999976e+00 0.
      9.99999940e-01 0. 0. 0. 0. 0. 0. 0. 0. 0. 0. 0. 0. 9.99999940e-01
      0. 0. 0. 9.99999940e-01 0. 3. 0. 0. 0. 0. 0. 0. 0. 9.99999940e-01
      0. 0. 0. 0. 0. 0. 0. 0. 0. 0. 9.99999940e-01 0. 9.99999940e-01
      9.99999940e-01 0. 0. 9.99999940e-01 9.99999940e-01 0. 0. 0. 0. 0.
      0. 0. 0. 0. 0. 0. 0. 0. 0. 0. 0. 0. 0. 0. 0. 0. 1.99999988e+00 0.
      9.99999940e-01 0. 1.99999988e+00 0. 0. 9.99999940e-01
      9.99999940e-01 0. 0. 0. 0. 9.99999940e-01 9.99999940e-01 0.</_>
    <_>
      0. 1. 0. 0. 0. 0. 0. 1. 0. 0. 2. 0. 0. 0. 0. 0. 0. 0. 1. 0. 0. 0.
      0. 0. 0. 0. 0. 0. 0. 0. 0. 1. 0. 0. 1. 0. 0. 0. 0. 0. 0. 0.
      3.00000024e+00 0. 0. 0. 0. 1. 1. 0. 0. 0. 2. 1. 0. 0. 0. 1. 0. 5.
      1. 0. 1. 0. 0. 0. 1. 0. 1. 0. 0. 2. 0. 0. 0. 0. 0. 0. 0. 0.
      6.00000048e+00 0. 0. 0. 0. 0. 0. 1. 1. 1. 0. 1. 0. 2. 1. 1. 0. 0.
      0. 1. 0. 0. 0. 0. 4. 0. 0. 1. 0. 1. 0. 5. 0. 1. 0. 0. 1. 1. 0. 0.
      0. 0. 0. 0. 0. 0. 0. 0. 0. 0. 3.00000024e+00 0. 0. 1. 0. 0. 0. 0.
      0. 0. 0. 0. 1. 0. 0. 0. 0. 0. 0. 0. 0. 0. 0. 0. 2. 0. 1. 0. 0. 0.
      1. 0. 0. 1. 1. 0. 2. 0. 1. 0. 0. 0. 0. 0. 1. 1. 1. 0. 0. 0. 0. 1.
      0. 0. 0. 0. 1. 0. 0. 2. 0. 0. 1. 1. 0. 0. 0. 0. 0. 0. 1. 0. 0. 0.
      1. 1. 0. 0. 1. 0. 0. 0. 0. 0. 1. 0. 1. 0. 0. 0. 0. 0. 2. 0. 0. 0.
      3.00000024e+00 0. 1. 6.00000048e+00 0. 0. 0. 0. 0. 0. 0. 0. 0. 0.
      0. 0. 0. 0. 0. 0. 1. 0. 0. 0. 0. 0. 2. 0. 0. 0. 0. 0. 0. 1. 0. 0.
      0. 1. 1. 0. 2. 0. 0. 1. 0. 0. 1. 0. 0. 0. 1. 0. 0. 0. 0. 0. 0. 1.
      0. 0. 1. 1. 0. 0. 0. 1. 0. 1. 0. 0. 0. 0. 0. 0. 0. 0. 0. 0.
      3.00000024e+00 0. 0. 0. 0. 0. 0. 2. 0. 0. 0. 0. 1. 0. 0. 0. 0. 1.
      0. 0. 0. 0. 0. 1. 0. 0. 0. 0. 0. 0. 1. 0. 0. 0. 0. 0. 0. 2. 0. 0.
      2. 0. 0. 0. 1. 0. 0. 0. 0. 1. 1. 0. 0. 1. 0. 0. 0. 0. 0. 0. 0. 0.
      0. 0. 1. 2. 1. 0. 0. 1. 0. 0. 0. 0. 0. 0. 0. 0. 0. 0. 0. 1. 1. 1.
      0. 0. 0. 0. 0. 0. 1. 0. 1. 1. 0. 3.00000024e+00 0. 0. 0. 0. 0. 0.
      0. 0. 1. 0. 1. 0. 0. 0. 0. 0. 2. 0. 0. 0. 0. 0. 1. 1.
      3.00000024e+00 0. 1. 1. 0. 0. 1. 1. 0. 1. 2. 0. 0. 0. 1. 0. 0. 1.
      1. 0. 0. 0. 0. 0. 0. 0. 0. 0. 0. 0. 0. 0. 2. 0. 0. 0. 0. 0. 2. 0.
      1. 2. 0. 0. 0. 0. 0. 0. 0. 0. 1. 0. 0. 0. 1. 0. 0. 0. 1. 0. 0. 0.
      0. 0. 0. 0. 0. 0. 0. 0. 0. 0. 0. 0. 0. 1. 1. 0. 1. 0. 1. 0. 1. 0.
      1. 0. 0. 1. 1. 1. 0. 1. 2. 0. 0. 3.00000024e+00 1. 0. 1. 0. 0. 0.
      0. 0. 0. 1. 1. 1. 0. 0. 0. 0. 0. 0. 0. 0. 0. 0. 2. 1. 0. 0. 0. 0.
      1. 0. 0. 0. 1. 0. 1. 0. 0. 0. 1. 1. 0. 0. 0. 0. 1. 0. 0. 0. 0. 1.
      0. 1. 1. 0. 3.00000024e+00 0. 0. 0. 3.00000024e+00 0. 0. 1. 0. 0.
      0. 0. 1. 1. 0. 0. 0. 0. 0. 0. 0. 2. 1. 0. 0. 0. 0. 0. 0. 0. 0. 0.
      1. 0. 2. 0. 0. 0. 1. 0. 0. 0. 0. 0. 0. 1. 0. 0. 1. 0. 1. 0. 0. 0.
      2. 1. 0. 0. 3.00000024e+00 1. 0. 0. 0. 0. 1. 0. 1. 0. 0. 1. 1. 1.
      1. 0. 1. 0. 0. 0. 0. 0. 0. 0. 0. 1. 0. 1. 2. 0. 0. 2. 0. 0. 0. 0.
      0. 0. 1. 0. 0. 1. 1. 0. 0. 0. 1. 0. 0. 0. 0. 0. 0. 0. 2. 0. 0. 0.
      0. 0. 1. 0. 0. 0. 1. 0. 0. 0. 0. 1. 0. 1. 0. 0. 1. 0. 0. 0. 0. 0.
      1. 1. 2. 1. 0. 0. 0. 0. 0. 1. 0. 0. 0. 0. 1. 0. 0. 0. 1. 0. 0. 1.
      1. 1. 0. 0. 0. 0. 0. 0. 1. 0. 0. 0. 0. 0. 0. 0. 0. 2. 0. 0. 0. 0.
      0. 0. 0. 1. 0. 1. 0. 0. 0. 3.00000024e+00 0. 0. 2. 0. 2. 0. 0. 0.
      0. 0. 0. 0. 0. 0. 0. 0. 0. 1. 1. 0. 0. 0. 2. 0. 0. 1. 1. 0. 0. 0.
      0. 0. 1. 0.</_>
    <_>
      0. 1. 0. 1. 0. 0. 1. 1. 0. 0. 1. 0. 0. 2. 0. 1. 0. 0. 0. 0. 0. 0.
      0. 0. 0. 0. 0. 0. 1. 1. 0. 0. 1. 0. 0. 0. 2. 1. 0. 0. 0. 0. 1. 0.
      1. 0. 0. 0. 0. 0. 3. 1. 0. 1. 0. 0. 1. 0. 0. 0. 1. 0. 0. 0. 0. 0.
      0. 0. 0. 1. 0. 0. 1. 0. 1. 0. 0. 0. 1. 0. 0. 1. 0. 0. 1. 0. 0. 0.
      0. 0. 0. 0. 0. 0. 0. 0. 0. 0. 0. 0. 0. 0. 0. 1. 2. 0. 0. 0. 0. 0.
      0. 3. 0. 5. 1. 0. 0. 0. 1. 0. 0. 1. 0. 0. 0. 0. 0. 0. 2. 1. 0. 0.
      0. 3. 0. 0. 1. 1. 0. 0. 1. 1. 1. 0. 0. 0. 0. 0. 1. 1. 0. 0. 0. 0.
      1. 0. 0. 0. 0. 1. 0. 0. 0. 0. 1. 0. 0. 0. 0. 0. 0. 1. 0. 1. 1. 0.
      1. 1. 0. 0. 0. 0. 0. 0. 1. 0. 1. 0. 1. 0. 0. 1. 0. 0. 0. 0. 1. 1.
      0. 0. 0. 0. 0. 0. 0. 0. 0. 1. 0. 0. 0. 0. 0. 0. 0. 0. 0. 0. 2. 0.
      0. 0. 1. 0. 0. 0. 1. 0. 0. 1. 0. 0. 0. 0. 0. 0. 0. 0. 0. 1. 1. 0.
      0. 2. 0. 0. 2. 0. 1. 0. 0. 1. 2. 2. 0. 0. 1. 0. 0. 0. 1. 0. 2. 1.
      0. 0. 0. 0. 0. 0. 0. 0. 0. 0. 3. 0. 1. 0. 2. 1. 0. 0. 0. 0. 0. 0.
      0. 1. 0. 0. 1. 0. 0. 1. 1. 0. 0. 0. 1. 0. 1. 1. 0. 0. 0. 0. 0. 0.
      0. 0. 0. 0. 0. 0. 0. 0. 0. 0. 0. 0. 0. 1. 1. 1. 0. 1. 0. 0. 0. 0.
      0. 0. 0. 0. 1. 0. 0. 0. 0. 0. 1. 0. 0. 0. 0. 0. 0. 0. 0. 1. 1. 0.
      0. 1. 0. 1. 1. 1. 0. 0. 1. 0. 0. 1. 1. 0. 1. 1. 0. 0. 0. 0. 1. 0.
      0. 0. 1. 0. 0. 0. 0. 0. 0. 0. 0. 0. 0. 2. 0. 0. 0. 0. 0. 1. 1. 0.
      0. 1. 0. 0. 1. 0. 0. 0. 1. 0. 1. 0. 0. 0. 0. 0. 0. 1. 1. 0. 0. 0.
      1. 0. 0. 0. 0. 0. 1. 1. 1. 0. 0. 0. 1. 1. 2. 2. 0. 1. 0. 0. 0. 0.
      0. 0. 0. 3. 0. 2. 0. 0. 0. 0. 0. 1. 0. 1. 0. 0. 2. 0. 0. 0. 0. 0.
      0. 0. 0. 3. 0. 0. 0. 0. 0. 0. 2. 1. 2. 0. 0. 0. 1. 0. 0. 0. 1. 0.
      0. 0. 3. 0. 0. 0. 1. 0. 1. 0. 0. 1. 0. 1. 0. 0. 0. 1. 1. 0. 0. 0.
      0. 0. 0. 0. 0. 0. 1. 2. 0. 0. 1. 0. 0. 0. 0. 0. 0. 0. 0. 0. 0. 0.
      0. 1. 0. 0. 0. 0. 0. 0. 0. 0. 0. 0. 0. 0. 0. 0. 0. 1. 0. 0. 0. 1.
      0. 0. 0. 0. 0. 1. 0. 0. 0. 3. 0. 0. 0. 1. 0. 0. 0. 0. 0. 0. 0. 0.
      0. 0. 1. 0. 0. 0. 1. 0. 0. 0. 0. 0. 0. 0. 0. 0. 0. 1. 0. 0. 0. 0.
      0. 2. 0. 0. 0. 1. 0. 1. 0. 0. 1. 0. 0. 1. 0. 0. 0. 0. 0. 1. 0. 1.
      0. 1. 1. 0. 0. 0. 0. 0. 0. 0. 0. 0. 1. 0. 0. 0. 1. 0. 0. 0. 0. 0.
      1. 0. 0. 1. 0. 0. 0. 0. 0. 0. 0. 0. 0. 0. 0. 0. 0. 1. 0. 0. 0. 0.
      0. 0. 0. 0. 0. 0. 0. 1. 0. 0. 1. 0. 1. 0. 0. 0. 0. 1. 0. 1. 0. 0.
      0. 0. 0. 1. 0. 0. 0. 0. 0. 0. 0. 1. 0. 4. 0. 0. 0. 0. 0. 0. 0. 0.
      1. 0. 0. 2. 0. 0. 1. 0. 0. 0. 0. 3. 0. 0. 0. 1. 0. 0. 0. 0. 0. 2.
      0. 0. 0. 0. 0. 0. 2. 0. 0. 1. 0. 2. 0. 0. 0. 0. 0. 0. 0. 1. 0. 3.
      0. 0. 0. 0. 0. 0. 2. 0. 0. 2. 0. 0. 0. 0. 4. 0. 1. 0. 1. 0. 0. 0.
      2. 0. 0. 2. 0. 0. 0. 1. 0. 0. 3. 2. 0. 1. 0. 0. 1. 0. 0. 0. 1. 3.
      0. 4. 0. 0. 0. 0. 0. 0.</_>
    <_>
      0. 0. 0. 0. 1. 0. 2. 0. 0. 0. 0. 0. 0. 1. 1. 0. 0. 0. 0. 0. 0. 0.
      0. 0. 0. 0. 0. 0. 0. 0. 0. 0. 0. 0. 0. 0. 0. 1. 0. 0. 0. 0. 0. 2.
      0. 1. 0. 0. 0. 1. 1. 0. 0. 0. 1. 0. 0. 0. 0. 2. 0. 1. 1. 0. 0. 0.
      0. 0. 0. 0. 1. 0. 0. 0. 0. 0. 0. 0. 0. 0. 1. 1. 1. 0. 0. 0. 0. 1.
      0. 0. 0. 1. 0. 2. 1. 0. 1. 0. 0. 0. 0. 0. 0. 0. 0. 1. 0. 2. 2. 0.
      0. 0. 1. 1. 0. 0. 1. 2. 0. 0. 0. 0. 0. 0. 0. 0. 0. 0. 0. 1. 0. 0.
      0. 2. 0. 0. 0. 0. 0. 0. 0. 0. 0. 0. 0. 1. 0. 0. 0. 0. 0. 0. 0. 0.
      0. 1. 0. 0. 0. 1. 0. 1. 0. 0. 0. 0. 0. 0. 1. 0. 0. 0. 0. 0. 1. 0.
      0. 0. 0. 1. 0. 0. 1. 0. 0. 0. 0. 0. 1. 1. 0. 0. 0. 1. 0. 0. 0. 1.
      0. 0. 0. 0. 0. 0. 1. 0. 1. 0. 0. 0. 0. 2. 0. 0. 1. 0. 0. 1. 0. 0.
      0. 0. 0. 0. 0. 0. 2. 2. 0. 1. 0. 2. 0. 1. 0. 0. 0. 0. 0. 2. 0. 0.
      0. 0. 0. 0. 1. 0. 0. 0. 1. 0. 0. 0. 0. 2. 0. 0. 0. 0. 1. 0. 0. 0.
      0. 0. 1. 0. 0. 1. 0. 2. 0. 0. 0. 0. 1. 0. 0. 1. 0. 3. 0. 0. 0. 0.
      0. 0. 0. 1. 0. 1. 0. 1. 0. 0. 0. 0. 0. 0. 0. 0. 0. 0. 2. 0. 0. 0.
      0. 0. 0. 1. 0. 0. 0. 1. 2. 0. 0. 1. 0. 0. 0. 0. 2. 1. 0. 2. 0. 0.
      0. 1. 0. 0. 1. 1. 0. 0. 0. 0. 0. 0. 0. 0. 0. 0. 0. 0. 0. 0. 0. 1.
      0. 0. 0. 0. 0. 0. 0. 0. 0. 0. 0. 1. 0. 0. 0. 0. 0. 1. 0. 0. 0. 0.
      0. 0. 0. 0. 0. 0. 0. 0. 0. 0. 0. 1. 0. 1. 3. 0. 0. 0. 0. 0. 0. 0.
      0. 0. 1. 0. 0. 0. 0. 0. 0. 0. 1. 0. 0. 0. 1. 0. 1. 0. 0. 1. 0. 0.
      0. 0. 0. 0. 0. 0. 1. 3. 1. 0. 0. 1. 1. 1. 0. 0. 0. 0. 0. 0. 1. 0.
      0. 0. 0. 4. 0. 2. 0. 0. 1. 0. 2. 0. 1. 0. 0. 1. 0. 0. 0. 1. 0. 0.
      1. 0. 0. 1. 0. 0. 0. 0. 0. 0. 1. 0. 0. 0. 0. 0. 1. 0. 1. 0. 0. 0.
      0. 0. 0. 0. 0. 0. 1. 0. 0. 2. 0. 0. 0. 0. 0. 1. 0. 0. 0. 0. 0. 0.
      0. 1. 0. 0. 1. 0. 0. 1. 0. 0. 0. 0. 0. 0. 2. 0. 0. 0. 0. 0. 0. 0.
      0. 1. 1. 0. 0. 0. 0. 0. 1. 0. 0. 0. 0. 0. 3. 0. 0. 0. 0. 0. 1. 1.
      1. 0. 0. 0. 0. 0. 0. 0. 0. 2. 0. 0. 0. 0. 0. 1. 0. 0. 0. 0. 1. 1.
      1. 1. 1. 0. 0. 0. 0. 0. 1. 1. 0. 0. 0. 0. 0. 0. 0. 0. 0. 0. 0. 0.
      0. 1. 1. 0. 0. 0. 0. 0. 0. 0. 0. 0. 0. 0. 1. 0. 0. 0. 0. 1. 0. 0.
      0. 0. 0. 1. 0. 1. 3. 0. 0. 0. 0. 0. 2. 0. 0. 0. 0. 0. 0. 0. 1. 0.
      0. 0. 0. 0. 0. 0. 0. 0. 0. 0. 0. 0. 0. 1. 0. 0. 0. 0. 0. 0. 0. 1.
      0. 0. 1. 0. 0. 0. 1. 0. 0. 0. 1. 0. 0. 0. 0. 0. 1. 0. 0. 1. 0. 0.
      0. 0. 1. 0. 0. 0. 0. 0. 0. 0. 1. 0. 0. 0. 0. 0. 0. 1. 0. 0. 0. 1.
      0. 0. 0. 0. 1. 0. 0. 0. 2. 0. 1. 1. 0. 1. 0. 0. 1. 0. 1. 2. 0. 0.
      0. 0. 1. 0. 1. 0. 0. 0. 0. 0. 1. 0. 0. 0. 0. 0. 0. 0. 3.
      5.00000048e+00 1. 0. 0. 0. 0. 0. 0. 0. 1. 0. 0. 0. 0. 0. 0. 0. 1.
      0. 0. 0. 0. 0. 1. 0. 0. 0. 0. 0. 1. 0. 0. 1. 0. 0. 1. 0. 0. 1. 0.
      0. 1. 0. 0. 0. 0. 0. 1. 0. 0. 2. 0. 0. 0. 0.</_>
    <_>
      0. 0. 0. 0. 0. 0. 0. 0. 0. 0. 9.99999940e-01 0. 0. 3.99999976e+00
      0. 0. 0. 9.99999940e-01 0. 0. 0. 0. 0. 0. 0. 0. 0. 0. 0. 0. 0.
      9.99999940e-01 0. 0. 9.99999940e-01 0. 0. 9.99999940e-01 0. 0. 0.
      0. 0. 0. 0. 9.99999940e-01 0. 0. 0. 0. 0. 9.99999940e-01 0. 0. 0.
      0. 0. 0. 9.99999940e-01 0. 9.99999940e-01 0. 0. 0. 0. 0. 0. 0. 0.
      9.99999940e-01 9.99999940e-01 0. 9.99999940e-01 9.99999940e-01 0.
      0. 0. 9.99999940e-01 0. 0. 0. 9.99999940e-01 0. 0. 0. 0. 0.
      1.99999988e+00 1.99999988e+00 0. 0. 0. 0. 1.99999988e+00 0. 0.
      9.99999940e-01 0. 0. 0. 0. 0. 0. 0. 9.99999940e-01 9.99999940e-01
      9.99999940e-01 0. 0. 0. 0. 0. 0. 0. 9.99999940e-01 0.
      9.99999940e-01 0. 0. 0. 0. 0. 0. 0. 0. 0. 0. 0. 0. 0. 0. 0. 0. 0.
      0. 0. 0. 0. 0. 0. 0. 9.99999940e-01 9.99999940e-01 0. 0. 0. 0. 0.
      0. 0. 0. 0. 9.99999940e-01 9.99999940e-01 0. 0. 0. 0. 0.
      9.99999940e-01 0. 0. 0. 0. 0. 0. 0. 0. 0. 0. 0. 0. 0. 0. 0. 0. 0.
      0. 9.99999940e-01 0. 0. 0. 0. 0. 0. 0. 1.99999988e+00
      9.99999940e-01 0. 1.99999988e+00 0. 0. 0. 0. 0. 0. 0. 0. 0. 0. 0.
      0. 0. 0. 9.99999940e-01 0. 1.99999988e+00 0. 0. 0. 0.
      9.99999940e-01 0. 0. 9.99999940e-01 0. 9.99999940e-01
      9.99999940e-01 0. 9.99999940e-01 0. 0. 0. 0. 0. 0. 0. 0. 0. 0. 0.
      9.99999940e-01 0. 0. 0. 0. 0. 0. 0. 0. 0. 0. 9.99999940e-01 0. 0.
      0. 0. 0. 0. 0. 0. 0. 0. 0. 0. 0. 0. 0. 0. 0. 0. 0. 9.99999940e-01
      0. 0. 0. 0. 0. 0. 0. 0. 0. 0. 0. 9.99999940e-01 0. 9.99999940e-01
      0. 9.99999940e-01 0. 0. 0. 0. 0. 0. 0. 0. 0. 0. 9.99999940e-01 0.
      0. 0. 0. 0. 0. 0. 0. 0. 0. 0. 9.99999940e-01 0. 0. 1.99999988e+00
      0. 0. 9.99999940e-01 0. 0. 0. 9.99999940e-01 0. 0. 0. 0. 0. 0. 0.
      0. 0. 0. 0. 0. 0. 0. 0. 0. 0. 0. 0. 9.99999940e-01 0. 0. 0. 0. 0.
      0. 1.99999988e+00 1.99999988e+00 0. 0. 0. 0. 0. 0. 9.99999940e-01
      0. 0. 0. 0. 0. 0. 0. 9.99999940e-01 0. 0. 0. 0. 0. 0. 0. 0. 0.
      9.99999940e-01 0. 0. 9.99999940e-01 0. 0. 9.99999940e-01
      9.99999940e-01 9.99999940e-01 0. 0. 0. 0. 0. 0. 0. 0. 0. 0. 0. 0.
      0. 0. 0. 9.99999940e-01 0. 0. 0. 0. 9.99999940e-01 9.99999940e-01
      0. 0. 0. 0. 0. 0. 0. 0. 0. 0. 0. 9.99999940e-01 0. 0. 0. 0. 0. 0.
      0. 0. 0. 0. 0. 0. 0. 0. 0. 0. 0. 0. 0. 0. 0. 0. 9.99999940e-01
      9.99999940e-01 0. 0. 0. 0. 0. 0. 0. 9.99999940e-01 0. 0. 0. 0.
      9.99999940e-01 0. 0. 0. 0. 1.99999988e+00 0. 0. 0. 0.
      9.99999940e-01 0. 0. 0. 0. 0. 0. 9.99999940e-01 0. 0. 0. 0.
      9.99999940e-01 9.99999940e-01 0. 0. 9.99999940e-01 0. 0. 0. 0.
      9.99999940e-01 0. 0. 0. 3.99999976e+00 0. 0. 0. 0. 0. 0. 0. 0. 0.
      0. 0. 0. 0. 0. 0. 0. 0. 0. 0. 9.99999940e-01 0. 0. 0.
      1.99999988e+00 0. 0. 0. 0. 0. 0. 0. 0. 0. 0. 0. 0. 0.
      9.99999940e-01 0. 0. 9.99999940e-01 0. 0. 1.99999988e+00 0. 0. 0.
      0. 0. 0. 0. 0. 0. 0. 0. 0. 0. 0. 0. 0. 0. 0. 0. 0. 0. 0. 0. 0. 0.
      0. 0. 9.99999940e-01 0. 1.99999988e+00 0. 9.99999940e-01 0. 0. 0.
      0. 9.99999940e-01 0. 9.99999940e-01 0. 0. 0. 0. 1.99999988e+00 0.
      0. 0. 0. 9.99999940e-01 0. 0. 0. 0. 0. 0. 0. 0. 0. 9.99999940e-01
      0. 0. 0. 0. 0. 9.99999940e-01 0. 0. 0. 0. 0. 9.99999940e-01 0.
      9.99999940e-01 0. 9.99999940e-01 0. 0. 0. 0. 0. 0. 3. 0. 0. 0. 0.
      0. 0. 0. 0. 0. 0. 0. 9.99999940e-01 0. 0. 0. 0. 0. 9.99999940e-01
      0. 0. 0. 0. 0. 1.99999988e+00 9.99999940e-01 0. 0. 9.99999940e-01
      0. 0. 9.99999940e-01 0. 9.99999940e-01 0. 9.99999940e-01 0. 0. 0.
      9.99999940e-01 0. 0. 0. 0. 9.99999940e-01 0. 0. 0. 0. 0. 0. 0. 0.
      0. 0. 0. 9.99999940e-01 0. 9.99999940e-01 0. 0. 0. 0. 0. 0. 0. 0.
      0. 0. 0. 9.99999940e-01 0. 0. 9.99999940e-01 0. 0. 0. 0. 0. 0. 0.
      0. 0. 0. 0. 0. 1.99999988e+00 0. 5. 0. 9.99999940e-01 0.
      9.99999940e-01 0. 0. 1.99999988e+00 0. 0. 0. 0. 0. 0. 0. 0. 0. 0.
      0. 0. 0. 0. 0. 3.99999976e+00 0. 0. 0. 0. 0. 0. 0. 0. 0.
      9.99999940e-01 0. 0. 9.99999940e-01 0. 0. 0. 9.99999940e-01 0. 0.
      0. 0. 0. 0. 0. 9.99999940e-01 0. 0. 0. 0. 0. 9.99999940e-01 0. 0.
      0. 0. 0. 0. 0. 0. 1.99999988e+00 0. 9.99999940e-01 0. 0. 0. 0. 0.
      0. 0. 9.99999940e-01 0. 0. 0. 0. 0. 0. 0. 0. 0. 0. 0. 0. 0. 0. 0.
      9.99999940e-01 0. 0. 0. 9.99999940e-01 0. 0. 9.99999940e-01 0.
      9.99999940e-01 0. 1.99999988e+00 0. 0. 9.99999940e-01 0. 0.
      1.99999988e+00 0.</_>
    <_>
      0. 0. 0. 0. 1. 0. 0. 0. 0. 0. 0. 0. 0. 1. 0. 0. 0. 1. 0. 0. 0. 2.
      0. 0. 1. 0. 1. 0. 0. 0. 0. 0. 0. 0. 0. 0. 0. 0. 0. 0. 0. 0. 0. 1.
      1. 0. 0. 1. 0. 0. 0. 0. 1. 0. 0. 0. 0. 0. 0. 0. 0. 0. 0. 0. 0. 0.
      0. 0. 0. 0. 0. 0. 0. 0. 0. 0. 0. 0. 0. 0. 0. 0. 0. 0. 0. 0. 0. 0.
      0. 0. 1. 0. 0. 0. 0. 0. 0. 0. 0. 0. 0. 1. 0. 0. 1. 0. 0. 0. 0. 0.
      0. 0. 1. 2. 0. 0. 1. 0. 0. 0. 0. 0. 0. 0. 1. 0. 0. 0. 0. 0. 1. 0.
      0. 0. 0. 0. 0. 1. 0. 0. 0. 0. 0. 0. 0. 0. 0. 0. 0. 0. 0. 0. 0. 0.
      1. 0. 0. 0. 0. 0. 0. 0. 1. 0. 1. 0. 0. 0. 0. 1. 0. 0. 0. 0. 0. 0.
      0. 0. 2. 0. 0. 0. 0. 0. 0. 0. 0. 0. 0. 0. 0. 0. 0. 0. 0. 0. 0. 0.
      0. 0. 1. 0. 0. 0. 0. 0. 1. 0. 0. 0. 0. 0. 0. 0. 0. 0. 0. 0. 0. 0.
      0. 0. 0. 0. 0. 0. 0. 0. 0. 0. 2. 0. 0. 0. 0. 0. 0. 0. 0. 0. 0. 0.
      1. 1. 0. 0. 0. 0. 0. 1. 0. 2. 0. 0. 0. 0. 0. 1. 0. 0. 3. 0. 0. 1.
      0. 0. 0. 0. 0. 1. 0. 0. 0. 0. 0. 0. 0. 0. 0. 0. 1. 1. 0. 0. 0. 0.
      0. 1. 0. 1. 1. 0. 0. 0. 0. 0. 0. 0. 0. 0. 0. 0. 0. 0. 0. 0. 0. 0.
      0. 0. 0. 0. 0. 0. 0. 0. 0. 0. 0. 0. 0. 0. 0. 0. 0. 1. 0. 0. 0. 0.
      0. 0. 0. 0. 0. 0. 0. 0. 0. 1. 0. 0. 0. 0. 1. 0. 0. 0. 0. 0. 0. 1.
      0. 0. 1. 0. 1. 2. 0. 0. 1. 0. 0. 0. 0. 0. 1. 0. 0. 0. 1. 0. 0. 0.
      1. 0. 0. 0. 0. 0. 0. 0. 0. 0. 0. 0. 0. 0. 0. 0. 0. 1. 0. 0. 0. 1.
      1. 0. 1. 0. 0. 0. 0. 0. 0. 0. 0. 0. 0. 0. 0. 0. 0. 0. 1. 1. 0. 0.
      0. 0. 0. 1. 0. 0. 0. 0. 0. 0. 0. 1. 0. 0. 0. 2. 0. 0. 0. 0. 0. 0.
      0. 0. 1. 0. 0. 2. 0. 0. 0. 0. 0. 0. 0. 0. 1. 0. 0. 1. 0. 0. 0. 0.
      0. 0. 0. 0. 0. 1. 0. 0. 0. 0. 0. 0. 0. 0. 0. 0. 1. 0. 0. 0. 0. 0.
      0. 0. 0. 1. 0. 0. 0. 0. 0. 0. 0. 0. 0. 0. 0. 3. 0. 0. 0. 0. 0. 0.
      0. 0. 0. 0. 0. 0. 0. 0. 0. 0. 0. 0. 0. 0. 0. 1. 0. 1. 0. 0. 0. 0.
      0. 0. 0. 0. 0. 0. 0. 0. 3. 0. 0. 0. 0. 0. 0. 1. 0. 0. 0. 0. 0. 0.
      0. 0. 0. 0. 1. 0. 0. 0. 0. 0. 0. 0. 1. 0. 0. 1. 0. 0. 0. 0. 0. 0.
      0. 0. 0. 1. 0. 0. 0. 0. 0. 1. 0. 0. 0. 0. 0. 0. 0. 1. 0. 0. 0. 1.
      0. 0. 0. 0. 0. 0. 0. 0. 0. 0. 0. 0. 0. 0. 1. 1. 0. 0. 0. 0. 0. 1.
      0. 0. 0. 0. 0. 0. 0. 0. 0. 0. 0. 2. 1. 0. 0. 0. 0. 0. 1. 0. 1. 0.
      0. 1. 0. 0. 0. 0. 0. 2. 0. 0. 0. 0. 0. 0. 0. 0. 0. 0. 0. 0. 0. 0.
      0. 1. 0. 0. 0. 1. 1. 0. 0. 0. 1. 0. 0. 0. 0. 0. 0. 0. 0. 2. 0. 0.
      1. 0. 2. 0. 0. 0. 0. 0. 1. 0. 1. 0. 0. 1. 0. 0. 1. 0. 0. 0. 0. 0.
      0. 0. 0. 0. 0. 0. 0. 1. 0. 1. 0. 0. 0. 0. 0. 0. 1. 0. 0. 0. 0. 0.
      0. 0. 0. 0. 0. 0. 1. 0. 0. 0. 0. 0. 2. 0. 0. 0. 0. 0. 0. 0. 1. 0.
      0. 0. 0. 0. 1. 0. 0. 0. 0. 1. 0. 0. 0. 0. 0. 0. 1. 0. 0. 1. 0. 0.
      0. 0. 0. 0. 0. 1. 0. 0. 0. 0. 0. 0. 0. 0. 0. 0. 0. 0. 0. 0. 0. 0.
      0. 0. 0. 0. 0. 0. 0. 0.</_>
    <_>
      5. 11. 0. 8. 8. 3.00000024e+00 3.00000024e+00 2. 10. 5.
      1.20000010e+01 1. 5. 1. 7.00000048e+00 7.00000048e+00 1.
      6.00000048e+00 2. 7.00000048e+00 1. 4. 2. 1. 5. 5. 7.00000048e+00
      2. 7.00000048e+00 3.00000024e+00 7.00000048e+00 2. 6.00000048e+00
      6.00000048e+00 0. 10. 5. 4. 5. 3.00000024e+00 3.00000024e+00 0.
      6.00000048e+00 8. 3.00000024e+00 9. 2. 1. 4. 4. 3.00000024e+00 2.
      3.00000024e+00 2. 8. 4. 6.00000048e+00 4. 2. 3.00000024e+00 4.
      7.00000048e+00 3.00000024e+00 5. 10. 3.00000024e+00 6.00000048e+00
      10. 7.00000048e+00 5. 6.00000048e+00 10. 7.00000048e+00 5. 5. 0.
      1.20000010e+01 6.00000048e+00 1. 6.00000048e+00 5. 1.
      6.00000048e+00 3.00000024e+00 1.20000010e+01 3.00000024e+00 4. 8.
      2. 2. 3.00000024e+00 1. 6.00000048e+00 1.20000010e+01 10.
      7.00000048e+00 1.40000010e+01 6.00000048e+00 0. 7.00000048e+00 11.
      1. 10. 2. 6.00000048e+00 9. 4. 9. 1. 5. 4. 6.00000048e+00
      7.00000048e+00 1. 3.00000024e+00 2. 6.00000048e+00 10. 2. 8. 2. 9.
      3.00000024e+00 1. 4. 4. 6.00000048e+00 6.00000048e+00 2. 0. 8. 2.
      8. 8. 4. 5. 1. 1. 2. 6.00000048e+00 4. 5. 4. 9. 0. 8.
      3.00000024e+00 10. 6.00000048e+00 5. 10. 2. 4. 6.00000048e+00 0.
      3.00000024e+00 8. 8. 6.00000048e+00 5. 3.00000024e+00
      7.00000048e+00 6.00000048e+00 7.00000048e+00 2. 3.00000024e+00 5.
      5. 5. 1. 2. 2. 6.00000048e+00 4. 3.00000024e+00 6.00000048e+00 5.
      9. 6.00000048e+00 6.00000048e+00 9. 5. 7.00000048e+00
      7.00000048e+00 3.00000024e+00 2. 6.00000048e+00 6.00000048e+00
      3.00000024e+00 7.00000048e+00 5. 7.00000048e+00 4. 7.00000048e+00
      3.00000024e+00 11. 8. 5. 5. 0. 6.00000048e+00 4. 3.00000024e+00 0.
      1. 4. 3.00000024e+00 1. 1. 6.00000048e+00 7.00000048e+00 10. 8.
      10. 4. 1. 4. 8. 7.00000048e+00 2. 7.00000048e+00 5. 3.00000024e+00
      4. 0. 10. 4. 6.00000048e+00 8. 2. 1. 10. 6.00000048e+00
      7.00000048e+00 11. 2. 4. 8. 0. 2. 2. 7.00000048e+00 2. 11. 0. 5.
      3.00000024e+00 2. 1.40000010e+01 4. 1. 1. 3.00000024e+00 2. 5. 9.
      7.00000048e+00 6.00000048e+00 6.00000048e+00 0. 1. 2. 4.
      3.00000024e+00 8. 10. 7.00000048e+00 1. 6.00000048e+00 1. 4.
      6.00000048e+00 8. 2. 0. 0. 9. 5. 5. 3.00000024e+00 4. 2.
      3.00000024e+00 9. 3.00000024e+00 6.00000048e+00 6.00000048e+00 5.
      5. 1.30000010e+01 3.00000024e+00 5. 5. 5. 10. 6.00000048e+00 2.
      10. 4. 7.00000048e+00 3.00000024e+00 4. 6.00000048e+00 5. 4. 5.
      3.00000024e+00 2. 2. 1. 1.20000010e+01 3.00000024e+00
      3.00000024e+00 7.00000048e+00 8. 8. 0. 6.00000048e+00
      3.00000024e+00 3.00000024e+00 3.00000024e+00 0. 5. 3.00000024e+00
      3.00000024e+00 2. 4. 5. 17. 9. 2. 3.00000024e+00 1. 5.
      7.00000048e+00 2. 2. 0. 2. 3.00000024e+00 0. 3.00000024e+00 5. 0.
      2. 1.30000010e+01 9. 4. 4. 2. 3.00000024e+00 1. 5. 5. 4. 4. 1. 2.
      4. 6.00000048e+00 9. 8. 5. 17. 1. 5. 8. 6.00000048e+00
      7.00000048e+00 1. 6.00000048e+00 3.00000024e+00 1. 6.00000048e+00
      4. 2. 6.00000048e+00 6.00000048e+00 3.00000024e+00 0. 5. 0.
      6.00000048e+00 7.00000048e+00 4. 5. 9. 4. 3.00000024e+00 2. 2. 2.
      3.00000024e+00 4. 2. 1. 2. 0. 7.00000048e+00 5. 2. 0.
      3.00000024e+00 6.00000048e+00 4. 2. 9. 5. 5. 2. 11. 6.00000048e+00
      2. 10. 3.00000024e+00 8. 16. 3.00000024e+00 3.00000024e+00 8. 1.
      9. 3.00000024e+00 8. 3.00000024e+00 0. 7.00000048e+00 4.
      6.00000048e+00 11. 2. 4. 3.00000024e+00 10. 1. 5. 2. 2. 9.
      1.20000010e+01 2. 7.00000048e+00 3.00000024e+00 2. 5.
      3.00000024e+00 7.00000048e+00 6.00000048e+00 4. 4. 7.00000048e+00
      8. 8. 1. 5. 0. 4. 3.00000024e+00 2. 3.00000024e+00 2. 10. 1.
      3.00000024e+00 2. 9. 2. 3.00000024e+00 3.00000024e+00
      7.00000048e+00 6.00000048e+00 1.30000010e+01 7.00000048e+00 1.
      6.00000048e+00 6.00000048e+00 4. 3.00000024e+00 5. 5.
      6.00000048e+00 7.00000048e+00 2. 5. 7.00000048e+00 2. 0. 5. 5. 8.
      4. 2. 3.00000024e+00 3.00000024e+00 4. 8. 1. 2. 6.00000048e+00 1.
      1.20000010e+01 1. 5. 10. 10. 3.00000024e+00 8. 4. 3.00000024e+00
      6.00000048e+00 0. 1.50000010e+01 1. 6.00000048e+00 4.
      1.30000010e+01 5. 1.20000010e+01 2. 2. 2. 4. 6.00000048e+00
      6.00000048e+00 9. 6.00000048e+00 2. 9. 1. 3.00000024e+00 4. 5. 4.
      0. 2. 5. 7.00000048e+00 5. 10. 3.00000024e+00 1. 4. 1. 1.
      3.00000024e+00 4. 2. 0. 1.30000010e+01 4. 3.00000024e+00 2. 1. 9.
      3.00000024e+00 3.00000024e+00 2. 4. 10. 0. 4. 9. 1. 1.30000010e+01
      4. 4. 4. 10. 3.00000024e+00 4. 3.00000024e+00 1.20000010e+01 4.
      3.00000024e+00 10. 2. 4. 4. 2. 4. 7.00000048e+00 4. 3.00000024e+00
      8. 7.00000048e+00 5. 5. 4. 4. 1. 1. 2. 1.30000010e+01
      3.00000024e+00 5. 1. 0. 5. 0. 3.00000024e+00 2. 0. 0. 5. 1.
      3.00000024e+00 0. 1. 3.00000024e+00 5. 3.00000024e+00 5. 10. 4. 1.
      2. 11. 5. 9. 4. 10. 7.00000048e+00 2. 5. 9. 1. 5. 6.00000048e+00
      2. 5. 1.20000010e+01 11. 7.00000048e+00 5. 6.00000048e+00 2. 5. 5.
      1. 1. 3.00000024e+00 4. 5. 10. 5. 3.00000024e+00 3.00000024e+00
      6.00000048e+00 2. 1. 5. 11. 6.00000048e+00 5. 6.00000048e+00 1.
      3.00000024e+00 9. 4. 4. 2. 7.00000048e+00 4. 5. 5. 5. 2.
      7.00000048e+00 1. 7.00000048e+00 5. 5. 2. 2. 3.00000024e+00 11.
      11. 6.00000048e+00 7.00000048e+00 9. 6.00000048e+00 3.00000024e+00
      5. 4. 10. 1.30000010e+01 3.00000024e+00 0. 3.00000024e+00
      3.00000024e+00 6.00000048e+00 4. 3.00000024e+00 2. 6.00000048e+00
      0. 4. 4. 16. 1. 2. 4. 3.00000024e+00 1.30000010e+01 4.
      3.00000024e+00 9. 1.20000010e+01 6.00000048e+00 9. 3.00000024e+00
      3.00000024e+00 2. 3.00000024e+00 0. 5. 5. 6.00000048e+00
      7.00000048e+00 4. 1. 3.00000024e+00 6.00000048e+00 1. 5. 0. 4. 1.
      5. 6.00000048e+00 9. 5. 9. 5. 5. 5. 8. 1. 8. 3.00000024e+00
      1.20000010e+01 7.00000048e+00 3.00000024e+00 9. 11. 2. 5.
      3.00000024e+00 7.00000048e+00 4. 2. 16. 7.00000048e+00
      3.00000024e+00 4. 3.00000024e+00 0. 2. 10. 7.00000048e+00 8.
      6.00000048e+00 4. 1.40000010e+01 1. 2. 9. 1.20000010e+01 2. 1. 2.
      11. 5. 6.00000048e+00 2. 4. 0. 7.00000048e+00 7.00000048e+00 4.
      6.00000048e+00 3.00000024e+00 6.00000048e+00 3.00000024e+00
      7.00000048e+00 5. 1. 7.00000048e+00 5. 2. 1. 2. 4. 1. 4. 5.
      3.00000024e+00 10. 1. 1.</_>
    <_>
      2. 0. 0. 0. 0. 0. 1. 0. 0. 0. 0. 0. 1. 2. 1. 0. 0. 0. 0. 0. 0. 4.
      1. 1. 0. 0. 0. 1. 3.00000024e+00 0. 0. 0. 1. 0. 2. 1. 0. 2. 2. 0.
      0. 0. 0. 1. 3.00000024e+00 0. 1. 1. 0. 0. 0. 0. 2. 1. 0. 0. 0. 0.
      1. 1. 0. 0. 0. 0. 0. 0. 0. 0. 0. 1. 2. 0. 1. 3.00000024e+00 0. 0.
      2. 0. 0. 1. 3.00000024e+00 0. 0. 0. 0. 1. 0. 2. 1. 0. 0. 0. 0. 2.
      0. 0. 0. 2. 0. 0. 0. 1. 0. 0. 3.00000024e+00 1. 1. 0. 1. 2. 0. 2.
      2. 0. 0. 1. 0. 0. 0. 0. 2. 0. 0. 0. 0. 0. 0. 0. 0. 3.00000024e+00
      3.00000024e+00 0. 0. 6.00000048e+00 1. 0. 0. 1. 0. 1. 0. 1. 1. 0.
      0. 0. 0. 0. 1. 0. 0. 0. 1. 0. 0. 1. 0. 0. 0. 1. 0. 1. 1. 0. 0. 0.
      0. 0. 0. 1. 0. 0. 0. 1. 0. 0. 0. 1. 0. 0. 0. 0. 0. 0. 0. 2. 0. 0.
      0. 3.00000024e+00 0. 0. 0. 0. 0. 0. 0. 0. 0. 0. 0. 0. 0. 0. 0. 0.
      0. 0. 0. 0. 0. 1. 0. 0. 1. 0. 1. 0. 0. 0. 0. 0. 1. 1. 0. 0. 2. 0.
      0. 1. 0. 0. 0. 0. 0. 0. 0. 0. 0. 1. 1. 1. 0. 2. 0. 1. 0. 0. 0. 0.
      0. 2. 0. 0. 1. 0. 1. 2. 0. 1. 1. 1. 0. 1. 0. 0. 2. 0. 0. 2. 0. 2.
      0. 0. 0. 2. 0. 0. 1. 0. 0. 2. 0. 0. 0. 1. 2. 0. 0. 0. 0. 2. 0. 0.
      0. 0. 1. 1. 0. 0. 1. 0. 0. 0. 2. 0. 1. 0. 0. 0. 0. 0. 0. 1. 0. 1.
      0. 0. 0. 0. 1. 0. 1. 1. 1. 3.00000024e+00 1. 0. 0. 0. 2. 0. 1. 0.
      2. 1. 0. 0. 0. 0. 0. 0. 0. 2. 1. 1. 0. 0. 0. 0. 1. 1. 1. 0. 1. 1.
      0. 0. 1. 0. 1. 0. 0. 0. 1. 1. 0. 1. 0. 1. 1. 1. 1. 0. 0. 1. 0. 1.
      0. 1. 2. 0. 0. 1. 1. 0. 0. 1. 1. 0. 3.00000024e+00 0. 0. 2. 0. 0.
      0. 0. 2. 1. 0. 0. 0. 0. 1. 0. 0. 0. 0. 0. 0. 0. 1. 1. 1. 0. 0. 0.
      1. 0. 1. 1. 0. 0. 1. 1. 0. 0. 0. 1. 4. 1. 0. 1. 2. 0. 2. 0. 1. 0.
      0. 0. 1. 4. 0. 0. 1. 1. 2. 0. 0. 0. 2. 2. 1. 1. 1. 0. 0. 0. 1. 1.
      0. 1. 1. 0. 0. 1. 0. 1. 0. 1. 0. 0. 1. 1. 0. 1. 0. 0. 0. 0. 0. 1.
      0. 0. 0. 0. 1. 0. 0. 0. 2. 2. 0. 1. 0. 0. 0. 1. 0. 0. 2. 0. 2. 1.
      0. 0. 0. 0. 0. 0. 0. 0. 0. 1. 0. 1. 0. 0. 1. 1. 0. 1. 1. 0. 0. 0.
      1. 2. 1. 2. 0. 5. 0. 0. 0. 1. 0. 0. 0. 3.00000024e+00 0. 0. 2. 0.
      0. 0. 0. 0. 0. 0. 0. 0. 0. 0. 1. 0. 1. 1. 0. 0. 1. 1. 0. 0. 1. 0.
      0. 0. 1. 0. 1. 0. 0. 0. 0. 5. 0. 0. 1. 1. 2. 0. 0. 0. 0. 2. 0. 0.
      0. 0. 0. 0. 0. 0. 0. 0. 2. 1. 4. 0. 0. 0. 0. 1. 0. 1. 0. 0. 1. 0.
      2. 0. 0. 1. 0. 0. 0. 0. 2. 0. 1. 1. 1. 0. 0. 0. 2. 2. 0. 0. 0. 0.
      0. 0. 2. 0. 0. 1. 0. 0. 1. 0. 0. 0. 1. 0. 3.00000024e+00 0. 1. 0.
      2. 0. 0. 0. 6.00000048e+00 0. 1. 0. 0. 0. 3.00000024e+00 2. 0. 1.
      0. 0. 0. 0. 1. 1. 2. 6.00000048e+00 1. 0. 0. 0. 0. 0. 0. 0. 1. 0.
      0. 0. 0. 0. 0. 1. 1. 0. 2. 0. 2. 0. 1. 0. 0. 1. 0. 0. 0. 1. 1. 0.
      0. 2. 1. 0. 0. 0. 3.00000024e+00 0. 3.00000024e+00 2. 0. 0. 2. 0.
      0. 1. 1. 0. 0. 0. 1. 0. 0. 0. 0. 0. 0. 0. 0. 0. 1. 0. 1. 0. 0. 0.
      0. 1. 0. 4. 0. 2. 0. 0. 0. 0. 1. 0. 0. 0. 1. 0. 0. 0. 0. 1. 1. 1.
      0. 0. 0. 1. 1. 0. 0. 0. 0. 0. 0. 0. 0. 1. 2. 0. 1. 0. 0. 0. 0. 1.
      0. 0. 2. 0. 1. 0. 1. 0. 0. 1. 2. 1. 0. 0.</_>
    <_>
      4.99999952e+00 3. 0. 1. 2. 4. 1. 4. 3. 4. 1. 4.99999952e+00 3. 0.
      6. 4. 1. 7. 7. 2. 4. 2. 2. 6. 4. 8. 9. 2. 15. 1. 1. 1. 1. 4. 0. 2.
      3. 3. 0. 0. 4.99999952e+00 4.99999952e+00 0. 1. 8. 6. 1. 2. 6. 4.
      1. 1. 0. 3. 8. 1. 6. 1. 4.99999952e+00 1. 4. 2. 1. 1. 2. 7. 0.
      4.99999952e+00 9.99999905e+00 1. 1. 1. 3. 1. 0. 0. 4.99999952e+00
      4. 0. 2. 2. 2. 0. 6. 6. 2. 2. 1. 0. 1. 0. 0. 6. 2. 4. 6. 3. 3. 0.
      2. 6. 2. 6. 0. 0. 6. 3. 3. 1. 3. 7. 4. 1. 0. 0. 3. 3. 4.
      4.99999952e+00 11. 0. 4. 2. 6. 2. 1. 0. 8. 2. 4. 6. 1. 4. 8. 7. 1.
      4. 3. 4.99999952e+00 1. 3. 3. 0. 4. 0. 0. 2. 4. 3. 3. 3. 2. 0. 2.
      0. 1. 0. 3. 4.99999952e+00 2. 0. 4. 4.99999952e+00 3. 2. 4. 1.
      4.99999952e+00 3. 0. 3. 4. 2. 6. 0. 6. 1. 0. 2. 3. 6.
      4.99999952e+00 6. 4.99999952e+00 2. 1. 9. 4. 0. 6. 6. 8. 4. 2. 0.
      1. 7. 3. 0. 0. 3. 4. 3. 0. 2. 4.99999952e+00 2. 4. 0. 1. 1. 2. 2.
      2. 3. 1. 4. 0. 3. 4.99999952e+00 2. 2. 4. 6. 0. 2. 7. 2. 6. 2. 0.
      3. 6. 4. 8. 1. 6. 4.99999952e+00 2. 0. 3. 3. 1. 2. 0. 0. 2. 7. 0.
      4.99999952e+00 0. 0. 0. 3. 4.99999952e+00 2. 6. 1. 7.
      4.99999952e+00 0. 4. 0. 1. 0. 6. 0. 1. 4. 0. 4.99999952e+00 3. 4.
      3. 2. 3. 1. 3. 2. 0. 2. 1. 3. 6. 2. 2. 3. 6. 1. 8. 0. 3. 7. 3. 4.
      6. 2. 4.99999952e+00 8. 9. 2. 0. 1. 1. 4.99999952e+00 3. 4.
      4.99999952e+00 1. 1. 2. 2. 9.99999905e+00 9. 7. 3. 0. 4. 0. 0. 2.
      1. 2. 3. 0. 2. 0. 2. 3. 3. 9.99999905e+00 0. 3. 2. 0. 1. 3. 3. 1.
      1. 0. 2. 2. 4. 2. 4. 8. 2. 0. 4.99999952e+00 9.99999905e+00 4. 3.
      1. 4. 4. 1. 1. 8. 4. 3. 6. 0. 2. 7. 1. 4.99999952e+00 4. 1. 1. 6.
      1. 7. 4.99999952e+00 2. 0. 1. 1. 3. 4.99999952e+00 0. 0. 8. 1. 2.
      2. 1. 4.99999952e+00 0. 9.99999905e+00 0. 3. 4.99999952e+00 2. 4.
      3. 1. 2. 1. 3. 1. 0. 6. 4.99999952e+00 2. 4. 2. 3. 4. 4. 2. 0. 3.
      11. 2. 2. 9. 2. 3. 2. 3. 2. 4.99999952e+00 6. 0. 2. 4. 0. 6. 6. 0.
      2. 2. 0. 1. 4.99999952e+00 7. 4. 0. 3. 0. 0. 6. 1. 2. 2. 1. 1. 4.
      4.99999952e+00 3. 4. 4.99999952e+00 0. 1. 0. 1. 3. 2. 7. 3. 6. 1.
      4.99999952e+00 1. 2. 4. 3. 1. 3. 11. 4. 4. 1. 0. 0. 2.
      4.99999952e+00 0. 7. 4. 0. 3. 4. 4. 2. 0. 1. 4.99999952e+00 2. 1.
      2. 1. 0. 1. 3. 4. 4. 2. 0. 1. 4. 3. 0. 2. 2. 7. 2. 3. 2. 1. 1. 0.
      1. 1. 2. 0. 2. 3. 2. 2. 1. 1. 3. 3. 4. 4. 4. 2. 3. 2. 3. 6. 0. 8.
      4. 6. 3. 6. 7. 0. 2. 2. 4.99999952e+00 1. 4. 4.99999952e+00 1. 7.
      4.99999952e+00 0. 4.99999952e+00 1. 7. 4. 0. 4. 4.99999952e+00 8.
      1. 3. 1. 2. 4. 1. 1. 3. 2. 4. 2. 4. 2. 1. 4. 3. 1. 4.99999952e+00
      4. 0. 1. 2. 1. 0. 4. 2. 7. 4. 4.99999952e+00 3. 2. 0.
      4.99999952e+00 1. 3. 2. 2. 0. 4. 2. 3. 0. 0. 4.99999952e+00 2. 4.
      8. 2. 0. 2. 4. 1. 6. 3. 2. 1. 4. 1. 4. 4.99999952e+00 2. 2. 2. 3.
      2. 6. 3. 4. 6. 0. 0. 3. 6. 1.29999990e+01 4.99999952e+00 1. 2. 1.
      1. 1. 0. 4. 2. 3. 1. 7. 1. 4. 2. 0. 2. 4.99999952e+00
      4.99999952e+00 2. 1. 1. 0. 3. 6. 0. 2. 0. 0. 1. 0. 2. 0. 3. 4. 3.
      0. 2. 4.99999952e+00 9. 1. 0. 8. 3. 2. 2. 4. 4.99999952e+00
      9.99999905e+00 1. 0. 4. 3. 3. 6. 1. 1. 0. 2. 1. 2. 3. 2. 4. 6. 9.
      9.99999905e+00 4.99999952e+00 1. 4.99999952e+00 9. 4.99999952e+00
      4. 2. 3. 6. 8. 4.99999952e+00 3. 2. 1. 0. 3. 8. 1. 1. 3. 0. 0. 1.
      1. 2. 2. 2. 3. 9.99999905e+00 2. 2. 4.99999952e+00 0. 1. 1.
      4.99999952e+00 2. 0. 4. 1. 4. 8. 4. 2. 0. 0. 3. 2. 6. 1. 3. 4. 0.
      4. 0. 0. 0. 2. 2. 1. 1. 3. 2. 3. 1. 3. 3. 7. 0. 0. 0. 2. 4. 1. 2.
      4. 0. 0. 4.99999952e+00 3. 2. 1. 7. 0. 2. 3. 0. 3. 2. 1. 1. 1. 3.
      2. 3. 2. 2. 4.99999952e+00 1. 0.</_>
    <_>
      0. 0. 0. 0. 0. 0. 0. 0. 0. 0. 1. 0. 0. 1. 0. 0. 0. 0. 0. 1. 0. 0.
      0. 0. 0. 1. 0. 0. 4. 0. 0. 1. 1. 0. 0. 0. 0. 1. 0. 1. 0. 0. 0. 0.
      0. 0. 0. 2. 0. 1. 0. 0. 0. 0. 0. 0. 0. 0. 0. 0. 0. 0. 0. 0. 0. 0.
      0. 0. 0. 0. 0. 0. 0. 1. 0. 0. 0. 0. 0. 0. 1. 0. 0. 0. 0. 0. 0. 2.
      1. 0. 2. 0. 0. 0. 0. 0. 0. 0. 0. 0. 0. 0. 0. 0. 0. 0. 0. 0. 0. 0.
      0. 1. 0. 0. 0. 0. 0. 0. 0. 0. 0. 0. 0. 0. 0. 0. 0. 0. 0. 0. 2. 0.
      0. 1. 2. 0. 0. 1. 0. 0. 0. 1. 1. 0. 0. 4. 0. 0. 0. 1. 0. 0. 0. 0.
      0. 0. 1. 1. 0. 0. 0. 1. 0. 0. 2. 0. 0. 0. 1. 3. 0. 0. 0. 0. 0. 0.
      0. 0. 0. 0. 0. 0. 0. 0. 0. 0. 1. 0. 0. 4. 0. 0. 0. 0. 0. 0. 0. 0.
      0. 0. 0. 0. 0. 0. 0. 0. 0. 0. 0. 0. 0. 0. 0. 0. 0. 0. 0. 0. 0. 0.
      0. 0. 0. 0. 0. 0. 3. 0. 0. 6. 0. 0. 0. 2. 0. 0. 0. 0. 0. 0. 0. 0.
      0. 0. 0. 0. 0. 0. 0. 0. 0. 0. 1. 0. 0. 0. 0. 0. 0. 0. 0. 1. 0. 1.
      0. 0. 0. 0. 0. 1. 0. 0. 0. 0. 0. 0. 0. 0. 0. 0. 0. 1. 0. 0. 0. 0.
      0. 0. 0. 0. 1. 1. 0. 0. 0. 0. 0. 0. 0. 2. 1. 0. 0. 0. 0. 0. 0. 0.
      0. 0. 0. 1. 0. 0. 0. 0. 3. 0. 0. 0. 0. 0. 1. 0. 0. 0. 0. 0. 0. 0.
      1. 3. 0. 0. 0. 0. 0. 0. 1. 1. 0. 0. 0. 0. 1. 0. 0. 0. 0. 0. 0. 0.
      0. 0. 0. 0. 1. 0. 0. 0. 0. 0. 0. 2. 0. 0. 0. 0. 0. 3. 1. 0. 0. 0.
      1. 0. 0. 0. 0. 1. 0. 0. 0. 1. 0. 0. 0. 2. 0. 0. 0. 0. 0. 1. 0. 0.
      0. 0. 0. 0. 0. 0. 0. 0. 0. 0. 0. 0. 0. 0. 0. 0. 1. 0. 0. 0. 0. 0.
      0. 0. 0. 0. 0. 0. 0. 0. 0. 0. 0. 0. 1. 1. 0. 0. 1. 0. 0. 0. 0. 0.
      0. 0. 0. 2. 0. 0. 1. 0. 0. 0. 1. 0. 0. 0. 0. 0. 0. 0. 0. 0. 0. 0.
      0. 0. 2. 0. 0. 0. 0. 0. 0. 0. 0. 0. 0. 0. 0. 0. 0. 0. 0. 0. 1. 0.
      0. 0. 0. 0. 0. 0. 0. 0. 0. 0. 0. 0. 0. 0. 0. 1. 0. 0. 0. 0. 0. 0.
      0. 0. 2. 0. 0. 0. 0. 0. 1. 0. 0. 0. 0. 0. 0. 0. 0. 0. 0. 0. 0. 0.
      0. 0. 0. 1. 0. 0. 0. 0. 0. 0. 0. 0. 0. 0. 0. 0. 0. 2. 0. 1. 0. 0.
      1. 0. 2. 0. 0. 2. 0. 0. 0. 1. 0. 0. 0. 0. 0. 0. 1. 0. 0. 0. 0. 1.
      0. 0. 0. 0. 0. 0. 2. 0. 0. 0. 0. 0. 1. 0. 0. 0. 0. 0. 0. 0. 0. 0.
      0. 0. 0. 0. 0. 2. 1. 0. 0. 0. 1. 0. 1. 1. 0. 0. 0. 0. 0. 2. 0. 0.
      0. 1. 0. 1. 0. 1. 0. 0. 0. 0. 0. 0. 0. 1. 1. 0. 1. 0. 1. 0. 0. 1.
      0. 1. 0. 0. 1. 0. 0. 1. 0. 0. 1. 0. 0. 0. 0. 0. 0. 0. 0. 0. 0. 0.
      0. 1. 0. 0. 0. 1. 0. 0. 0. 1. 0. 0. 1. 0. 0. 0. 0. 1. 0. 0. 0. 0.
      0. 0. 0. 0. 0. 0. 0. 0. 0. 0. 2. 0. 1. 1. 0. 0. 0. 0. 0. 0. 0. 0.
      1. 0. 0. 0. 0. 0. 0. 0. 2. 0. 1. 2. 0. 0. 0. 0. 0. 0. 0. 1. 0. 2.
      0. 0. 0. 0. 0. 0. 0. 0. 0. 0. 0. 1. 1. 0. 0. 0. 0. 0. 0. 1. 0. 1.
      0. 0. 1. 0. 1. 0. 1. 0. 0. 0. 0. 0. 1. 0. 0. 0. 0. 0. 0. 0. 0. 0.
      0. 0. 0. 0. 0. 0. 0. 0. 1. 0. 0. 0. 0. 1. 0. 0. 0. 0. 2. 0. 0. 0.
      0. 0. 0. 0. 0. 0. 0. 0.</_>
    <_>
      0. 1. 1. 0. 0. 1. 2. 0. 0. 0. 2. 2. 0. 1. 1. 0. 0. 0. 0. 0. 0. 0.
      0. 1. 0. 0. 0. 0. 3.00000024e+00 0. 0. 1. 0. 2. 1. 0. 1. 0. 0. 0.
      0. 0. 0. 1. 0. 0. 0. 0. 0. 0. 0. 1. 0. 0. 0. 0. 0. 2. 0. 1. 1. 0.
      0. 0. 0. 0. 2. 0. 0. 0. 3.00000024e+00 0. 0. 1. 0. 1. 0. 1. 0. 1.
      1. 1. 0. 2. 1. 1. 4. 1. 0. 0. 0. 0. 0. 0. 0. 1. 0. 0. 0. 0. 0. 0.
      0. 0. 0. 1. 1. 0. 0. 0. 0. 1. 0. 2. 2. 0. 0. 2. 0. 0. 1. 0. 0. 0.
      0. 0. 0. 1. 0. 0. 0. 0. 0. 6.00000048e+00 0. 0. 0. 1. 1. 0. 0. 0.
      1. 0. 1. 0. 1. 0. 0. 0. 1. 0. 1. 0. 2. 0. 0. 0. 0. 1. 0. 0. 0. 0.
      0. 0. 0. 0. 0. 0. 0. 0. 0. 1. 1. 0. 0. 0. 0. 0. 0. 2. 0. 0. 0. 0.
      0. 0. 0. 7.00000048e+00 0. 0. 0. 0. 0. 0. 0. 4. 0. 0. 0. 0. 0. 0.
      1. 1. 0. 0. 2. 0. 0. 0. 0. 0. 0. 0. 1. 1. 0. 0. 0. 0.
      3.00000024e+00 0. 2. 1. 3.00000024e+00 0. 0. 1. 0. 0. 0. 0. 0. 0.
      0. 0. 0. 0. 1. 0. 0. 1. 0. 0. 0. 0. 0. 0. 5. 0. 0. 0. 0. 2. 1. 0.
      0. 0. 0. 0. 0. 0. 0. 0. 0. 0. 0. 0. 0. 1. 0. 1. 1. 1. 0. 1. 0. 0.
      0. 0. 0. 0. 0. 1. 0. 0. 0. 0. 0. 0. 0. 0. 2. 0. 0. 2. 0. 0. 2. 0.
      0. 0. 0. 0. 1. 0. 0. 0. 0. 2. 0. 1. 0. 0. 0. 0. 0. 0. 0. 1. 0. 0.
      0. 0. 0. 0. 0. 0. 0. 1. 0. 0. 1. 1. 1. 3.00000024e+00
      3.00000024e+00 0. 1. 3.00000024e+00 1. 1. 0. 2. 0. 0. 0. 1. 0. 1.
      0. 0. 0. 0. 3.00000024e+00 1. 2. 1. 0. 0. 0. 2. 1. 2. 0. 1. 0. 1.
      1. 0. 0. 1. 0. 0. 0. 0. 0. 1. 1. 0. 0. 0. 1. 0. 0. 0. 2. 0. 0. 0.
      1. 2. 0. 0. 0. 0. 0. 0. 1. 0. 0. 0. 0. 0. 0. 1. 0. 0. 0. 0. 1. 0.
      0. 0. 0. 0. 0. 0. 0. 1. 0. 0. 2. 0. 0. 1. 0. 0. 0. 2. 1. 5. 0. 0.
      1. 0. 0. 0. 0. 0. 0. 1. 0. 0. 0. 2. 1. 0. 1. 1. 0. 0. 0. 0. 2. 0.
      0. 0. 0. 0. 0. 0. 0. 0. 0. 1. 0. 0. 0. 0. 0. 0. 0. 0. 1. 0. 2. 0.
      1. 0. 2. 4. 0. 0. 0. 0. 0. 0. 0. 0. 0. 1. 0. 0. 0. 0. 0. 2. 0. 0.
      0. 0. 0. 0. 0. 0. 1. 1. 0. 0. 1. 0. 0. 0. 1. 0. 0. 0. 2. 0. 0. 0.
      0. 1. 1. 1. 0. 1. 1. 0. 0. 0. 0. 2. 0. 1. 2. 0. 0. 0. 1. 1. 0. 0.
      0. 0. 0. 1. 0. 0. 0. 0. 0. 1. 1. 0. 0. 0. 0. 0. 0. 0. 0. 4. 1. 0.
      0. 1. 0. 1. 0. 0. 0. 1. 0. 0. 0. 0. 0. 0. 1. 1. 0. 0. 1. 0. 0. 0.
      0. 1. 5. 0. 0. 0. 0. 0. 0. 0. 1. 1. 0. 0. 0. 0. 1. 1. 1. 0. 0. 0.
      0. 0. 0. 0. 1. 1. 1. 1. 1. 0. 0. 0. 0. 0. 0. 0. 0. 0. 0. 0. 0. 0.
      0. 1. 0. 0. 3.00000024e+00 0. 0. 0. 0. 0. 0. 0. 1. 0. 1. 0. 0. 0.
      0. 0. 0. 0. 0. 0. 0. 1. 0. 0. 0. 1. 1. 0. 0. 0. 0. 0. 0. 0. 1. 0.
      0. 0. 0. 0. 1. 2. 0. 0. 0. 2. 0. 0. 0. 0. 0. 0. 0. 0.
      3.00000024e+00 0. 1. 1. 0. 0. 0. 0. 1. 1. 2. 0. 0. 0. 0. 0. 0. 0.
      1. 0. 0. 1. 0. 1. 0. 0. 2. 0. 0. 0. 1. 0. 0. 0. 0. 0. 0. 0. 1. 0.
      1. 0. 0. 0. 0. 0. 0. 0. 0. 0. 0. 0. 0. 1. 0. 2. 0. 1. 0. 5. 2. 0.
      0. 0. 0. 0. 1. 0. 0. 0. 0. 0. 1. 0. 0. 0. 1. 0. 0. 0. 0.
      3.00000024e+00 1. 2. 0. 0. 1. 0. 4. 0. 0. 0. 0. 1. 0. 0. 1. 0. 0.
      0. 1. 2. 0. 0. 2. 0. 1. 0.</_>
    <_>
      8. 4. 1. 2.20000019e+01 4. 1.40000010e+01 0. 2.20000019e+01 12.
      18. 6. 0. 2.20000019e+01 19. 49. 24. 39. 16. 37. 2. 10. 27. 16.
      12. 2.20000019e+01 60. 36. 1. 0. 3. 2.80000019e+01 2. 6. 16. 1.
      12. 27. 7.00000048e+00 13. 6. 27. 18. 2. 0. 19. 2.50000019e+01 3.
      6. 2.80000019e+01 6. 5. 2.50000019e+01 0. 7.00000048e+00 24. 19.
      3. 1.10000010e+01 19. 0. 4. 1. 5. 18. 2. 30. 4. 8. 48. 8. 1. 4.
      7.00000048e+00 3. 5. 2. 23. 9. 2.80000019e+01 1.40000010e+01 2. 3.
      9. 5. 8. 19. 13. 2. 3. 1. 2. 8. 1.40000010e+01 16. 8. 13.
      7.00000048e+00 12. 1. 9. 2.50000019e+01 23. 24. 5. 6. 8. 36. 19.
      2. 17. 3.10000019e+01 5. 2.80000019e+01 1. 5. 6. 3. 4. 18.
      4.10000038e+01 1. 21. 33. 9. 1. 24. 1.40000010e+01 4.10000038e+01
      30. 9. 0. 15. 13. 0. 5. 1. 18. 5. 2.80000019e+01 30.
      1.10000010e+01 9. 3. 20. 3. 1. 42. 4.40000038e+01 35. 8.
      1.10000010e+01 30. 7.00000048e+00 3. 18. 5. 7.00000048e+00 4. 23.
      16. 1. 7.00000048e+00 15. 19. 3. 18. 12. 29. 4. 0. 9. 21.
      7.00000048e+00 2.20000019e+01 1. 7.00000048e+00 10. 2. 4. 10. 18.
      24. 16. 57. 29. 1.40000010e+01 8. 7.00000048e+00 9. 1. 33.
