<?xml version="1.0"?>
<opencv_storage>
<my_svm type_id="opencv-ml-svm">
  <svm_type>C_SVC</svm_type>
  <kernel><type>RBF</type>
    <gamma>1.0000000000000001e-05</gamma></kernel>
  <C>3.1250000000000000e+02</C>
  <term_criteria><epsilon>1.1920928955078125e-07</epsilon>
    <iterations>1000</iterations></term_criteria>
  <var_all>800</var_all>
  <var_count>800</var_count>
  <class_count>2</class_count>
  <class_labels type_id="opencv-matrix">
    <rows>1</rows>
    <cols>2</cols>
    <dt>i</dt>
    <data>
      0 1</data></class_labels>
  <sv_total>99</sv_total>
  <support_vectors>
    <_>
      2. 4. 1. 4. 2.99999976e+00 2.99999976e+00 1. 2. 1. 5. 4. 2. 2. 8.
      7. 2.99999976e+00 2.99999976e+00 2. 2. 2. 4. 10. 7. 8. 0. 1. 2. 9.
      5.99999952e+00 9. 0. 7. 0. 2. 4. 5.99999952e+00 2. 4. 4. 4. 1. 0.
      4. 1.29999990e+01 5. 1. 7. 2.99999976e+00 0. 8. 1.29999990e+01
      2.99999976e+00 14. 10. 1. 2.99999976e+00 5. 2.99999976e+00
      5.99999952e+00 8. 4. 4. 2.99999976e+00 4. 7. 1. 0. 1. 0. 4. 2. 2.
      5. 7. 2.99999976e+00 2.99999976e+00 8. 4. 5. 2. 2.99999976e+00 5.
      2. 5.99999952e+00 5. 5.99999952e+00 4. 2.99999976e+00 2. 15. 8. 1.
      4. 7. 4. 5. 1. 4. 0. 2.99999976e+00 2.99999976e+00 2.
      2.99999976e+00 1. 2.99999976e+00 4. 4. 4. 8. 7. 2. 5. 5. 7. 18. 2.
      2.99999976e+00 2.99999976e+00 4. 4. 10. 4. 1. 2.99999976e+00 8. 2.
      4. 2. 0. 7. 2. 2. 4. 5.99999952e+00 4. 5. 4. 2.99999976e+00
      2.99999976e+00 4. 2. 5. 9. 1. 1. 2. 1. 5. 5. 4. 2. 0. 5. 4.
      2.99999976e+00 4. 1. 2. 4. 5. 7. 4. 2.99999976e+00 5. 2. 4. 1. 1.
      4. 7. 2. 5. 0. 7. 5. 4. 5. 4. 1. 7. 0. 4. 5.99999952e+00
      2.99999976e+00 2.99999976e+00 7. 2.99999976e+00 5.99999952e+00 2.
      9. 1. 5. 1. 5.99999952e+00 2.99999976e+00 2.99999976e+00
      2.99999976e+00 5. 5. 0. 1. 1. 2.99999976e+00 5.99999952e+00 15. 1.
      4. 4. 4. 1. 5.99999952e+00 2.99999976e+00 4. 2. 15. 2.99999976e+00
      1. 5.99999952e+00 2. 7. 1. 1.29999990e+01 7. 1. 1. 2.99999976e+00
      1. 2.99999976e+00 1. 11. 7. 7. 2.99999976e+00 2. 1. 2.99999976e+00
      2. 5. 5.99999952e+00 5. 4. 5. 2. 2.99999976e+00 0. 1.
      1.29999990e+01 2. 1. 2.99999976e+00 1. 11. 2.99999976e+00 5. 1. 4.
      5. 1. 2. 8. 4. 4. 2.99999976e+00 7. 1. 4. 1. 5. 4. 8.
      2.99999976e+00 2. 2. 1. 5. 2. 2. 7. 2. 5.99999952e+00 4. 8.
      2.99999976e+00 5. 2.99999976e+00 5.99999952e+00 5.99999952e+00
      2.99999976e+00 2. 2. 5. 5.99999952e+00 1. 1. 2.99999976e+00 4. 0.
      2.99999976e+00 2.99999976e+00 5. 4. 7. 9. 2.99999976e+00
      5.99999952e+00 2. 2.99999976e+00 5.99999952e+00 5. 7. 1. 8.
      2.99999976e+00 1. 5. 2.99999976e+00 5. 2. 4. 2. 9. 2.
      5.99999952e+00 7. 9. 7. 5. 2. 2. 2. 5. 8. 2. 5. 2. 4. 1. 1. 7. 7.
      5. 7. 2. 4. 9. 2. 5. 1. 4. 10. 2. 5. 4. 2. 5. 9. 14. 2.
      2.99999976e+00 2. 2.99999976e+00 5. 2. 2. 2.99999976e+00
      2.99999976e+00 11. 2. 2.99999976e+00 9. 5.99999952e+00
      2.99999976e+00 2.99999976e+00 2. 11. 2.99999976e+00 2. 2. 2. 1. 2.
      2.99999976e+00 2.99999976e+00 0. 7. 1. 1. 1. 9. 2. 4. 7. 2. 4.
      5.99999952e+00 2.99999976e+00 4. 2. 2. 1. 4. 0. 4. 5. 4. 2. 5. 4.
      5. 2. 2. 1. 8. 2.99999976e+00 2. 5. 0. 2. 5. 2.99999976e+00
      2.99999976e+00 5. 5. 5. 5. 5.99999952e+00 4. 2. 2.99999976e+00 2.
      2. 1.19999990e+01 4. 0. 7. 2.99999976e+00 2.99999976e+00 1. 4. 1.
      0. 2. 2.99999976e+00 7. 5.99999952e+00 1. 2.99999976e+00 2. 5.
      2.99999976e+00 4. 2.99999976e+00 5.99999952e+00 5. 8. 8. 9. 8.
      2.99999976e+00 2.99999976e+00 1.19999990e+01 1. 21. 1. 10. 1. 0.
      9. 4. 10. 4. 4. 5.99999952e+00 5. 5. 2. 2.99999976e+00
      5.99999952e+00 2.99999976e+00 2. 2. 5. 4. 4. 8. 4. 5. 1.
      2.99999976e+00 2. 7. 2.99999976e+00 2.99999976e+00 2.
      2.99999976e+00 5. 0. 8. 1. 10. 4. 1. 2. 4. 7. 1. 4. 4. 1. 4. 5. 4.
      9. 2.99999976e+00 4. 4. 1. 2. 5.99999952e+00 2.99999976e+00
      5.99999952e+00 1. 5.99999952e+00 4. 2. 4. 2. 4. 1. 2. 4.
      5.99999952e+00 5.99999952e+00 5. 2.99999976e+00 4. 2.99999976e+00
      1. 4. 1. 0. 5.99999952e+00 2.99999976e+00 5.99999952e+00
      2.99999976e+00 2.99999976e+00 2. 7. 5. 2.99999976e+00 1. 2. 1.
      5.99999952e+00 9. 2.99999976e+00 2.99999976e+00 4. 1. 4. 0. 8. 1.
      1. 5.99999952e+00 4. 4. 2.99999976e+00 7. 5. 5.99999952e+00
      2.99999976e+00 10. 5. 1. 8. 2.99999976e+00 4. 2.99999976e+00 8. 7.
      9. 11. 8. 2.99999976e+00 4. 11. 2. 9. 4. 2.99999976e+00
      2.99999976e+00 8. 1. 2.99999976e+00 7. 10. 1. 2. 5.99999952e+00
      1.19999990e+01 10. 0. 2.99999976e+00 1. 2.99999976e+00 10.
      5.99999952e+00 1. 2. 8. 2. 9. 5. 0. 2. 2.99999976e+00 4. 5. 8. 4.
      2. 8. 1. 2. 1. 2.99999976e+00 5.99999952e+00 5.99999952e+00
      5.99999952e+00 4. 4. 2. 2.99999976e+00 2.99999976e+00
      2.99999976e+00 2.99999976e+00 2.99999976e+00 5.99999952e+00 2. 5.
      5. 4. 5.99999952e+00 1. 4. 2.99999976e+00 2.99999976e+00
      5.99999952e+00 2.99999976e+00 2. 2.99999976e+00 5. 2.99999976e+00
      2.99999976e+00 5. 2. 5. 8. 9. 0. 0. 4. 2. 2. 8. 2.99999976e+00 0.
      5.99999952e+00 2. 5.99999952e+00 4. 2. 5.99999952e+00 0. 1.
      2.99999976e+00 5. 4. 2.99999976e+00 2. 2. 5. 5. 2.99999976e+00 0.
      2.99999976e+00 4. 5. 7. 9. 4. 2.99999976e+00 4. 1. 15.
      2.99999976e+00 4. 2. 11. 2. 2.99999976e+00 2.99999976e+00 7. 5. 7.
      2.99999976e+00 5.99999952e+00 1. 0. 1. 5. 4. 2.99999976e+00 18. 5.
      2.99999976e+00 0. 5. 5. 5.99999952e+00 2.99999976e+00 14. 5. 0. 5.
      8. 4. 10. 5. 5. 5. 1. 2. 5. 7. 5. 1.19999990e+01 2. 2.99999976e+00
      0. 0. 0. 1. 2. 4. 5.99999952e+00 7. 4. 1. 5. 8. 2.99999976e+00 2.
      5. 4. 1. 2. 5.99999952e+00 0. 4. 5. 7. 8. 7. 2.99999976e+00
      2.99999976e+00 9. 2. 7. 2. 2.99999976e+00 2.99999976e+00 1. 4. 2.
      2. 5.99999952e+00 2. 0. 2.99999976e+00 2.99999976e+00 2.
      2.99999976e+00 5. 4. 2.99999976e+00 4. 7. 0. 4. 4. 9. 14.
      2.99999976e+00 4. 8. 2. 4. 0.</_>
    <_>
      9.99999940e-01 0. 0. 0. 9.99999940e-01 0. 0. 0. 1.99999988e+00
      1.99999988e+00 0. 0. 0. 9.99999940e-01 9.99999940e-01
      9.99999940e-01 9.99999940e-01 0. 0. 9.99999940e-01 0.
      9.99999940e-01 9.99999940e-01 0. 0. 0. 0. 9.99999940e-01
      2.99999976e+00 0. 0. 0. 0. 0. 9.99999940e-01 9.99999940e-01
      9.99999940e-01 1.99999988e+00 0. 9.99999940e-01 0. 0.
      9.99999940e-01 0. 1.99999988e+00 0. 9.99999940e-01 9.99999940e-01
      0. 1.99999988e+00 9.99999940e-01 0. 2.99999976e+00 2.99999976e+00
      0. 0. 0. 9.99999940e-01 9.99999940e-01 9.99999940e-01 0. 0. 0.
      9.99999940e-01 9.99999940e-01 0. 3.99999976e+00 0. 9.99999940e-01
      1.99999988e+00 9.99999940e-01 1.99999988e+00 9.99999940e-01
      1.99999988e+00 0. 0. 9.99999940e-01 1.99999988e+00 0.
      1.99999988e+00 9.99999940e-01 9.99999940e-01 1.99999988e+00
      9.99999940e-01 2.99999976e+00 0. 0. 0. 9.99999940e-01 0.
      9.99999940e-01 9.99999940e-01 9.99999940e-01 0. 0. 0. 0. 0. 0.
      9.99999940e-01 9.99999940e-01 9.99999940e-01 0. 9.99999940e-01 0.
      9.99999940e-01 9.99999940e-01 9.99999940e-01 0. 1.99999988e+00 0.
      1.99999988e+00 0. 2.99999976e+00 9.99999940e-01 0. 9.99999940e-01
      9.99999940e-01 0. 9.99999940e-01 9.99999940e-01 1.99999988e+00
      9.99999940e-01 0. 9.99999940e-01 0. 2.99999976e+00 9.99999940e-01
      1.99999988e+00 9.99999940e-01 0. 9.99999940e-01 9.99999940e-01
      1.99999988e+00 1.99999988e+00 9.99999940e-01 1.99999988e+00
      2.99999976e+00 9.99999940e-01 0. 1.99999988e+00 0. 9.99999940e-01
      0. 0. 0. 0. 0. 9.99999940e-01 0. 0. 0. 0. 9.99999940e-01 0.
      9.99999940e-01 9.99999940e-01 0. 0. 9.99999940e-01 0. 0.
      1.99999988e+00 0. 0. 9.99999940e-01 0. 0. 1.99999988e+00
      3.99999976e+00 0. 9.99999940e-01 9.99999940e-01 0. 9.99999940e-01
      0. 9.99999940e-01 1.99999988e+00 1.99999988e+00 0. 0. 0.
      9.99999940e-01 0. 1.99999988e+00 9.99999940e-01 9.99999940e-01 0.
      0. 9.99999940e-01 0. 1.99999988e+00 0. 1.99999988e+00 0. 0.
      9.99999940e-01 0. 0. 0. 0. 0. 9.99999940e-01 0. 9.99999940e-01 0.
      0. 9.99999940e-01 1.99999988e+00 0. 0. 0. 0. 0. 0. 1.99999988e+00
      1.99999988e+00 0. 0. 0. 0. 0. 1.99999988e+00 0. 1.99999988e+00 0.
      9.99999940e-01 0. 0. 9.99999940e-01 3.99999976e+00 0. 0.
      2.99999976e+00 0. 9.99999940e-01 0. 0. 0. 9.99999940e-01 0. 0. 0.
      0. 9.99999940e-01 0. 9.99999940e-01 0. 0. 0. 0. 1.99999988e+00
      9.99999940e-01 0. 0. 0. 9.99999940e-01 9.99999940e-01 0. 0.
      1.99999988e+00 9.99999940e-01 9.99999940e-01 9.99999940e-01
      9.99999940e-01 1.99999988e+00 9.99999940e-01 9.99999940e-01 0.
      9.99999940e-01 0. 9.99999940e-01 0. 0. 1.99999988e+00 0.
      1.99999988e+00 2.99999976e+00 9.99999940e-01 0. 0. 9.99999940e-01
      0. 0. 0. 0. 0. 0. 0. 0. 0. 9.99999940e-01 0. 0. 9.99999940e-01 0.
      0. 0. 9.99999940e-01 0. 1.99999988e+00 9.99999940e-01 0. 0. 0. 0.
      2.99999976e+00 0. 9.99999940e-01 1.99999988e+00 0. 0. 0. 0.
      2.99999976e+00 0. 9.99999940e-01 0. 1.99999988e+00 9.99999940e-01
      0. 9.99999940e-01 0. 9.99999940e-01 9.99999940e-01 0. 0. 0. 0. 0.
      0. 0. 0. 0. 9.99999940e-01 0. 9.99999940e-01 0. 1.99999988e+00
      1.99999988e+00 9.99999940e-01 0. 0. 0. 9.99999940e-01
      9.99999940e-01 0. 0. 9.99999940e-01 9.99999940e-01 0.
      9.99999940e-01 9.99999940e-01 0. 0. 1.99999988e+00 0.
      9.99999940e-01 9.99999940e-01 0. 0. 9.99999940e-01 0. 0.
      9.99999940e-01 9.99999940e-01 9.99999940e-01 9.99999940e-01
      9.99999940e-01 2.99999976e+00 0. 0. 0. 0. 9.99999940e-01 0.
      9.99999940e-01 0. 0. 0. 0. 0. 0. 0. 0. 1.99999988e+00 0.
      1.99999988e+00 9.99999940e-01 0. 0. 0. 9.99999940e-01
      9.99999940e-01 0. 9.99999940e-01 1.99999988e+00 9.99999940e-01
      9.99999940e-01 0. 1.99999988e+00 0. 0. 9.99999940e-01
      9.99999940e-01 0. 1.99999988e+00 0. 0. 9.99999940e-01
      1.99999988e+00 0. 0. 1.99999988e+00 0. 9.99999940e-01
      9.99999940e-01 0. 0. 1.99999988e+00 2.99999976e+00 9.99999940e-01
      0. 0. 1.99999988e+00 9.99999940e-01 1.99999988e+00 0. 0.
      9.99999940e-01 1.99999988e+00 9.99999940e-01 9.99999940e-01
      1.99999988e+00 3.99999976e+00 0. 0. 0. 0. 0. 0. 0. 0.
      9.99999940e-01 9.99999940e-01 9.99999940e-01 9.99999940e-01 0. 0.
      0. 1.99999988e+00 0. 1.99999988e+00 9.99999940e-01 1.99999988e+00
      9.99999940e-01 9.99999940e-01 0. 0. 0. 1.99999988e+00 0. 0. 0.
      9.99999940e-01 9.99999940e-01 0. 0. 0. 0. 0. 9.99999940e-01 0. 0.
      0. 9.99999940e-01 0. 2.99999976e+00 1.99999988e+00 0. 0. 0. 0. 0.
      9.99999940e-01 0. 0. 1.99999988e+00 0. 1.99999988e+00 0. 0. 0.
      9.99999940e-01 0. 0. 0. 1.99999988e+00 0. 1.99999988e+00 0.
      9.99999940e-01 9.99999940e-01 0. 9.99999940e-01 0. 0.
      9.99999940e-01 9.99999940e-01 0. 9.99999940e-01 9.99999940e-01
      9.99999940e-01 9.99999940e-01 0. 9.99999940e-01 0. 0.
      2.99999976e+00 9.99999940e-01 0. 9.99999940e-01 0. 0. 0. 0. 0.
      2.99999976e+00 9.99999940e-01 0. 0. 0. 1.99999988e+00 0. 0. 0.
      9.99999940e-01 9.99999940e-01 9.99999940e-01 0. 0. 0. 0. 0.
      9.99999940e-01 0. 0. 9.99999940e-01 0. 9.99999940e-01 0.
      9.99999940e-01 1.99999988e+00 9.99999940e-01 0. 0. 0. 0. 0.
      9.99999940e-01 0. 0. 0. 1.99999988e+00 1.99999988e+00
      2.99999976e+00 0. 0. 9.99999940e-01 9.99999940e-01 0. 0. 0. 0. 0.
      0. 9.99999940e-01 0. 9.99999940e-01 0. 9.99999940e-01
      9.99999940e-01 0. 1.99999988e+00 1.99999988e+00 9.99999940e-01 0.
      9.99999940e-01 0. 0. 0. 0. 9.99999940e-01 9.99999940e-01 0.
      9.99999940e-01 0. 1.99999988e+00 0. 0. 0. 9.99999940e-01 0. 0.
      1.99999988e+00 1.99999988e+00 9.99999940e-01 9.99999940e-01 0.
      9.99999940e-01 9.99999940e-01 9.99999940e-01 0. 0. 0. 0.
      9.99999940e-01 1.99999988e+00 0. 0. 9.99999940e-01 9.99999940e-01
      9.99999940e-01 9.99999940e-01 0. 0. 0. 0. 0. 1.99999988e+00 0.
      9.99999940e-01 9.99999940e-01 9.99999940e-01 0. 9.99999940e-01
      1.99999988e+00 2.99999976e+00 9.99999940e-01 9.99999940e-01 0. 0.
      0. 9.99999940e-01 0. 0. 0. 0. 0. 9.99999940e-01 9.99999940e-01
      9.99999940e-01 0. 0. 9.99999940e-01 9.99999940e-01 0. 0.
      9.99999940e-01 9.99999940e-01 0. 1.99999988e+00 0. 0. 0.
      9.99999940e-01 0. 1.99999988e+00 1.99999988e+00 9.99999940e-01 0.
      9.99999940e-01 0. 1.99999988e+00 0. 0. 0. 0. 9.99999940e-01 0. 0.
      0. 9.99999940e-01 9.99999940e-01 9.99999940e-01 0. 0. 0.
      9.99999940e-01 9.99999940e-01 0. 0. 0. 0. 0. 5. 9.99999940e-01 0.
      9.99999940e-01 0. 9.99999940e-01 9.99999940e-01 0. 0. 0. 0. 0. 0.
      0. 0. 0. 9.99999940e-01 0. 9.99999940e-01 9.99999940e-01 0. 0. 0.
      1.99999988e+00 0. 1.99999988e+00 0. 9.99999940e-01 0. 0.
      2.99999976e+00 0. 9.99999940e-01 2.99999976e+00 9.99999940e-01
      9.99999940e-01 0. 0. 9.99999940e-01 0. 9.99999940e-01 0.
      1.99999988e+00 0. 0. 0. 2.99999976e+00 0. 1.99999988e+00
      9.99999940e-01 0. 0. 0. 0. 0. 0. 0. 0. 0. 1.99999988e+00 0. 0.
      1.99999988e+00 9.99999940e-01 0. 0. 0. 0. 0. 0. 0. 0.
      9.99999940e-01 9.99999940e-01 2.99999976e+00 0. 0. 0. 0. 0. 0. 0.
      9.99999940e-01 0. 0. 9.99999940e-01 0. 1.99999988e+00 0. 0.
      9.99999940e-01 0. 0. 0. 0. 1.99999988e+00 0. 0. 0. 9.99999940e-01
      9.99999940e-01 9.99999940e-01 9.99999940e-01 9.99999940e-01 0.</_>
    <_>
      5.00000048e+00 5.00000048e+00 0. 2. 1. 8. 3. 2. 6. 1. 4. 4. 1. 1.
      4. 2. 1. 3. 2. 3. 4. 5.00000048e+00 1. 3. 6. 2. 1. 17. 0. 7. 1. 3.
      1. 3. 5.00000048e+00 8. 2. 0. 5.00000048e+00 6. 1. 0. 4. 0. 9. 2.
      1. 0. 2. 2. 1. 6. 7. 2. 1. 2. 2. 8. 9. 7. 0. 4. 4. 1. 1. 0. 2.
      5.00000048e+00 0. 2. 7. 2. 5.00000048e+00 1. 3. 4. 11. 1. 0. 6. 1.
      2. 6. 0. 1. 4. 3. 0. 5.00000048e+00 13. 13. 2. 2. 3. 0. 0. 4. 4.
      0. 4. 5.00000048e+00 1. 0. 1. 2. 4. 2. 3. 5.00000048e+00 6. 0. 2.
      0. 1. 1. 2. 6. 2. 6. 2. 1. 1. 0. 2. 5.00000048e+00 0. 3. 2. 1. 3.
      1. 4. 5.00000048e+00 2. 0. 4. 3. 0. 4. 0. 4. 5.00000048e+00 1.
      5.00000048e+00 1. 6. 1. 2. 0. 5.00000048e+00 2. 0. 4. 2. 6. 3. 3.
      5.00000048e+00 0. 1. 5.00000048e+00 1. 3. 2. 0. 1. 6. 0. 2. 8. 0.
      4. 6. 1. 3. 2. 4. 2. 4. 7. 2. 2. 2. 0. 2. 3. 5.00000048e+00
      5.00000048e+00 3. 2. 2. 1. 6. 0. 0. 3. 2. 5.00000048e+00 3. 0. 2.
      4. 2. 1. 8. 3. 1. 2. 5.00000048e+00 3. 5.00000048e+00
      5.00000048e+00 1. 2. 8. 1. 2. 9. 3. 2. 3. 7. 3. 2. 0. 3. 2. 3. 1.
      1. 0. 1. 1. 0. 8. 3. 2. 2. 1. 1. 4. 0. 2. 2. 6. 1. 7. 0. 6. 0. 0.
      4. 0. 0. 2. 6. 2. 2. 2. 0. 3. 2. 0. 2. 1. 2. 2. 2. 1. 12. 1.
      5.00000048e+00 6. 1. 3. 0. 3. 3. 1. 3. 4. 11. 4. 4. 3.
      5.00000048e+00 3. 1. 2. 0. 1. 7. 8. 0. 3. 2. 0. 5.00000048e+00 8.
      0. 3. 0. 4. 5.00000048e+00 2. 2. 4. 1. 4. 1. 3. 9. 1. 2. 1. 1. 7.
      7. 2. 2. 3. 0. 4. 3. 7. 3. 2. 0. 0. 4. 2. 0. 1. 5.00000048e+00 0.
      1. 1. 0. 3. 0. 1. 5.00000048e+00 1. 0. 16. 0. 3. 3. 7. 4. 3. 2. 2.
      2. 1. 2. 3. 2. 2. 1. 4. 0. 1. 0. 0. 8. 5.00000048e+00 4. 3. 9.
      5.00000048e+00 5.00000048e+00 2. 4. 9. 1. 3. 2. 0. 3. 4. 0. 4. 2.
      2. 1. 1. 4. 1.90000019e+01 2. 3. 1. 4. 3. 1. 1. 0. 1. 6. 4. 3. 0.
      3. 3. 3. 3. 3. 2. 7. 1. 7. 4. 7. 1. 0. 6. 1. 1. 5.00000048e+00
      5.00000048e+00 4. 7. 2. 2. 2. 2. 1. 0. 3. 2. 3. 7. 1. 3.
      5.00000048e+00 0. 2. 0. 4. 5.00000048e+00 0. 3. 0. 2. 1. 1. 6. 1.
      5.00000048e+00 1. 4. 2. 2. 0. 0. 1. 3. 2. 2. 4. 2. 1. 16. 1. 3. 2.
      1. 3. 5.00000048e+00 7. 0. 8. 5.00000048e+00 4. 2. 2. 2. 6.
      1.00000010e+01 1. 3. 1. 3. 0. 4. 1. 0. 4. 3. 5.00000048e+00 3. 1.
      2. 4. 7. 3. 0. 2. 1. 17. 5.00000048e+00 2. 2. 2. 6. 0. 0. 0.
      5.00000048e+00 0. 6. 4. 1. 0. 0. 7. 5.00000048e+00 4. 6. 7. 2. 6.
      14. 4. 4. 5.00000048e+00 1. 0. 0. 0. 1. 3. 3. 3.90000038e+01 1. 8.
      6. 1. 5.00000048e+00 3. 0. 2. 3. 4. 1. 1. 2. 3. 5.00000048e+00 2.
      1. 3. 3. 1. 3. 1. 3. 3. 8. 1. 0. 0. 7. 7. 2. 2. 5.00000048e+00 0.
      4. 2. 2. 3. 1. 0. 3. 3. 1. 4. 3. 1. 1. 6. 7. 0. 4. 2. 11. 0. 6. 1.
      0. 4. 6. 2. 1. 7. 1. 4. 3. 0. 4. 0. 0. 5.00000048e+00 3. 3.
      5.00000048e+00 0. 1. 2. 1. 2. 6. 1. 0. 4. 1.00000010e+01 0. 3. 0.
      4. 4. 7. 6. 0. 0. 0. 3. 0. 3. 0. 3. 1. 6. 5.00000048e+00 1. 4. 2.
      2. 8. 1. 2. 2. 4. 4. 0. 5.00000048e+00 0. 7. 0. 2. 0. 2. 0. 3. 3.
      4. 0. 4. 2. 7. 2. 2. 1. 3. 6. 1. 11. 6. 1. 6. 3. 0. 1. 1. 1. 3. 1.
      5.00000048e+00 2. 2. 2. 4. 0. 0. 3. 1. 1. 3. 3. 4. 2. 4. 0. 9. 4.
      2. 3. 4. 1. 1. 2. 0. 2. 1. 1. 6. 1. 3. 9. 2. 2. 3. 5.00000048e+00
      18. 1. 1. 8. 5.00000048e+00 2. 4. 2. 0. 4. 0. 0. 6. 4. 2. 2. 1. 2.
      1. 7. 2. 2. 3. 1.00000010e+01 4. 5.00000048e+00 8. 0. 0. 7. 3. 4.
      1. 0. 4. 2. 0. 17. 3. 2. 1. 5.00000048e+00 2. 1. 0. 7. 3.
      5.00000048e+00 5.00000048e+00 2. 1. 4. 2. 4. 2. 11. 1. 3. 3. 0. 1.
      0. 0. 1. 3. 1. 4. 0. 1. 1. 3. 5.00000048e+00 4. 6. 2. 2. 6. 1. 2.
      0. 3. 5.00000048e+00 1. 8. 3. 1.</_>
    <_>
      0. 1. 0. 0. 0. 0. 1. 0. 0. 1. 4. 1. 0. 1. 3. 0. 0. 2. 0. 0. 1. 0.
      0. 2. 0. 0. 0. 3. 1. 0. 0. 1. 0. 2. 0. 2. 1. 2. 4. 0. 0. 0. 1. 2.
      0. 0. 2. 0. 0. 0. 2. 1. 3. 0. 0. 1. 0. 1. 2. 1. 0. 0. 0. 0. 1. 0.
      0. 0. 0. 3. 2. 1. 0. 0. 0. 0. 0. 0. 0. 0. 0. 2. 0. 1. 1. 0. 1. 1.
      0. 2. 1. 0. 1. 0. 0. 1. 0. 1. 0. 1. 0. 1. 1. 0. 1. 1. 2. 0. 0. 0.
      0. 3. 0. 4. 0. 1. 0. 1. 1. 0. 1. 0. 0. 0. 0. 1. 0. 0. 0. 0. 3. 3.
      0. 0. 0. 1. 0. 0. 0. 0. 0. 0. 0. 2. 0. 2. 0. 0. 0. 1. 0. 0. 0. 3.
      0. 2. 0. 0. 1. 1. 2. 1. 0. 1. 0. 1. 0. 0. 0. 0. 0. 1. 1. 0. 1. 0.
      3. 2. 2. 0. 0. 0. 0. 1. 2. 1. 0. 1. 0. 4. 0. 0. 0. 2. 1. 0. 0. 0.
      0. 0. 1. 1. 0. 0. 4. 1. 0. 0. 1. 0. 1. 0. 0. 0. 3. 1. 0. 0. 0. 2.
      0. 3. 0. 0. 0. 0. 0. 1. 0. 3. 1. 1. 0. 1. 1. 0. 1. 0. 1. 0. 0. 2.
      0. 1. 0. 0. 2. 0. 1. 0. 0. 1. 0. 0. 0. 0. 2. 0. 1. 0. 2. 0. 0. 0.
      0. 1. 1. 0. 0. 0. 0. 1. 1. 1. 0. 0. 1. 1. 0. 2. 0. 0. 0. 0. 0. 0.
      0. 0. 0. 0. 0. 2. 0. 1. 0. 0. 0. 1. 0. 2. 1. 1. 2. 0. 1. 1. 0. 0.
      2. 1. 1. 2. 0. 0. 0. 0. 1. 0. 1. 1. 3. 0. 2. 0. 2. 1. 2. 0. 0. 0.
      0. 4. 0. 0. 1. 0. 1. 0. 0. 1. 1. 1. 0. 0. 2. 0. 0. 0. 0. 4. 0. 0.
      0. 0. 0. 0. 1. 1. 0. 0. 1. 1. 0. 1. 1. 0. 0. 1. 1. 2. 0. 0. 1. 0.
      1. 0. 0. 0. 0. 0. 1. 0. 0. 0. 0. 0. 1. 3. 0. 0. 1. 0. 0. 0. 2. 5.
      0. 0. 0. 1. 1. 0. 0. 0. 0. 0. 0. 0. 0. 1. 0. 1. 0. 0. 3. 0. 0. 0.
      0. 0. 0. 0. 1. 0. 2. 2. 0. 0. 1. 1. 0. 1. 1. 1. 2. 0. 0. 1. 0. 0.
      0. 0. 0. 0. 3. 4. 0. 1. 0. 0. 0. 0. 0. 1. 2. 0. 1. 1. 0. 0. 1. 1.
      3. 0. 6. 0. 0. 0. 1. 0. 0. 0. 2. 0. 1. 2. 0. 0. 0. 1. 0. 1. 0. 0.
      0. 1. 0. 0. 1. 0. 0. 1. 1. 0. 0. 1. 0. 0. 0. 0. 0. 0. 3. 0. 0. 0.
      2. 0. 3. 0. 0. 0. 3. 0. 1. 0. 2. 1. 1. 0. 0. 1. 2. 0. 0. 0. 0. 1.
      0. 0. 1. 1. 1. 3. 0. 2. 0. 1. 0. 0. 0. 1. 1. 0. 2. 0. 0. 2. 0. 0.
      3. 0. 0. 0. 1. 3. 0. 1. 0. 1. 0. 0. 0. 0. 1. 2. 1. 2. 0. 0. 0. 2.
      1. 0. 0. 0. 0. 0. 2. 0. 2. 3. 2. 0. 0. 0. 0. 0. 0. 0. 0. 0. 0. 0.
      0. 1. 1. 0. 0. 0. 0. 2. 0. 1. 2. 0. 3. 0. 0. 0. 0. 1. 0. 1. 0. 2.
      0. 0. 1. 0. 2. 4. 0. 2. 0. 0. 2. 0. 2. 6. 0. 0. 0. 2. 0. 0. 3. 1.
      0. 0. 0. 0. 2. 1. 0. 0. 1. 1. 0. 0. 0. 0. 0. 0. 0. 0. 1. 0. 0. 3.
      4. 0. 0. 0. 0. 0. 0. 2. 1. 0. 0. 3. 2. 3. 0. 0. 1. 0. 1. 0. 0. 0.
      0. 3. 1. 0. 0. 0. 2. 0. 4. 1. 1. 1. 0. 1. 2. 0. 1. 2. 0. 2. 0. 0.
      1. 1. 0. 0. 1. 0. 1. 2. 0. 0. 3. 1. 0. 0. 1. 1. 1. 2. 4. 0. 0. 0.
      3. 0. 1. 2. 0. 1. 1. 2. 1. 0. 0. 2. 0. 0. 0. 0. 0. 0. 0. 3. 0. 3.
      1. 0. 3. 0. 4. 1. 2. 0. 0. 2. 0. 0. 0. 0. 0. 0. 1. 0. 0. 0. 1. 0.
      0. 2. 1. 1. 2. 0. 0. 0. 0. 0. 1. 1. 0. 4. 1. 0. 0. 0. 1. 0. 0. 0.
      2. 0. 0. 0. 0. 1. 0. 0.</_>
    <_>
      0. 0. 0. 0. 1. 0. 2. 0. 0. 0. 0. 0. 1. 0. 1. 0. 0. 1. 0. 0. 0. 0.
      1. 0. 1. 1. 0. 0. 0. 0. 0. 0. 0. 2. 0. 0. 0. 2. 0. 1. 0. 0. 0. 0.
      0. 1. 0. 0. 0. 0. 0. 0. 0. 1. 0. 1. 0. 1. 0. 0. 2. 0. 0. 0. 0. 0.
      0. 1. 0. 0. 1. 0. 2. 0. 2. 1. 1. 1. 0. 0. 1. 0. 0. 0. 0. 0. 1. 0.
      1. 0. 0. 0. 1. 0. 0. 0. 1. 1. 0. 1. 0. 0. 0. 0. 0. 0. 1. 1. 0. 1.
      3. 0. 0. 0. 0. 0. 0. 0. 0. 2. 0. 0. 0. 0. 1. 0. 2. 0. 1. 0. 1. 0.
      1. 2. 1. 0. 0. 0. 0. 0. 1. 0. 0. 0. 0. 0. 0. 0. 0. 0. 0. 0. 1. 1.
      0. 0. 1. 1. 2. 0. 0. 0. 1. 0. 0. 0. 2. 1. 0. 0. 0. 0. 1. 1. 0. 2.
      1. 0. 0. 2. 1. 3. 0. 1. 0. 0. 0. 0. 0. 0. 1. 0. 0. 1. 0. 1. 0. 0.
      0. 0. 2. 0. 0. 1. 0. 1. 1. 0. 0. 1. 1. 0. 0. 3. 0. 0. 0. 0. 2. 0.
      0. 0. 0. 0. 0. 0. 0. 0. 1. 0. 0. 0. 0. 2. 0. 0. 1. 0. 0. 0. 0. 0.
      0. 1. 0. 1. 3. 1. 0. 2. 0. 0. 1. 0. 0. 0. 0. 0. 0. 0. 0. 0. 0. 0.
      0. 1. 2. 0. 0. 0. 0. 0. 1. 0. 0. 0. 3. 0. 0. 0. 0. 0. 0. 1. 0. 0.
      0. 1. 0. 1. 1. 0. 0. 0. 1. 0. 1. 0. 0. 0. 0. 0. 0. 2. 0. 1. 0. 0.
      1. 0. 0. 0. 0. 0. 0. 0. 0. 0. 1. 0. 1. 0. 0. 0. 0. 0. 0. 0. 0. 1.
      0. 0. 0. 2. 1. 0. 0. 0. 1. 0. 0. 0. 0. 2. 0. 1. 1. 2. 0. 0. 0. 0.
      1. 0. 0. 0. 0. 0. 0. 1. 1. 0. 1. 3. 0. 1. 1. 2. 0. 0. 0. 1. 0. 1.
      0. 0. 0. 0. 0. 0. 0. 0. 0. 1. 0. 1. 2. 0. 0. 0. 0. 1. 0. 0. 0. 0.
      0. 2. 1. 0. 1. 0. 0. 0. 1. 1. 0. 0. 0. 0. 0. 0. 0. 0. 0. 0. 0. 0.
      0. 1. 0. 0. 1. 1. 0. 0. 0. 0. 1. 0. 0. 0. 0. 1. 0. 1. 0. 0. 0. 2.
      0. 0. 0. 2. 0. 0. 0. 1. 1. 0. 0. 1. 0. 4.99999952e+00 1. 0. 0. 0.
      0. 0. 0. 1. 0. 0. 0. 0. 0. 0. 0. 1. 0. 0. 0. 0. 0. 3. 0. 0. 0. 3.
      0. 1. 1. 0. 0. 1. 0. 1. 3. 0. 0. 0. 0. 0. 0. 1. 1. 0. 1. 2. 2. 1.
      0. 0. 0. 0. 0. 0. 0. 1. 0. 0. 1. 0. 0. 0. 0. 2. 0. 0. 0. 1. 0. 0.
      0. 1. 0. 0. 0. 0. 0. 1. 1. 0. 2. 0. 0. 0. 1. 1. 0. 0. 0. 1. 1. 1.
      2. 0. 0. 0. 0. 1. 0. 0. 0. 0. 1. 0. 0. 0. 0. 0. 0. 2. 1. 0. 0. 0.
      1. 0. 0. 1. 0. 1. 1. 0. 0. 0. 0. 0. 0. 0. 0. 0. 1. 1. 0. 0. 0. 0.
      0. 0. 0. 0. 0. 0. 0. 0. 0. 0. 0. 1. 0. 1. 0. 1. 0. 0.
      4.99999952e+00 0. 0. 1. 0. 1. 0. 0. 0. 0. 1. 1. 1. 0. 0. 0. 0. 0.
      0. 0. 0. 0. 0. 0. 0. 0. 1. 0. 0. 0. 0. 0. 0. 0. 2. 0. 1. 0. 0. 0.
      0. 0. 1. 0. 0. 0. 0. 0. 0. 0. 0. 1. 0. 1. 0. 0. 0. 0. 0. 0. 0. 0.
      1. 3. 0. 1. 0. 2. 0. 0. 1. 0. 0. 0. 0. 0. 0. 2. 0. 1. 1. 0. 0. 0.
      2. 1. 1. 0. 0. 0. 0. 0. 0. 0. 0. 0. 0. 0. 2. 0. 1. 0. 1. 0. 0. 0.
      0. 0. 0. 0. 2. 0. 0. 1. 0. 0. 0. 0. 0. 0. 0. 1. 0. 0. 0. 0. 1. 0.
      1. 0. 0. 0. 0. 1. 0. 1. 0. 2. 1. 2. 1. 0. 0. 0. 0. 0. 0. 0. 0. 2.
      1. 0. 1. 0. 0. 0. 1. 0. 1. 0. 0. 0. 0. 2. 0. 1. 0. 1. 0. 2. 0. 1.
      1. 2. 0. 0. 0. 1. 0. 0. 0. 0. 0. 0. 0. 0. 0. 0. 0. 0. 0. 0.</_>
    <_>
      0. 0. 0. 1. 0. 0. 0. 0. 0. 0. 0. 0. 0. 0. 0. 0. 0. 1. 0. 0. 0. 0.
      0. 1. 1. 0. 0. 0. 0. 0. 0. 0. 0. 0. 0. 0. 0. 0. 0. 1. 0. 0. 0.
      3.00000024e+00 0. 0. 0. 0. 0. 0. 0. 0. 0. 0. 0. 1. 0. 0. 0. 0. 0.
      1. 1. 0. 0. 1. 0. 2. 0. 0. 0. 1. 1. 0. 0. 0. 0. 0. 0. 0. 0. 0. 0.
      0. 0. 0. 0. 0. 0. 1. 0. 0. 0. 1. 0. 0. 0. 0. 0. 0. 0. 0. 0. 0. 0.
      0. 1. 0. 0. 0. 0. 0. 1. 0. 0. 0. 0. 0. 0. 0. 0. 0. 0. 0. 0. 0. 0.
      0. 0. 0. 1. 0. 0. 6.00000048e+00 0. 0. 0. 0. 1. 0. 0. 0. 0. 0. 0.
      0. 0. 0. 0. 1. 0. 0. 0. 0. 0. 0. 1. 0. 0. 1. 0. 0. 0. 0. 0. 0. 0.
      0. 0. 0. 0. 0. 0. 1. 0. 0. 0. 0. 0. 0. 0. 0. 0. 0. 0. 0. 0. 0. 0.
      0. 0. 0. 0. 0. 0. 0. 0. 0. 0. 0. 1. 0. 0. 0. 0. 0. 0. 0. 0. 0. 2.
      0. 0. 0. 0. 1. 0. 0. 0. 0. 0. 0. 0. 0. 1. 0. 0. 0. 0. 0. 0. 0. 0.
      0. 0. 0. 0. 0. 0. 0. 0. 0. 0. 1. 0. 0. 1. 0. 0. 0. 0. 1. 0. 0. 0.
      0. 0. 0. 0. 0. 0. 0. 0. 0. 0. 0. 0. 0. 0. 0. 0. 0. 0. 1. 0. 0. 0.
      2. 0. 0. 0. 0. 0. 0. 0. 0. 1. 0. 0. 0. 0. 0. 0. 0. 1. 0. 0. 0. 0.
      0. 0. 1. 0. 0. 0. 0. 0. 0. 1. 0. 0. 0. 0. 0. 0. 0. 0. 0. 0. 0. 1.
      0. 0. 0. 0. 0. 0. 0. 0. 0. 0. 0. 0. 0. 1. 0. 0. 0. 0. 0. 0. 0. 0.
      0. 0. 0. 1. 0. 0. 0. 0. 0. 0. 0. 0. 0. 0. 0. 0. 0. 0. 0. 0. 0. 0.
      1. 0. 0. 1. 0. 0. 0. 0. 0. 0. 0. 0. 0. 0. 0. 0. 0. 0. 0. 0. 1. 0.
      1. 0. 0. 0. 0. 0. 0. 0. 0. 0. 0. 0. 0. 1. 0. 0. 0. 0. 0. 0. 0. 1.
      0. 0. 0. 0. 1. 0. 0. 0. 0. 0. 0. 0. 0. 0. 0. 0. 1. 0. 0. 0. 0. 0.
      0. 1. 0. 0. 0. 0. 0. 0. 0. 0. 0. 0. 2. 0. 3.00000024e+00 0. 0. 0.
      0. 0. 0. 0. 1. 0. 0. 0. 0. 0. 2. 0. 0. 0. 0. 0. 0. 0. 0. 0. 0. 0.
      0. 1. 0. 0. 0. 0. 0. 0. 0. 0. 0. 0. 0. 0. 0. 0. 0. 0. 0. 0. 0. 0.
      1. 0. 0. 0. 0. 0. 0. 0. 0. 1. 0. 0. 0. 0. 0. 0. 0. 0. 0. 0. 0. 0.
      0. 0. 0. 0. 0. 0. 0. 0. 0. 0. 0. 0. 0. 0. 0. 0. 0. 0. 0. 1. 0. 0.
      0. 0. 0. 0. 0. 0. 0. 1. 0. 0. 0. 0. 0. 0. 0. 0. 0. 0. 0. 0. 0. 0.
      0. 0. 0. 0. 1. 0. 0. 0. 0. 1. 0. 0. 0. 0. 0. 0. 0. 0. 1. 0. 0. 0.
      0. 0. 0. 0. 0. 0. 0. 0. 0. 0. 0. 0. 0. 0. 0. 1. 0. 0. 0. 0. 0. 0.
      0. 0. 0. 0. 0. 4. 1. 0. 0. 1. 0. 0. 0. 0. 1. 0. 0. 0. 0. 0. 0. 0.
      0. 0. 0. 0. 0. 0. 0. 0. 0. 0. 0. 0. 0. 0. 0. 0. 0. 0. 1. 0. 0. 0.
      3.00000024e+00 0. 0. 0. 0. 0. 1. 0. 0. 0. 0. 0. 0. 0. 1. 0. 1. 0.
      0. 0. 0. 0. 0. 0. 0. 0. 0. 0. 0. 1. 2. 0. 0. 1. 0. 0. 0. 1. 0. 0.
      0. 0. 1. 1. 2. 1. 0. 0. 0. 0. 1. 0. 0. 0. 0. 0. 0. 1. 1. 0. 0. 0.
      0. 0. 0. 0. 0. 0. 0. 1. 1. 1. 0. 0. 1. 0. 0. 0. 0. 0. 0. 0. 0. 0.
      0. 2. 0. 0. 1. 0. 0. 0. 0. 1. 0. 0. 0. 0. 1. 0. 0. 1. 0. 0. 0. 0.
      0. 0. 0. 0. 0. 0. 0. 0. 0. 0. 0. 0. 0. 1. 0. 0. 1. 0. 0. 0. 0. 0.
      0. 0. 0. 0. 1. 2. 0. 0. 0. 1. 0. 0. 0. 0. 0. 1. 0. 0. 0. 0. 0. 0.
      0. 0. 0.</_>
    <_>
      0. 0. 0. 0. 0. 0. 1. 0. 1. 1. 0. 0. 0. 0. 0. 1. 1. 0. 0. 3. 0. 0.
      0. 1. 1. 0. 0. 1. 0. 0. 0. 0. 0. 0. 2. 0. 0. 0. 0. 0. 0. 0. 0. 1.
      0. 1. 1. 0. 0. 2. 0. 0. 0. 0. 0. 0. 0. 1. 1. 0. 1. 1. 0. 0. 0. 0.
      0. 0. 0. 1. 1. 1. 1. 0. 0. 0. 0. 1. 0. 1. 0. 0. 0. 2. 0. 0. 0. 2.
      1. 1. 2. 0. 0. 1. 0. 0. 1. 0. 0. 0. 0. 0. 2. 0. 0. 1. 0. 0. 0. 0.
      0. 1. 0. 0. 0. 0. 0. 0. 1. 0. 0. 0. 0. 0. 1. 0. 1. 0. 0. 0. 2. 0.
      0. 0. 0. 1. 0. 2. 1. 0. 0. 2. 0. 1. 0. 0. 2. 0. 1. 0. 1. 0. 2. 0.
      0. 0. 0. 1. 0. 0. 0. 1. 2. 1. 1. 1. 0. 0. 1. 0. 0. 1. 0. 0. 2. 0.
      0. 0. 2. 1. 0. 0. 0. 0. 0. 0. 0. 0. 0. 2. 1. 1. 1. 0. 0. 0. 1. 0.
      0. 0. 1. 1. 0. 0. 0. 0. 2. 0. 0. 0. 1. 1. 1. 0. 1. 0. 0. 0. 0. 2.
      0. 0. 1. 0. 0. 1. 0. 0. 3. 0. 0. 1. 1. 0. 1. 1. 0. 0. 1. 2. 0. 0.
      1. 0. 0. 0. 1. 0. 0. 0. 0. 0. 0. 0. 1. 1. 1. 1. 1. 0. 0. 1. 1. 2.
      2. 1. 0. 0. 0. 0. 0. 0. 1. 0. 0. 0. 1. 1. 2. 0. 1. 0. 0. 0. 0. 0.
      1. 0. 1. 0. 0. 0. 0. 0. 1. 0. 0. 1. 0. 0. 0. 0. 0. 0. 1. 1. 0. 0.
      0. 0. 0. 1. 0. 0. 0. 0. 1. 1. 0. 0. 1. 0. 1. 0. 1. 1. 0. 0. 0. 3.
      0. 0. 0. 0. 0. 1. 0. 0. 0. 0. 0. 0. 0. 0. 5. 0. 1. 1. 0. 0. 0. 1.
      1. 3. 0. 0. 0. 0. 1. 0. 1. 0. 0. 0. 0. 1. 0. 1. 0. 1. 0. 0. 0. 0.
      0. 1. 1. 2. 1. 0. 2. 0. 0. 0. 0. 0. 0. 0. 0. 0. 0. 1. 0. 1. 0. 0.
      0. 2. 0. 0. 1. 0. 0. 0. 0. 0. 0. 0. 0. 1. 1. 0. 0. 0. 0. 1. 0. 0.
      0. 0. 0. 1. 0. 0. 2. 0. 0. 0. 0. 0. 0. 0. 0. 1. 0. 0. 0. 0. 1. 0.
      0. 0. 0. 0. 0. 0. 0. 0. 2. 0. 0. 0. 0. 0. 3. 0. 1. 0. 0. 0. 1. 0.
      3. 0. 0. 2. 0. 0. 1. 5. 0. 0. 0. 0. 0. 0. 2. 0. 1. 0. 0. 1. 0. 0.
      0. 1. 0. 2. 0. 0. 0. 0. 0. 0. 1. 1. 0. 1. 2. 0. 0. 0. 2. 0. 0. 0.
      0. 0. 2. 0. 0. 1. 0. 1. 0. 2. 1. 0. 0. 0. 0. 0. 0. 0. 0. 2. 0. 0.
      0. 0. 0. 0. 1. 1. 0. 2. 1. 0. 1. 1. 0. 2. 2. 1. 2. 0. 0. 1. 0. 1.
      1. 0. 0. 0. 0. 1. 0. 0. 0. 0. 0. 0. 1. 1. 1. 2. 2. 0. 0. 1. 0. 0.
      1. 0. 0. 0. 0. 1. 1. 2. 0. 3. 1. 0. 0. 0. 0. 1. 0. 0. 0. 0. 0. 0.
      0. 0. 0. 1. 1. 2. 0. 0. 0. 0. 1. 0. 0. 0. 0. 0. 0. 0. 0. 0. 1. 0.
      0. 0. 0. 0. 0. 1. 1. 0. 0. 0. 0. 1. 3. 0. 0. 0. 0. 0. 0. 1. 0. 1.
      2. 0. 0. 0. 0. 0. 1. 0. 2. 0. 0. 1. 0. 0. 0. 0. 2. 1. 0. 0. 0. 0.
      0. 0. 0. 0. 0. 0. 0. 0. 0. 0. 1. 0. 1. 0. 0. 0. 2. 0. 0. 0. 0. 0.
      0. 0. 0. 0. 0. 0. 0. 1. 3. 0. 1. 0. 0. 0. 0. 2. 1. 0. 0. 1. 0. 0.
      0. 0. 1. 0. 0. 1. 0. 1. 2. 0. 0. 2. 0. 1. 0. 0. 1. 0. 0. 0. 1. 0.
      1. 0. 0. 1. 1. 1. 1. 0. 0. 1. 0. 0. 0. 0. 0. 0. 0. 1. 1. 0. 0. 0.
      0. 0. 0. 0. 1. 0. 0. 1. 0. 0. 1. 0. 0. 0. 0. 0. 1. 0. 1. 0. 1. 1.
      0. 0. 0. 0. 0. 1. 0. 0. 0. 0. 1. 0. 1. 0. 1. 3. 1. 0. 0. 0. 0. 0.
      1. 0. 0. 1. 0. 0. 0. 0.</_>
    <_>
      0. 1. 0. 1. 1. 0. 0. 0. 0. 0. 0. 0. 0. 0. 0. 0. 0. 0. 0. 0. 0. 0.
      0. 0. 0. 0. 0. 1. 0. 0. 1. 0. 0. 0. 0. 1. 0. 0. 0. 0. 1. 0. 0. 0.
      0. 0. 0. 0. 0. 1. 0. 0. 0. 0. 0. 1. 0. 0. 0. 0. 0. 1. 0. 0. 0. 1.
      0. 0. 0. 0. 0. 0. 0. 0. 0. 0. 0. 0. 0. 0. 0. 0. 0. 0. 0. 0. 0. 0.
      0. 0. 0. 0. 0. 0. 0. 0. 0. 0. 0. 0. 0. 0. 0. 0. 0. 0. 0. 0. 0. 0.
      0. 0. 0. 0. 0. 0. 0. 1. 0. 0. 0. 0. 0. 0. 0. 0. 0. 0. 1. 0. 0. 0.
      0. 7. 0. 0. 0. 0. 0. 0. 1. 0. 0. 0. 0. 0. 0. 0. 0. 0. 0. 0. 0. 0.
      0. 0. 0. 0. 0. 0. 0. 0. 0. 0. 0. 0. 0. 0. 0. 0. 0. 0. 0. 2. 1. 1.
      0. 1. 0. 0. 0. 0. 0. 0. 0. 0. 0. 0. 1. 0. 0. 0. 1. 0. 0. 0. 0. 0.
      0. 0. 0. 0. 0. 0. 1. 0. 0. 0. 0. 0. 0. 1. 0. 1. 0. 0. 0. 0. 0. 0.
      1. 0. 0. 0. 0. 0. 0. 0. 0. 0. 0. 0. 0. 1. 1. 0. 0. 0. 0. 0. 0. 1.
      0. 0. 0. 0. 0. 1. 0. 0. 0. 0. 0. 0. 0. 0. 0. 0. 0. 0. 0. 0. 0. 0.
      1. 1. 0. 0. 0. 0. 0. 0. 0. 1. 0. 0. 0. 1. 0. 0. 0. 0. 0. 1. 0. 0.
      0. 0. 0. 0. 0. 0. 2. 0. 0. 0. 0. 0. 0. 0. 0. 0. 0. 0. 0. 0. 0. 0.
      0. 0. 0. 0. 0. 1. 0. 0. 0. 0. 0. 0. 0. 0. 0. 1. 0. 0. 1. 0. 0. 0.
      0. 0. 0. 0. 0. 2. 0. 0. 0. 0. 0. 0. 0. 0. 0. 0. 0. 1. 0. 0. 0. 0.
      0. 1. 0. 0. 0. 0. 0. 0. 0. 0. 0. 0. 0. 0. 0. 0. 0. 0. 0. 0. 0. 0.
      0. 0. 0. 0. 0. 0. 0. 0. 0. 0. 0. 0. 0. 0. 0. 0. 0. 0. 0. 0. 0. 0.
      0. 0. 0. 0. 0. 0. 0. 0. 1. 0. 2. 0. 0. 0. 0. 0. 0. 0. 0. 0. 0. 0.
      0. 1. 0. 0. 0. 0. 0. 0. 0. 0. 0. 1. 0. 0. 1. 1. 0. 0. 0. 0. 0. 0.
      0. 0. 0. 1. 0. 1. 0. 0. 0. 0. 0. 0. 1. 2. 0. 0. 0. 0. 0. 0. 0. 0.
      0. 1. 0. 0. 0. 0. 0. 0. 1. 0. 0. 0. 0. 0. 0. 0. 0. 0. 1. 0. 0. 0.
      0. 0. 0. 0. 0. 0. 0. 1. 0. 0. 0. 0. 1. 0. 0. 0. 0. 0. 0. 0. 1. 0.
      0. 0. 0. 1. 0. 0. 0. 0. 0. 0. 1. 1. 0. 0. 0. 0. 0. 1. 0. 0. 0. 0.
      1. 2. 0. 0. 0. 0. 0. 0. 0. 0. 1. 0. 1. 0. 0. 0. 0. 0. 0. 0. 0. 0.
      0. 0. 0. 0. 0. 0. 0. 0. 0. 0. 0. 0. 0. 0. 0. 0. 0. 0. 0. 0. 0. 0.
      0. 0. 0. 0. 0. 0. 0. 0. 0. 0. 0. 0. 0. 0. 0. 0. 0. 0. 0. 0. 0. 0.
      0. 0. 0. 0. 0. 0. 0. 0. 0. 0. 0. 0. 0. 0. 2. 0. 1. 0. 1. 0. 0. 0.
      0. 1. 2. 0. 0. 0. 0. 0. 0. 0. 0. 0. 0. 0. 0. 1. 0. 0. 0. 0. 0. 0.
      0. 0. 0. 0. 0. 1. 0. 0. 0. 1. 0. 0. 1. 0. 1. 0. 0. 0. 0. 1. 0. 1.
      0. 0. 0. 0. 0. 0. 0. 0. 1. 0. 0. 0. 0. 0. 0. 0. 0. 0. 0. 0. 0. 0.
      1. 0. 0. 0. 0. 0. 0. 0. 0. 1. 2. 0. 0. 0. 0. 0. 0. 0. 1. 1. 0. 0.
      0. 0. 0. 0. 0. 0. 0. 0. 0. 1. 0. 0. 0. 0. 0. 0. 0. 0. 0. 0. 0. 1.
      0. 0. 0. 1. 0. 0. 1. 0. 0. 0. 0. 0. 0. 0. 0. 0. 0. 1. 1. 2. 0. 0.
      0. 0. 0. 1. 0. 1. 0. 0. 0. 0. 0. 1. 0. 0. 0. 1. 0. 0. 0. 1. 0. 1.
      0. 0. 0. 0. 0. 1. 0. 0. 0. 0. 0. 0. 0. 0. 0. 0. 0. 0. 0. 0. 0. 0.
      0. 0. 0. 0. 0. 1. 0. 0.</_>
    <_>
      4. 1. 0. 3.00000024e+00 1. 5. 1. 2. 1. 4. 3.00000024e+00 0. 1. 0.
      2. 5. 4. 2. 1. 0. 0. 2. 2. 1. 4. 2. 3.00000024e+00 0. 0. 1.
      3.00000024e+00 0. 3.00000024e+00 4. 2. 6.00000048e+00 1. 0. 2. 0.
      1. 1. 0. 2. 2. 4. 0. 0. 3.00000024e+00 1. 0. 3.00000024e+00 0. 1.
      3.00000024e+00 7.00000048e+00 5. 2. 1. 1. 3.00000024e+00 2. 2. 2.
      0. 1. 0. 6.00000048e+00 2. 1. 1. 3.00000024e+00 2. 0.
      3.00000024e+00 2. 6.00000048e+00 5. 4. 3.00000024e+00 0. 0. 1. 2.
      6.00000048e+00 3.00000024e+00 0. 0. 1. 0. 0. 2. 3.00000024e+00 0.
      3.00000024e+00 2. 4. 0. 0. 1. 4. 6.00000048e+00 7.00000048e+00 2.
      0. 1. 2. 1. 2. 4. 1. 3.00000024e+00 5. 2. 1. 0. 2. 1.
      3.00000024e+00 3.00000024e+00 0. 1. 3.00000024e+00 0. 0. 1. 4.
      3.00000024e+00 0. 2. 1. 2. 3.00000024e+00 0. 1. 0. 0. 0.
      3.00000024e+00 1. 1. 0. 0. 3.00000024e+00 0. 4. 5. 2.
      6.00000048e+00 0. 4. 3.00000024e+00 0. 1. 0. 2. 2. 3.00000024e+00
      3.00000024e+00 1. 1. 6.00000048e+00 2. 4. 3.00000024e+00 1. 4. 4.
      6.00000048e+00 0. 0. 1. 0. 7.00000048e+00 0. 1. 0. 1. 0. 0.
      6.00000048e+00 1. 3.00000024e+00 1. 4. 4. 2. 3.00000024e+00 0. 0.
      2. 1. 3.00000024e+00 5. 2. 3.00000024e+00 4. 2. 1. 0. 1.
      3.00000024e+00 0. 3.00000024e+00 0. 3.00000024e+00 0. 0. 4. 4. 1.
      2. 0. 6.00000048e+00 1. 2. 3.00000024e+00 2. 6.00000048e+00
      3.00000024e+00 5. 1. 2. 8. 0. 3.00000024e+00 2. 0. 1. 0. 0. 2.
      3.00000024e+00 3.00000024e+00 3.00000024e+00 4. 3.00000024e+00 9.
      0. 0. 0. 10. 3.00000024e+00 1. 0. 2. 1. 2. 1. 7.00000048e+00 0.
      3.00000024e+00 2. 1. 3.00000024e+00 3.00000024e+00 1. 0.
      6.00000048e+00 1. 0. 0. 0. 0. 2. 3.00000024e+00 2. 2.
      3.00000024e+00 0. 4. 3.00000024e+00 4. 3.00000024e+00 1. 0. 4. 0.
      0. 0. 0. 0. 0. 7.00000048e+00 2. 1. 1. 3.00000024e+00
      3.00000024e+00 3.00000024e+00 0. 1. 1. 2. 2. 0. 3.00000024e+00 1.
      3.00000024e+00 7.00000048e+00 1. 0. 1. 4. 2. 2. 0. 3.00000024e+00
      3.00000024e+00 1. 2. 1. 1. 3.00000024e+00 4. 5. 0. 2. 0. 0. 1. 2.
      2. 2. 1. 1. 0. 0. 6.00000048e+00 1. 2. 2. 2. 2. 1. 3.00000024e+00
      4. 0. 0. 1. 1. 1. 2. 0. 3.00000024e+00 5. 2. 2. 1. 1. 0. 0. 0. 2.
      2. 1. 1. 1. 3.00000024e+00 4. 2. 4. 3.00000024e+00 1. 0. 1. 0. 5.
      1. 0. 2. 0. 0. 7.00000048e+00 1. 3.00000024e+00 0. 0. 0. 1. 1. 0.
      2. 4. 1. 4. 2. 2. 0. 2. 1. 2. 2. 4. 0. 1. 2. 0. 1. 2. 4. 0.
      3.00000024e+00 3.00000024e+00 3.00000024e+00 1. 0. 4. 2. 0.
      3.00000024e+00 0. 0. 2. 2. 1. 1. 2. 0. 3.00000024e+00 0. 2. 2. 4.
      0. 2. 3.00000024e+00 0. 1. 6.00000048e+00 0. 3.00000024e+00 0.
      3.00000024e+00 0. 3.00000024e+00 2. 2. 5. 2. 0. 7.00000048e+00 5.
      1. 0. 0. 2. 3.00000024e+00 3.00000024e+00 2. 4. 3.00000024e+00
      3.00000024e+00 0. 2. 0. 0. 1. 3.00000024e+00 2. 1. 2. 0. 1. 0. 0.
      1. 0. 9. 0. 2. 1. 5. 2. 0. 2. 4. 1. 0. 5. 4. 2. 1. 1. 5. 1. 0. 1.
      1. 5. 7.00000048e+00 1. 3.00000024e+00 1. 0. 0. 6.00000048e+00 2.
      1. 0. 4. 3.00000024e+00 2. 3.00000024e+00 5. 2. 2. 4. 2. 5. 0. 5.
      2. 1. 1. 5. 1. 3.00000024e+00 1. 3.00000024e+00 0. 1. 0.
      7.00000048e+00 3.00000024e+00 8. 1. 2. 0. 0. 0. 1. 7.00000048e+00
      0. 3.00000024e+00 4. 0. 2. 4. 1. 1. 2. 0. 1. 2. 1. 0. 1.
      3.00000024e+00 3.00000024e+00 1. 2. 0. 3.00000024e+00 0. 1. 4.
      3.00000024e+00 2. 1. 3.00000024e+00 1. 2. 3.00000024e+00 1. 0. 0.
      3.00000024e+00 4. 1. 2. 2. 2. 0. 2. 2. 3.00000024e+00 0. 0. 0.
      6.00000048e+00 0. 2. 1. 5. 4. 1. 0. 1. 0. 1. 3.00000024e+00 0.
      6.00000048e+00 3.00000024e+00 1. 5. 2. 3.00000024e+00 2. 0. 1. 1.
      2. 1. 2. 0. 0. 0. 2. 3.00000024e+00 4. 3.00000024e+00 1. 1. 2. 2.
      2. 1. 1. 3.00000024e+00 1. 0. 3.00000024e+00 2. 0. 7.00000048e+00
      1. 0. 2. 3.00000024e+00 4. 0. 6.00000048e+00 2. 2. 1. 1. 1. 0. 1.
      3.00000024e+00 1. 3.00000024e+00 4. 0. 4. 3.00000024e+00 0. 0. 2.
      3.00000024e+00 3.00000024e+00 0. 4. 0. 2. 1. 0. 2. 0. 1. 2. 0. 2.
      0. 0. 3.00000024e+00 2. 2. 1. 5. 1. 1. 1. 3.00000024e+00 4. 2. 0.
      3.00000024e+00 1. 6.00000048e+00 1. 2. 4. 2. 0. 1. 2. 1. 0. 0. 1.
      7.00000048e+00 2. 0. 0. 3.00000024e+00 2. 0. 5. 3.00000024e+00 0.
      5. 4. 2. 4. 1. 5. 2. 3.00000024e+00 0. 1. 1. 0. 0. 3.00000024e+00
      0. 0. 2. 0. 1. 2. 0. 0. 2. 2. 0. 0. 5. 0. 2. 1. 0. 2. 2. 2. 0.
      3.00000024e+00 0. 0. 2. 0. 2. 0. 0. 2. 1. 4. 3.00000024e+00 1. 1.
      2. 7.00000048e+00 0. 2. 0. 3.00000024e+00 6.00000048e+00
      3.00000024e+00 4. 3.00000024e+00 0. 2. 2. 4. 1. 5. 1. 2. 1. 5.
      3.00000024e+00 0. 0. 3.00000024e+00 0. 2. 3.00000024e+00
      6.00000048e+00 0. 2. 3.00000024e+00 0. 9. 3.00000024e+00 1. 0. 2.
      0. 3.00000024e+00 1. 1. 2. 2. 0. 2. 5. 0. 3.00000024e+00</_>
    <_>
      2. 2. 0. 0. 2. 1. 4. 0. 4. 1. 2.99999976e+00 0. 0. 0. 1. 1. 0. 0.
      0. 1. 0. 0. 2. 0. 2. 1. 0. 1. 0. 2.99999976e+00 2. 0. 0. 1. 1. 1.
      0. 0. 1. 1. 2. 0. 1. 0. 5. 1. 0. 0. 0. 2. 0. 2. 0. 0. 0. 1. 0. 0.
      1. 1. 1. 0. 0. 0. 2. 1. 0. 2. 0. 0. 2.99999976e+00 1. 1.
      2.99999976e+00 1. 0. 2.99999976e+00 2.99999976e+00 0. 2. 1. 1. 2.
      0. 2. 2. 0. 0. 0. 0. 0. 0. 2. 2. 0. 0. 2. 0. 0. 0. 1. 0. 2. 0. 1.
      0. 0. 0. 1. 2. 4. 1. 0. 0. 0. 0. 0. 1. 2.99999976e+00 1. 1. 1.
      2.99999976e+00 0. 0. 0. 0. 0. 0. 1. 0. 0. 5.99999952e+00
      2.99999976e+00 1. 2. 0. 1. 1. 2.99999976e+00 1. 1. 0. 1. 1. 2. 1.
      0. 1. 2.99999976e+00 2.99999976e+00 0. 0. 2. 0. 4. 0. 1. 2. 1. 4.
      2. 0. 2. 2.99999976e+00 1. 2. 1. 4. 0. 0. 2. 0. 0. 0. 0. 1. 1. 0.
      0. 0. 2. 1. 1. 0. 2.99999976e+00 2. 1. 0. 0. 0. 0. 2. 1.
      2.99999976e+00 2. 5. 1. 1. 0. 1. 1. 1. 0. 2. 0. 0. 0. 1. 1. 2. 2.
      2. 2.99999976e+00 2.99999976e+00 1. 0. 2. 2.99999976e+00 0. 0. 0.
      0. 0. 2.99999976e+00 2.99999976e+00 2. 0. 0. 0. 0. 0. 1. 2. 0. 0.
      2. 1. 0. 0. 0. 5. 2.99999976e+00 2. 0. 2. 0. 1. 0. 1. 0. 0. 0. 0.
      1. 2. 0. 1. 1. 0. 0. 1. 0. 0. 0. 0. 1. 1. 2. 0. 0. 2. 4. 0.
      2.99999976e+00 0. 0. 1. 0. 1. 0. 2. 0. 0. 0. 5. 1. 0. 4. 1. 0. 1.
      1. 1. 2. 0. 2. 0. 2. 0. 0. 2. 2.99999976e+00 0. 2. 1. 0. 1. 1. 0.
      1. 1. 1. 2. 2. 2. 0. 0. 1. 0. 2. 0. 4. 1. 0. 0. 0. 1. 2. 4. 1. 0.
      1. 1. 0. 0. 0. 0. 0. 1. 0. 0. 1. 0. 1. 0. 4. 2. 1. 0. 2. 0. 0. 2.
      0. 1. 0. 1. 2. 1. 2. 4. 0. 2. 0. 0. 0. 2. 1. 0. 0. 2. 0. 1. 0. 2.
      0. 0. 0. 0. 4. 0. 1. 1. 1. 2. 4. 1. 2. 0. 2.99999976e+00 2. 0. 2.
      0. 0. 2. 2. 2.99999976e+00 0. 1. 0. 0. 2. 1. 0. 0. 1. 1.
      2.99999976e+00 1. 0. 0. 1. 0. 1. 4. 2. 0. 0. 0. 1. 1. 1. 0. 1. 1.
      0. 1. 2. 1. 0. 1. 4. 0. 0. 0. 0. 1. 1. 0. 0. 2. 1. 0. 1. 4. 1. 2.
      1. 0. 0. 1. 0. 0. 0. 1. 0. 2. 1. 0. 2. 0. 2. 0. 1. 0. 2. 1. 1. 0.
      2. 1. 0. 1. 0. 1. 1. 0. 1. 2. 2.99999976e+00 0. 0. 0. 0. 0. 1. 2.
      2.99999976e+00 0. 0. 2. 5. 0. 0. 2.99999976e+00 2. 0. 0. 0. 1. 1.
      2. 2. 1. 0. 0. 0. 1. 0. 0. 0. 0. 2. 1. 2. 1. 1. 2. 0. 1. 0. 0. 0.
      0. 0. 1. 0. 2. 1. 2.99999976e+00 1. 1. 0. 0. 1. 0. 2.
      2.99999976e+00 0. 1. 1. 0. 1. 1. 1. 0. 0. 2. 1. 1. 1. 0. 0. 0. 1.
      0. 1. 0. 2. 0. 1. 0. 1. 1. 1. 2. 1. 0. 0. 4. 0. 2. 1. 0. 2. 0. 2.
      0. 1. 1. 2. 1. 1. 0. 0. 0. 1. 0. 0. 0. 4. 2.99999976e+00 2. 1. 1.
      0. 0. 1. 1. 2. 2.99999976e+00 4. 1. 1. 0. 0. 1. 1. 0. 2.
      2.99999976e+00 1. 1. 1. 2. 0. 2. 0. 2. 1. 2.99999976e+00
      2.99999976e+00 2.99999976e+00 1. 1. 1. 1. 0. 1. 0. 2. 4. 0. 0. 0.
      0. 4. 0. 4. 2. 2. 0. 2. 0. 2.99999976e+00 0. 0. 0. 1. 1. 0. 1. 2.
      1. 4. 2. 5.99999952e+00 1. 0. 0. 2. 4. 1. 0. 1. 4. 0. 0. 5. 1. 2.
      0. 0. 2.99999976e+00 0. 1. 1. 1. 1. 0. 0. 5. 0. 2. 0. 0. 1. 0. 0.
      1. 0. 2. 1. 0. 0. 0. 0. 0. 0. 0. 1. 1. 1. 1. 2. 2.99999976e+00 4.
      1. 0. 2.99999976e+00 0. 0. 0. 0. 1. 0. 1. 2.99999976e+00 0. 0. 2.
      0. 0. 0. 1. 1. 0. 2. 0. 1. 1. 1. 1. 2. 1. 0. 2. 0. 2.99999976e+00
      5. 1. 2. 1. 0. 1. 2. 0. 0. 1. 0. 2. 2. 0. 1. 0. 0. 0. 1. 1. 1. 0.
      1. 2. 2. 2. 0. 2. 1. 0. 1. 0. 0. 0. 2.99999976e+00 0. 2.
      2.99999976e+00 0. 0. 1. 2. 2. 2. 1. 1. 1. 2. 0. 0. 0. 0. 0. 4. 2.
      0. 0. 0. 0.</_>
    <_>
      2. 0. 11. 1. 4. 2. 0. 0. 0. 3. 1. 2. 2. 9. 2. 3. 1. 1. 1. 0. 5. 8.
      2. 5. 1. 1. 0. 1. 6. 3. 2. 2. 3. 0. 4. 2. 3. 2. 4. 1. 4. 1. 0. 2.
      1. 1. 2. 5. 2. 5. 6. 2. 16. 4. 3. 3. 4. 2. 7. 4. 4. 4. 1. 2. 0. 1.
      2. 3. 1. 1. 2. 1. 8. 0. 3. 1. 1. 1. 0. 1. 1. 1. 2. 1. 0. 4. 3. 1.
      5. 2. 2. 5. 1. 1. 2. 2. 0. 0. 0. 3. 0. 2. 2. 11. 0. 1. 3. 3. 0. 0.
      2. 7. 0. 0. 2. 1. 1. 1. 2. 10. 2. 2. 0. 0. 3. 0. 1. 3. 2. 2. 2. 4.
      1. 5. 1. 1. 4. 3. 2. 0. 1. 3. 2. 3. 1. 0. 6. 0. 1. 2. 2. 1. 1. 0.
      14. 1. 0. 1. 3. 0. 3. 2. 0. 2. 4. 1. 0. 1. 4. 4. 1. 3. 2. 3. 3. 2.
      0. 2. 3. 4. 1. 2. 5. 0. 1. 1. 2. 4. 4. 4. 1. 1. 0. 7. 1. 1. 1. 2.
      1. 0. 2. 2. 2. 1. 1. 1. 0. 1. 2. 6. 1. 2. 2. 3. 2. 3. 1. 2. 2. 6.
      3. 3. 3. 1. 2. 1. 3. 1. 1. 17. 0. 0. 2. 2. 3. 0. 4. 2. 2. 3. 2. 1.
      0. 2. 1. 0. 3. 0. 2. 2. 7. 5. 0. 5. 3. 2. 0. 4. 1. 5. 8. 3. 1. 2.
      4. 3. 1. 1. 3. 11. 5. 3. 1. 1. 6. 0. 1. 1. 0. 3. 1. 5. 1. 3. 3. 2.
      3. 0. 1. 5. 0. 1. 2. 2. 2. 0. 0. 7. 2. 2. 3. 1. 2. 0. 3. 2. 2. 3.
      0. 3. 3. 3. 2. 1. 2. 2. 6. 3. 1. 0. 2. 0. 0. 7. 4. 2. 2. 1. 0. 3.
      3. 1. 2. 3. 3. 1. 2. 2. 5. 3. 3. 2. 0. 3. 4. 1. 5. 4. 2. 2. 3. 1.
      1. 11. 3. 0. 16. 0. 0. 2. 4. 2. 4. 4. 3. 2. 4. 2. 4. 10. 2. 1. 8.
      4. 7. 2. 2. 0. 4. 1. 3. 1. 3. 2. 1. 1. 0. 2. 7. 3. 0. 0. 4. 2. 1.
      5. 6. 7. 1. 2. 0. 0. 4. 1. 2. 4. 1. 1. 0. 1. 0. 2. 12. 1. 3. 1. 0.
      3. 1. 1. 3. 0. 1. 0. 0. 4. 3. 2. 0. 1. 1. 0. 6. 5. 5. 1. 1. 0. 4.
      2. 0. 2. 0. 6. 2. 7. 0. 4. 0. 4. 0. 1. 2. 5. 1. 9. 1. 7. 3. 2. 3.
      5. 1. 1. 9. 0. 7. 1. 2. 2. 6. 2. 1. 4. 2. 0. 4. 2. 2. 1. 3. 0. 5.
      1. 0. 1. 9. 2. 2. 1. 1. 0. 4. 3. 1. 2. 2. 4. 4. 10. 2. 2. 2. 1. 3.
      0. 0. 4. 1. 2. 2. 2. 4. 0. 4. 2. 3. 1. 1. 4. 8. 2. 1. 2. 3. 2. 4.
      0. 4. 2. 0. 2. 1. 2. 2. 4. 1. 0. 2. 1. 0. 0. 2. 7. 4. 1. 2. 2. 0.
      0. 1. 5. 2. 4. 6. 5. 1. 1. 0. 1. 2. 0. 1. 3. 1. 1. 1. 1. 1. 7. 1.
      4. 0. 0. 1. 0. 4. 2. 2. 2. 1. 2. 4. 3. 3. 0. 2. 7. 8. 0. 4. 2. 1.
      3. 3. 2. 7. 0. 2. 0. 0. 3. 1. 1. 2. 3. 2. 4. 3. 1. 2. 2. 0. 4. 3.
      4. 0. 1. 0. 1. 1. 1. 0. 2. 2. 1. 1. 2. 1. 3. 4. 0. 1. 2. 3. 4. 0.
      3. 0. 11. 1. 2. 0. 4. 1. 8. 1. 3. 7. 2. 0. 2. 2. 1. 0. 3. 1. 3. 1.
      1. 1. 1. 2. 2. 2. 5. 3. 0. 5. 2. 3. 1. 2. 1. 2. 6. 1. 5. 3. 1. 3.
      3. 6. 1. 1. 4. 1. 3. 2. 3. 0. 0. 5. 1. 3. 1. 2. 0. 0. 1. 2. 3. 3.
      2. 4. 4. 2. 0. 0. 4. 0. 2. 5. 0. 1. 4. 4. 3. 3. 4. 7. 3. 0. 1. 0.
      2. 1. 3. 6. 0. 0. 3. 1. 3. 1. 0. 0. 4. 1. 3. 1. 5. 3. 2. 3. 4. 2.
      2. 2. 3. 2. 0. 5. 2. 8. 4. 2. 2. 2. 1. 0. 1. 2. 0. 2. 0. 1. 1. 5.
      4. 1. 2. 0. 1. 2. 1. 1. 2. 2. 1. 3. 0. 0. 3. 3. 2. 2. 5. 0. 1. 0.
      0. 2. 12. 1. 4. 1. 2. 3. 0.</_>
    <_>
      1. 1. 1. 2. 2. 1. 4. 1. 1. 1. 0. 2. 2. 4. 2. 4. 0. 1. 0. 3. 2. 2.
      4. 1. 2. 5. 2. 1. 6.99999952e+00 1. 2. 0. 4. 1. 1. 2. 1. 1. 1. 3.
      0. 0. 3. 11. 0. 0. 3. 1. 0. 1. 6. 0. 4. 2. 2. 2. 0. 3. 2. 4. 1. 0.
      0. 0. 2. 3. 5. 1. 2. 3. 1. 0. 1. 3. 0. 3. 2. 4. 0. 3.
      6.99999952e+00 3. 5. 0. 2. 3. 1. 6.99999952e+00 1. 1. 0. 1. 2. 4.
      1. 0. 2. 1. 0. 1. 1. 1. 2. 1. 4. 2. 5. 2. 1. 0. 1. 3. 2. 1. 8. 0.
      4. 3. 3. 0. 1. 4. 1. 1. 1. 0. 0. 1. 0. 0. 3. 1. 2. 8. 0. 4. 1. 2.
      2. 0. 0. 3. 2. 3. 0. 10. 2. 1. 0. 2. 0. 1. 2. 2. 0. 0. 1. 2. 3. 5.
      1. 1. 1. 1. 1. 3. 1. 4. 2. 3. 2. 1. 0. 3. 3. 3. 3. 1. 1. 1. 0. 1.
      0. 0. 2. 1. 1. 2. 0. 4. 2. 0. 3. 6. 2. 0. 2. 0. 1. 0. 6. 1. 3. 0.
      6. 2. 2. 3. 4. 2. 4. 0. 1. 1. 5. 2. 3. 0. 1. 1. 1. 0. 0. 0. 1. 1.
      4. 2. 0. 0. 3. 4. 1. 1. 0. 0. 1. 1. 3. 2. 2. 1. 2. 1. 2. 0. 5. 1.
      1. 2. 5. 6. 0. 2. 1. 1. 1. 2. 0. 0. 2. 1. 3. 4. 1. 5. 0. 1. 1. 6.
      1. 2. 0. 1. 20. 2. 1. 1. 0. 6. 0. 3. 1. 2. 0. 1. 4. 3. 2. 1. 1. 2.
      2. 1. 1. 1. 1. 5. 2. 5. 2. 1. 4. 5. 6. 3. 3. 1. 1. 3. 3. 1. 1. 4.
      4. 0. 3. 1. 2. 0. 1. 2. 1. 6. 2. 2. 4. 2. 0. 2. 2. 3. 1. 2. 3. 1.
      1. 2. 0. 0. 2. 9. 1. 1. 3. 1. 3. 2. 2. 2. 1. 3. 0. 0. 0. 3. 1. 3.
      2. 2. 1. 0. 2. 3. 1. 6. 2. 2. 3. 1. 3. 1. 1. 0. 0. 2. 2. 1. 1. 0.
      0. 0. 1. 0. 1. 1. 1. 6. 5. 0. 0. 0. 3. 2. 0. 2. 3. 1. 2. 2. 4. 0.
      3. 3. 0. 4. 1. 4. 1. 0. 4. 3. 1. 2. 2. 3. 2. 0. 2. 1. 0. 2. 3. 2.
      6. 1. 2. 2. 0. 0. 1. 3. 1. 4. 2. 0. 3. 3. 5. 2. 0. 2. 1. 2. 2.
      6.99999952e+00 2. 1. 3. 1. 1. 3. 2. 2. 0. 2. 1. 1.49999990e+01 2.
      0. 2. 1. 2. 3. 4. 5. 0. 4. 2. 1. 1. 0. 0. 0. 0. 5. 2. 0. 2. 0. 2.
      4. 0. 1. 2. 2. 0. 0. 0. 1. 3. 0. 0. 2. 2. 3. 1. 1. 1. 6. 0. 1. 1.
      2. 1. 1. 1. 2. 8. 1. 0. 0. 0. 6. 0. 1. 4. 0. 1. 0. 3. 3. 0. 2. 2.
      3. 5. 2. 1. 4. 2. 2. 3. 3. 1. 0. 0. 1. 0. 2. 1. 2. 3. 1. 0. 1. 1.
      5. 1. 2. 5. 0. 0. 2. 6. 3. 0. 0. 4. 1. 0. 2. 4. 2. 2. 5. 1. 0. 1.
      2. 3. 2. 1. 2. 2. 1. 0. 0. 2. 2. 3. 1. 3. 1. 1. 1. 1. 2. 3. 1. 1.
      2. 3. 0. 1. 3. 2. 2. 3. 1. 2. 1. 0. 1. 2. 1. 0. 4. 4. 1. 2. 0. 2.
      0. 3. 2. 3. 2. 0. 0. 1. 2. 0. 4. 4. 0. 0. 0. 0. 3. 0. 0.
      6.99999952e+00 1. 1. 0. 2. 2. 3. 2. 0. 4. 2. 2. 3. 2. 0. 1. 1. 0.
      1. 0. 1. 2. 3. 2. 2. 1. 0. 1. 2. 3. 0. 5. 1. 5. 1. 0. 2. 3. 0. 0.
      5. 1. 0. 1. 0. 2. 1. 1. 1. 1. 6. 1. 2. 2. 0. 0. 2. 1. 2.
      6.99999952e+00 9. 1. 0. 6.99999952e+00 1. 3. 1. 0. 1. 2. 1. 2. 3.
      2. 1. 2. 4. 0. 1. 0. 1. 1. 0. 1. 2. 3. 2. 0. 3. 3. 2. 0. 1. 3. 1.
      0. 2. 2. 0. 2. 4. 2. 3. 1. 6. 1. 0. 0. 1. 3. 0. 0. 6. 1. 0. 0. 0.
      3. 0. 4. 2. 0. 4. 1. 0. 2. 3. 0. 0. 3. 2. 6.99999952e+00 0. 2. 2.
      3. 0. 1. 3. 8. 2. 1. 2. 0. 0. 1. 1. 1. 1. 1. 3. 1. 6. 0. 4. 0. 0.
      0. 4. 1. 3. 1. 1. 4. 3. 0. 3. 0.</_>
    <_>
      0. 0. 0. 1. 0. 0. 0. 2. 0. 0. 1. 0. 0. 0. 1. 2. 1. 0. 0. 0. 1. 2.
      1. 0. 0. 0. 0. 0. 0. 0. 1. 1. 2. 1. 0. 0. 0. 0. 1. 0. 2. 1. 1. 0.
      2. 0. 1. 0. 2. 1. 0. 1. 1. 2. 0. 1. 1. 0. 1. 1. 0. 0. 1. 0. 1. 0.
      1. 1. 0. 0. 1. 2. 1. 1. 0. 0. 2. 2. 0. 0. 1. 1. 1. 1. 1. 0. 2. 1.
      1. 0. 1. 1. 0. 0. 0. 2. 0. 1. 0. 1. 1. 0. 0. 0. 1. 0. 0. 1. 0. 0.
      1. 1. 1. 2. 2. 0. 2. 0. 0. 0. 0. 0. 1. 0. 3. 1. 0. 0. 1. 0. 1. 2.
      1. 1. 0. 1. 0. 1. 0. 1. 1. 1. 1. 0. 0. 1. 0. 0. 2. 1. 1. 2. 0. 2.
      5. 0. 0. 2. 0. 1. 0. 1. 1. 1. 0. 1. 1. 2. 0. 5. 0. 2. 0. 1. 0. 0.
      1. 0. 0. 4. 1. 2. 2. 2. 1. 0. 1. 0. 0. 0. 1. 0. 1. 1. 0. 1. 2. 2.
      0. 0. 0. 1. 1. 0. 1. 2. 3. 0. 0. 0. 1. 0. 0. 0. 0. 1. 0. 1. 1. 0.
      0. 0. 4. 0. 0. 1. 0. 1. 0. 3. 0. 0. 0. 2. 0. 1. 0. 0. 0. 0. 2. 2.
      1. 2. 1. 2. 1. 0. 0. 1. 1. 1. 1. 1. 0. 0. 4. 1. 4. 1. 1. 1. 1. 1.
      0. 1. 0. 0. 1. 0. 1. 1. 2. 0. 0. 0. 0. 2. 0. 0. 0. 1. 0. 4. 0. 0.
      2. 1. 0. 0. 0. 2. 2. 0. 0. 3. 0. 1. 0. 1. 1. 0. 0. 2. 0. 0. 0. 2.
      0. 0. 0. 1. 0. 2. 2. 3. 2. 1. 1. 1. 1. 0. 0. 2. 0. 0. 2. 1. 0. 0.
      1. 1. 1. 2. 1. 2. 1. 0. 1. 1. 0. 0. 0. 0. 2. 1. 0. 1. 0. 0. 1. 0.
      0. 2. 5. 0. 0. 1. 1. 0. 1. 2. 0. 2. 0. 0. 2. 1. 0. 1. 3. 2. 0. 0.
      1. 0. 0. 0. 0. 1. 2. 0. 2. 0. 0. 0. 1. 2. 0. 3. 0. 0. 1. 0. 0. 1.
      2. 0. 1. 0. 0. 0. 1. 0. 3. 0. 2. 1. 2. 0. 1. 0. 1. 0. 1. 2. 2. 0.
      0. 1. 0. 2. 1. 0. 2. 0. 0. 0. 1. 1. 0. 3. 1. 0. 0. 2. 1. 1. 1. 1.
      0. 0. 1. 0. 0. 0. 1. 0. 0. 0. 0. 0. 0. 1. 2. 3. 1. 1. 1. 2. 1. 1.
      0. 0. 0. 0. 0. 0. 1. 0. 1. 1. 0. 0. 1. 0. 1. 0. 0. 2. 0. 1. 0. 0.
      1. 0. 0. 1. 1. 0. 1. 0. 0. 1. 1. 1. 1. 0. 0. 0. 0. 1. 0. 0. 2. 0.
      2. 1. 0. 0. 0. 2. 0. 0. 0. 1. 0. 0. 1. 0. 2. 2. 1. 0. 0. 0. 1. 0.
      0. 1. 3. 1. 2. 0. 0. 1. 0. 0. 0. 2. 0. 0. 0. 0. 0. 0. 0. 0. 1. 1.
      2. 0. 0. 1. 0. 0. 0. 1. 1. 0. 0. 0. 1. 1. 1. 0. 2. 1. 1. 1. 1. 1.
      0. 1. 2. 0. 3. 0. 1. 0. 0. 0. 0. 1. 1. 0. 1. 0. 0. 0. 0. 1. 0. 1.
      1. 1. 0. 0. 2. 1. 0. 0. 0. 2. 3. 1. 1. 0. 1. 2. 0. 3. 1. 1. 0. 2.
      1. 2. 0. 0. 0. 1. 2. 0. 2. 0. 2. 0. 1. 0. 1. 0. 0. 0. 0. 3. 0. 1.
      1. 0. 1. 1. 0. 1. 2. 1. 1. 0. 0. 0. 2. 1. 0. 0. 1. 0. 0. 2. 1. 2.
      0. 0. 0. 0. 2. 1. 0. 0. 1. 2. 0. 3. 2. 0. 0. 0. 0. 0. 0. 2. 0. 4.
      1. 1. 0. 1. 1. 0. 0. 0. 0. 2. 2. 0. 0. 1. 0. 0. 2. 1. 0. 0. 0. 1.
      1. 1. 0. 0. 2. 2. 2. 0. 0. 2. 0. 2. 0. 0. 0. 0. 1. 1. 0. 0. 0. 0.
      0. 1. 0. 0. 1. 1. 0. 2. 1. 2. 1. 0. 2. 0. 2. 3. 1. 0. 3. 0. 0. 0.
      1. 0. 0. 1. 0. 1. 0. 0. 0. 0. 0. 1. 0. 1. 0. 1. 1. 0. 3. 2. 1. 0.
      1. 0. 0. 0. 0. 1. 0. 1. 1. 2. 0. 0. 1. 0. 0. 0. 1. 1. 0. 1. 0. 0.
      0. 1. 0. 2. 2. 0. 0. 0.</_>
    <_>
      9.99999940e-01 9.99999940e-01 0. 0. 0. 9.99999940e-01 0. 0.
      9.99999940e-01 0. 0. 0. 0. 0. 9.99999940e-01 0. 0. 0. 0. 0. 0. 0.
      0. 0. 0. 0. 9.99999940e-01 0. 0. 0. 9.99999940e-01 9.99999940e-01
      0. 0. 0. 0. 9.99999940e-01 0. 0. 0. 0. 0. 9.99999940e-01
      9.99999940e-01 1.99999988e+00 9.99999940e-01 0. 0. 0. 0.
      9.99999940e-01 0. 0. 0. 0. 0. 0. 9.99999940e-01 0. 0. 0. 0. 0. 0.
      9.99999940e-01 0. 0. 0. 0. 0. 0. 1.99999988e+00 0. 9.99999940e-01
      0. 0. 9.99999940e-01 0. 0. 0. 0. 0. 0. 9.99999940e-01 0. 0. 0. 0.
      0. 0. 0. 0. 0. 0. 0. 0. 0. 0. 0. 9.99999940e-01 0. 0. 0. 0. 0. 0.
      9.99999940e-01 0. 9.99999940e-01 0. 9.99999940e-01 0. 0. 0. 0. 0.
      0. 0. 0. 0. 0. 9.99999940e-01 9.99999940e-01 0. 0. 0. 0. 0. 0. 0.
      0. 0. 0. 1.29999990e+01 1.99999988e+00 9.99999940e-01 0. 0. 0. 0.
      0. 0. 0. 0. 0. 1.99999988e+00 0. 0. 0. 9.99999940e-01 0. 0. 0.
      9.99999940e-01 0. 0. 0. 0. 1.99999988e+00 0. 1.99999988e+00
      9.99999940e-01 0. 0. 0. 0. 2.99999976e+00 9.99999940e-01 0. 0. 0.
      0. 0. 9.99999940e-01 9.99999940e-01 0. 0. 0. 0. 9.99999940e-01 0.
      9.99999940e-01 0. 1.99999988e+00 0. 0. 0. 0. 0. 0. 1.99999988e+00
      0. 0. 0. 0. 0. 9.99999940e-01 0. 0. 0. 0. 9.99999940e-01 0. 0. 0.
      0. 0. 0. 0. 0. 0. 0. 0. 0. 0. 0. 0. 0. 0. 0. 0. 0. 0.
      9.99999940e-01 0. 0. 0. 9.99999940e-01 0. 0. 0. 9.99999940e-01
      9.99999940e-01 0. 0. 0. 9.99999940e-01 0. 0. 0. 0. 0. 0. 0. 0. 0.
      0. 9.99999940e-01 0. 0. 0. 0. 0. 0. 0. 9.99999940e-01 0. 0.
      1.99999988e+00 0. 0. 0. 0. 0. 9.99999940e-01 0. 0. 0. 0. 0. 0. 0.
      1.99999988e+00 0. 9.99999940e-01 0. 0. 9.99999940e-01 0. 0. 0. 0.
      0. 0. 0. 9.99999940e-01 0. 0. 0. 0. 9.99999940e-01 0.
      9.99999940e-01 0. 0. 0. 0. 0. 0. 0. 0. 0. 0. 0. 0. 0. 0. 0. 0. 0.
      0. 9.99999940e-01 0. 9.99999940e-01 9.99999940e-01 9.99999940e-01
      0. 0. 9.99999940e-01 0. 9.99999940e-01 0. 0. 0. 0. 0. 0.
      9.99999940e-01 0. 9.99999940e-01 0. 0. 9.99999940e-01
      9.99999940e-01 9.99999940e-01 0. 0. 0. 0. 0. 0. 0. 0. 0. 0. 0. 0.
      9.99999940e-01 0. 0. 0. 0. 0. 0. 9.99999940e-01 0. 0.
      9.99999940e-01 0. 9.99999940e-01 0. 9.99999940e-01 0.
      9.99999940e-01 0. 0. 0. 0. 9.99999940e-01 0. 9.99999940e-01 0. 0.
      9.99999940e-01 0. 1.99999988e+00 0. 0. 0. 0. 0. 0. 0.
      9.99999940e-01 0. 0. 0. 0. 0. 0. 0. 0. 9.99999940e-01 0. 0. 0. 0.
      0. 0. 0. 9.99999940e-01 0. 0. 0. 0. 0. 0. 9.99999940e-01
      9.99999940e-01 9.99999940e-01 0. 0. 9.99999940e-01 0. 0. 0. 0. 0.
      0. 0. 0. 0. 0. 0. 0. 9.99999940e-01 9.99999940e-01 0. 0. 0. 0. 0.
      9.99999940e-01 0. 0. 0. 2.99999976e+00 0. 0. 9.99999940e-01 0.
      9.99999940e-01 9.99999940e-01 0. 0. 7.99999952e+00 0.
      9.99999940e-01 0. 9.99999940e-01 0. 9.99999940e-01 0.
      9.99999940e-01 0. 0. 0. 9.99999940e-01 1.99999988e+00 0. 0. 0. 0.
      0. 0. 0. 0. 0. 0. 0. 9.99999940e-01 9.99999940e-01 0. 0. 0. 0. 0.
      0. 0. 0. 0. 0. 0. 9.99999940e-01 9.99999940e-01 0. 0.
      9.99999940e-01 0. 9.99999940e-01 9.99999940e-01 0. 0. 0.
      9.99999940e-01 0. 1.99999988e+00 0. 9.99999940e-01 0.
      9.99999940e-01 9.99999940e-01 0. 0. 0. 0. 0. 0. 0. 9.99999940e-01
      0. 0. 0. 0. 0. 0. 0. 0. 9.99999940e-01 0. 0. 0. 0. 9.99999940e-01
      0. 0. 0. 9.99999940e-01 0. 9.99999940e-01 0. 0. 0. 0.
      9.99999940e-01 0. 0. 0. 0. 0. 0. 0. 0. 1.99999988e+00
      9.99999940e-01 0. 0. 0. 1.99999988e+00 0. 9.99999940e-01 0.
      9.99999940e-01 0. 9.99999940e-01 0. 1.99999988e+00 9.99999940e-01
      0. 0. 0. 0. 0. 0. 9.99999940e-01 0. 0. 0. 0. 0. 0. 0. 0. 0. 0. 0.
      1.99999988e+00 0. 0. 0. 0. 0. 0. 0. 0. 0. 9.99999940e-01 0. 0. 0.
      0. 9.99999940e-01 9.99999940e-01 0. 0. 0. 0. 0. 0. 9.99999940e-01
      0. 0. 0. 0. 0. 0. 0. 0. 9.99999940e-01 0. 0. 0. 0. 0. 0. 0. 0.
      9.99999940e-01 0. 0. 0. 0. 0. 0. 0. 0. 9.99999940e-01
      9.99999940e-01 0. 0. 0. 0. 9.99999940e-01 9.99999940e-01
      9.99999940e-01 0. 0. 0. 0. 0. 1.99999988e+00 0. 0. 0. 0. 0.
      1.99999988e+00 0. 9.99999940e-01 0. 0. 1.99999988e+00 0.
      1.99999988e+00 0. 0. 0. 0. 9.99999940e-01 0. 0. 0. 0. 0. 0. 0. 0.
      0. 0. 0. 0. 0. 0. 0. 0. 9.99999940e-01 9.99999940e-01 0. 0. 0. 0.
      0. 0. 0. 0. 9.99999940e-01 0. 0. 0. 0. 9.99999940e-01
      1.99999988e+00 3.99999976e+00 0. 9.99999940e-01 0. 0. 0. 0. 0.
      9.99999940e-01 0. 0. 0. 0. 0. 0. 9.99999940e-01 0. 0.
      9.99999940e-01 0. 0. 0. 0. 0. 0. 0. 0. 0. 0. 0. 9.99999940e-01 0.
      0. 0. 0. 9.99999940e-01 0. 0. 0. 0. 0. 9.99999940e-01 0. 0. 0. 0.
      0. 0. 0. 0. 0. 0. 0. 2.99999976e+00 0. 0. 0. 0. 0. 0. 0. 0. 0. 0.
      0. 0. 0. 0. 9.99999940e-01 0. 0. 0. 1.99999988e+00 0. 0. 0. 0. 0.
      0. 0. 0. 0. 0. 0. 0. 0. 0. 0. 9.99999940e-01 0. 0. 0. 0.
      9.99999940e-01 0. 0. 0. 0. 0. 0. 0. 0. 9.99999940e-01 0. 0. 0. 0.
      9.99999940e-01</_>
    <_>
      1.99999988e+00 12. 0. 9.99999940e-01 3. 7. 3. 7. 12. 5. 3. 0. 0.
      0. 1.99999988e+00 3.99999976e+00 9.99999940e-01 9.99999940e-01 0.
      3. 6. 3.99999976e+00 3. 0. 3. 7.99999952e+00 7. 0. 0. 0. 9.
      1.99999988e+00 7.99999952e+00 0. 1.99999988e+00 3.99999976e+00 3.
      3.99999976e+00 0. 1.99999988e+00 0. 6. 3. 9.99999940e-01 3. 6.
      9.99999940e-01 1.99999988e+00 5. 3.99999976e+00 1.99999988e+00 0.
      0. 3.99999976e+00 5. 3.99999976e+00 3.99999976e+00 1.99999988e+00
      1.99999988e+00 1.99999988e+00 3. 1.99999988e+00 3. 1.99999988e+00
      5. 1.99999988e+00 0. 6. 6. 5. 6. 6. 1.99999988e+00 1.99999988e+00
      3. 5. 5. 3.99999976e+00 6. 3.99999976e+00 0. 0. 5. 9.99999940e-01
      7. 3. 0. 0. 9.99999940e-01 9.99999940e-01 0. 9. 5. 3. 3. 6.
      3.99999976e+00 3. 0. 3. 5. 3. 6. 3. 9.99999940e-01 5. 3. 5. 0. 6.
      3. 3. 1.99999988e+00 1.99999988e+00 0. 9.99999940e-01
      7.99999952e+00 9.99999940e-01 0. 9.99999940e-01 1.99999988e+00
      9.99999940e-01 3. 1.99999988e+00 9.99999940e-01 3.99999976e+00
      1.99999988e+00 3.99999976e+00 1.99999988e+00 0. 9.99999940e-01
      3.99999976e+00 3.99999976e+00 9.99999940e-01 5. 1.99999988e+00 0.
      0. 7.99999952e+00 0. 5. 9.99999940e-01 9.99999940e-01 3.
      9.99999940e-01 9.99999940e-01 1.99999988e+00 3.99999976e+00
      1.99999988e+00 0. 7.99999952e+00 12. 1.99999988e+00 5. 0.
      1.99999988e+00 10. 9.99999940e-01 3. 1.99999988e+00 9.99999940e-01
      1.99999988e+00 3.99999976e+00 3.99999976e+00 3. 9.99999940e-01 5.
      9.99999940e-01 5. 0. 0. 1.99999988e+00 9.99999940e-01 5.
      9.99999940e-01 3. 0. 5. 0. 5. 7.99999952e+00 5. 6. 3. 6.
      3.99999976e+00 1.99999988e+00 1.99999988e+00 5. 0. 3.
      1.99999988e+00 1.99999988e+00 1.99999988e+00 9.99999940e-01
      3.99999976e+00 3.99999976e+00 3. 6. 9.99999940e-01 9.99999940e-01
      6. 3.99999976e+00 3.99999976e+00 9.99999940e-01 3.99999976e+00 0.
      0. 5. 3.99999976e+00 7. 9.99999940e-01 3.99999976e+00 3.
      9.99999940e-01 3.99999976e+00 3. 3. 5. 3.99999976e+00 9. 7. 0. 5.
      9.99999940e-01 1.29999990e+01 0. 5. 1.99999988e+00 0. 3. 6.
      3.99999976e+00 7.99999952e+00 5. 3.99999976e+00 5. 5. 0. 0. 0.
      7.99999952e+00 3.99999976e+00 7. 9.99999940e-01 1.29999990e+01
      1.99999988e+00 7.99999952e+00 7.99999952e+00 1.99999988e+00 0. 5.
      9.99999940e-01 3. 9.99999940e-01 5. 9.99999940e-01 3.99999976e+00
      5. 0. 0. 9.99999940e-01 0. 9.99999940e-01 3.99999976e+00
      1.99999988e+00 1.99999988e+00 0. 9.99999940e-01 0. 3.99999976e+00
      3. 3. 1.99999988e+00 0. 0. 1.99999988e+00 1.99999988e+00 0. 0.
      9.99999940e-01 0. 3.99999976e+00 1.99999988e+00 3. 3. 6.
      1.99999988e+00 6. 6. 3.99999976e+00 9.99999940e-01 7.
      9.99999940e-01 3. 3.99999976e+00 5. 1.99999988e+00 9.99999940e-01
      3.99999976e+00 3.99999976e+00 1.99999988e+00 9.99999940e-01 0.
      9.99999940e-01 9. 1.99999988e+00 1.99999988e+00 3. 3.99999976e+00
      3. 3. 3. 5. 6. 1.99999988e+00 0. 1.99999988e+00 6. 9.99999940e-01
      9.99999940e-01 9.99999940e-01 3. 5. 9.99999940e-01 9.99999940e-01
      9.99999940e-01 5. 9. 0. 1.99999988e+00 1.99999988e+00
      9.99999940e-01 3. 3. 0. 3. 0. 9.99999940e-01 0. 3. 1.99999988e+00
      9.99999940e-01 1.99999988e+00 9.99999940e-01 1.99999988e+00 6.
      9.99999940e-01 5. 9.99999940e-01 9.99999940e-01 0. 1.99999988e+00
      3. 9.99999940e-01 0. 3.99999976e+00 3. 3.99999976e+00 3.
      1.99999988e+00 6. 3.99999976e+00 5. 1.99999988e+00 1.99999988e+00
      5. 3. 10. 0. 9.99999940e-01 6. 0. 3. 0. 5. 0. 3.99999976e+00
      9.99999940e-01 0. 10. 9.99999940e-01 9.99999940e-01 5.
      3.99999976e+00 6. 14. 9.99999940e-01 9.99999940e-01 5.
      1.99999988e+00 7.99999952e+00 3.99999976e+00 3. 3.99999976e+00
      3.99999976e+00 6. 7. 1.99999988e+00 9.99999940e-01 1.99999988e+00
      0. 0. 1.09999990e+01 6. 9. 5. 5. 5. 1.99999988e+00 9.99999940e-01
      9.99999940e-01 0. 5. 9.99999940e-01 3. 3. 3. 0. 1.99999988e+00 0.
      9.99999940e-01 9.99999940e-01 3.99999976e+00 3. 9.99999940e-01 6.
      0. 3. 6. 0. 0. 5. 9.99999940e-01 9.99999940e-01 1.99999988e+00 5.
      5. 3.99999976e+00 1.99999988e+00 0. 3.99999976e+00 9.99999940e-01
      1.99999988e+00 5. 0. 7. 3.99999976e+00 3.99999976e+00
      3.99999976e+00 7. 7. 3. 9.99999940e-01 1.99999988e+00 0. 0. 0.
      3.99999976e+00 3.99999976e+00 3. 7.99999952e+00 9.99999940e-01 6.
      0. 9.99999940e-01 9.99999940e-01 1.99999988e+00 1.99999988e+00 0.
      1.99999988e+00 5. 7. 9.99999940e-01 0. 9.99999940e-01 5. 3.
      9.99999940e-01 9.99999940e-01 7.99999952e+00 1.99999988e+00 5. 3.
      3.99999976e+00 7.99999952e+00 0. 9.99999940e-01 9.99999940e-01 5.
      7. 3.99999976e+00 5. 3.99999976e+00 9.99999940e-01 3.99999976e+00
      3. 9. 0. 9.99999940e-01 7. 5. 1.99999988e+00 7. 1.99999988e+00 5.
      5. 5. 3.99999976e+00 9.99999940e-01 0. 6. 9.99999940e-01 0.
      9.99999940e-01 6. 7. 7.99999952e+00 9.99999940e-01 1.99999988e+00
      9.99999940e-01 5. 3.99999976e+00 5. 5. 6. 0. 5. 9.99999940e-01 0.
      3. 3.99999976e+00 9.99999940e-01 0. 9.99999940e-01 1.99999988e+00
      5. 7. 0. 5. 0. 1.99999988e+00 3.99999976e+00 1.99999988e+00 3. 3.
      9.99999940e-01 9.99999940e-01 5. 3. 0. 0. 9.99999940e-01 7. 0.
      3.99999976e+00 1.99999988e+00 7. 1.99999988e+00 3.99999976e+00
      3.99999976e+00 9. 3. 0. 7.99999952e+00 0. 3.99999976e+00
      3.99999976e+00 3.99999976e+00 9.99999940e-01 9.99999940e-01 12.
      1.99999988e+00 3. 3.99999976e+00 6. 9.99999940e-01 1.99999988e+00
      3.99999976e+00 0. 3.99999976e+00 3. 3.99999976e+00 6. 7.
      1.99999988e+00 9.99999940e-01 3. 9.99999940e-01 0. 0. 6.
      7.99999952e+00 9.99999940e-01 3. 9.99999940e-01 9.99999940e-01
      9.99999940e-01 3.99999976e+00 5. 9.99999940e-01 1.99999988e+00 7.
      3.99999976e+00 0. 3. 0. 9.99999940e-01 0. 1.99999988e+00
      9.99999940e-01 9. 1.99999988e+00 0. 1.99999988e+00 9.99999940e-01
      7. 5. 3. 0. 1.99999988e+00 1.99999988e+00 9.99999940e-01
      7.99999952e+00 6. 1.99999988e+00 3.99999976e+00 0. 3.99999976e+00
      0. 5. 9. 0. 3. 6. 3.99999976e+00 7.99999952e+00 3.99999976e+00 3.
      0. 5. 5. 6. 3. 6. 0. 6. 3. 0. 0. 5. 3.99999976e+00 0. 5. 7.
      1.99999988e+00 9.99999940e-01 1.99999988e+00 3. 5. 9.
      1.99999988e+00 5. 3. 3. 0. 9.99999940e-01 3. 3. 1.09999990e+01
      7.99999952e+00 9. 0. 9.99999940e-01 3.99999976e+00 5.
      1.99999988e+00 6. 3.99999976e+00 0. 6. 3. 3. 7.99999952e+00
      1.99999988e+00 3. 0. 1.99999988e+00 3.99999976e+00 0. 3. 5. 0.
      9.99999940e-01 3. 0. 3. 1.99999988e+00 7.99999952e+00 0. 3. 5. 0.
      9. 1.99999988e+00 3. 5. 3.99999976e+00 6. 1.99999988e+00 6. 0.
      9.99999940e-01 5. 0. 0. 3. 9.99999940e-01 0. 3. 0. 9.99999940e-01
      3.99999976e+00 0. 0. 1.99999988e+00 9.99999940e-01 0. 0.
      1.09999990e+01 3. 3.99999976e+00 9.99999940e-01 7.99999952e+00
      3.99999976e+00 7.99999952e+00 0. 0. 3. 0. 3.99999976e+00 3. 5. 6.
      1.99999988e+00 9.99999940e-01 1.99999988e+00 9.99999940e-01 3. 6.
      3. 3.99999976e+00 7.99999952e+00 5. 1.99999988e+00 3.99999976e+00
      0. 7.99999952e+00 9.99999940e-01 5. 3.99999976e+00 6.
      1.99999988e+00 7. 1.99999988e+00 9.99999940e-01 7.99999952e+00 3.
      7. 1.99999988e+00 1.99999988e+00 7. 3. 1.99999988e+00 3. 3. 0.
      3.99999976e+00 3.99999976e+00 3. 0. 0. 5. 3. 3.99999976e+00 3. 3.
      5. 3. 0. 3.99999976e+00 1.99999988e+00 1.99999988e+00 0. 3. 0. 0.
      9.99999940e-01 0. 9.</_>
    <_>
      0. 0. 2. 0. 0. 0. 1. 0. 3. 1. 0. 0. 0. 2. 0. 1. 0. 0. 0. 0. 0. 3.
      0. 0. 1. 1. 0. 0. 2. 0. 0. 0. 1. 0. 1. 0. 1. 0. 0. 1. 0. 0. 0. 2.
      3. 0. 5. 2. 0. 1. 3. 1. 2. 2. 1. 0. 1. 0. 0. 1. 1. 0. 2. 0. 2. 0.
      2. 1. 0. 0. 3. 3. 1. 2. 0. 0. 0. 0. 0. 0. 2. 0. 0. 1. 2. 0. 0. 2.
      0. 0. 0. 0. 1. 5. 2. 0. 1. 3. 0. 0. 0. 2. 0. 0. 0. 0. 0. 0. 2. 0.
      0. 2. 0. 4. 3. 0. 3. 1. 0. 1. 2. 0. 0. 0. 3. 2. 1. 0. 0. 0. 5. 0.
      0. 1. 1. 3. 1. 0. 0. 0. 0. 0. 1. 0. 0. 0. 1. 0. 0. 1. 1. 0. 0. 1.
      1. 0. 3. 1. 0. 0. 2. 1. 1. 0. 2. 1. 3. 2. 1. 0. 1. 1. 0. 0. 2. 1.
      0. 1. 1. 1. 1. 1. 1. 1. 0. 0. 0. 0. 1. 2. 1. 0. 0. 0. 3. 0. 1. 0.
      0. 0. 1. 0. 0. 0. 0. 1. 1. 1. 0. 0. 5. 3. 0. 0. 0. 0. 1. 1. 0. 0.
      0. 2. 2. 0. 0. 1. 4. 1. 0. 0. 0. 4. 1. 1. 0. 2. 0. 0. 0. 0. 1. 1.
      0. 1. 0. 0. 1. 0. 0. 1. 2. 0. 3. 3. 0. 2. 1. 0. 0. 0. 6. 0. 2. 1.
      1. 1. 0. 0. 0. 7. 1. 2. 0. 0. 0. 0. 0. 0. 0. 1. 0. 2. 0. 0. 0. 1.
      0. 2. 0. 2. 0. 1. 0. 2. 0. 1. 0. 2. 0. 1. 2. 0. 2. 1. 3. 0. 0. 0.
      3. 0. 0. 0. 1. 2. 3. 1. 6. 4. 2. 0. 1. 0. 1. 0. 2. 2. 3. 0. 0. 3.
      1. 2. 0. 2. 0. 0. 0. 0. 0. 2. 3. 0. 0. 0. 0. 0. 0. 0. 0. 0. 1. 5.
      3. 1. 0. 0. 0. 2. 1. 1. 1. 2. 1. 1. 0. 1. 0. 0. 1. 6. 5. 0. 0. 1.
      0. 2. 2. 0. 0. 1. 1. 1. 0. 2. 0. 1. 0. 1. 5. 0. 2. 0. 0. 0. 2. 0.
      0. 0. 0. 1. 0. 0. 0. 0. 0. 0. 1. 1. 0. 1. 0. 2. 2. 0. 0. 0. 2. 1.
      1. 1. 4. 1. 0. 0. 2. 1. 0. 0. 0. 1. 1. 2. 0. 0. 2. 1. 0. 0. 0. 0.
      0. 0. 1. 2. 0. 0. 1. 3. 1. 0. 1. 1. 1. 0. 2. 0. 2. 0. 0. 0. 1. 0.
      0. 0. 2. 2. 0. 3. 1. 1. 0. 0. 1. 0. 5. 1. 0. 0. 2. 1. 0. 2. 0. 0.
      0. 0. 1. 1. 1. 1. 0. 0. 1. 6. 1. 0. 0. 1. 0. 2. 0. 0. 2. 3. 1. 0.
      0. 2. 0. 0. 1. 0. 0. 1. 1. 0. 1. 2. 2. 2. 0. 0. 2. 0. 1. 0. 0. 1.
      0. 0. 0. 2. 0. 0. 1. 1. 0. 1. 0. 0. 0. 0. 3. 1. 0. 1. 0. 0. 0. 1.
      1. 0. 1. 0. 1. 2. 0. 0. 0. 1. 0. 1. 3. 0. 0. 1. 0. 2. 0. 0. 2. 0.
      3. 0. 0. 0. 0. 0. 2. 5. 1. 3. 0. 0. 2. 1. 0. 2. 1. 1. 0. 0. 0. 0.
      0. 1. 0. 1. 0. 2. 1. 2. 0. 0. 4. 2. 0. 1. 3. 0. 1. 0. 2. 4. 1. 0.
      0. 1. 1. 1. 1. 1. 1. 2. 0. 0. 0. 2. 1. 0. 1. 0. 1. 0. 1. 0. 0. 2.
      1. 4. 0. 2. 1. 1. 1. 2. 1. 1. 2. 0. 0. 1. 0. 0. 2. 0. 0. 1. 3. 2.
      3. 0. 0. 0. 2. 5. 0. 0. 0. 0. 1. 0. 2. 3. 0. 0. 1. 0. 1. 0. 1. 0.
      1. 0. 1. 0. 6. 0. 0. 5. 2. 2. 1. 1. 4. 1. 0. 0. 1. 2. 0. 0. 0. 1.
      1. 0. 0. 0. 1. 0. 0. 1. 1. 0. 0. 6. 0. 0. 0. 1. 0. 1. 3. 2. 0. 4.
      1. 0. 1. 0. 0. 0. 1. 1. 1. 0. 3. 0. 2. 2. 2. 0. 0. 1. 2. 1. 1. 0.
      1. 0. 0. 5. 1. 0. 2. 0. 0. 1. 1. 1. 1. 0. 0. 2. 0. 0. 0. 0. 2. 0.
      1. 1. 0. 0. 1. 0. 0. 1. 1. 0. 0. 0. 0. 2. 1. 0. 1. 1. 1. 0. 2. 0.
      1. 1. 0. 0. 3. 0. 5. 0.</_>
    <_>
      1. 1. 0. 0. 1. 1. 2. 1. 1. 2. 2. 0. 0. 6.00000048e+00
      3.00000024e+00 0. 2. 0. 0. 0. 3.00000024e+00 4. 2. 1. 0. 0. 0. 1.
      7.00000048e+00 0. 1. 3.00000024e+00 2. 0. 3.00000024e+00 2. 1. 4.
      1. 5. 0. 0. 2. 1. 0. 1. 0. 0. 0. 2. 4. 0. 0. 2. 0. 2.
      3.00000024e+00 1. 0. 3.00000024e+00 0. 1. 4. 2. 0. 0.
      3.00000024e+00 0. 1. 3.00000024e+00 6.00000048e+00 0. 1.
      3.00000024e+00 1. 2. 1. 0. 2. 0. 2. 2. 1. 1. 0. 1. 2. 4. 2. 2. 1.
      2. 1. 1. 2. 2. 1. 2. 0. 2. 2. 1. 1. 0. 1. 3.00000024e+00 0. 2. 1.
      2. 1. 1. 2. 3.00000024e+00 3.00000024e+00 0. 1. 1. 0. 1. 1. 0. 0.
      1. 1. 1. 1. 1. 3.00000024e+00 0. 2. 0. 0. 5. 2. 4. 0. 2. 2. 0. 0.
      0. 1. 0. 0. 2. 2. 2. 0. 1. 1. 0. 0. 3.00000024e+00 1. 2. 4. 2. 0.
      4. 0. 2. 1. 0. 0. 0. 3.00000024e+00 1. 2. 0. 2. 0. 0. 0.
      3.00000024e+00 1. 1. 0. 1. 0. 0. 0. 1. 1. 2. 0. 0. 2. 2.
      1.20000010e+01 1. 2. 3.00000024e+00 1. 5. 1. 0. 2. 0. 0. 1. 0. 2.
      0. 1. 0. 3.00000024e+00 1. 3.00000024e+00 0. 0. 0. 0. 0. 2. 4. 1.
      0. 1. 2. 1. 6.00000048e+00 0. 1. 2. 1. 3.00000024e+00 0. 1.
      7.00000048e+00 2. 1. 1. 10. 3.00000024e+00 1. 0. 0. 0.
      3.00000024e+00 0. 1. 1. 2. 0. 1. 3.00000024e+00 1. 0. 1. 2. 2. 0.
      1. 1. 1. 2. 3.00000024e+00 3.00000024e+00 2. 1. 1. 0. 1. 2. 1. 4.
      1. 1. 7.00000048e+00 1. 4. 0. 1. 1. 0. 1. 2. 1. 1. 0. 1. 2. 1. 1.
      1. 0. 2. 3.00000024e+00 1. 1. 3.00000024e+00 0. 2. 1. 1. 0. 0. 0.
      0. 3.00000024e+00 1. 0. 1. 0. 0. 0. 2. 3.00000024e+00 0. 0. 4. 0.
      0. 0. 2. 4. 0. 0. 2. 3.00000024e+00 0. 2. 2. 1. 1. 4. 1. 1. 1. 1.
      5. 1. 4. 1. 4. 4. 0. 1. 2. 0. 0. 0. 0. 1. 0. 0. 1. 1. 0. 1.
      3.00000024e+00 3.00000024e+00 0. 0. 4. 3.00000024e+00 1. 0. 1. 1.
      2. 3.00000024e+00 0. 7.00000048e+00 2. 0. 2. 1. 3.00000024e+00 0.
      0. 3.00000024e+00 2. 1. 1. 0. 3.00000024e+00 2. 0. 1. 1. 1. 1. 1.
      1. 2. 3.00000024e+00 1. 1. 2. 1. 1. 1. 2. 1. 2. 0. 2. 0. 2. 0. 0.
      2. 3.00000024e+00 1. 3.00000024e+00 1. 3.00000024e+00 0. 0. 1. 0.
      1. 3.00000024e+00 6.00000048e+00 2. 0. 1. 1. 1. 0. 2. 0.
      3.00000024e+00 4. 1. 1. 1. 1. 5. 4. 1. 0. 1. 1. 0. 0. 1. 0. 0. 2.
      0. 2. 0. 7.00000048e+00 1. 1. 1. 0. 1. 1. 2. 0. 4. 0. 2. 1. 0. 5.
      3.00000024e+00 0. 2. 1. 3.00000024e+00 4. 1. 2. 2. 1. 0. 1. 0.
      6.00000048e+00 3.00000024e+00 1. 1. 1. 5. 0. 1. 4. 0. 2. 1. 1. 0.
      1. 0. 0. 2. 3.00000024e+00 2. 2. 0. 1. 0. 0. 0. 5. 7.00000048e+00
      0. 3.00000024e+00 0. 0. 1. 2. 1. 4. 2. 0. 0. 3.00000024e+00
      3.00000024e+00 0. 1. 1. 2. 2. 1. 2. 2. 3.00000024e+00 0. 1. 2. 0.
      1. 0. 3.00000024e+00 3.00000024e+00 1. 0. 0. 1. 0. 2. 0. 0. 0. 0.
      0. 5. 2. 2. 1. 0. 0. 0. 1. 1. 0. 0. 0. 1. 2. 4. 1. 0. 4. 0. 1. 4.
      0. 1. 4. 6.00000048e+00 0. 7.00000048e+00 0. 2. 0. 3.00000024e+00
      1. 1. 2. 1. 1. 5. 0. 2. 1. 1. 1. 1. 0. 1. 4. 0. 0. 0. 1. 2. 1. 1.
      0. 1. 0. 2. 3.00000024e+00 0. 0. 0. 1. 2. 5. 1. 4. 1.
      3.00000024e+00 3.00000024e+00 0. 1. 4. 1. 4. 2. 1. 1. 1. 2.
      3.00000024e+00 0. 2. 1. 0. 0. 2. 3.00000024e+00 1. 3.00000024e+00
      1. 2. 0. 1. 0. 3.00000024e+00 2. 0. 0. 0. 0. 2. 0. 0.
      3.00000024e+00 0. 0. 1. 1. 0. 0. 2. 1. 3.00000024e+00 0. 0. 0. 1.
      0. 5. 2. 3.00000024e+00 0. 1. 1. 3.00000024e+00 0. 1. 1. 0. 1. 4.
      2. 1. 0. 1. 1. 1. 2. 0. 0. 4. 1. 2. 1. 1. 0. 0. 2. 3.00000024e+00
      0. 5. 1. 4. 10. 2. 1. 1. 11. 1. 2. 1. 1. 2. 2. 1. 1. 4. 0. 2. 1.
      3.00000024e+00 1. 1. 2. 0. 1. 1. 0. 1. 0. 0. 1. 0. 1. 2. 0.
      6.00000048e+00 3.00000024e+00 0. 0. 2. 1. 0. 0. 6.00000048e+00 2.
      2. 0. 1. 0. 1. 0. 3.00000024e+00 2. 1. 3.00000024e+00
      3.00000024e+00 0. 4. 0. 4. 0. 0. 1. 1. 3.00000024e+00 1. 8. 1. 1.
      3.00000024e+00 1. 3.00000024e+00 2. 2. 2. 2. 5. 4. 0. 0.
      3.00000024e+00 2. 1. 1. 0. 0. 1. 1. 2. 2. 2. 0. 2. 4. 2. 2. 1. 4.
      2. 2. 1. 1. 1. 1. 0. 7.00000048e+00 0.</_>
    <_>
      2. 1. 0. 0. 0. 0. 1. 1. 0. 0. 2.99999976e+00 0. 0. 0. 0. 1. 0. 0.
      0. 0. 0. 0. 1. 0. 0. 1. 1. 0. 1. 1. 1. 0. 0. 0. 0. 0. 0. 1. 1. 0.
      0. 0. 1. 0. 2.99999976e+00 1. 0. 0. 2.99999976e+00 1. 0. 0. 0. 2.
      0. 0. 0. 0. 1. 0. 1. 2. 0. 0. 0. 0. 0. 1. 0. 0. 0. 1. 0. 0. 0. 0.
      0. 1. 0. 0. 1. 0. 0. 0. 1. 0. 0. 0. 0. 0. 0. 0. 0. 1. 1. 0. 0. 0.
      0. 0. 1. 0. 1. 0. 0. 0. 1. 0. 1. 1. 1. 0. 1. 0. 0. 0. 0. 0. 1. 0.
      0. 0. 0. 0. 0. 0. 0. 0. 0. 2. 0. 1. 2. 1. 1. 0. 1. 0. 0. 0. 1. 0.
      1. 1. 0. 0. 2. 1. 0. 0. 1. 1. 2. 0. 0. 0. 0. 0. 0. 0. 0. 0. 0. 0.
      0. 0. 1. 0. 1. 0. 1. 0. 0. 0. 0. 0. 0. 0. 0. 1. 0. 0. 0. 0. 0. 0.
      0. 0. 0. 0. 0. 0. 1. 0. 0. 0. 1. 0. 0. 0. 0. 0. 0. 0. 0. 0. 0. 0.
      0. 1. 1. 0. 1. 0. 2. 0. 0. 1. 1. 1. 0. 0. 1. 0. 0. 0. 0. 0. 2. 0.
      0. 0. 0. 2. 1. 0. 0. 1. 0. 0. 0. 0. 2. 0. 0. 2. 1. 0. 0. 0. 0. 1.
      1. 0. 0. 0. 0. 0. 0. 2. 1. 0. 0. 0. 0. 2.99999976e+00 0. 0. 1. 0.
      0. 0. 0. 1. 1. 0. 0. 1. 0. 0. 0. 1. 0. 0. 0. 0. 0. 0. 0. 1. 0. 1.
      0. 0. 0. 0. 0. 1. 1. 0. 1. 2. 0. 0. 0. 0. 1. 0. 0. 0. 1. 0. 0. 0.
      0. 0. 0. 0. 1. 0. 0. 0. 1. 0. 0. 0. 0. 2.99999976e+00 0. 1. 0. 0.
      0. 2. 0. 0. 0. 0. 0. 0. 0. 0. 0. 0. 1. 0. 0. 0. 1. 0. 0. 0. 0. 1.
      1. 0. 0. 0. 0. 0. 1. 1. 0. 1. 0. 1. 1. 0. 0. 0. 1. 2. 0. 1. 0. 1.
      0. 0. 0. 0. 1. 0. 0. 2. 0. 0. 0. 0. 0. 0. 0. 0. 0. 1. 0. 1. 0. 0.
      1. 0. 0. 0. 0. 0. 0. 0. 0. 0. 2. 0. 0. 0. 0. 0. 2. 0. 0. 0. 0. 2.
      0. 0. 0. 1. 1. 1. 0. 0. 0. 2. 0. 1. 0. 0. 0. 0. 1. 0. 0. 1. 0. 1.
      0. 2. 0. 0. 0. 0. 1. 0. 0. 0. 1. 2. 0. 0. 1. 0. 0. 0. 1. 0. 0. 0.
      0. 0. 0. 1. 0. 2. 0. 1. 2. 0. 0. 0. 0. 0. 0. 0. 0. 0. 0. 0. 1. 0.
      0. 0. 2. 2. 0. 0. 0. 0. 0. 1. 0. 0. 0. 0. 0. 0. 1. 0. 2. 0. 1. 0.
      0. 0. 0. 0. 0. 0. 1. 0. 0. 1. 0. 1. 0. 1. 0. 1. 0. 0. 0. 0. 0. 0.
      0. 0. 0. 0. 0. 0. 0. 1. 0. 1. 0. 0. 0. 0. 0. 0. 0. 0. 0. 1. 0. 0.
      0. 2. 0. 0. 0. 2. 2. 0. 1. 0. 0. 0. 0. 0. 0. 0. 0. 0. 1. 0. 0. 1.
      0. 0. 1. 0. 0. 0. 0. 0. 1. 0. 0. 0. 1. 1. 0. 0. 0. 0. 0. 1. 0. 0.
      1. 2. 0. 0. 0. 1. 1. 0. 1. 1. 0. 0. 5. 1. 0. 0. 2. 0. 0. 0. 0. 0.
      0. 0. 0. 1. 0. 0. 0. 0. 0. 1. 0. 1. 0. 0. 0. 1. 1. 2. 0. 0. 0. 0.
      0. 0. 0. 0. 0. 0. 1. 0. 0. 0. 0. 0. 1. 0. 0. 0. 2. 0. 1. 1. 1. 0.
      1. 0. 0. 0. 0. 0. 0. 0. 0. 0. 0. 0. 0. 0. 1. 0. 0. 0. 1. 0. 0. 2.
      0. 1. 0. 0. 0. 0. 0. 1. 1. 0. 2. 0. 0. 0. 0. 0. 1. 0. 0. 1. 0. 1.
      0. 2. 0. 0. 0. 1. 0. 0. 0. 0. 0. 1. 2. 2. 0. 0. 1. 0. 0. 0. 1. 0.
      0. 1. 0. 0. 1. 0. 0. 0. 0. 0. 0. 0. 0. 0. 0. 0. 0. 0. 0. 0. 1. 0.
      0. 0. 0. 0. 0. 1. 0. 0. 1. 0. 1. 0. 0. 0. 0. 0. 0. 1. 0. 0. 0. 1.
      1. 0. 0. 0. 0. 1. 1. 0. 0. 0. 0. 1. 0. 0. 0. 0. 0. 0. 0. 0. 0. 0.
      0. 2. 0. 2. 0. 0.</_>
    <_>
      3. 2. 0. 4. 1. 2. 4. 3. 1. 1. 1. 0. 2. 3. 3. 2. 3. 3. 1. 4. 0. 4.
      4. 1. 0. 1. 2. 0. 3. 4. 1. 0. 0. 0. 2. 2. 1. 2. 4. 0. 0. 1. 1. 3.
      3. 6. 0. 1. 2. 1. 0. 1. 3. 1. 2. 1. 1. 1. 1. 12. 2. 2. 2. 1. 3. 0.
      1. 2. 2. 2. 1. 1. 2. 4. 1. 0. 2. 1. 0. 0. 3. 3. 1. 1. 1. 4. 0. 6.
      3. 1. 3. 0. 0. 1. 2. 0. 2. 3. 1. 2. 2. 3. 5. 1. 3. 3. 2. 2. 0. 1.
      2. 4. 3. 0. 2. 2. 1. 2. 0. 2. 3. 3. 3. 1. 0. 1. 2. 4. 0. 0.
      7.00000048e+00 0. 2. 3. 1. 3. 0. 1. 6. 0. 0. 1. 3. 2. 0. 2. 4. 3.
      4. 1. 0. 1. 1. 0. 0. 0. 2. 2. 3. 1. 0. 2. 2. 4. 2. 1. 4. 2. 1. 3.
      1. 0. 0. 2. 3. 0. 1. 3. 2. 3. 1. 0. 2. 2. 1. 4. 1. 3. 0. 2. 4. 3.
      1. 1. 1. 4. 1. 0. 1. 0. 4. 0. 0. 0. 0. 3. 1. 1. 3. 2. 4. 1. 2. 1.
      1. 0. 0. 3. 1. 3. 0. 0. 1. 3. 0. 1. 1. 3. 4. 1. 0. 0. 1. 2. 2. 4.
      0. 2. 0. 3. 1. 1. 2. 0. 1. 0. 3. 3. 2. 0. 0. 0. 2. 1. 0. 4. 1. 1.
      2. 3. 4. 3. 1. 3. 2. 3. 2. 0. 3. 3. 1. 2. 2. 1. 1. 1. 1. 3. 3. 0.
      1. 4. 2. 3. 1. 2. 0. 2. 1. 0. 0. 2. 6. 0. 4. 4. 2. 6. 3. 1. 2. 0.
      2. 1. 0. 2. 3. 2. 4. 3. 1. 1. 2. 0. 3. 5. 7.00000048e+00 3. 1. 0.
      0. 1. 0. 2. 1. 2. 1. 1. 2. 1. 6. 1. 2. 2. 4. 1. 1. 0. 2. 2. 2. 1.
      2. 1. 2. 2. 2. 0. 1. 0. 0. 0. 3. 0. 2. 0. 0. 1. 3. 1. 2. 0. 1. 8.
      4. 2. 4. 1. 0. 6. 0. 1. 0. 1. 2. 3. 1. 0. 2. 3. 3. 0. 4. 3. 1. 0.
      1. 3. 2. 1. 0. 1. 1. 1. 3. 2. 0. 3. 2. 1. 0. 0. 0. 2. 1. 3. 1. 3.
      1. 3. 1. 1. 1. 3. 3. 1. 0. 2. 2. 2. 1. 1. 2. 5. 2. 0. 1. 1. 2. 2.
      0. 3. 0. 1. 4. 3. 1. 1. 2. 2. 0. 2. 2. 0. 0. 0. 2. 2. 3. 1. 1. 4.
      1. 1. 3. 1. 3. 1. 2. 6. 2. 1. 1.40000010e+01 0. 4. 2. 1. 2. 0. 2.
      2. 1. 3. 1. 1. 0. 1. 1. 1. 0. 2. 2. 1. 5. 2. 4. 1. 2. 0. 4. 1. 1.
      0. 2. 1. 1. 0. 2. 1. 6. 1. 4. 3. 0. 1. 3. 3. 2. 0. 2. 2. 1. 1. 2.
      3. 4. 2. 4. 6. 0. 3. 1. 2. 3. 2. 1. 0. 2. 0. 3. 2. 0. 2. 3. 2. 4.
      1. 0. 0. 0. 0. 3. 0. 10. 3. 7.00000048e+00 2. 2. 0. 2. 1. 1. 2. 1.
      2. 0. 2. 2. 5. 0. 1. 1. 3. 0. 3. 1. 1. 1. 0. 2. 1. 2. 0. 2. 3. 0.
      2. 0. 0. 1. 1. 1. 2. 1. 1. 3. 3. 0. 3. 0. 0. 2. 2. 0. 1. 2. 1. 2.
      1. 3. 0. 2. 3. 0. 0. 2. 1. 1. 1. 5. 0. 1. 3. 2. 1. 3. 2. 2. 2. 2.
      0. 2. 2. 3. 2. 0. 0. 1. 1. 2. 2. 1. 4. 1. 1. 2. 0. 0. 0. 2. 2. 1.
      2. 0. 4. 1. 2. 1. 1. 1. 5. 2. 0. 3. 2. 0. 0. 2. 1. 1. 2. 2. 1. 1.
      2. 4. 2. 0. 2. 2. 2. 0. 1. 1. 0. 2. 2. 1. 2. 1. 2. 1. 0. 2. 1. 5.
      2. 0. 3. 5. 0. 0. 4. 0. 3. 2. 0. 2. 2. 1. 1. 2. 2. 3. 3. 1. 0. 1.
      0. 1. 3. 0. 0. 0. 7.00000048e+00 5. 3. 1. 2. 2. 3. 1. 1. 5. 0. 1.
      1. 1. 5. 0. 2. 3. 2. 0. 3. 1. 0. 0. 1. 2. 0. 2. 1. 2. 1. 0. 4. 0.
      1. 2. 2. 2. 0. 1. 4. 2. 1. 2. 1. 2. 1. 1. 0. 3. 1. 1. 3. 2. 2. 1.
      1. 3. 0. 0. 0. 0. 0. 2. 3. 6. 3. 2. 0. 0. 1. 4. 1. 2. 0. 2. 1. 1.
      1. 2. 3. 1. 4. 6. 1. 2.</_>
    <_>
      1. 1. 0. 0. 1. 2. 4. 0. 3.00000024e+00 1. 0. 1. 1. 1. 2. 0. 0. 1.
      0. 0. 2. 0. 6.00000048e+00 1. 1. 1. 2. 1. 0. 4. 0. 1. 1. 2. 0. 0.
      3.00000024e+00 0. 1. 0. 0. 0. 3.00000024e+00 1. 0. 1. 0. 0. 0. 1.
      0. 2. 0. 1. 5. 1. 2. 3.00000024e+00 0. 1. 1. 0. 0. 1. 2. 1. 0. 0.
      0. 0. 1. 1. 1. 0. 1. 0. 4. 3.00000024e+00 0. 0. 0. 0. 4. 1. 0. 0.
      0. 1. 1. 1. 0. 1. 1. 1. 1. 1. 2. 2. 1. 0. 1. 0. 0. 0. 2. 2. 1. 1.
      1. 0. 0. 3.00000024e+00 0. 0. 1. 2. 0. 4. 0. 1. 0. 1. 0. 0. 0. 1.
      0. 0. 1. 0. 0. 1. 0. 1. 0. 1. 0. 1. 2. 0. 1. 2. 1. 2. 0. 0. 1. 2.
      2. 1. 1. 0. 1. 0. 0. 0. 2. 1. 1. 1. 2. 0. 3.00000024e+00 2. 2. 0.
      0. 1. 1. 0. 0. 2. 1. 1. 2. 2. 1. 1. 0. 0. 2. 0. 1. 1. 1. 0. 0. 0.
      1. 1. 0. 1. 0. 1. 1. 1. 1. 0. 3.00000024e+00 0. 1. 0. 1. 0. 1. 0.
      0. 0. 1. 1. 2. 0. 0. 0. 2. 0. 0. 5. 1. 2. 1. 2. 2. 0. 0. 0. 0. 0.
      1. 0. 2. 4. 0. 0. 1. 0. 5. 1. 1. 1. 4. 1. 0. 1. 0. 0. 1. 1. 1. 2.
      0. 2. 0. 0. 0. 1. 1. 0. 1. 2. 0. 1. 1. 1. 0. 1. 0. 1. 1. 0.
      3.00000024e+00 0. 0. 1. 1. 0. 1. 0. 0. 2. 6.00000048e+00 0. 0. 1.
      1. 1. 2. 1. 0. 2. 0. 3.00000024e+00 0. 0. 2. 0. 0. 1. 1. 1. 1. 1.
      1. 2. 4. 1. 0. 2. 2. 0. 2. 0. 3.00000024e+00 0. 2. 3.00000024e+00
      0. 0. 1. 2. 2. 0. 1. 1. 0. 2. 3.00000024e+00 1. 1. 3.00000024e+00
      1. 1. 0. 1. 4. 0. 1. 0. 0. 3.00000024e+00 3.00000024e+00 0. 0. 0.
      2. 0. 1. 0. 3.00000024e+00 1. 3.00000024e+00 0. 1. 1. 1. 2.
      3.00000024e+00 1. 1. 1. 2. 0. 1. 0. 0. 2. 1. 1. 0. 0. 1. 1. 1.
      7.00000048e+00 3.00000024e+00 1. 0. 0. 0. 0. 2. 0. 1. 1. 4. 0. 1.
      1. 0. 1. 1. 0. 0. 3.00000024e+00 1. 1. 2. 2. 2. 1. 4. 1. 0. 2. 0.
      0. 1. 4. 1. 0. 1. 0. 0. 1. 0. 1. 0. 1. 0. 0. 0. 3.00000024e+00 0.
      2. 2. 0. 4. 0. 5. 0. 2. 0. 0. 1. 0. 1. 1. 0. 1. 2. 0. 0. 1. 2. 0.
      1. 0. 0. 3.00000024e+00 1. 1. 3.00000024e+00 0. 1. 0. 0. 0. 1. 0.
      1. 1. 1. 1. 1. 2. 0. 0. 0. 0. 2. 0. 0. 1. 0. 0. 1. 1. 0. 1. 0. 1.
      0. 0. 0. 3.00000024e+00 2. 0. 1. 2. 2. 0. 1. 1. 0. 0. 2. 0. 1. 1.
      0. 2. 3.00000024e+00 0. 3.00000024e+00 1. 1. 1. 0. 0. 1. 0. 0. 2.
      0. 1. 1. 1. 2. 1. 5. 0. 2. 0. 0. 3.00000024e+00 0. 0. 1. 1. 2. 1.
      1. 1. 0. 1. 0. 4. 0. 4. 0. 0. 3.00000024e+00 5. 1. 1. 2. 0. 0. 1.
      1. 0. 0. 2. 1. 2. 4. 1. 1. 1. 0. 0. 3.00000024e+00 1. 1. 1. 1. 2.
      4. 1. 4. 0. 1. 1. 1. 2. 0. 1. 1. 0. 0. 0. 1. 1. 1. 0. 0. 0. 2. 1.
      0. 0. 1. 2. 1. 1. 2. 1. 0. 2. 3.00000024e+00 2. 2. 1. 0. 1. 1. 1.
      3.00000024e+00 0. 1. 0. 0. 4. 0. 0. 1. 0. 0. 2. 0. 1. 1. 0. 0. 2.
      0. 0. 1. 1. 0. 1. 1. 2. 1. 2. 1. 1. 2. 1. 0. 0. 1. 0. 0. 2. 0. 1.
      0. 0. 1. 0. 0. 0. 0. 0. 0. 2. 1. 1. 3.00000024e+00 0. 1.
      3.00000024e+00 2. 0. 0. 2. 0. 3.00000024e+00 0. 0. 0. 2. 0. 1.
      3.00000024e+00 0. 1. 1. 2. 0. 0. 2. 0. 1. 0. 0. 1. 1. 2. 1. 1. 1.
      0. 0. 0. 0. 0. 3.00000024e+00 0. 0. 1. 0. 1. 1. 2. 3.00000024e+00
      1. 5. 0. 0. 2. 2. 0. 1. 1. 0. 0. 1. 1. 0. 0. 4. 0. 0. 2.
      3.00000024e+00 0. 0. 1. 0. 1. 1. 1. 1. 0. 0. 1. 0. 0. 0. 2. 1. 1.
      3.00000024e+00 2. 2. 0. 1. 0. 1. 0. 1. 0. 0. 1. 0. 1. 0. 5. 0.
      3.00000024e+00 4. 1. 0. 3.00000024e+00 3.00000024e+00 1. 0. 0. 1.
      0. 3.00000024e+00 1. 0. 1. 0. 0. 0. 0. 3.00000024e+00 0. 0. 1. 1.
      3.00000024e+00 1. 3.00000024e+00 0. 0. 0. 1. 3.00000024e+00 0. 0.
      4. 0. 0. 1. 0.</_>
    <_>
      0. 0. 0. 0. 0. 0. 0. 0. 1. 1. 0. 0. 1. 2. 0. 0. 0. 0. 0. 0. 0. 0.
      0. 0. 0. 0. 0. 3. 1. 1. 1. 1. 0. 0. 0. 1. 1. 0. 1. 0. 0. 0. 0. 1.
      0. 0. 0. 0. 0. 1. 0. 0. 0. 1. 0. 0. 0. 0. 0. 0. 0. 0. 0. 0. 1. 0.
      0. 0. 0. 0. 2. 0. 0. 1. 0. 1. 1. 0. 1. 0. 3. 2. 0. 0. 0. 0. 0. 0.
      0. 0. 0. 0. 0. 0. 1. 0. 0. 0. 0. 1. 0. 0. 0. 0. 2. 0. 1. 0. 0. 0.
      0. 2. 4. 0. 0. 0. 0. 1. 2. 0. 0. 0. 0. 0. 0. 0. 0. 0. 3. 0. 0. 0.
      0. 1. 0. 0. 0. 0. 0. 0. 0. 0. 1. 1. 0. 0. 0. 2. 0. 1. 0. 0. 1. 0.
      0. 0. 1. 0. 0. 0. 0. 0. 0. 0. 0. 0. 0. 1. 1. 0. 0. 0. 0. 1. 1. 0.
      0. 2. 0. 0. 0. 2. 1. 0. 0. 0. 1. 0. 1. 3. 0. 0. 0. 0. 0. 1. 1. 0.
      0. 0. 0. 0. 0. 0. 2. 0. 0. 0. 0. 1. 0. 0. 0. 0. 1. 1. 0. 0. 0. 1.
      0. 1. 0. 0. 0. 1. 1. 0. 0. 0. 2. 0. 1. 1. 1. 0. 1. 1. 0. 0. 0. 0.
      0. 0. 0. 0. 0. 0. 0. 0. 0. 0. 0. 0. 0. 0. 0. 0. 0. 1. 1. 0. 0. 0.
      0. 1. 0. 1. 0. 0. 0. 0. 0. 0. 1. 0. 2. 0. 0. 0. 0. 1. 0. 0. 0. 0.
      0. 0. 1. 0. 1. 0. 0. 1. 0. 0. 0. 0. 1. 1. 1. 1. 2. 1. 1. 0. 0. 1.
      1. 0. 1. 3. 0. 0. 0. 0. 1. 0. 0. 2. 1. 0. 1. 2. 0. 0. 0. 0. 0. 0.
      2. 1. 0. 0. 0. 1. 0. 0. 0. 0. 0. 0. 1. 0. 1. 1. 0. 0. 0. 0. 0. 0.
      2. 1. 0. 0. 0. 1. 0. 0. 0. 0. 0. 0. 0. 1. 0. 0. 0. 0. 1. 0. 1. 0.
      0. 0. 0. 0. 0. 0. 0. 0. 0. 1. 1. 0. 0. 1. 1. 0. 0. 0. 0. 0. 1. 0.
      1. 0. 1. 0. 0. 0. 0. 0. 0. 0. 1. 1. 2. 0. 0. 0. 0. 0. 0. 1. 0. 0.
      0. 0. 0. 0. 0. 0. 0. 2. 0. 0. 0. 0. 0. 0. 0. 1. 0. 1. 0. 0. 0. 1.
      0. 0. 0. 0. 0. 1. 0. 0. 0. 1. 0. 0. 0. 1. 3. 0. 0. 0. 0. 2. 0. 2.
      4. 0. 0. 1. 0. 0. 0. 1. 0. 1. 0. 1. 1. 1. 0. 1. 0. 0. 0. 0. 0. 1.
      0. 0. 0. 0. 0. 0. 0. 1. 0. 2. 0. 1. 0. 0. 0. 0. 0. 1. 0. 0. 0. 0.
      0. 0. 0. 0. 0. 0. 2. 0. 1. 0. 3. 0. 2. 0. 0. 1. 1. 0. 0. 0. 0. 0.
      0. 0. 1. 1. 1. 5. 0. 0. 0. 1. 1. 0. 0. 1. 1. 0. 0. 0. 0. 0. 0. 0.
      1. 0. 0. 1. 0. 0. 0. 0. 0. 0. 0. 2. 1. 0. 0. 1. 0. 0. 0. 0. 0. 1.
      0. 0. 0. 0. 0. 0. 1. 0. 0. 3. 0. 1. 0. 3. 1. 1. 1. 1. 0. 0. 0. 0.
      0. 0. 1. 0. 0. 0. 0. 2. 0. 1. 0. 0. 0. 1. 0. 0. 2. 0. 0. 0. 0. 0.
      1. 2. 0. 1. 0. 1. 2. 1. 0. 0. 0. 0. 2. 0. 0. 1. 0. 0. 0. 0. 0. 2.
      0. 0. 0. 0. 0. 0. 0. 0. 1. 0. 0. 0. 0. 0. 0. 0. 0. 1. 0. 0. 1. 0.
      0. 1. 1. 1. 2. 0. 0. 0. 0. 0. 0. 0. 0. 0. 0. 0. 0. 0. 1. 2. 1. 0.
      1. 1. 4. 0. 1. 1. 0. 0. 0. 0. 0. 0. 2. 1. 1. 0. 0. 3. 0. 0. 0. 1.
      1. 0. 0. 0. 0. 0. 0. 0. 1. 0. 3. 1. 0. 1. 0. 1. 0. 1. 1. 0. 0. 0.
      1. 0. 1. 1. 1. 0. 0. 0. 1. 0. 0. 0. 1. 0. 0. 0. 0. 0. 1. 1. 0. 2.
      0. 0. 0. 0. 1. 1. 0. 1. 0. 0. 1. 1. 0. 0. 0. 1. 0. 0. 0. 0. 1. 0.
      0. 1. 1. 2. 1. 0. 0. 0. 1. 2. 0. 0. 0. 0. 1. 0. 0. 2. 2. 0. 0. 0.
      0. 0. 0. 0. 0. 1. 2. 0.</_>
    <_>
      1. 1. 0. 0. 0. 0. 1. 0. 0. 0. 2. 0. 0. 1. 0. 1. 0. 2. 0. 0. 0. 0.
      1. 0. 0. 0. 0. 1. 0. 1. 0. 0. 0. 1. 1. 0. 0. 1. 0. 0. 0. 0. 1. 0.
      2. 0. 0. 0. 0. 0. 0. 0. 0. 0. 0. 1. 1. 1. 0. 0. 2. 0. 0. 0. 0. 1.
      0. 1. 2. 0. 1. 1. 0. 0. 0. 0. 0. 1. 0. 0. 0. 0. 2. 1. 1. 1. 0. 0.
      0. 0. 0. 1. 0. 3. 2. 0. 0. 0. 0. 0. 0. 0. 0. 0. 0. 0. 0. 1. 1. 0.
      0. 0. 1. 0. 0. 0. 0. 0. 1. 0. 0. 1. 0. 1. 0. 0. 0. 0. 0. 1. 0. 0.
      0. 2. 1. 1. 0. 1. 0. 3. 0. 0. 2. 1. 0. 0. 0. 0. 1. 1. 0. 2. 0. 0.
      1. 1. 2. 0. 0. 0. 0. 0. 0. 0. 0. 0. 0. 0. 1. 0. 0. 1. 0. 0. 0. 0.
      0. 0. 0. 4. 0. 1. 0. 0. 1. 0. 0. 0. 0. 0. 0. 0. 1. 1. 1. 0. 2. 0.
      0. 0. 0. 0. 0. 0. 0. 0. 0. 1. 0. 0. 2. 1. 0. 1. 0. 0. 0. 0. 0. 0.
      0. 0. 0. 1. 0. 1. 0. 0. 1. 1. 0. 0. 3. 0. 0. 1. 1. 1. 0. 1. 0. 1.
      0. 0. 0. 3. 1. 0. 1. 1. 0. 0. 0. 0. 0. 1. 0. 1. 0. 1. 0. 0. 0. 0.
      0. 1. 0. 0. 0. 0. 1. 2. 0. 0. 0. 1. 1. 1. 0. 0. 0. 0. 0. 1. 0. 1.
      1. 0. 0. 0. 0. 0. 0. 0. 0. 3. 0. 0. 0. 0. 0. 2. 0. 0. 0. 1. 0. 1.
      0. 0. 0. 0. 0. 1. 1. 0. 0. 0. 1. 1. 1. 0. 0. 0. 0. 0. 0. 1. 1. 2.
      1. 0. 1. 1. 1. 1. 0. 0. 1. 0. 0. 0. 0. 0. 0. 0. 0. 0. 0. 0. 1. 0.
      0. 0. 0. 0. 0. 0. 2. 0. 0. 1. 1. 0. 0. 0. 0. 1. 0. 0. 3. 0. 0. 0.
      0. 0. 0. 0. 0. 1. 0. 0. 0. 0. 0. 0. 0. 0. 1. 2. 0. 1. 1. 0. 0. 0.
      0. 0. 1. 3. 0. 0. 0. 1. 0. 0. 2. 1. 3. 2. 1. 0. 2. 0. 0. 0. 2. 0.
      0. 1. 1. 0. 5.00000048e+00 2. 1. 0. 1. 0. 0. 2. 0. 0. 0. 0. 0. 1.
      0. 1. 0. 1. 0. 2. 0. 1. 1. 0. 0. 0. 0. 1. 1. 0. 0. 4. 0. 0. 1. 0.
      0. 1. 2. 0. 0. 2. 0. 0. 0. 3. 0. 0. 0. 0. 0. 0. 0. 0. 1. 0. 0. 0.
      0. 1. 0. 0. 0. 1. 0. 0. 0. 0. 1. 0. 1. 0. 0. 0. 3. 0. 1. 0. 2. 0.
      2. 2. 0. 0. 0. 0. 2. 0. 0. 2. 1. 0. 0. 0. 1. 0. 0. 0. 0. 0. 1. 0.
      1. 0. 0. 0. 0. 1. 0. 0. 0. 0. 1. 1. 0. 0. 1. 1. 0. 1. 1. 1. 0. 1.
      1. 0. 0. 1. 0. 2. 0. 0. 0. 0. 1. 0. 1. 0. 0. 0. 0. 1. 0. 0. 0. 1.
      0. 2. 0. 1. 0. 1. 0. 0. 0. 0. 0. 0. 0. 2. 0. 0. 0. 0. 0. 2. 0. 0.
      0. 1. 4. 1. 1. 1. 2. 2. 0. 0. 1. 0. 1. 0. 0. 0. 0. 0.
      5.00000048e+00 2. 0. 0. 2. 0. 0. 1. 2. 0. 1. 1. 0. 0. 0. 1. 0. 0.
      0. 1. 0. 1. 0. 1. 1. 0. 0. 0. 0. 1. 0. 0. 0. 0. 0. 0. 1. 0. 1. 0.
      0. 0. 0. 1. 1. 0. 0. 0. 0. 0. 0. 0. 0. 0. 0. 1. 2. 1. 2. 0. 0. 0.
      2. 1. 2. 1. 0. 1. 0. 0. 0. 0. 1. 1. 0. 1. 0. 2. 0. 0. 1. 2. 0. 3.
      0. 1. 1. 0. 0. 1. 1. 1. 0. 0. 0. 1. 0. 0. 1. 1. 0. 1. 0. 1. 0. 0.
      0. 0. 2. 1. 1. 3. 0. 5.00000048e+00 0. 1. 0. 0. 0. 1. 0. 0. 2. 0.
      0. 2. 0. 0. 0. 1. 2. 0. 1. 0. 0. 0. 0. 2. 0. 1. 0. 0. 0. 0. 0. 0.
      0. 0. 0. 1. 1. 0. 0. 0. 1. 2. 1. 1. 2. 0. 0. 1. 0. 0. 0. 0. 0. 0.
      0. 0. 1. 0. 1. 0. 1. 2. 1. 1. 0. 3. 0. 0. 1. 0. 0. 0. 0. 1. 0. 0.
      0. 1.</_>
    <_>
      0. 0. 0. 1. 3.00000024e+00 0. 0. 2. 2. 3.00000024e+00 0. 1. 2. 1.
      1. 1. 2. 1. 4. 3.00000024e+00 0. 3.00000024e+00 1. 1. 1. 4. 1. 2.
      3.00000024e+00 1. 0. 1. 0. 1. 1. 2. 2. 0. 2. 1. 1. 0.
      3.00000024e+00 0. 1. 0. 0. 3.00000024e+00 0. 1. 1. 0. 2. 1. 1. 0.
      3.00000024e+00 1. 3.00000024e+00 1. 1. 1. 0. 1. 0. 5. 0.
      3.00000024e+00 1. 0. 1. 1. 3.00000024e+00 2. 1. 0. 2. 1. 2. 1. 4.
      2. 0. 0. 4. 1. 2. 3.00000024e+00 1. 3.00000024e+00 1.
      3.00000024e+00 1. 1. 1. 1. 3.00000024e+00 3.00000024e+00 2. 0. 0.
      3.00000024e+00 0. 0. 0. 1. 2. 0. 0. 0. 2. 0. 2. 2. 2. 0. 1. 0. 0.
      1. 0. 2. 2. 1. 1. 1. 4. 1. 8. 0. 5. 5. 1. 0. 1. 1. 0. 0. 0. 1. 0.
      1. 0. 1. 0. 0. 5. 1. 0. 3.00000024e+00 0. 1. 0. 0. 0. 0. 0. 2. 0.
      0. 0. 1. 0. 1. 2. 0. 0. 0. 0. 1. 1. 5. 0. 3.00000024e+00 1. 1. 1.
      1. 4. 0. 1. 0. 3.00000024e+00 2. 0. 0. 0. 1. 3.00000024e+00 1.
      3.00000024e+00 1. 0. 1. 4. 1. 0. 1. 1. 2. 4. 2. 2. 2. 2. 1. 0. 2.
      2. 0. 0. 0. 1. 1. 3.00000024e+00 1. 1. 1. 2. 1. 1. 0. 0. 1. 2. 0.
      5. 1. 1. 2. 0. 0. 1. 0. 1. 0. 1. 0. 0. 0. 1. 1. 0. 2. 1. 0. 0.
      3.00000024e+00 1. 0. 0. 4. 2. 3.00000024e+00 0. 2. 2. 1. 4. 0. 2.
      0. 3.00000024e+00 3.00000024e+00 3.00000024e+00 0. 5. 0. 0. 1. 2.
      1. 1. 0. 0. 1. 3.00000024e+00 1. 0. 0. 0. 1. 1. 0. 1. 1. 0. 0. 2.
      0. 1. 0. 2. 0. 2. 1. 1. 0. 3.00000024e+00 7.00000048e+00 4. 0. 0.
      2. 1. 0. 2. 1. 0. 1. 1. 0. 0. 1. 2. 1. 0. 1. 1. 1. 0. 1. 2. 4. 2.
      0. 3.00000024e+00 0. 2. 2. 3.00000024e+00 0. 3.00000024e+00 1.
      6.00000048e+00 0. 3.00000024e+00 0. 1. 1. 2. 3.00000024e+00 1. 1.
      1. 4. 5. 2. 2. 1. 2. 1. 0. 2. 2. 0. 2. 0. 3.00000024e+00 2. 1.
      3.00000024e+00 3.00000024e+00 2. 0. 1. 2. 1. 1. 1. 1. 0. 0. 2. 2.
      1. 0. 0. 2. 1. 0. 0. 0. 0. 0. 0. 0. 2. 0. 3.00000024e+00 0. 1. 1.
      2. 0. 1. 0. 0. 2. 2. 2. 0. 2. 0. 4. 0. 0. 1. 1. 1. 0. 2. 0. 0. 0.
      4. 1. 1. 0. 2. 0. 0. 1. 0. 1. 0. 0. 0. 1. 2. 1. 1. 0.
      7.00000048e+00 0. 4. 2. 1. 4. 0. 0. 0. 2. 0. 0. 4. 1. 1. 0. 1. 1.
      0. 0. 1. 3.00000024e+00 0. 0. 2. 2. 0. 0. 1. 1. 1. 2. 2. 0. 0. 1.
      0. 0. 1. 0. 1. 4. 2. 1. 1. 0. 4. 1. 2. 0. 4. 0. 3.00000024e+00 0.
      0. 1. 0. 4. 2. 1. 0. 0. 1. 3.00000024e+00 0. 2. 2. 2. 0. 0. 0. 0.
      2. 1. 1. 3.00000024e+00 3.00000024e+00 0. 0. 1. 6.00000048e+00 0.
      2. 1. 1. 2. 1. 2. 0. 0. 0. 5. 0. 1. 8. 0. 1. 0. 0. 2. 1.
      3.00000024e+00 3.00000024e+00 1. 0. 0. 0. 0. 0. 2. 0.
      3.00000024e+00 1. 0. 1. 0. 2. 2. 0. 0. 2. 1. 4. 1. 0. 0. 1.
      3.00000024e+00 0. 1. 3.00000024e+00 1. 2. 1. 0. 3.00000024e+00
      3.00000024e+00 1. 0. 1. 0. 2. 0. 4. 1. 1. 1. 2. 4. 0. 0. 0. 4. 1.
      0. 2. 0. 0. 1. 0. 3.00000024e+00 0. 0. 2. 2. 3.00000024e+00 2. 0.
      0. 2. 2. 2. 0. 1. 3.00000024e+00 1. 2. 1. 2. 0. 0. 3.00000024e+00
      0. 0. 6.00000048e+00 0. 0. 0. 0. 2. 1. 2. 1. 5. 0. 0.
      3.00000024e+00 1. 1. 3.00000024e+00 1. 0. 0. 2. 4. 1. 1. 1. 1. 4.
      1. 1. 0. 0. 4. 4. 2. 1. 0. 2. 1. 2. 0. 0. 0. 0. 0. 1.
      3.00000024e+00 0. 2. 0. 0. 3.00000024e+00 2. 4. 0. 0. 0. 2. 0. 0.
      0. 0. 1. 0. 0. 1. 4. 3.00000024e+00 0. 3.00000024e+00 1. 0. 0. 2.
      1. 0. 0. 1. 0. 1. 1. 1. 2. 1. 3.00000024e+00 1. 0. 0. 0. 4. 1. 0.
      1. 0. 0. 3.00000024e+00 0. 2. 4. 0. 1. 2. 1. 1. 4. 0. 1. 0. 0. 2.
      1. 1. 1. 0. 3.00000024e+00 0. 2. 2. 1. 0. 0. 2. 0. 1. 0. 0. 0. 1.
      0. 6.00000048e+00 0. 0. 2. 0. 1. 0. 0. 0. 4. 0. 3.00000024e+00 1.
      1. 2. 0. 0. 1. 6.00000048e+00 0. 0. 2. 0. 1. 0. 1. 3.00000024e+00
      0. 2. 7.00000048e+00 2. 7.00000048e+00 0. 1. 0. 3.00000024e+00
      3.00000024e+00 0. 5. 0. 0. 2. 1. 1. 0. 3.00000024e+00 2.
      3.00000024e+00 0. 2. 0. 0. 1. 1. 1. 0.</_>
    <_>
      0. 0. 0. 0. 1. 0. 0. 1. 0. 0. 0. 0. 0. 0. 0. 0. 0. 0. 0. 0. 0. 0.
      0. 0. 1. 0. 0. 0. 0. 0. 0. 0. 0. 1. 0. 0. 0. 0. 0. 0. 0. 0. 0. 2.
      1. 2. 1. 1. 0. 0. 0. 0. 1. 0. 0. 0. 0. 0. 0. 0. 1. 0. 0. 0. 0. 0.
      0. 1. 0. 0. 0. 0. 0. 0. 0. 0. 0. 0. 0. 0. 0. 0. 0. 0. 0. 0. 0. 0.
      0. 1. 2. 0. 0. 0. 0. 0. 0. 1. 0. 0. 0. 0. 0. 0. 0. 0. 0. 0. 1. 0.
      0. 0. 0. 0. 0. 1. 0. 0. 0. 0. 0. 0. 1. 0. 1. 0. 0. 0. 0. 0. 0. 0.
      0. 1. 0. 0. 0. 0. 0. 0. 1. 0. 0. 0. 0. 1. 1. 0. 0. 0. 0. 0. 1. 0.
      0. 0. 0. 0. 0. 2. 0. 0. 0. 0. 0. 0. 0. 0. 1. 0. 0. 0. 0. 1. 0. 0.
      0. 0. 1. 0. 1. 1. 0. 0. 0. 1. 0. 0. 0. 0. 0. 0. 1. 0. 1. 1. 0. 0.
      0. 0. 0. 0. 0. 0. 0. 1. 0. 0. 0. 0. 1. 0. 0. 0. 0. 0. 0. 0. 0. 0.
      0. 0. 0. 0. 0. 1. 0. 0. 0. 0. 0. 1. 1. 0. 0. 0. 0. 0. 0. 0. 0. 0.
      1. 0. 0. 0. 0. 0. 1. 0. 0. 1. 1. 1. 0. 0. 0. 0. 0. 0. 0. 0. 0. 1.
      0. 0. 0. 0. 0. 0. 0. 0. 0. 0. 0. 0. 0. 0. 1. 0. 1. 0. 0. 0. 0. 0.
      1. 0. 0. 0. 0. 0. 0. 0. 2. 0. 0. 0. 0. 0. 1. 0. 0. 0. 0. 0. 0. 0.
      0. 0. 0. 1. 0. 0. 1. 0. 0. 0. 0. 0. 0. 0. 0. 0. 0. 1. 0. 0. 0. 0.
      0. 1. 0. 0. 0. 0. 1. 0. 0. 0. 0. 1. 0. 0. 0. 1. 0. 0. 1. 0. 0. 0.
      0. 0. 0. 0. 0. 0. 0. 0. 0. 0. 1. 0. 1. 0. 0. 0. 1. 0. 0. 0. 0. 0.
      0. 1. 0. 0. 0. 0. 0. 0. 0. 1. 0. 0. 0. 0. 0. 0. 0. 0. 0. 1. 0. 0.
      0. 0. 0. 0. 0. 0. 0. 0. 0. 0. 0. 0. 0. 0. 0. 0. 0. 0. 0. 0. 0. 0.
      0. 0. 0. 0. 0. 1. 0. 0. 0. 0. 0. 1. 0. 0. 0. 1. 0. 1. 0. 0. 0. 0.
      0. 0. 0. 2. 0. 3. 0. 0. 0. 0. 0. 0. 0. 1. 1. 0. 0. 0. 0. 0. 0. 1.
      0. 0. 0. 0. 0. 0. 0. 0. 0. 1. 1. 0. 0. 0. 0. 0. 0. 0. 1. 0. 0. 0.
      0. 0. 0. 0. 0. 0. 0. 0. 0. 0. 1. 0. 0. 0. 0. 0. 0. 0. 1. 0. 0. 0.
      0. 0. 0. 0. 0. 1. 0. 0. 0. 0. 0. 1. 1. 0. 0. 0. 1. 0. 0. 0. 0. 0.
      1. 2. 0. 1. 0. 0. 0. 0. 0. 0. 1. 0. 0. 0. 1. 0. 0. 0. 0. 0. 1. 0.
      0. 0. 0. 0. 0. 0. 0. 0. 0. 0. 0. 0. 1. 0. 1. 0. 0. 1. 0. 0. 1. 1.
      0. 0. 0. 0. 0. 0. 0. 0. 1. 0. 0. 0. 0. 0. 0. 0. 0. 0. 0. 0. 0. 0.
      0. 0. 1. 0. 0. 0. 0. 0. 0. 1. 0. 0. 0. 0. 1. 1. 0. 0. 0. 0. 0. 0.
      1. 1. 0. 0. 0. 0. 0. 0. 0. 0. 0. 0. 0. 0. 1. 0. 0. 0. 0. 0. 0. 0.
      0. 0. 0. 0. 0. 0. 1. 0. 1. 0. 0. 0. 1. 0. 1. 0. 0. 0. 0. 0. 0. 0.
      0. 0. 0. 0. 0. 0. 0. 0. 0. 0. 0. 0. 1. 0. 0. 0. 0. 1. 0. 1. 0. 0.
      2. 0. 0. 0. 0. 0. 0. 1. 0. 0. 0. 0. 0. 1. 0. 0. 1. 0. 0. 0. 0. 0.
      0. 1. 3. 0. 0. 1. 1. 0. 0. 0. 0. 0. 1. 0. 1. 0. 0. 0. 0. 0. 0. 0.
      1. 0. 0. 0. 0. 0. 0. 0. 0. 0. 0. 0. 1. 0. 0. 0. 0. 0. 0. 1. 0. 0.
      0. 0. 0. 1. 1. 0. 0. 0. 0. 0. 0. 1. 0. 0. 0. 0. 0. 0. 0. 0. 1. 0.
      0. 1. 0. 0. 0. 0. 0. 0. 0. 0. 0. 0. 0. 0. 1. 0. 0. 0. 0. 0. 0. 0.
      0. 0. 0. 1. 0. 0. 0. 0.</_>
    <_>
      0. 1. 0. 1. 0. 0. 0. 0. 0. 0. 0. 1. 0. 0. 0. 0. 0. 0. 0. 1. 0. 0.
      0. 0. 0. 0. 0. 0. 0. 0. 1. 0. 0. 1. 0. 0. 0. 1. 0. 1. 0. 0. 1. 0.
      1. 0. 0. 0. 0. 1. 0. 0. 0. 0. 0. 0. 0. 0. 1. 0. 0. 0. 0. 0. 0. 1.
      0. 0. 0. 0. 0. 0. 2. 0. 0. 0. 1. 0. 0. 0. 0. 1. 0. 0. 0. 0. 0. 0.
      1. 0. 0. 0. 0. 0. 0. 0. 1. 0. 0. 0. 0. 0. 0. 0. 0. 0. 2. 0. 0. 0.
      0. 0. 1. 0. 0. 0. 1. 0. 0. 0. 0. 0. 0. 0. 0. 1. 2. 0. 0. 0. 0. 0.
      0. 14. 0. 0. 0. 1. 0. 0. 0. 1. 1. 0. 0. 0. 0. 0. 0. 0. 0. 0. 0. 0.
      0. 0. 0. 0. 0. 0. 0. 1. 0. 0. 0. 0. 0. 0. 0. 1. 0. 0. 0. 0. 0. 1.
      0. 0. 0. 0. 0. 0. 0. 0. 0. 0. 1. 0. 0. 0. 0. 0. 0. 0. 1. 0. 0. 1.
      0. 0. 0. 0. 0. 0. 0. 0. 0. 0. 0. 0. 1. 0. 0. 0. 0. 0. 1. 1. 0. 0.
      0. 0. 0. 1. 0. 2. 0. 0. 0. 0. 0. 0. 0. 0. 0. 0. 0. 0. 0. 0. 1. 0.
      0. 0. 0. 0. 0. 0. 0. 0. 0. 1. 0. 0. 0. 0. 0. 0. 0. 0. 0. 1. 0. 0.
      0. 0. 0. 0. 0. 0. 0. 1. 0. 0. 1. 0. 0. 0. 0. 0. 1. 1. 0. 1. 0. 0.
      0. 0. 0. 0. 0. 0. 0. 0. 0. 2. 0. 1. 0. 0. 0. 0. 0. 1. 0. 0. 0. 0.
      0. 0. 0. 1. 1. 0. 0. 0. 0. 0. 0. 0. 0. 0. 0. 0. 0. 0. 0. 0. 0. 0.
      0. 0. 0. 0. 0. 0. 0. 0. 2. 0. 0. 0. 0. 0. 0. 0. 0. 0. 0. 0. 0. 0.
      0. 0. 0. 0. 0. 0. 0. 0. 0. 0. 1. 2. 0. 0. 0. 0. 0. 0. 0. 1. 0. 0.
      1. 0. 0. 0. 0. 0. 1. 0. 0. 0. 0. 1. 0. 0. 0. 0. 0. 0. 0. 0. 0. 0.
      0. 0. 1. 0. 0. 0. 1. 0. 0. 0. 1. 0. 0. 0. 0. 1. 0. 0. 0. 0. 0. 0.
      0. 0. 0. 1. 0. 2. 0. 2. 0. 0. 0. 0. 0. 0. 0. 0. 0. 0. 0. 0. 0. 0.
      0. 0. 0. 2. 0. 4. 1. 0. 1. 0. 1. 0. 0. 0. 0. 0. 0. 0. 0. 0. 0. 0.
      0. 0. 0. 2. 0. 0. 0. 0. 0. 0. 0. 0. 0. 1. 0. 0. 0. 0. 0. 1. 2. 0.
      0. 0. 0. 0. 0. 0. 0. 0. 0. 0. 0. 0. 0. 0. 0. 0. 1. 0. 1. 0. 0. 0.
      2. 1. 0. 0. 0. 0. 1. 0. 0. 0. 0. 0. 0. 0. 0. 0. 0. 0. 0. 0. 0. 1.
      0. 0. 0. 0. 1. 0. 1. 0. 1. 0. 0. 0. 0. 0. 0. 0. 0. 0. 0. 0. 0. 0.
      0. 1. 0. 0. 0. 0. 0. 0. 0. 0. 0. 0. 0. 0. 0. 1. 0. 0. 0. 0. 0. 0.
      0. 0. 0. 0. 0. 0. 0. 0. 0. 0. 0. 0. 0. 0. 0. 0. 0. 0. 0. 0. 0. 0.
      0. 0. 3. 2. 0. 0. 0. 0. 0. 0. 0. 0. 1. 0. 4. 0. 0. 0. 0. 0. 0. 0.
      0. 0. 0. 0. 1. 1. 0. 0. 0. 0. 0. 1. 0. 0. 1. 0. 0. 0. 0. 0. 0. 0.
      0. 0. 0. 1. 0. 0. 0. 1. 0. 0. 0. 0. 0. 0. 1. 0. 0. 0. 0. 0. 0. 0.
      2. 1. 0. 0. 1. 0. 0. 0. 0. 1. 0. 1. 0. 0. 0. 1. 0. 0. 0. 0. 0. 0.
      0. 0. 0. 0. 0. 0. 0. 0. 1. 0. 0. 0. 0. 0. 0. 0. 0. 1. 0. 0. 0. 1.
      0. 0. 0. 0. 0. 0. 0. 0. 0. 0. 0. 0. 0. 1. 0. 0. 0. 1. 0. 0. 1. 0.
      1. 0. 0. 0. 0. 0. 1. 0. 0. 0. 1. 0. 0. 0. 1. 0. 0. 0. 1. 1. 0. 0.
      0. 0. 0. 0. 0. 0. 0. 0. 0. 1. 0. 0. 1. 0. 0. 0. 1. 0. 0. 1. 0. 0.
      0. 1. 0. 1. 0. 1. 0. 1. 0. 0. 1. 0. 0. 0. 1. 0. 0. 0. 0. 0. 1. 0.
      0. 0. 0. 0. 1. 0. 0. 0.</_>
    <_>
      1. 2. 0. 0. 0. 1. 0. 0. 1. 0. 1. 0. 0. 0. 0. 0. 0. 1. 0. 2. 0. 1.
      1. 1. 0. 0. 0. 0. 2. 1. 1. 1. 0. 0. 1. 2. 0. 2. 0. 1. 0. 0. 1. 0.
      2. 2. 0. 1. 0. 1. 2. 2. 1. 0. 0. 0. 0. 0. 1. 1. 0. 1. 1. 1. 1. 1.
      0. 0. 0. 0. 3. 0. 0. 1. 1. 0. 1. 1. 1. 0. 0. 1. 0. 1. 1. 0. 0. 0.
      0. 2. 1. 0. 2. 1. 0. 0. 0. 1. 0. 0. 0. 0. 0. 0. 0. 1. 0. 1. 2. 0.
      0. 1. 0. 0. 2. 1. 1. 2. 0. 0. 2. 0. 0. 0. 1. 0. 0. 1. 0. 1. 0. 0.
      1. 0. 0. 0. 0. 1. 0. 2. 1. 1. 1. 1. 0. 0. 1. 1. 1. 0. 0. 0. 0. 1.
      0. 1. 0. 2. 0. 2. 0. 1. 0. 1. 1. 0. 1. 1. 0. 0. 1. 0. 2. 0. 1. 0.
      0. 0. 1. 0. 1. 0. 0. 2. 0. 0. 0. 0. 0. 0. 0. 3. 1. 0. 0. 0. 0. 0.
      0. 0. 0. 0. 0. 0. 0. 0. 2. 0. 0. 0. 0. 2. 0. 1. 0. 0. 0. 2. 1. 0.
      0. 2. 0. 0. 0. 0. 2. 0. 0. 0. 0. 0. 0. 0. 2. 0. 1. 1. 0. 1. 1. 0.
      1. 0. 1. 2. 0. 0. 0. 0. 0. 0. 1. 0. 2. 3. 1. 2. 0. 2. 3. 0. 0. 1.
      0. 0. 2. 0. 0. 1. 0. 0. 0. 0. 1. 0. 2. 0. 3. 1. 0. 0. 0. 0. 0. 1.
      1. 1. 0. 1. 2. 0. 0. 4. 0. 0. 0. 0. 1. 0. 0. 0. 0. 0. 0. 1. 0. 0.
      2. 1. 0. 0. 2. 1. 0. 0. 0. 0. 0. 0. 0. 0. 1. 0. 0. 0. 2. 1. 0. 1.
      0. 0. 0. 0. 2. 0. 0. 0. 2. 0. 0. 1. 1. 2. 1. 0. 0. 0. 1. 0. 1. 1.
      1. 1. 1. 0. 0. 0. 1. 0. 2. 0. 1. 0. 1. 0. 0. 0. 3. 0. 0. 0. 0. 1.
      0. 0. 0. 0. 1. 0. 0. 0. 0. 1. 1. 1. 1. 0. 0. 0. 0. 1. 0. 0. 0. 0.
      1. 0. 0. 0. 0. 0. 3. 2. 1. 0. 0. 1. 1. 0. 0. 0. 1. 0. 0. 0. 1. 1.
      0. 1. 0. 0. 0. 0. 0. 1. 3. 0. 0. 0. 1. 1. 0. 0. 3. 0. 0. 0. 0. 1.
      0. 0. 0. 3. 1. 1. 0. 1. 0. 0. 0. 2. 0. 1. 0. 0. 2. 0. 0. 1. 2. 3.
      0. 0. 2. 0. 0. 0. 0. 0. 0. 1. 1. 1. 2. 1. 0. 0. 1. 0. 0. 0. 0. 0.
      0. 1. 1. 0. 2. 0. 1. 0. 0. 3. 1. 1. 0. 0. 1. 0. 1. 0. 3. 3. 0. 0.
      0. 2. 0. 2. 0. 0. 1. 0. 0. 1. 1. 0. 0. 0. 0. 0. 0. 1. 1. 0. 0. 0.
      2. 0. 1. 0. 0. 0. 1. 0. 3. 1. 0. 0. 0. 0. 0. 0. 0. 1. 0. 0. 0. 0.
      0. 0. 1. 0. 0. 0. 1. 1. 1. 1. 0. 0. 1. 0. 2. 2. 0. 0. 0. 1. 0. 1.
      2. 2. 0. 1. 0. 1. 0. 1. 0. 0. 2. 0. 1. 1. 1. 0. 1. 0. 0. 0. 2. 0.
      1. 2. 0. 0. 1. 2. 1. 1. 0. 1. 0. 2. 0. 0. 0. 0. 1. 0. 0. 0. 0. 0.
      1. 1. 0. 0. 0. 0. 0. 0. 0. 1. 0. 0. 1. 1. 0. 0. 1. 0. 1. 0. 2. 0.
      0. 1. 0. 0. 0. 1. 0. 0. 0. 1. 0. 0. 0. 0. 0. 0. 0. 1. 1. 2. 1. 1.
      0. 1. 0. 0. 1. 1. 0. 0. 0. 1. 0. 0. 1. 0. 0. 0. 1. 1. 0. 0. 0. 0.
      1. 0. 0. 0. 0. 2. 0. 1. 0. 4. 0. 0. 0. 3. 0. 0. 2. 0. 0. 1. 0. 2.
      0. 0. 1. 1. 1. 1. 0. 0. 1. 2. 0. 1. 1. 1. 0. 2. 0. 1. 1. 1. 0. 0.
      0. 2. 0. 0. 0. 0. 1. 0. 0. 0. 1. 2. 0. 1. 0. 0. 1. 0. 0. 3. 2. 1.
      1. 0. 0. 0. 2. 1. 0. 0. 2. 2. 1. 0. 2. 1. 3. 0. 1. 1. 0. 0. 2. 2.
      0. 1. 0. 0. 0. 0. 0. 0. 0. 0. 0. 1. 1. 0. 1. 1. 0. 0. 1. 0. 0. 0.
      0. 0. 0. 1. 2. 0. 0. 0.</_>
    <_>
      0. 0. 0. 0. 0. 1. 2. 0. 0. 2. 0. 0. 1. 0. 0. 0. 1. 0. 0. 1. 0. 0.
      0. 0. 0. 0. 2. 1. 0. 0. 0. 0. 0. 0. 0. 0. 0. 1. 0. 0. 0. 0. 1. 0.
      1. 0. 0. 0. 1. 1. 1. 0. 0. 2. 1. 2. 1. 0. 0. 0. 1. 1. 0. 0. 0. 1.
      0. 1. 1. 0. 2. 0. 1. 0. 0. 0. 1. 0. 0. 1. 1. 0. 0. 0. 0. 0. 0. 0.
      0. 0. 1. 0. 0. 0. 0. 1. 0. 0. 0. 0. 1. 0. 0. 0. 0. 1. 0. 1. 0. 0.
      0. 0. 0. 0. 0. 0. 1. 0. 0. 0. 0. 1. 0. 0. 0. 0. 0. 0. 0. 0. 0. 0.
      0. 4. 2. 0. 0. 2. 1. 0. 0. 1. 0. 0. 0. 0. 1. 1. 0. 0. 1. 1. 0. 2.
      0. 2. 1. 1. 1. 1. 0. 0. 1. 1. 0. 0. 0. 0. 0. 0. 0. 0. 0. 2. 0. 0.
      1. 1. 0. 0. 0. 1. 0. 0. 0. 1. 1. 0. 0. 0. 0. 0. 0. 0. 0. 0. 0. 1.
      0. 0. 0. 0. 0. 1. 0. 1. 0. 0. 0. 0. 0. 0. 2. 1. 0. 0. 0. 0. 2. 2.
      1. 0. 0. 0. 0. 1. 0. 1. 0. 0. 0. 2. 0. 0. 0. 0. 0. 0. 0. 0. 0. 1.
      0. 1. 0. 1. 0. 0. 1. 0. 0. 1. 0. 0. 0. 0. 0. 0. 0. 0. 0. 0. 0. 0.
      0. 0. 1. 0. 0. 0. 0. 0. 0. 0. 0. 0. 0. 0. 0. 0. 0. 0. 0. 0. 0. 1.
      1. 0. 0. 1. 0. 0. 1. 0. 0. 0. 0. 0. 0. 1. 0. 0. 0. 1. 0. 0. 1. 0.
      0. 1. 0. 0. 1. 1. 1. 1. 0. 0. 1. 1. 1. 1. 0. 0. 0. 0. 0. 0. 1. 0.
      0. 0. 0. 5. 0. 1. 0. 0. 1. 1. 1. 0. 0. 0. 1. 0. 0. 0. 0. 0. 0. 1.
      0. 1. 0. 0. 0. 0. 0. 0. 1. 2. 1. 0. 1. 0. 1. 1. 3. 0. 0. 1. 0. 0.
      0. 0. 0. 0. 0. 0. 0. 0. 2. 1. 1. 1. 0. 0. 0. 0. 0. 0. 0. 0. 1. 0.
      0. 0. 0. 0. 0. 0. 0. 0. 0. 1. 0. 1. 0. 0. 1. 0. 0. 2. 0. 1. 0. 1.
      0. 0. 0. 0. 0. 0. 2. 1. 0. 0. 2. 2. 0. 0. 0. 1. 0. 0. 0. 0. 0. 2.
      0. 0. 1. 1. 0. 1. 2. 0. 0. 0. 1. 0. 1. 1. 0. 0. 1. 0. 0. 0. 0. 1.
      0. 1. 0. 0. 0. 2. 0. 0. 0. 0. 0. 0. 0. 1. 0. 0. 1. 0. 2. 0. 1. 0.
      0. 0. 2. 0. 0. 0. 0. 0. 1. 0. 1. 1. 0. 0. 0. 0. 0. 0. 0. 0. 1. 0.
      1. 0. 2. 0. 0. 0. 0. 0. 1. 0. 1. 0. 0. 0. 0. 1. 0. 1. 0. 3. 0. 0.
      1. 0. 0. 0. 0. 1. 1. 0. 0. 2. 0. 0. 0. 2. 0. 0. 0. 0. 0. 0. 0. 0.
      0. 0. 1. 2. 0. 0. 1. 1. 0. 0. 1. 0. 2. 0. 0. 0. 0. 0. 0. 0. 1. 1.
      0. 0. 2. 0. 0. 1. 2. 0. 0. 0. 0. 1. 0. 0. 0. 1. 0. 0. 0. 0. 1. 0.
      0. 0. 0. 0. 1. 0. 0. 0. 1. 1. 0. 0. 0. 0. 1. 1. 0. 0. 1. 0. 0. 0.
      0. 0. 0. 1. 0. 0. 0. 0. 2. 0. 0. 0. 0. 0. 1. 1. 0. 0. 0. 0. 0. 1.
      0. 0. 0. 0. 1. 0. 0. 0. 0. 0. 0. 0. 0. 1. 0. 0. 1. 0. 0. 0. 1. 0.
      0. 0. 1. 1. 1. 0. 0. 1. 0. 1. 1. 0. 0. 0. 0. 1. 0. 2. 0. 2. 1. 0.
      1. 0. 1. 0. 0. 0. 1. 0. 1. 0. 0. 0. 1. 0. 0. 0. 1. 0. 0. 1. 0. 0.
      2. 0. 0. 0. 0. 0. 0. 1. 0. 0. 0. 0. 1. 0. 0. 1. 0. 0. 1. 0. 0. 1.
      0. 0. 0. 1. 1. 0. 0. 0. 0. 1. 0. 0. 0. 0. 0. 0. 0. 0. 0. 1. 0. 1.
      0. 1. 3. 0. 0. 0. 0. 0. 0. 1. 0. 1. 2. 0. 1. 0. 0. 0. 1. 0. 0. 0.
      0. 1. 1. 0. 0. 1. 0. 4. 1. 0. 1. 1. 1. 1. 0. 0. 1. 1. 0. 0. 0. 1.
      1. 0. 0. 0. 0. 1. 0. 0.</_>
    <_>
      0. 1. 1. 0. 0. 0. 0. 2. 0. 0. 1. 0. 1. 4. 0. 0. 0. 2. 0. 0. 0. 2.
      0. 1. 1. 0. 2. 0. 0. 6.00000048e+00 2. 0. 0. 0. 1. 0. 0. 1. 0. 0.
      0. 0. 0. 2. 1. 1. 0. 1. 0. 1. 3.00000024e+00 1. 3.00000024e+00 0.
      1. 0. 0. 2. 2. 0. 0. 0. 1. 0. 2. 1. 0. 1. 3.00000024e+00 0. 0. 1.
      2. 1. 0. 0. 2. 0. 0. 0. 0. 0. 0. 2. 1. 0. 0. 0. 1. 1. 0. 0. 0. 1.
      0. 0. 1. 1. 0. 0. 0. 0. 0. 2. 2. 0. 0. 0. 1. 0. 1. 6.00000048e+00
      0. 1. 1. 0. 0. 1. 1. 0. 1. 0. 2. 0. 2. 0. 1. 2. 0. 0. 0. 0.
      3.00000024e+00 0. 0. 0. 0. 0. 0. 1. 0. 2. 0. 2. 1. 0. 1. 1. 0. 1.
      0. 0. 1. 0. 1. 1. 1. 0. 1. 1. 0. 1. 0. 0. 1. 0. 3.00000024e+00 0.
      0. 1. 0. 0. 2. 0. 1. 0. 0. 0. 1. 2. 0. 2. 0. 0. 0. 2. 2. 0. 0. 1.
      0. 0. 1. 0. 1. 0. 0. 1. 0. 0. 1. 1. 2. 0. 2. 1. 0. 2. 0. 1. 2. 2.
      0. 2. 0. 0. 1. 1. 0. 4. 0. 0. 0. 0. 0. 0. 0. 0. 1. 2. 2. 0. 1. 0.
      1. 0. 0. 2. 0. 0. 1. 1. 0. 0. 0. 0. 1. 0. 1. 0. 1. 1. 1. 0. 0. 0.
      2. 0. 1. 3.00000024e+00 1. 0. 1. 0. 1. 1. 1. 0. 0. 3.00000024e+00
      0. 0. 0. 0. 0. 1. 0. 0. 0. 1. 1. 0. 1. 0. 0. 0. 0. 2. 0. 1. 0. 1.
      0. 2. 0. 1. 0. 1. 0. 0. 1. 3.00000024e+00 3.00000024e+00 0. 0. 1.
      2. 0. 0. 0. 0. 1. 0. 2. 0. 0. 5.00000048e+00 0. 0. 1. 1. 0. 1. 0.
      0. 0. 0. 0. 0. 1. 1. 1. 0. 2. 1. 0. 0. 3.00000024e+00 0. 0. 0. 0.
      1. 1. 3.00000024e+00 0. 1. 0. 1. 0. 2. 0. 0. 1. 0. 0. 0. 0. 1. 0.
      1. 0. 0. 0. 0. 1. 1. 0. 1. 0. 2. 0. 0. 1. 0. 0. 0. 0. 1. 0. 0. 0.
      0. 0. 0. 0. 2. 0. 0. 1. 1. 0. 0. 1. 3.00000024e+00 2. 0. 1. 1. 0.
      0. 0. 0. 0. 0. 0. 1. 0. 0. 0. 0. 0. 1. 1. 1. 0. 1. 0. 1. 0. 0. 1.
      0. 1. 0. 1. 1. 0. 2. 1. 0. 3.00000024e+00 0. 3.00000024e+00 2. 0.
      0. 1. 0. 0. 0. 1. 0. 2. 0. 0. 0. 2. 1. 0. 1. 0. 1. 1. 0. 0. 1. 1.
      0. 0. 3.00000024e+00 0. 0. 0. 0. 2. 1. 0. 0. 0. 2. 1. 0. 0. 1. 1.
      0. 2. 3.00000024e+00 1. 0. 1. 0. 0. 0. 1. 0. 1. 1. 1. 0. 1. 1. 0.
      1. 3.00000024e+00 0. 1. 1. 2. 0. 0. 1. 1. 0. 1. 0. 1. 1. 0. 0. 1.
      2. 0. 1. 2. 0. 1. 0. 1. 1. 1. 0. 0. 0. 0. 1. 0. 1. 2. 0. 2. 1. 0.
      0. 0. 1. 1. 1. 0. 0. 0. 1. 0. 0. 0. 0. 1. 0. 0. 0. 0. 4. 2. 1. 1.
      0. 0. 1. 1. 0. 1. 0. 0. 1. 3.00000024e+00 0. 1. 0. 0. 0. 0. 0. 0.
      2. 0. 0. 0. 0. 2. 1. 2. 0. 0. 2. 0. 1. 1. 1. 0. 0. 1. 1.
      3.00000024e+00 0. 0. 0. 3.00000024e+00 1. 0. 0. 1. 1. 1. 0. 2. 0.
      1. 1. 0. 0. 0. 1. 1. 1. 3.00000024e+00 0. 0. 1. 1. 1. 0. 2. 0. 0.
      0. 0. 0. 1. 1. 1. 0. 1. 0. 0. 1. 0. 1. 2. 2. 0. 0. 0. 1. 0. 1. 0.
      0. 1. 0. 0. 0. 1. 0. 0. 0. 0. 1. 0. 1. 0. 0. 0. 3.00000024e+00 0.
      1. 1. 0. 1. 0. 2. 0. 1. 1. 1. 1. 1. 0. 0. 1. 0. 0. 1. 0. 0. 0. 0.
      0. 0. 1. 0. 4. 1. 0. 0. 2. 0. 0. 1. 2. 0. 0. 0. 1. 0. 1. 0. 1. 0.
      0. 0. 0. 1. 0. 1. 0. 0. 0. 0. 0. 1. 1. 0. 3.00000024e+00 0. 2. 0.
      0. 0. 0. 1. 0. 0. 0. 0. 0. 1. 0. 0. 0. 0. 0. 0. 0. 0. 0.
      3.00000024e+00 1. 0. 0. 1. 2. 0. 1. 2. 1. 0. 0. 0. 0. 2. 0. 0. 1.
      0. 2. 0. 0. 0. 0. 0. 0. 1. 0. 0. 1. 0. 2. 1. 0. 0. 0. 0. 0. 1. 1.
      0. 1. 0. 0. 1. 0. 0. 0. 1. 3.00000024e+00 0. 2. 0. 0.</_>
    <_>
      0. 0. 5. 0. 1. 0. 1. 1. 3. 1. 2. 21. 1. 7. 1. 3. 3. 0. 3. 2. 1. 7.
      0. 5. 2. 0. 1. 10. 13. 4. 0. 4. 1. 2. 0. 0. 1. 0. 7. 2. 3. 0. 1.
      2. 2. 1. 1. 2. 3. 1. 0. 0. 10. 2. 1. 0. 1. 1. 0. 5. 0. 0. 1. 2. 2.
      0. 2. 0. 0. 2. 2. 0. 0. 2. 1. 0. 3. 0. 0. 1. 2. 2. 0. 4. 2. 1. 3.
      2. 1. 5. 5. 0. 3. 4. 0. 0. 1. 0. 3. 0. 0. 0. 2. 1. 3. 3. 2. 0. 3.
      0. 1. 5. 2. 3. 9. 0. 3. 1. 0. 3. 2. 0. 2. 4. 14. 0. 1. 1. 3. 11.
      1. 1. 3. 5. 1. 2. 6. 2. 1. 4. 1. 0. 1. 1. 7. 0. 2. 1. 3. 5. 2. 1.
      1. 1. 10. 1. 3. 1. 1. 1. 3. 1. 0. 3. 0. 5. 1. 2. 2. 5. 7. 0. 2. 3.
      2. 0. 0. 0. 4. 3. 1. 4. 0. 0. 0. 1. 0. 2. 0. 2. 0. 2. 2. 2. 0. 0.
      0. 0. 4. 37. 4. 3. 8. 0. 3. 3. 1. 3. 2. 0. 3. 6. 1. 1. 4. 0. 0. 5.
      3. 3. 1. 2. 5. 0. 5. 0. 1. 0. 1. 5. 3. 1. 1. 2. 0. 0. 1. 0. 5. 2.
      4. 0. 2. 3. 0. 1. 4. 1. 1. 1. 9. 0. 2. 4. 1. 0. 2. 0. 2. 4. 4. 2.
      0. 0. 1. 3. 0. 0. 2. 18. 2. 2. 3. 0. 4. 7. 0. 2. 2. 2. 1. 10. 2.
      3. 1. 3. 1. 0. 1. 5. 0. 2. 0. 2. 0. 1. 1. 3. 1. 1. 2. 1. 3. 0. 2.
      1. 1. 0. 3. 0. 4. 5. 1. 2. 2. 1. 9. 1. 2. 3. 3. 0. 1. 3. 6. 1. 1.
      0. 1. 1. 2. 1. 3. 1. 3. 0. 0. 16. 6. 2. 0. 4. 1. 1. 3. 0. 2. 0. 3.
      0. 0. 3. 6. 1. 2. 1. 1. 3. 0. 0. 2. 0. 2. 0. 0. 3. 1. 0. 1. 7. 4.
      1. 5. 4. 3. 0. 4. 2. 1. 7. 1. 5. 0. 1. 3. 3. 1. 1. 11. 1. 1. 1. 0.
      1. 0. 1. 2. 4. 2. 3. 2. 9. 1. 2. 0. 1. 0. 2. 2. 1. 2. 1. 16. 3. 3.
      1. 0. 1. 6. 2. 6. 5. 2. 3. 1. 1. 0. 6. 1. 0. 9. 5. 0. 1. 3. 0. 0.
      1. 2. 1. 1.49999990e+01 2. 1. 0. 3. 3. 2. 3. 4. 0. 2. 1. 1. 0. 4.
      8. 4. 5. 0. 5. 2. 0. 1. 1. 6. 4. 8. 4. 1. 2. 0. 0. 1. 4. 3. 3. 1.
      0. 6. 0. 2. 0. 0. 0. 0. 2. 2. 2. 2. 1. 0. 1. 0. 0. 0. 0. 3. 6. 2.
      1.49999990e+01 0. 2. 0. 0. 1. 5. 0. 0. 0. 2. 3. 1. 2. 0. 3. 0. 1.
      0. 5. 4. 7. 3. 2. 2. 1. 1. 4. 1. 0. 1. 5. 3. 0. 9. 0. 2. 2. 4. 5.
      3. 7. 2. 1. 5. 0. 1. 0. 3. 0. 1. 1. 3. 2. 1. 2. 0. 0. 1. 2. 1. 0.
      0. 1. 3. 0. 2. 2. 0. 0. 3. 2. 2. 5. 4. 0. 4. 0. 1. 1. 6. 1. 6. 2.
      3. 0. 0. 3. 0. 4. 3. 5. 1. 0. 0. 0. 1. 6. 1. 2. 5. 4. 0. 0. 2. 1.
      1. 4. 0. 2. 3. 0. 2. 3. 2. 0. 2. 0. 2. 1. 1. 1. 0. 2. 1. 1. 0. 0.
      2. 3. 4. 2. 0. 2. 1. 3. 1. 0. 1. 4. 14. 2. 0. 0. 2. 2. 5. 1. 1. 6.
      0. 1. 3. 0. 1. 0. 1. 1. 2. 1. 2. 0. 1. 2. 3. 0. 6. 0. 1. 2. 2. 1.
      3. 6. 1. 0. 2. 3. 2. 4. 1. 2. 4. 1. 2. 2. 3. 5. 1. 2. 6. 5. 1. 21.
      1. 1. 16. 1. 2. 1. 3. 0. 3. 7. 2. 3. 0. 2. 2. 1. 1. 0. 3. 3. 4.
      10. 5. 0. 0. 1. 1. 5. 1. 3. 7. 1. 2. 0. 3. 3. 0. 6. 2. 1. 1. 4. 4.
      4. 8. 0. 4. 0. 0. 1. 2. 2. 1. 1. 1. 0. 2. 0. 5. 3. 0. 0. 0. 2. 1.
      1. 0. 1. 1. 1. 1. 0. 3. 3. 0. 1. 1. 3. 0. 1. 2. 0. 0. 4. 0. 2. 0.
      3. 2. 0. 4. 2. 2. 2. 4. 1. 0. 1. 0. 1. 5. 1. 2. 5. 0. 2. 0.</_>
    <_>
      4. 1. 1. 1. 2. 0. 3. 2. 0. 2. 1. 1. 0. 14. 4. 3. 3. 2. 1. 6. 3. 2.
      2. 3. 1. 3. 6. 1. 2. 0. 1. 2. 3. 1. 3. 1. 2. 1. 1. 1. 1. 0. 0. 3.
      0. 0. 4.99999952e+00 0. 1. 3. 9. 2. 3. 1. 0. 0. 1. 0. 1. 3.
      4.99999952e+00 0. 2. 0. 0. 2. 4.99999952e+00 0. 1. 3. 1. 0. 3. 1.
      0. 1. 0. 1. 3. 0. 3. 1. 2. 0. 4.99999952e+00 3. 2. 2. 1.
      4.99999952e+00 2. 1. 3. 3. 1. 1. 0. 2. 0. 1. 3. 1. 1. 3. 2. 2. 1.
      2. 0. 2. 1. 4. 4. 6. 18. 0. 2. 2. 2. 2. 1. 2. 2. 1. 4. 1. 4. 1. 2.
      2. 4.99999952e+00 2. 0. 4.99999952e+00 2. 2. 2. 1. 0. 1. 0. 1. 2.
      0. 0. 2. 0. 2. 3. 3. 1. 2. 1. 1. 4.99999952e+00 2. 3. 2. 1. 0. 2.
      1. 3. 2. 1. 2. 0. 1. 3. 7. 1. 1. 1. 1. 4.99999952e+00 2. 4. 0. 2.
      2. 0. 1. 1. 3. 0. 3. 0. 0. 2. 4. 4. 0. 3. 1. 1. 2. 0. 4. 1. 2. 2.
      2. 1. 0. 3. 0. 4. 4. 1. 1. 2. 3. 4. 0. 1. 3. 2. 1. 0. 3. 1.
      4.99999952e+00 2. 1. 1. 4. 2. 1. 0. 7. 4. 1. 1. 0. 4.99999952e+00
      1. 1. 1. 2. 4.99999952e+00 2. 0. 1. 0. 0. 4. 4.99999952e+00 2. 1.
      3. 0. 3. 1. 1. 0. 3. 3. 0. 2. 3. 6. 2. 1. 4.99999952e+00 0. 3. 0.
      0. 0. 4. 1. 1. 1. 2. 2. 2. 3. 1. 0. 0. 1. 0. 0. 3. 1. 1. 1. 2. 0.
      1. 3. 1. 0. 1. 0. 3. 4.99999952e+00 1. 1. 0. 3. 1. 1. 0. 2. 0. 4.
      1. 1. 7. 1. 4.99999952e+00 2. 1. 1. 3. 4. 2. 1. 3. 4.99999952e+00
